0.11201292,0.0075593963,0.11741393,0.0815816,-0.011478617,0.002377204,-0.016342,0.120414875,0.08465169,-0.03308224,0.08312716,0.016255088,-0.10255221,0.011826736000000001,0.005678779,0.11022365,-0.12994072,0.03945935,0.031359818,0.09290521,-0.10530016,-0.050161607999999996,-0.0045107976,0.069447584,-0.027221127999999997,-0.099989556,-0.11230250000000001,-0.12692806,-0.020203372,0.018732462,0.085355364,-0.09488017,-0.08161385,-0.061984535,-0.00972232,-0.12707207,0.11417538,-0.12877253,0.019648433,-0.06973038,-0.08125519,-0.082033336,0.050103385,-0.058494512,-0.0091128675,0.027806547999999997,-0.04884175,-0.0030700690000000004,-0.06355935,-0.09077726,0.047888417,-0.13390923,0.11268552,0.0015033337,0.006390676,-0.027564349,0.026408851,0.07576609,0.031616814,-0.06806815,0.093635865,-0.12699278,-0.017091146,-0.1321126,0.014340037,-0.07261271,0.124724075,-0.045416273,0.0886658,-0.16297139,-0.04313743,0.011848372,0.05360674,0.028577289,0.096524574,0.0009695252499999999,-0.016690852,-0.043913315999999994,-0.05076524,0.08074391,0.0648498,-0.021663147999999997,0.093771845,0.041570928,0.052258085,0.02993345,-0.030443134,-0.011334311000000001,0.15615578,0.023685267000000003,-0.07666989,0.026364101,-0.02953916,0.055701934,-0.10131341,-0.099717,-0.038088314,0.036427565,-0.110836595,-0.024814216,-0.095216885,-0.05082883,0.036540665,0.083795115,-0.11150959,0.042982534,0.07085119999999999,-0.030340945,0.06930048,0.014664323,0.14527679999999998,-0.049178455,-0.010939237,-0.018281288,0.08136386400000001,0.011853118999999999,-0.03239423,0.078709565,0.11552113,0.0021188075,0.058015283,-0.014713313,0.06073129,-0.094249435,-0.13113473,-0.02916977,0.053723678,-0.106523454
0.089995466,-0.031055193,0.07775011,0.09710726,0.058016807000000004,0.025021997999999997,-0.08472774,0.13229766,-0.014754695,0.09870683,-0.059768543,0.014923688999999999,-0.14318243,-0.026082741,-0.031469963,-0.0948842,-0.091052964,-0.022506839,-0.077467546,-0.09679962,0.02926779,-0.13394634,0.10702565,-0.055548507999999996,0.10036543,-0.062918164,-0.042700622,0.01869408,0.021474912999999998,-0.067152105,0.018848973999999998,-0.0414273,0.06444251,0.006642965,0.14047173,0.07194003,-0.067873195,-0.07298061,-0.038904402000000005,-0.0458995,0.13677715,-0.045563575,-0.046072355999999995,-0.063520625,0.037544105,-0.0452811,0.07122769999999999,-0.045612272,-0.022052877000000002,-0.03647098,0.050622817,-0.034628145,0.07807891,0.11721004,0.13496807,0.05539879,-0.08333958,-0.07528233,-0.14452475,-0.060165394000000004,-0.019219618,0.036386676,0.067511454,-0.037658207,0.01987929,0.07002848,-0.04532855,-0.031735223,0.030266458,-0.040055018,0.09160534,0.10179702,-0.05637625,0.10761904,0.09573082599999999,0.00862408,0.013360911999999999,0.11197634,-0.0800076,0.060676325,0.11219501,0.07266401,-0.03921148,-0.0052201967,-0.10251367,0.057686675,0.064830735,0.08310883,0.048061524,-0.039615963,-0.10178391,-0.046952914000000005,0.09343096599999999,0.059376936,0.12918863,0.041243874,-0.056597155,-0.008696933,0.008018977,-0.058513694000000005,-0.029243362999999998,-0.08300153,-0.01163749,0.048907854,0.0068285028000000005,0.10094396,-0.053041595999999996,0.054978993,0.01862278,0.05686209,-0.11141319599999999,-0.023814425,-0.03247792,0.10096583,0.0018111642000000002,0.02035277,0.01589245,-0.003664125,-0.19196075,-0.08227947,-0.09357603,0.008423423000000001,-0.051440183,0.053865604000000004,0.028008768,-0.037297506,-0.09416033,0.09456592
0.0046087770000000005,-0.07471252,-0.07508285,-0.089176714,-0.0011267979,-0.10163567,0.04285272,0.0012334605,-0.12719266,0.023455357000000003,-0.06916349,0.074915886,-0.107741185,-0.06273559,0.023674376,-0.026646817000000003,0.029314292999999998,-0.15111321,-0.059335797999999995,-0.09462185,-0.069553114,-0.009617246,-0.04265331,-0.06934167,0.033350057999999995,-0.08336110000000001,0.11523030000000001,-0.07259023,0.055330582,-0.0015315220000000002,0.043628506,-0.073428445,-0.027515285,-0.0012300352,0.111253984,0.023655195,0.11237202,-0.048187945,0.05467592,0.07449267,0.19560209,-0.03430835,0.12503803,0.09678254,0.042377766,0.07967882,0.14300565,0.006911820999999999,0.14797871,-0.007484965,-0.035945915,0.008520289,0.001411635,0.0939181,0.12392249,0.12326581,0.07135192,0.034918655,-0.043849375,0.09856224,-0.061358842999999996,-0.097117245,0.0072837216,-0.05597333,0.16368157,0.07332625,0.056375537,0.08917896,0.093548134,0.027163265,0.038625922,0.098971985,-0.021006199,0.027533619,0.025306012000000003,-0.011686841000000002,0.005777733,0.034615908,-0.037100274,-0.008165595999999999,0.0011162402,0.09573023,0.06571303,0.06247695,0.043131555999999995,0.026822368,-0.050689343,-0.048969615,-0.04175818,0.102202475,0.114813924,0.044038337000000004,0.122671895,-0.0029917408,0.05077442,0.09688894,-0.0840883,0.047867957999999995,-0.036853936000000004,0.122550175,-0.0804092,0.013311753,0.09241899,0.10618873,-0.029700287000000002,-0.012303459,0.031612296,-0.056083005,0.20085202,0.08573172,-0.08162825,0.009317848,-0.0718704,0.045129597,-0.047967125,-0.083676204,-0.009442977,0.04952255,-0.1553371,0.013583597,0.004717565,0.06326168,0.06860444,-0.022370222999999998,0.047174037,0.02846432,-0.060424417,-0.006041998000000001
-0.011648987,0.084374234,0.036247786000000004,0.0453598,-0.038375158,0.12317675,-0.03650485,-0.04874367,-0.005968130699999999,-0.029363547,-0.07217184,-0.12795319,0.039633363,-0.13087910000000003,0.01867928,-0.0049135755,0.014830591,-0.04943616,0.1305114,0.046714645,0.08217602,-0.00902967,-0.030205113999999998,-0.08319903,-0.045276646,-0.030637436,-0.05751131,-0.07380605,0.06345932,-0.010632504,-0.03719747,0.08178064,-0.0053719943,0.095146514,0.055080708,0.040358156,-0.098024346,0.069300465,-0.016942412,0.057057958,0.022354266,-0.07852823,0.09551918,0.008329073000000001,0.15157595,0.024415474,-0.029222785,0.021430884,-0.056953948,0.005521366999999999,0.11353482,-0.0047833215999999994,-0.07950891,0.107854895,0.009215982,0.09195667,-0.096172124,0.08782005,-0.041920707,0.12772577,-0.08367694,-0.07630001,-0.086602814,0.037467587999999996,0.10293954599999999,-0.042032405999999994,-0.015617995,0.0648165,0.018616153,0.005642849,-0.0034434532,0.04145519,-0.036678895,-0.061490763,-0.04496946,-0.06407912,-0.07342702,-0.016903156000000003,-0.10268959,0.046711724,-0.036227524,-0.037584584,-0.07859372,0.07371461,-0.013944383000000001,0.0634481,-0.0045449673,0.025363052,-0.07731591,0.060005005,0.002601718,0.051140795999999995,0.097201094,-0.076716475,0.15443109,0.07107687,-0.00901105,-0.007257072,-0.040440723,-0.040241234,0.04012591,0.02028549,0.15120044,0.055634095999999994,0.038589302,-0.014095596,0.04076945,-0.03936693,-0.035803277,-0.018899433,-0.0696849,0.019101346,-0.05677218,-0.035073195,-0.12674516,0.06958614,0.083670445,-0.067680806,-0.0853202,0.004027378,0.036044043,0.11169765,0.04327031,-0.10963319999999999,0.0118562095,-0.08892103,-0.108630456,0.090515666
0.06567249,-0.027113902999999998,0.09029778,-0.047300275,-0.046411492,0.063608766,0.009308948000000001,0.08483123,0.109213,0.08481081,-0.046567943,0.08214515,0.059668608,0.058887605,-0.1422086,-0.02768913,0.04783118,-0.0076682506999999995,-0.10265099999999999,0.081557,-0.010752433999999998,-0.06504534,0.01732294,-0.0033075858000000003,0.023219237,-0.08513374,0.03602184,-0.11834419,-0.04648926,-0.117932804,0.035055485,-0.08296289,0.09384857,-0.07825686,0.07674989,0.027985264,-0.05133762,-0.08313549,0.036838282,0.044698800000000004,-0.037393145,-0.066075094,0.10348160599999999,0.05805083,-0.058147874,0.005761975,-0.038551148,-0.06872963,0.056026556,0.018844338000000002,0.014149288000000001,-0.056554887000000005,0.10284219,0.008685096,0.009727141,-0.08980826,0.10685707,0.03360896,0.04778227,0.03778403,0.029246967000000002,0.10394709,0.031231197999999998,-0.013917714,-0.050222494000000006,-0.059673662999999995,0.017787838,0.09477684,0.072781235,-0.09500722,0.0015230387,0.04052693,0.019036142,-0.041377224,-0.071714796,-0.107169695,-0.07698200000000001,-0.034146033,0.10053833599999999,-0.120203756,0.06908159,-0.15161698,-0.04082363,-0.01226187,0.08768464,-0.11148713,-0.04697008,0.015987596,0.06525594,-0.01782507,0.0732887,0.073879465,0.040141787000000005,-0.0516178,-0.14178391,0.027459592,-0.08492034,-0.061191275999999996,0.07494789,0.05538419,0.091401644,0.05596273400000001,-0.093828335,-0.10731019,-0.030954175,-0.15219817,0.020444432,0.09651642,-0.08468458,0.06806873,0.035927188,-0.04071443,-0.022995407000000002,0.024567372999999997,0.075730145,-0.053216316,-0.087235555,0.026614169,0.13474911,-0.065124184,-0.05787762,0.095203966,0.050128754000000005,-0.004198521,-0.11531187,-0.10418112,0.045107435,-0.094833136
0.053769853,-0.06480197,0.09260896,-0.08704933,0.08757812,0.02443066,-0.071374536,-0.054406895999999996,-0.03535055,-0.07896798,0.06297330599999999,0.0042583197,-0.031231811,0.14306262,0.024560357,0.13751687,0.07419033,0.052026138,0.08092922,0.06923347,-0.041932296,0.10031917,-0.04937663,-0.03349792,0.014505193999999999,-0.092216946,-0.009315122,-0.07132311,-0.077522516,-0.036762007,-0.00033650958,-0.08051901,0.0029468474,-0.050073516,0.008525429000000001,-0.007852879,-0.07244723,0.023556398,-0.08075209,0.019885466,0.01339019,0.04445689,-0.069259115,-0.032570545,-0.040388174,-0.033900900000000005,0.07026458,0.027076287,0.0747081,-0.08680414,0.10045784,0.15318626,0.07945417,0.008535463,0.09900679400000001,-0.058790166,0.07421358,0.017504737,-0.019259272,0.11450749,0.040087662999999996,0.02559993,0.08253897,-0.02495091,0.022451974,-0.0727965,-0.05339821,0.07707899,-0.008351228,0.065154634,-0.0051129553,-0.032863434,-0.033027027,-0.031386807999999995,0.096916676,0.042472534000000006,-0.108289324,-0.020233564,0.008738688,0.06754303,0.009101051,-0.03735525,0.059865758,0.07570612,-0.051917585999999995,0.03668761,0.06268536,-0.0055009230000000004,-0.063564315,0.028646396,-0.12892963,0.09009318,-0.08059069,-0.035390668,0.075404406,0.013852738,0.093646914,-0.052625686,0.082869634,-0.061299752,0.02467693,-0.06069351,-0.016301872,0.008605813,0.09990588,0.12347718,0.034104865,0.057137735,-0.07030254,0.10363353,-0.075385235,0.11186961,0.06597631400000001,-0.032210827000000004,0.035107337,0.08680176,0.056293335,-0.060565814,-0.109580845,0.046076998,-0.04782462,-0.06369056,-0.13198793,0.060001355,-0.11248802,0.024075324,0.08327187,0.030280022
0.101423025,-0.018634932,0.08826118,0.057566013,-0.08098232,0.15800339,0.062233157000000004,0.04027681,-0.12513576,-0.07378689,-0.07604961,0.12126609,-0.018724667,-0.05355457,0.07074407,0.10756884,-0.036843475,-0.013230556999999999,-0.030428136,0.013673005,-0.072397634,0.0946831,-0.11925266,-0.006716962,0.033098206,-0.06619919,0.084158935,-0.03838567,-0.09510179,0.04683213,0.04772307,-0.015596741,-0.03822817,0.12566441,0.033389587000000005,-0.030441617999999997,-0.05151793,-0.020994646000000002,0.044623576,-0.11802635,0.09740014400000001,0.10568415,0.06434958,-0.0043164096,-0.0262366,0.061574425999999995,0.04670382,0.06384121,-0.13788204,0.052411158,-0.10203124599999999,-0.081642985,0.066938154,-0.111596085,-0.0181017,-0.03919002,-0.090200074,0.00022012817000000002,0.08877789999999999,-0.15772092,0.05921682,-0.021602778,-0.052090842000000005,-0.12625225,-0.11680749,-0.06578642,-0.044147215999999996,-0.01088786,0.020342395,-0.0052169687,-0.053826574,-0.07212378,0.041904546,-0.10678384,-0.010211491,0.04294297,0.16686432,-0.02040274,0.073899865,0.06772784,-0.066922665,0.049203500000000004,0.08044192,0.012012718,0.018886723,0.05609482,0.060046323,0.016642662,-0.08440439400000001,-0.04637917,0.07018804599999999,-0.08009445,0.14654234,-0.030944886,0.0132913375,0.031575184,-0.13203620000000002,0.043781564,0.008357479000000001,-0.06750241,0.12981121,-0.08329346,-0.09309775,-0.029540833,-0.08202412,-0.15277444,-0.008357481,-0.07019656,0.028421536,0.007475540500000001,0.08719315400000001,-0.0028305333,-0.08968495,-0.06100244,-0.08777563,-0.082417205,0.048659667000000004,0.0063074045,0.089690104,0.058808632,0.102834605,0.08668386,0.013667391000000001,-0.02941375,-0.04916976,-0.06093368,-0.13427587,0.03132905
0.12061352,0.052739937,0.018031808,0.081216305,-0.058584462999999996,0.04441003,-0.09281856599999999,0.008661806999999999,0.02525827,0.01364932,-0.097380325,-0.026302557,-0.100778095,-0.08225428,0.07910232,-0.13770424,-0.022792837000000003,-0.10803716,-0.027283357,-0.011786936000000001,-0.039899893,-0.081905745,0.010791773000000001,-0.09245539,0.053587813,-0.07853883,0.075990535,0.023666155,-0.06089399400000001,0.057051286,0.01170145,0.08109716,-0.05217762,-0.046992913,0.06559462,-0.11033222,-0.057403177,-0.07769707,0.008025713,0.02371354,-0.077198885,0.007970915,-0.046708862999999996,0.04129416,-0.026457828,-0.11128622,-0.10530696,-0.028022852,-0.0038982555,0.03758315,-0.06686210000000001,-0.079092704,0.09536274,0.06866860000000001,-0.10269539999999999,0.06949675,0.07806151,-0.022405386,-0.08309636,-0.09609011,0.06719521,0.046230400000000005,0.093250655,-0.10936176,-0.1545417,-0.09631349,0.005526016999999999,-0.091389835,0.012136755,-0.002588211,-0.10223456,0.058869775,-0.035057622999999996,-0.13143307,-0.069488354,0.003057999,0.02551996,-0.06590709,-0.022902027000000002,0.06427711,-0.13600796,-0.012513586,-0.036521673,-0.11283256,-0.0376441,-0.13879909,-0.13685133,-0.03357543,-0.03446344,-0.11107208,-0.005708331,-0.05199645,-0.052132852,-0.09260051,-0.12310936,-0.1421846,-0.012254544,-0.018496818999999998,0.03157089,-0.03943645,0.09299450000000001,-0.045268107,0.07242419,-0.08126739,-0.024351569,-0.005404099399999999,0.10295369,-0.08992745,0.033984095,-0.07710814,-0.055522274,-0.0673415,-0.102250576,-0.114710614,-0.015870582,0.03257885,-0.060404695999999994,-0.10415216,0.11727874,-0.06462446599999999,0.09674293,-0.10801658,0.030112737999999997,0.05125786,0.0075895065,-0.049113422999999996,-0.069703,-0.033751182000000005
-0.08659034,0.09932956,-0.0015594823000000002,0.0016220422,0.02814772,0.05768197,-0.11889606,0.05543496,-0.09381989,-0.0047955187,0.062170144000000004,0.086349756,-0.06896352,-0.018023508,-0.105105415,0.06359918,-0.023275992000000002,-0.006695713000000001,0.046211895,-0.11110097,-0.10044838,-0.054433018,-0.12339496,0.068119,-0.06452897,0.040590405,0.067122705,-0.10388154,0.067442074,0.036773767,-0.0071784058,-0.03896833,-0.05691192,-0.02175041,-0.07134977,0.010932968000000001,-0.08694269,-0.08678381,0.066478156,-0.030932201,0.027168803,-0.031215124,-0.07123420400000001,-0.045318372999999995,-0.0702032,-0.030253371,-0.01026754,-0.08905105,-0.09850265,-0.032816842,0.006599708,-0.023170782,0.009262673,-0.0326854,-0.054762382000000005,-0.022686473999999998,0.0064201113,0.061270893,-0.05516888599999999,-0.038441192,-0.07230884,0.043095805,0.106329605,0.00453451,-0.10852748,-0.015723558000000002,0.0012222597,-0.07919204,0.07190929,-0.14503211,-0.10699615,-0.100309044,0.11984169,0.054900914,-0.057506572,-0.022921103999999998,0.03677851,-0.07910199,-0.12675604,0.019292103,-0.1443172,-0.11749031,0.05505438,-0.008015882,-0.08202203,0.04510342,-0.032860123,0.055634703,-0.021141585,0.058138434,0.08213835,-0.045393206,0.046251144,0.08310152,-0.05630227,0.05112928,-0.041143265,-0.08372203,-0.019575626000000002,-0.05908383,-0.006065216,-0.08431461,-0.14470170000000002,0.0772535,-0.11269567,0.049808905,0.11278043,0.059748907000000004,0.0082513215,-0.09134444,0.03412187,-0.009001585999999999,0.007482903000000001,-0.1197499,0.061449513,-0.07832114400000001,0.035297155,-0.08223847,0.007505333,-0.09881498,0.06709884,-0.103339665,-0.09800589,0.06264044,0.04948411,-0.046434205,0.0002164568,0.061666433
0.09560677,0.10963256,3.576812e-05,0.025084175,0.17555924,0.08007271,0.15374851,0.018873425,0.12120963,0.18993233,0.023274323,0.085713476,-0.1957786,0.03139506,-0.16663957,0.13105354,-0.16100374,-0.03316526,-0.10012080000000001,0.04132941,-0.07355049,-0.004550804,-0.07074192,-0.04509433,-0.13301729,0.012015224,0.009228112,-0.11685302,-0.09446944,-0.032853253,-0.0031898096000000003,-0.08688889,0.046472024,-0.08751768,0.023652112000000003,-0.05893075,0.03694966,-0.008210618000000001,-0.02605688,0.06529679,0.043521295999999994,-0.05911507,-0.048363502999999995,0.08041019,0.14212206,0.06463901,-0.05881331,-0.017043871999999998,-0.097100474,0.0749034,0.058560055,-0.054947603,-0.095645145,0.06307175,0.040204972,-0.08177967,-0.06969803,0.02768181,0.13523974,-0.021154575,0.050255655999999996,0.06500444,-0.07283711400000001,-0.04294778,0.13412881,0.054642458,0.019895416000000003,-0.09820119,-0.011709075,0.10856683,-0.023932504,0.009932485,0.0052777375,-0.03376947,-0.022323996000000002,-0.026076162000000003,-0.03928599,0.15190084,-0.014651734,-0.099952914,-0.004622732,0.11567830000000001,-0.05619852,-0.06376050400000001,0.007478134,-0.08140606,0.085664846,0.12114379,-0.0009590116699999999,-0.051622245,0.047554877,-0.09817916,-0.016025517,-0.07818975,-0.07492141,0.09678364,0.12182423,-0.01114835,-0.12730524,0.032294698,0.08853898,0.093919605,0.043625045999999994,-0.09707176,0.034881584,-0.049005296,0.05966342,0.009542784,-0.018116105,0.102137126,-0.029513372000000003,0.06630232,-0.016971048,0.013909448,-0.14048511,0.14152889,-0.10030878,0.03143747,-0.10341248,0.020006523000000002,-0.076933056,0.09701768,0.0532778,-0.0067303213,-0.00391564,0.06511144,0.09099824,0.08824061
-0.11953399,-0.027477058,0.055332642,-0.009796395,0.0017070192000000002,-0.10086818,0.060443092000000004,-0.07667602,0.011827283000000001,-0.07026373,-0.07862024,-0.058270007,-0.14838609,-0.04786339,-0.1339139,-0.02129313,0.04934307,0.047619198,0.07823523,0.04585667,0.076846644,-0.109724775,-0.07825367,-0.11100403,-0.08708008,-0.12838876,0.086808145,0.0024828396,0.052973043,-0.10256556,0.0038664740000000004,-0.014246578000000001,-0.06502639,-0.12925512,-0.05043065,-0.063583374,0.104565375,-0.08356364,0.10382309599999999,-0.10226589,0.042221642999999996,-0.07810703,0.16215797,-0.05848321,0.1284645,0.0583881,-0.031467926,-0.031925134,0.12679565,-0.07764756,0.09881943,-0.0071871947,0.023210326,-0.08801056,0.09600299999999999,-0.0925686,-0.014880214,0.026188765,0.0028884406,0.105860494,0.08702656,0.056114792999999996,-0.0589119,0.07348258,0.14780626,0.04944602,-0.02069125,-0.02132456,-0.003447242,0.115149885,0.0059964195999999996,0.06626782,0.07746089,0.04062013,-0.035326555,-0.05923185,-0.09772013,0.045323413,-0.016628562,0.099407814,0.08349888,-0.0008047424,0.046974737,0.05986923,0.047666217999999996,0.008347402,0.13259912,0.11893158,-0.07948319599999999,0.07457746,0.007108255799999999,0.043774575,-0.11397830000000002,-0.056942265,0.12020392,-0.041717800000000006,-0.01104488,0.039465167,0.04005547,-0.020737253,-0.053170367999999996,0.038514525,0.077681184,0.043644253,-0.043375492,0.14885877,-0.04910293599999999,-0.054929856,-0.010038441,0.022615539,0.051666893,0.093785375,0.13882229,0.0842061,-0.08738015,0.11240219,0.08845539,-0.057636045,0.021464642000000003,-0.012724088,-0.040269546,-0.089685366,-0.05350133,0.058896597,-0.12075974,0.074888825,-0.03883503,0.015305747
-0.058217797,0.014799501999999999,-0.105360694,-0.09097205,0.06383173,-0.04198093,0.06946273,-0.03317563,0.04136705,0.006967579000000001,-0.10398698599999999,0.015566076000000002,-0.12667482,-0.0015901310999999999,0.043690857,-0.09706104,0.035116743,-0.071894005,0.03307481,-0.10098863,-0.0070277816000000005,-0.13522127,0.039114702,-0.053878300000000004,0.12800463,-0.04083329,-0.042833477,-0.10611499,0.14830883,0.021729305,-0.012331687,0.008419807,0.041071996,-0.0032690628000000004,0.11586213,-0.057149004,0.117349654,-0.09225453,0.08234133,0.06945816,-0.0697418,-0.089879796,-0.012644415,-0.08586651,0.090272576,0.05513006,-0.011112018999999999,0.01958923,0.019931633,-0.12551399,0.06832065400000001,0.08765215,0.077739306,0.029523612999999997,-0.0087182615,-0.04879346,0.09179131,-0.09779994,0.09480920400000001,-0.06622582,-0.08392751,0.018556336,-0.100662425,0.09888209,0.15622005,-0.029452452,0.030165484,-0.032108437000000004,0.009470738000000001,0.10006923,-0.023275059,-0.09110599999999999,0.08501462,-0.06572399,-0.043128148,-0.011117726999999999,0.14690934,0.12484465,-0.055352733,-0.042129445999999994,-0.018416367,0.02133561,-0.11291708,-0.0065459665,0.05332338,-0.09068021,0.03673621,-0.043240543,0.028481247,-0.06105748,-0.060606457,0.05311905,0.05582308,0.06548124,0.08013996,0.039816853,0.14564162,0.065011375,0.076898605,0.08268533,0.14645661,0.06256959599999999,-0.057587888,-0.05625747,-0.070966065,0.052610777000000004,-0.008272754,-0.0052336506,-0.0706706,-0.051146302000000005,0.095123604,-0.06356183,-0.02222215,-0.003503307,0.076582156,-0.02478505,0.023453921000000003,0.024058726000000002,0.04786449,0.07987311,-0.03716542,-0.030225372,-0.045396738,-0.059753302,0.038042016,0.07881012,-0.106255114,0.049283907
0.066185065,0.044782724,-0.03414491,0.015469213,-0.051454388,-0.007869229,0.115741074,-0.08516862,0.102863684,-0.04514294,0.010185043000000001,-0.015151066999999999,-0.018133888,0.06395265,-0.054953985,0.08616891,-0.023692052999999998,0.013255656999999999,-0.07364516,0.07700683,0.06157512,0.09685222,0.018188858000000002,-0.048069064,-0.08607341,0.022462975,-0.07679574,-0.08947076,-0.035319607999999995,-0.04208021,-0.0036605329999999997,-0.086916246,0.033262997999999995,-0.07350385,-0.13383657,0.017294219,-0.07736192,0.020378564,-0.07164494,-0.086681224,-0.00102732,-0.109411806,-0.019857092,0.019264458,0.038368873,-0.13231349,-0.040752124,-0.07256726,0.02023609,0.027389822999999997,-0.06357681,0.06794136,0.04258672,-0.09283166,-0.06525559,0.10659046,0.078502044,-0.09174451,0.123352066,-0.013539856999999999,0.008137808,-0.105227455,-0.10995743,-0.08874363,-0.038018826,0.05059767,-0.046896864,-0.037532058,0.018632196,-0.13728686,0.06464946,-0.037470426,-0.012635873,-0.12455792,-0.044808785999999996,0.025565075,0.087068856,-0.005304945,0.05559356,0.022872876,-0.03627562,0.03772326,0.06682989,-0.063538484,-0.059699338,0.05124146,-0.07506841,0.04288279,0.08569263,-0.051806025,0.09465082,-0.030684272000000002,-0.08303662,-0.01855608,-0.11761819,-0.107316405,-0.10993359,0.05334338,0.013978227,-0.032725684,0.024564799,-0.10265618,0.04276159400000001,-0.09124742400000001,-0.12451906,-0.03075585,-0.021192457999999997,-0.106695265,-0.11733339999999998,0.021033326,0.110042356,-0.022747034,-0.04414927,-0.07602506,0.028452346,0.050083025999999996,-0.019256264,-0.11189504,0.0074509564,-0.0014631310000000001,-0.03420162,0.027616309,0.09935953,-0.029391992999999998,-0.067700185,0.02152732,0.033353742,0.090577036
-0.009682194,-0.11598068,0.012500305,-0.04107523,0.047719035,-0.08809739999999999,0.09242778,0.08928412,0.07139203,0.10196905,0.015367366,-0.06705064,0.06863964,-0.036125332,0.08204496,0.06382589,0.02824376,0.07630466,0.10975087,0.06383253,-0.077001475,-0.027161997,0.02207353,0.073262505,-0.10708462,-0.040870886,0.08466246,-0.053661197,0.025881974,0.020243306000000003,-0.06186080000000001,0.05839577,-0.10790865,0.10254409,-0.050657954000000005,0.074053,-0.104045965,0.12428729,-0.04054369,-0.032228228,0.03148146,0.08089541,-0.03382841,-0.033469126,-0.012737918,0.013114331000000002,-0.120160855,0.032856468,-0.04176996,-0.08938052,-0.03614357,-0.11582242,0.0066334154,0.05260208,-0.006132940799999999,-0.10503986,0.03493856,-0.033471994,0.15384237,-0.12693734,0.08681365,-0.06273365,-0.056544665,-0.04465563,0.009420614,-0.015603241499999998,0.10477877,-0.008928009,0.001814255,-0.14938726,-0.09607591,-0.03298032,-0.034875456,-0.005448296700000001,0.045702506,-0.104048476,0.05117594,0.0143973995,-0.10292746,-0.028982174,-0.06395888,-0.114053115,-0.06650847,-0.018937218999999998,0.09369754,0.1125822,0.021388947999999998,-0.043812234000000005,0.035303193999999996,-0.059516865999999995,-0.025804805,0.11643135,0.022142433,-0.11011586,-0.0753678,0.012093078,-0.10217168,0.043049075,-0.0631663,-0.08690488,0.034747843,-0.035638418,-0.19072026,0.08094721,0.0057794084,0.008012815999999999,-0.016301474,-0.06599667,-0.15356088,0.032980572,0.054841727,-0.02104896,-0.13004938,-0.015091776000000001,-0.037589632000000005,-0.035245776,-0.13416035,0.05602713,0.17985913,-0.01295252,-0.0024958702,-0.025888313,-0.05042853,-0.030757608,-0.14149375,0.011337189,0.12449352,0.06876974599999999
0.053983014,-0.013046298000000001,-0.064039424,-0.07907361,0.09254279,-0.005971206,-0.04898122,0.06409215,-0.037913494,-0.05904011,-0.14005418,0.10873318,-0.1786441,-0.08876969,0.0014418470999999998,0.0002734775,0.06282457,-0.14981408,0.03974883,-0.044630817999999996,0.049683097999999995,-0.085868776,0.10532579,-0.06231413,-0.0070515675,-0.09120477,-0.07539272,0.028704487,0.034865648,-0.08150189,0.08468854,-0.099426575,0.10098443,-0.04508727,0.0409478,-0.0038519013,-0.06330000599999999,-0.091834135,0.06386189,0.05136578,-0.049927603,0.07973306,-0.049705353,0.043607797000000004,0.07482611,-0.016044302,0.022336936,0.07252128,-0.027703645,-0.102680705,0.09368643,0.09060399999999999,-0.023621787999999998,0.07502825,0.12323527,-0.0054145865000000005,0.10338167,-0.00449313,-0.0398414,-0.0492894,0.018213833000000002,-0.037227873,0.08468880000000001,-0.08539986599999999,0.08178275,-0.06830418,0.10658148,-0.011705233,0.015682265,-0.059055354000000004,0.087223776,-0.08947135,-0.015452422,-0.023499046000000003,-0.08049966,-0.037136745,0.008503086,-0.07372738,0.08329571,0.06456907,-0.06731646,0.063014686,0.018742274,0.05601208,0.0724558,0.07721394,0.0006577808,-0.02229173,0.00088867993,-0.09859426,-0.12285558,-0.071167424,0.0643905,-0.058106564000000006,0.10182556,-0.027994415,-0.000906322,-0.019679746,0.058616575,-0.044552542,0.055357944000000006,-0.11353815,0.0700825,0.08476249,-0.054875344000000006,0.020553952,0.07701121,0.040817442999999995,0.0155520225,-0.03176352,-0.11449933,-0.0378914,0.13520410000000002,-0.026397248999999998,-0.006560639,-0.028311512,0.014952286,0.11190808,-0.18670504,-0.044203002000000005,-0.11125456,0.09200532,0.06416423,0.033396676,0.07757385,-0.03874753,-0.10875823,0.030080818
-0.02979109,-0.042599015,0.019426497,-0.00480555,0.016554745,-0.018015172,0.07759663,0.09706722,-0.12777326,0.06262821,0.05034078,-0.049356494,-0.09077563,-0.093666375,-0.10629146,-0.05954891,-0.08668329,-0.018033437,0.05972072,0.05608519,0.048143636,-0.055482715,0.07474036,0.0024632104,-0.032831024,-0.019851096000000002,-0.060131274000000005,-0.06279606,-0.049998544000000006,-0.12528525,-0.06800695,-0.032915667,-0.09480730400000001,-0.05745499,0.048263114,0.052243545999999995,0.0017006242,0.07275495,-0.109459296,-0.042745885,0.044082038,0.011692455,-0.07986309400000001,-0.12779203,0.045856934,-0.03304185,-0.00467449,-0.0012894811,-0.11728175,0.011869128999999999,-0.08833035,-0.1093193,-0.072341524,0.0053687617,-0.0063748104,-0.01171452,0.12846246,0.0028707183,-0.029862424,-0.038449194,0.10825631,-0.10705274,0.028779852999999998,0.09195824,-0.16853511,-0.02680858,0.048324198,-0.019078883999999997,0.029254965,-0.08051281,-0.121578515,0.07922111,0.07806095,-0.05824807,-0.08421425,-0.042660582999999995,0.031837575,-0.020984972,-0.11171047,-0.040937502,0.07799791,0.028307471,0.080025755,0.04599835,0.017663576,0.0094697885,-0.05405795,-0.05470925,0.12024624,0.010655827,0.11367202,0.069653384,-0.050711364,-0.099484205,-0.14153445,-0.021640211,-0.12524204,-0.10016724,-0.057408895,0.092533015,0.028389803999999998,-0.036418173,-0.029764656,-0.051394362,0.07476921,-0.0005504901,0.10888693,0.008266393,0.03886082,-0.13151722,0.10414727,-0.050430737,-0.079621546,0.040051904,-0.037626553,-0.10299124,0.12030789,-0.029508632000000003,0.11663204,-0.10250398,0.014733766,0.028534897000000004,0.030683015,-0.07267801,0.09521347,-0.06808768,0.028119346,0.060269274000000005
0.06268031,0.021067271000000002,-0.059115104,-0.052892778,0.026728723,-0.044544995,-0.053689774,0.06675801,-0.0095461365,-0.030240782,-0.022873137,0.06556242,-0.020859383000000002,0.061354194,-0.052562844000000004,-0.038905878,-0.098446466,0.06392178,-0.07679843,-0.02876464,-0.09082514,0.05505865,0.032139257000000004,-0.064317405,-0.10773599999999998,0.024497168,0.020685598,0.084366165,-0.09100298,-0.10689995,0.041949175,-0.08726733,0.035361405,-0.013559983999999999,0.076027595,-0.06398648,0.061537564,-0.06716937,0.10389894,0.085037544,0.015002524,-0.05709897,0.0627236,-0.03655609,-0.0037962976,0.04009154,-0.028296452000000003,-0.13063894,-0.10542938,-0.09205372,-0.09823693,0.044530634000000006,-0.09857414,-0.050376575,-0.12152089999999999,-0.09909174,-0.016726734,-0.0359788,-0.011802705,-0.075243585,-0.055754643,0.006475339599999999,-0.05926582,-0.109654136,-0.018010994,0.07179911,-0.109734505,-0.00043341230000000004,-0.10296987,0.040017243,0.030595215,-0.07833129,-0.0036699665000000004,-0.08979866,-0.08665837,0.087914966,-0.052659128,0.014386225,-0.02260058,-0.06491502,-0.09984169999999999,-0.036273394,0.09150484,-0.10839480000000001,0.10086765,-0.0061235230000000005,0.0073152906000000005,-0.07058691,-0.030908855,0.040478736,-0.07012956599999999,0.043737687000000004,-0.07946705,-0.041473597,-0.15796141,0.0051025394,-0.09628222,-0.0047686709999999995,0.048034895,-0.07123597,0.0671909,-0.06915541,-0.15412384,-0.117464826,-0.0065296586,-0.052990064,0.05205534,0.092828676,-0.001215867,0.03594326,0.10926562,0.054543193,0.035641905,0.009362457,-0.029860295,0.07598737,-0.059909027000000004,-0.0018697106,0.19906944,0.059830546,0.0021637585,-0.07295215,-0.017336255,-0.09464709,0.014298918999999998,-0.036296457000000004,-0.061491646,0.02439429
-0.020117179,0.05209468,-0.06218467,0.019298827,-0.05843563400000001,-0.09646529,0.07467227,0.024054508999999998,0.057783738,-0.082459055,-0.079484574,-0.06367534400000001,0.07575515,0.0012068553999999999,0.0022064233,0.12606424,0.015773732,0.051210944,0.060484167,0.11450723,0.024041362,-0.0072727645999999995,-0.029544875,-0.057099182000000005,0.026576807999999997,-0.04565032,0.04622172,0.09846698,0.03479439,-0.029641695,-0.10687727,-0.056694314,-0.06637899,-0.0038847965000000004,-0.08638887,0.08127754,-0.007745146999999999,0.07083141,-0.07080324,-0.049093667,-0.06148086,0.07450158,-0.059451472000000005,-0.042627635999999997,-0.012287318,-0.009639016,-0.08948867,0.051183093,-0.03575283,0.04802328,0.0032025138,-0.06257692,-0.102262445,0.032530252,-0.20631208,-0.010361113,0.03475492,0.07275109,0.047168333,0.069903135,-0.011605948999999999,-0.023143826,0.028824814,-0.09968124,-0.020908402,0.04232375,-0.07778189,0.012228641,0.014403706,0.012860173,-0.052013498,-0.12079048,0.05796455,0.025504463999999998,-0.05096797,-0.05896501,0.04072965,-0.10773039599999999,-0.030938099999999996,0.057097867000000004,-0.14247672,-0.036208544,0.022918607999999997,-0.09130022,0.102145895,0.037923522,-0.06693274,-0.028167783999999998,0.05903361,0.08382503,0.089176916,-0.012660255,-0.060877647,-0.015021656999999999,-0.06009268,-0.085152425,-0.046525512000000005,-0.021165523999999998,-0.012594106,0.010736359,-0.090071425,-0.013596793000000001,-0.0052660387,-0.0033698534,0.00024391165,0.0042175814,-0.02297517,-0.052282643,-0.09080639,-0.0667047,0.033200666000000004,0.01266643,-0.010620847,-0.036698215,-0.020931976,-0.009642326,-0.006735876700000001,0.03973569,0.16418439,-0.10042314,-0.007179989499999999,-0.08583068,-0.01690552,-0.008206074,0.017462863000000002,0.06398542,0.12803674,-0.15343164
-0.08210427,-0.092599615,0.05493436,0.031602717999999995,-0.059573274,-0.05355721,-0.008131878,0.052275125,-0.078462176,-0.070374586,-0.11036354,0.052640575999999994,0.0021319132999999997,-0.017328862,0.040669356000000004,-0.107714675,-0.06623026,-0.06252975,-0.0016146615,-0.031486127999999995,0.08515029,-0.011249663,-0.03857162,-0.023815917000000002,0.10446332400000001,-0.039748847000000004,-0.05962271,-0.062047664,0.13245615,-0.024713397,0.056830205,0.011732573,0.09271071,0.07952368,-0.04655675,-0.059911035,0.00080276193,-0.0047826623,-0.06454391,0.004672143,-0.06962609,0.015361803,0.089081936,0.08734299,0.025731204,0.10993291,0.08095018,-0.02528233,-0.05864562,-0.023188015,0.080100775,0.019591788,0.012615885,-0.08874999,0.01151808,0.079910636,-0.089261845,0.086509675,0.08754160000000001,-0.012154508999999999,0.07586179,-0.050230055999999995,-0.072306335,-0.06381492,0.015206302,0.07129399,0.08170781,-0.07666431,0.03756854,0.024266409,0.04789033,-0.05849882,0.053733677,-0.049486905,0.04226636,-0.05199217,-0.02233617,0.025444,0.030190734,0.08072643,0.109560706,0.0036868763,0.11574122,0.08883732,-0.12632516,-0.033854768,0.03005486,-0.01851882,-0.07395302,0.078368165,0.05075497,0.06789758,0.122769095,0.06864893,0.048086125,0.006754355,-0.05778801,-0.053068317000000004,-0.0009809639,0.043852057,0.078117855,0.09183519,0.008780899,0.13152443,0.05490043,0.02879724,-0.07779549,-0.017889565,-0.070729494,-0.083551645,-0.07169137,-0.038913757,0.10316968,-0.06695808,0.04665763,0.011597955,-0.07377422,0.024942278999999998,-0.23101537,-0.099134974,-0.10230596,-0.013913634,-0.017495101000000002,0.030370945,-0.08950077,0.00049715,-0.07388715,0.05469233
-0.02230716,0.07005901,0.06517134,0.06253719,-0.06866001,0.09115762,0.014569678,-0.07232852,0.02387448,-0.10942495,-0.04489551,0.013977202,0.02738585,-0.08046375,0.026017746,-0.07341237,-0.025893133,-0.006723971,0.10038689999999999,0.08267397,0.11029342,-0.037798207,0.09531125,0.05814863,-0.015194953999999998,0.12689921,0.060514987,0.107517324,0.07095971,-0.025325287000000002,-0.078465804,0.061848707,0.039474837,0.13770986,0.069613434,0.12261779,-0.10600106,0.035338935,-0.06429756,-0.052722204,-0.08406727,-0.00839629,-0.11542386,-0.006246837,0.033870187,0.023276672,-0.06593916,-0.039685167,-0.072144486,0.07211184,-0.045232072000000005,0.058338027,0.0043341587,-0.036996797000000005,-0.067735925,0.06555309,-0.05000959,0.08936652,0.017877495,0.096134394,0.048008505,0.016621504,0.08189339999999999,-0.034383446,0.02341917,0.045290477999999995,-0.060949236,-0.018007683,-0.046269267999999995,-0.047229125999999996,0.06343595,-0.028113525,-0.016036315,0.13150224,0.049188867000000004,0.12107006,-0.122351296,0.035079334,0.01742177,-0.026886065,0.11489032,0.04342068,0.034678236,-0.0052642673,-0.04497754,-0.020394709,-0.024885511000000003,0.02565401,0.062371917,-0.019907607,-0.09709709,-0.048887535999999995,-0.05463737,0.07800516,0.05213346,-0.07271698,0.061060592999999996,0.07189747,0.008947116,-0.081143335,0.05694125,-0.030958535,0.09151344,-0.06272758,-0.047732424,0.10103617599999999,-0.101687916,0.004972514,0.04183736,0.052794818,-0.097743265,0.12334632,0.09160643,0.062176067,-0.06160676,0.015076485,-0.079508334,0.09096362,-0.048603244000000004,-0.05929762,-0.062027298,0.08854145,0.07627484,-0.013761165,-0.09582104,-0.047196094,-0.046552576,-0.01675281
-0.11370932,-0.035205524,-0.09558753,0.1065029,-0.054519184000000005,0.08611590400000001,-0.08466039,-0.030794097000000003,0.03901622,0.046801217,-0.05027201,0.01662964,-0.087564096,0.01867825,-0.0142153995,0.10667232,0.048544947000000005,0.03455106,-0.09298218,-0.078137025,0.04967399,0.021690767000000003,0.007423361,0.098082855,-0.10161528,-0.096041925,-0.09478668,0.060911722,0.04300796,-0.08713599,-0.10148732,0.019556766,0.0699244,-0.023407928999999997,0.005771315999999999,0.051787004000000005,-0.061973695,-0.0043470953,0.0017301787,-0.035989497,-0.00950753,0.007102649,-0.07976010000000001,-0.041765433,0.004739857,0.031076028999999998,0.056558207,-0.03840315,0.05491992,-0.008493244,-0.09957764,-0.019796435,-0.07419781,-0.07471436,-0.0018953228,-0.025047437999999998,0.009543315,-0.02880364,-0.009676006,-0.10039274,0.078167155,-0.030765455,-0.04831035,0.017787423,-0.13558346,-0.10662234599999999,-0.04476834,0.039766904,-0.07616535599999999,-0.034052227000000004,-0.10680425,-0.05031432,0.042101014000000006,-0.036384415,-0.030825903999999998,-0.060235407000000005,0.06702991,-0.10332042,-0.09396715,0.013198485,-0.11867247,-0.032191906,0.014448184,-0.09346466,0.018478381999999998,-0.041529699999999996,0.0034595982,-0.050485715,-0.055717385999999994,0.09808826,0.026095929,0.022767862000000003,-0.0024398346,-0.02155867,-0.030425701,-0.07607396,-0.078950875,-0.064825326,-0.00011519433999999999,-0.12672141,0.08645255,-0.08639109,0.0013778268,0.05888363,-0.025520759,-0.078026,-0.016268544,-0.0053084893,0.0006641039500000001,0.05912474,0.027648669,-0.049046744,0.056370344,-0.012977838,-0.02732743,0.01072186,0.036363937,0.03727658,0.08321364,0.03463725,0.015582353,0.0638547,-0.1039792,-7.683333000000001e-05,-0.051305573,-0.05918086,-0.019491998,-0.0044372629999999995
-0.12047806400000001,0.07878205,-0.14896585,0.04104488,-0.07720262,0.092830755,-0.005086628,-0.105822094,-0.12520109,-0.01835136,-0.043216715999999995,-0.116047055,0.017043559,-0.05503501,0.06276576,-0.074046105,0.06602636,-0.07897535,0.09852786,-0.07935308,0.08260612,-0.08651313,0.087538406,0.042960665999999995,-0.035899900000000005,-0.05636444,-0.03215245,-0.020365715,-0.024962451,0.041326255,0.028839285,-0.032972958,0.039819542,0.033000678,0.11634395,0.09242818,0.046373832999999996,-0.15726979,0.11538026,-0.020405887,0.07840626,-0.004184852,0.0011476119,-0.04822045,-0.07419013,-0.09510311,0.021174533,-0.09296147,0.07400922,0.008976294000000001,-0.059717778,0.021008244,0.15806144,-0.10614729,0.11165406,0.09506039999999999,0.02621915,-0.13174738,-0.07021799999999999,-0.10205104,-0.026922823999999998,-0.11432128,0.03255581,0.08109406,0.0017742554000000001,-0.081029505,0.094903246,0.029094221,0.10060547,-0.10093468400000001,0.08073935,-0.004866651,0.1263302,-0.057186216,-0.038478628,-0.12162867,0.024908452999999997,-0.05634067,0.08234636,-0.101836324,-0.09029116,0.09354871,0.010099879,-0.06952615,0.02179759,-0.02413284,-0.029155617999999998,0.030338297,-0.050020665,0.011899121,0.046647664000000005,-0.109480225,0.02714353,0.0072361073,0.08577608,0.030475184,0.06765326,-0.020132221000000002,0.059080455,0.042752065,0.0136814555,-0.0032177556,0.07583904,0.035954203,-0.11189617,-0.08454675,-0.08349486,0.054124407,0.06798125,0.10277839999999999,-0.05173241,0.038117557999999996,-0.030013638,-0.1147144,-0.0042120297,-0.10882668,-0.09096488,0.06757984,0.01964309,-0.11658185,-0.08763585,-0.0544377,-0.013703801000000002,0.12125539999999999,0.042817667000000004,-0.024432672000000002,-0.10911716,-0.11666601
-0.017634537,0.045089647000000004,0.11870530000000001,-0.03645947,0.07560221,0.15192519,0.005735181999999999,0.096340224,-0.015833495,0.07551524,-0.12985619999999998,0.0008059253,0.02183662,-0.080665365,-0.020355526000000002,-0.07047673,-0.13087136,0.039598286,0.0197076,-0.004280315,-0.10432453,-0.063289195,-0.023329461,0.0728972,-0.005303178,-0.03956768,0.047307692,0.014010054,-0.09524992,-0.09155669,0.039125934,0.06236239,-0.027636852000000003,0.06753035,0.05755448,-0.06602957,0.072290614,-0.006604188,-0.0009126029300000001,-0.12790239,-0.01826735,-0.100012854,-0.05540285,-0.13747805,-0.06864506,0.079793386,0.0598021,0.053357485999999996,0.016562324,-0.021069433999999998,-0.038032327000000005,-0.049628165,0.07221148,0.085257344,-0.036171284,-0.037650447000000004,-0.03240025,-0.08232427,0.0134744095,-0.04640962,-0.022444727,-0.08845056,-0.01001027,0.032496996,-0.060564425,0.048760615,0.04928028,-0.09239857,-0.068942614,-0.08755035,0.058243603,0.04546259,0.03529594,-0.08086094,-0.053660978,-0.06579463,-0.04818439,0.09350549999999999,-0.017574683,0.07337808,-0.12612344,0.058936298,0.033973925,-0.06661896,-0.043326467,-0.07339272,-0.14458258,-0.043914754,-0.07717038,0.01682182,0.07050004,-0.016251858,-0.067724496,0.02012968,0.02078425,0.007225878000000001,0.07189947,-0.05740363,0.11590345,0.017521593999999998,-0.066121444,0.09187487,-0.084419504,0.077887535,0.07007034,0.0194452,0.10208126,0.03728452,-0.07531619999999999,0.017716156,0.006283303299999999,0.064727545,0.06938645,-0.048010692,0.06468896,-0.008951485,0.091092214,-0.07519761,0.17772242,-0.06397673,0.13429731,-0.06705097,0.07280016,-0.06262763,-0.013047376000000001,-0.010278285,0.13219157,-0.040441483
-0.048074763,-0.05951094,0.019789863,-0.10771418,0.07395893,0.045807447,0.12980127,-0.012530683999999999,0.083317734,0.06692407,0.12157301599999999,0.12664314,0.048863456,0.08278192,-0.024127357000000002,-0.06274954,0.012235535,0.050156523,-0.06235028,-0.025606679,0.039953552,0.0025859855,-0.061576273,0.012565383000000001,-0.10451885,-0.062234245,-0.08844008,-0.07970237,0.030235227000000003,-0.029650628999999998,-0.08321422,-0.039436586,-8.085693e-05,0.08461933,0.009509928,0.04336521,0.07258631,-0.011800026000000002,0.11486564,0.034109764,-0.010747551999999999,-0.04355997,0.041741363999999996,0.07293617,0.096353866,0.06820589,0.070005625,-0.10560653,0.043505814000000004,0.13823129999999997,0.08427152,-0.052468024,-0.06507541,0.0031727340000000004,0.05828554,-0.0013106999000000001,-0.0055713709999999994,-0.040436427999999996,0.047849733,-0.003081949,-0.010213777,0.13649779999999997,-0.10180201400000001,0.022581092999999997,0.06400539,-0.04161303,-0.007162732,-0.0010298155,0.11875474,0.11250239999999999,-0.042198077,0.076716214,-0.08702164,-0.0020357275,-0.026504852000000002,0.008359568000000001,-0.031373266000000004,-0.07056453,0.049831035999999995,-0.060299337,0.15127647,0.06865114,0.0026199578,0.057660658,-0.008729509,0.06710885,-0.015026842,0.013526716999999999,0.0720216,0.087249584,0.031105591000000002,0.1295492,-0.04769745,0.07534629,-0.011051906,0.10491571599999999,0.13379456,0.069461465,-0.084337056,-0.0003561505,0.014450131000000001,-0.006283418000000001,0.14580317,-0.08754555,0.070323065,-0.011711437,0.015776522,0.12350786,0.021430511,-0.09329538,0.044194948,0.024014032,-0.020593118,-0.02682549,0.039612904,-0.023441521,-0.08699407,-0.032937173,-0.1733392,0.0207479,-0.13986656,0.05083006,0.01104484,0.024539106,0.10899807,-0.06358516,-0.14702179,-0.0587549
0.07559063,-0.06442197,0.01576039,-0.0004609254,-0.059732158,0.05382849,0.03785898,0.07111769,-0.04213632,0.10207023,0.061685199999999996,0.037907552000000004,0.05990337,0.1017829,-0.0118060615,-0.04251478,-0.08886585,0.038656157000000003,0.020159038,0.016711706,0.027245143,0.11831304,-0.053003475,-0.019149002,-0.01784379,-0.01166487,0.019908184,0.0034229173,-0.01646389,-0.05227203,0.031537723,0.10204819,0.013920623,-0.053226154000000005,0.085154094,0.029196177,0.00548336,-0.11700826,0.0011038249,-0.10535862,0.008960959499999999,0.016036669,0.032699965,-0.027052142,0.020288305,-0.05798851,0.018129898000000002,0.0016191247,0.031994093,0.040287074,0.030232156,-0.14423852,-0.090632826,-0.051645905,-0.06454017,0.07727372,-0.022856243,0.0643178,-0.023884416000000002,-0.06280111,0.06996369,-0.0070293266,-0.062167034,-0.108237594,-0.15973827,-0.042197137999999995,0.010266121500000001,0.061214007,0.045603644000000006,0.04511698,0.011388088000000001,-0.049673785,0.037501596,0.049145725,0.07450992599999999,-0.104529165,0.06903146,-0.029681372999999997,0.047420427,-0.082857996,0.007142451,-0.011867392,0.059382528,-0.12824461,0.098882325,-0.018144494,0.027564667,-0.027364897000000003,0.041040506000000004,-0.023520617,0.08102164,0.023040831,0.09025054,-0.042106297,-0.100649826,0.06884647,-0.10477598,-0.0478574,0.01695222,0.045351632,0.10542509,-0.07880785,-0.017974413999999998,-0.0063879313,0.011108347,-0.074696526,0.078293204,-0.117908426,-0.043880913,-0.0530432,0.07851949,-0.049811445,-0.09018715,-0.10731532,-0.057990056,-0.1066482,0.0044700573,-0.12464142,0.07920786,-0.017163862,0.0100652985,0.09694332,-0.08856553,-0.024948489,-0.09876392,0.08946493,0.109946236,-0.10046858
0.08371415,0.10308793,-0.11934298,-0.037805546,-0.06648412,-0.035167426,0.01748339,0.10416943,0.014396866999999999,0.047691702999999995,0.026672757999999998,0.11587375,-0.13091464,-0.06291934,-0.11427961,-0.10636504,-0.11107787,-0.055647876,0.030801658,-0.022746041,0.078809164,0.055383876,0.029695327999999997,-0.06313558,-0.06437745,-0.060626082000000005,0.028564392,-0.030453057999999998,0.10975627,-0.07956698,-0.06846423,-0.012304466000000002,-0.0722928,0.024947072999999997,0.07599802,-0.013527788,-0.09561679,-0.038457543,-0.08875382,-0.05310988,-0.054685827,0.10299666,0.10354059,0.0037367675,0.010024106,0.040804453,0.021001836,0.026078489,-0.031002339,0.006600335,-0.020728882,-0.10536343599999999,0.09390536,0.059195112,-0.116834275,0.03574135,-0.019510765,-0.11149781,-0.020582177,-0.03023123,0.01943292,0.08471245,-0.09695767599999999,0.03421045,-0.04550713,0.08822071,-0.0841036,-0.03351535,0.011295038,0.020203533,-0.06928478,0.044557318,-0.076285504,0.04040588,-0.04554489,0.04103702,-0.0559979,0.050150732999999996,0.049192707999999995,-0.083132006,-0.07715622,-0.10921366,-0.010902936,-0.023553893,0.00835857,-0.073648326,-0.070753045,-0.035060707,0.07254542,0.0013907433,-0.029436244,-0.067940585,0.09390789,0.01928959,-0.11334198,0.02512002,-0.12548326,0.046259682999999996,0.10567869,-0.06957263,-0.07442954,-0.04097311,-0.04338108,-0.09960405,-0.0067369565,0.055335212,-0.0039460673,0.028706968,-0.11093877,0.017009184,-0.0021755348,-0.020012815,0.044878993,-0.09630488599999999,0.003558495,6.877719e-06,-0.07205582,-0.014563203,0.18663283,0.004588362,-0.0046491763,-0.082332455,0.05894144,-0.06363902,-0.066141635,-0.06515057,-0.021041716000000002,-0.08437598
0.1008161,0.010871353,0.031248388999999998,-0.0020267477,0.020221705,-0.009473169,0.0066247466,-0.021045106,-0.061977625,0.061137635,0.08004019400000001,0.0818607,0.042821445,-0.11404768400000001,-0.08757623,-0.07239102,0.08430691,-0.08288083,0.11178273,-0.05195898,-0.036777418,-0.12413604,0.046244137000000005,-0.044243366,-0.06953006,-0.07876745,0.11573729,-0.001959608,0.010358776,-0.024964951000000003,0.09051334,0.07774242,0.065385334,0.06690057,0.039454058,0.11398285,0.026965138,0.030453334,-0.04186442,-0.0058961427,-0.034194887,0.04627476,0.0025734012,-0.06034917,0.07941530000000001,0.10457563,-0.00481004,0.05219792,0.012529803999999999,-0.034336116,0.108789094,-0.023956934,-0.04941768,0.022582602,0.17396323,-0.058485775999999996,0.08101194,-0.002131423,-0.11919106,0.09167102,0.008284314000000001,-0.015538173,0.090545535,0.04650829,0.00489875,0.11571206,-0.0021157672,-0.0066894297,0.087920085,0.0052484590000000005,0.068882555,-0.06921181,0.08601839,-0.08721982,0.08109038,-0.06259751,-0.016447141999999998,-0.05435417,-0.055807214,0.10541201,-0.013731404,-0.00024476936,-0.08386403,-0.079881035,-0.041022364,0.06596809599999999,0.034653067999999995,-0.0017719313000000001,-0.036699798,-0.03614936,-0.028961483,0.0027507974,0.13208641,0.0066082324,0.050506614000000005,-0.057344392,0.0026015254999999997,-0.03709648,0.06299162,-0.06499829,0.0821973,0.001429731,-0.028642157,0.083264776,-0.06400711,-0.06915298,-0.027585857999999998,-0.097572915,0.09493384,0.016611671,-0.022270964,-0.011978508999999998,-0.050639592000000004,0.0030976075,0.0029486234,-0.07620653,0.038849699999999994,-0.07330839,-0.09669689999999999,-0.09417703,0.057126295,0.030402785,0.123235404,-0.0277204,0.07279622599999999,-0.05493819999999999,-0.1033867,0.04278224
0.054968632999999996,-0.10292778,-0.049397334,-0.008857476,0.10606124,-0.07399849,0.09394933,0.060264107000000004,0.1288126,0.029911106,0.05214479599999999,0.08839903,-0.0014890278,-0.012078186999999999,-0.07662967,0.051492907000000004,-0.072401434,-0.057426028,0.084475756,0.034187432000000004,0.041050468,-0.047504492,-0.10929123,-0.0027815118,-0.11321673,0.014091633999999999,0.048732717,-0.050773177,0.070035025,-0.037716568,-0.09926314,0.13087949,-0.10336992,0.015449926000000001,-0.11609019,-0.020661864,-0.07412588,-0.046330377,0.08255528,0.03638463,0.021766607,0.018167898000000002,0.009782627,0.053704592999999995,-0.06951469,-0.07410623,-0.022505067000000004,-0.017728712,0.0710043,-0.10745374,0.03438249,-0.10408806,-0.15464586,-0.06510703,-0.12816274,-0.08267896,-0.081774905,0.09572221,0.068448834,0.012384748999999999,0.019053511000000002,-0.010805432,-0.09110421,0.054946523,-0.07856686,-0.034942827999999995,-0.07972634,-0.01304897,-0.15101531,0.039596304,-0.1676781,0.011492292,-0.015378382,-0.007952726,-0.13396402,-0.019376222,-0.040622152,0.062881045,-0.031006417999999997,-0.01698222,-0.03535527,-0.13052338,0.05923697,0.07760243,0.10715156,0.005819239699999999,-0.053489514,-0.058297336,0.072447136,-0.017970318,-0.054984845,-0.019490294,0.05308708,-0.043214995,-0.06204810400000001,-0.12214722,0.059059072000000004,0.070151776,0.043854743,-0.06756303,0.0599443,-0.10430536,-0.15359168,-0.101508275,-0.034291237999999995,-0.06505238,-0.03266421,-0.071071275,-0.008063838,-0.06599717599999999,0.12325512,-0.11318007,-0.06806932,0.063505724,-0.021925503,-0.034018572000000004,0.05071478,-0.004052715,0.18222979,0.025604784,0.15250105,0.103936225,-0.10700704,-0.005824441999999999,-0.07634411,0.0039615687,0.03111476,-0.008887135
-0.00732168,0.049052294,-0.053794737999999995,-0.11163399,0.061731268,-0.12894121,0.06358436,-0.016700715,0.022796237999999996,-0.08742066,-0.04051261,0.05691702,-0.0031476438,-0.06757167,0.07851592,-0.08073499,0.054241974000000005,0.037077945,0.10511161,0.051456355,0.1241932,0.086162776,0.0041867173,-0.028945249,0.124444835,-0.04356561,-0.024549032999999998,0.110066205,0.08104653,0.12773213,0.011990058999999999,0.070001855,-0.045172412,-0.010811484,-0.057183005,0.12376531,-0.072881415,0.08856116,-0.0765445,-0.04201596,0.007310149300000001,0.075555384,-0.06916463,-0.04619395,-0.08071548,0.06687363,-0.015109764,0.017395739,-0.01488366,-0.009850611,-0.08777302,-0.019426815,0.004671075,0.05400697,0.021476949,-0.0689273,-0.043503127999999995,0.011099969,-0.06041245,0.0394292,-0.06722333,0.042404547,-0.034295574,-0.06154932,0.022828398,-0.04604207,-0.05122465599999999,0.15326476,-0.01579707,0.09596389,0.104549795,0.024511272,-0.038396396,0.020998483999999998,0.06795239999999998,0.010709211000000001,0.027990833,0.09180661,0.10822012,0.04819493,0.11757078,-0.026647398,-0.06823649,0.12833026,-0.028557654,0.02189909,-0.031198625,-0.0031369538,-0.089970365,0.02665972,0.048405524000000005,-0.0004608518,-0.110645205,0.087555625,-0.020912891,0.056275498,-0.07236746,-0.03625662,-0.026830237000000003,-0.017195882,0.10371178,-0.049273856,0.027501825,-0.019994432,0.016631851,-0.05606184,-0.12012469,0.11575712,0.15816772,0.09161424,-0.047408875,0.12304411,0.09188948,0.07792521,0.1070058,0.098498285,-0.08490643,-0.040964622,-0.026826335,0.01986132,-0.026279416,-0.11000748,-0.07656549,-0.07099222,-0.0752765,0.13580704,-0.08843674,0.05906119
-0.082763284,0.06683626,-0.11281906,0.099498235,-0.067927755,0.07539848,-0.04931599,0.10744269999999999,0.041319452,0.040967606000000004,-0.10224933,0.006802995,-0.03680401,-0.109723024,-0.07068485,0.0213549,0.05683508,-0.14263932,-0.0982248,-0.052777592000000005,0.007021421,0.03895638,-0.032683957,-0.12515779,-0.0024370584,0.03555419,0.009071365999999999,-0.15837124,0.022559525,-0.060743563,-0.09376649599999999,-0.13842492,0.11505004,0.049063800000000005,0.022726785,0.05307399,0.11015169,-0.049176995,-0.08155014,0.0033573920000000003,-0.0024992083,-0.07838127,0.027530111,-0.10519875,0.14308801,-0.13640256,0.0474704,-0.06487772,0.05724707,0.06521584,-0.053797994,0.026931122000000002,0.033842735,0.07297832,0.019245941000000003,0.085859306,0.07394210000000001,-0.044587065,0.030051576,-0.047751800000000004,0.07589783,-0.025726852999999997,0.07254004,0.10626925,0.057507392000000004,-0.108739935,0.14741094,0.050629873,-0.0004384228,0.009327692,0.13801837,0.0008515219,-0.040549252,-0.043846443,0.11522596,-0.14156622,-0.005045351,0.1298539,-0.13545215,-0.028500216000000002,-0.06898436,-0.03536498,-0.025544774,-0.099472515,-0.089279234,-0.02815187,-0.09849225,0.039034333,0.029116352999999998,0.050265472,-0.06461435,0.030975033,-0.009565861,0.09337659,-0.014542791000000001,-0.041510627,-0.09748633,0.08609035599999999,-0.036513675,0.051181603,0.0060196419999999995,0.061434835,-0.06067787,-0.05163484,0.034821846000000004,-0.011018758,-0.09428553,-0.041855305,-0.07623183,0.040705815,0.063075915,0.03883187,-0.07235731,-0.08360807599999999,-0.061938695999999994,0.0038610859999999997,-0.061190800000000004,0.07078789,-0.12321889,0.07463402,0.027075851,0.01860806,-0.011613354,0.04919061,0.048217225999999995,0.04428065,-0.018161282,-0.113614045
0.035092738,0.06047539,-0.12488921,0.07998311,0.02203373,-0.011409906000000001,0.0675375,0.07250969,0.09471594,-0.11322856,-0.04477024,-0.06128105,-0.08079818,0.07468558,0.07349125,-0.015886102,0.025190305,0.06820553,-0.08061176,-0.04926899,0.12092116,-0.019391400000000003,0.09397415,0.09590849,0.11930805400000001,-0.033930182,0.031220809,0.009140991,0.08673676,-0.09826054,-0.030900989,-0.037733424,0.06569861,0.014162471999999999,-0.07377572,-0.05243291,-0.01783919,-0.07737867,-0.07953263,-0.046920042,0.014497205,0.03192891,-0.044950575,0.01559008,0.09960671,0.020976302999999998,0.055792373,-0.015455156999999999,0.10410661,-0.031424943,-0.013458046000000001,0.12272272,-0.038527686,0.06486464,0.06922418,0.097419046,-0.07912292,0.07117057,-0.020077011999999998,0.03727041,-0.048554398,0.028244259,0.050775725,0.06203616,0.1514652,0.079969205,-0.040532764,-0.03829714,-0.01990037,0.065901,0.041035242,-0.09126989,-0.1041085,0.11198658,-0.020520998000000002,-0.023774318,0.037412357,0.0590235,0.09707373400000001,0.051568944000000005,0.15880787,0.048616815,-0.021539217000000003,-0.051545516,-0.10398626,-0.03644936,-0.020434571000000002,0.0032310626,0.07803532,0.031864613,-0.015189611,0.039679583,0.059117705,-0.016054865,0.056810445999999994,0.028883912,0.005872129499999999,-0.035135247,0.07880761,0.11094067,0.0012152377000000001,0.052737247,0.12914403,-0.07642048,0.022994239,-0.07875996,-0.07451915,-0.078926094,0.08103689,-0.02105472,-0.11309759,-0.050391436,0.13007428,-0.07551002,0.03673111,0.056294933,-0.008880874,-0.0062089516,-0.23389383,0.055865694,0.045143444000000005,0.047270477000000005,-0.059392925,-0.005728388,-0.06985368,0.010697678,-0.05556965,0.057615373
-0.124321975,0.056947388,0.0019875304,0.08073797,-0.0879252,-0.10408581,-0.032181523999999996,0.053877432,0.04054332,0.027359571,0.11556627,-0.061109000000000004,0.0993046,0.011301228,0.12563093,-0.04544196,-0.04058425,0.09645074599999999,-0.008485114,-0.018563204,0.031570352999999995,0.019472165,-0.035534788,0.019098891,-0.073224105,0.123080656,-0.046861753,0.098931596,-0.041869085,0.037284166,-0.06635431,0.05313577,0.002673858,0.013247526,0.010105366,-0.05963858,-0.08542078,0.040448885,-0.012901622,0.08809648,-0.13691273,-0.035409074,0.031110454,0.03775573,-0.04402794,-0.03858276,0.048490588,-0.0446071,0.026167551,0.062591396,-0.021215507999999998,0.03328623,0.0017774573000000002,0.034097705,-0.0011367138,-0.03475471,0.005662271,0.06349226,0.059335593,-0.0046509015,0.049868576,0.00997687,0.0038476741999999998,0.060861584,-0.035526365,-0.08154496,-0.0973285,-0.031354368,0.008701462,-0.13072008,-0.093878,0.022739861,-0.06246088,0.046172276,-0.06857362,-0.08180097,-0.06476906,-0.13292906,-0.07660755,0.0134051675,-0.10393491,-0.107798085,-0.007533496,0.05499892,-0.0015389931,-0.09515279,-0.05505303,-0.08180606,0.08037405,-0.020963758,0.013109623999999999,-0.040941846000000004,-0.13523698,0.07143489,-0.03516739,-0.034370635,-0.018046591,0.0134895295,0.07399337,0.06004514,-0.05336949,0.06533086,-0.12100551,-0.07325812,0.032903842999999995,-0.10191476,0.009645613,-0.010191493000000001,-0.10867792,-0.08761649,0.051782344,0.053664308,-0.085213274,-0.050680055999999994,0.12546152,0.040626432999999997,-0.04721447,0.06127369999999999,0.14227474,-0.050031763,0.16148074,-0.06468954,-0.119016096,-0.020094028,-0.007934848000000001,0.050418843,0.1333393,-0.06658296
-0.08268439,-0.02718125,-0.11180562,-0.046019204,-0.019683791000000003,-0.04308107,0.0034119282,0.018032532,-0.1134237,-0.07635496,0.026680673,-0.13467391,-0.006073966,-0.10914291400000001,0.16668308,0.03310464,0.07084852,0.078582205,0.039515194,-0.058868672999999996,0.13251486,0.08275085,0.072588935,0.12253276,0.07726071,-0.045176428,0.04030159999999999,0.14004476,0.058855183,0.1343856,0.0032424197999999997,0.08653109,0.00883217,-0.0070999869999999994,0.06919919,-0.014078163999999999,-0.08802973,0.09888150000000001,-0.115190975,-0.0057984180000000005,-0.028527275,0.15891829,-0.14698997,0.018478155,-0.07541537,-0.08956278,-0.096526995,0.08728941,0.0011327651,-0.07059781,-0.091005124,0.057386125999999996,-0.08048683400000001,0.05159824,-0.09850745,-0.008619943,-0.12511054,-0.083222434,-0.05134097,0.03284341,-0.12773147,0.052339394000000004,-0.014050075,0.09120136,0.07258046,-0.07440396,-0.07430738,-0.008633504,-0.062219694000000006,-0.0046095447999999995,0.049787853,-0.013503716,-0.104018696,0.006065869200000001,-0.031299606,0.08922016,-0.07944167,0.0492395,0.04225192,0.09272744,-0.032125823,0.009807955,0.050612092000000004,-0.0524139,0.028269878,0.092692204,-0.043251257,0.024273895,-0.034578145,0.03130095,-0.09008358,-0.026536986000000002,0.039450128,-0.037602212,0.17304765,-0.025232956,-0.046415772,0.049758494,-0.017345449,-0.07726501,0.09384517,0.11180547,-0.020962832,0.046564605,-0.01709484,-0.074911945,-0.100558445,-0.023197647000000002,0.12951967,0.08876522,-0.12562606,-0.009840630999999999,0.10972136,0.047131967000000004,-0.05759111,0.10455558400000001,-0.04480108,-0.04233157,-0.09458555,-0.027401881,-0.09153313,-0.07059074,0.04053889,0.034286916,0.005419821500000001,-0.033939805,0.010011036999999999,-0.10791916
-0.017621614,-0.0058027090000000005,0.12723088,-0.08657731,0.10050082,-0.04055179,0.1659315,-0.030810028,0.06451177599999999,0.082480825,0.044316735,0.14348684,0.029196847,0.03130385,0.038966447,0.022163258999999998,-0.09627875,0.009988588,-0.12396378,0.11694015599999999,-0.12370958,0.10442129,-0.06433269,-0.06907569,0.02261652,0.09717392,-0.061544545,-0.08633858,-0.13297653,0.03240629,-0.03280722,-0.12697683,-0.06401478,-0.023971988,-0.09084308,-0.043867025999999996,-0.03538995,0.093164675,0.004171382,-0.007081276,0.1632911,-0.11389701,0.08953568,0.0025186113,0.014449648999999998,-0.033240337,0.10020514,0.0056561455,0.08000975,-0.030047016,0.09580008,0.119503684,-0.09922796,0.028278897,0.14915977,-0.07412107,-0.09924401,0.08899641,-0.09183469999999999,0.08445687,0.06958189,0.10957498,-0.02858527,-0.017510631999999998,-0.009193664,0.041584272,0.09538051,0.12881815,0.12590654,0.03323011,0.02528296,0.07679894599999999,0.09885568,0.049912483,0.11923819,-0.040566944,-0.06700953,0.12822738,0.008970415,0.015603932,0.037557293,0.018560431999999998,0.08962109,-0.04609098,-0.030994728,-0.051257345999999995,-0.026886437000000003,-0.11250032,0.028923023,0.094466165,-0.074369885,-0.03917187,-0.023022137999999998,-0.03683713,0.068366185,0.041953042,0.05044021,-0.05856658,-0.035679538,0.031179437,-0.09997262,0.015249557,0.14897439,-0.03469842,0.025699858,-0.0069614095,-0.098988675,-0.022313667000000002,0.030359054,-0.005273399000000001,0.06894835,0.10238048400000001,0.12339375,0.056407593,-0.102948576,0.11294464,0.10826422,-0.077634014,-0.17669897,0.035461456,-0.10717686,0.066434,-0.047971125999999996,-0.10998082,-0.09459717599999999,-0.07059797,-0.053341765,0.085720524
-0.09772008,-0.06852411,0.14562096,0.017666105,0.072847605,0.05530209,-0.07132615,-0.085467115,-0.07090601,-0.07057003,-0.09666218,-0.09620133,0.024148842,0.023802655,-0.08273441,-0.032292645,-0.07439231,-0.022639055,0.07085594,-0.07481262,0.020354743999999998,0.024703013,0.034219254,-0.0014108721,-0.007442998199999999,-0.054393224000000004,0.015147571,-0.098152734,-0.027002934,-0.0018271566000000001,0.03205732,-0.008110988000000001,0.10198422,-0.037694517999999996,0.027692908,-0.011825696,-0.012732705,0.049139105,0.08866532,0.054795735,0.11312102,-0.030996013,-0.087398626,-0.049352806,-0.056068253,0.044281956,0.0033150828000000003,-0.08850707,-0.07336944,-0.009050301,-0.0056465835999999995,0.028398054,-0.09756505,-0.050511595,0.18949316,0.017182574,-0.037746545,-0.051450107,-0.08159182,-0.023199132,0.12928893,0.021102542000000002,0.037391327,0.057077102000000005,0.05725632,-0.023985866,-0.0392162,-0.01062308,0.0860572,-0.04787171,0.060020667,0.033871702999999996,0.059681196,-0.02750448,-0.051560725999999994,0.12578876,-0.12077154,0.11092423,-0.033574156,0.03722095,0.010277136,0.1314316,-0.067323476,-0.062045064000000004,-0.047938295,0.06572463,0.17661604,-0.0030297244,0.059424597999999995,0.09962413,0.04508886,0.024988847,-0.009514063,-0.05239197599999999,0.0072314925,-0.02237921,-0.032051556,0.06723154,-0.11933754,-0.0070446674,-0.07196681,0.035435554,0.109353974,-0.08852564,0.056828475999999996,-0.036229204,-0.03853827,0.08086244,-0.03718707,0.035361577000000005,0.035458326,0.047812447,0.12880176,0.03126232,-0.02808598,-0.0026460576,-0.05552582,0.05689264,-0.17450768,0.09701491,-0.1128042,0.043049842000000005,-0.0093688965,0.029998181000000002,-0.09780758,0.044325896,-0.01906055,-0.0010044804
-0.14741845,-0.00076095766,-0.1005683,-0.17951651,-0.061978273,-0.17467389,-0.05161677,-0.09116682400000001,0.08965297,-0.025732571,0.11907847,0.06051378,0.030406388,0.11142496,0.01784501,-0.09008616,0.0062224646,0.036495599999999996,-0.09226359,0.08928882,-0.04039443,0.004282646,-0.045954317,0.07735534,-0.03288404,0.019800365,0.021255258,0.07700850000000001,0.09815276,0.09790455,-0.04784633,0.04487961,-0.08974672,0.070036165,0.063607305,-0.07115099,0.08114466,0.0402114,0.00643903,0.062186014000000005,-0.11107270400000001,-0.0040079756,-0.030944306,0.083074704,0.018412782,0.054878667,-0.08752672,0.018701818000000002,-0.05464374599999999,-0.0009832864,-0.02528746,0.08187536,0.04384945,-0.02608884,0.03966317,0.026764229,0.047433342999999996,0.13041064,-0.0009373082,-0.058325075,-0.10190147,-0.07196713,-0.049399767000000004,0.03355799,0.23915148,0.037245392999999995,0.0040296917,0.011789589,-0.17257373,0.05912556,-0.05742004,-0.049031824,-0.09387943,0.04457454,-0.09487042,0.040814046,-0.086119615,-0.045930844000000005,0.08066657,0.084283866,0.019996513,0.0747789,-0.10192878,0.005917052,0.10728873,0.13410970000000003,0.0038591492999999998,-0.00055211614,-0.09142037,0.031473294,-0.035301495,0.07958314,-0.13425925,0.12469066,0.14987403,0.11205288,-0.0005788296,0.10659068,0.06114667,-0.047190275,-0.09817205,-0.051208715999999994,-0.10456253,0.014760275,0.09718828,-0.0509724,-0.11613414,0.058760148,-0.09520713,0.015176957,0.11755549,-0.077650644,0.11333851,0.060146526,-0.07891819,0.016789177,-0.10239578,-0.17051858,-0.006972761,-0.12269917,0.12964463,0.08005275,0.019553216,0.046392,-0.065408066,0.032674886,0.04427674400000001,-0.045864794
-0.16593470000000002,0.06044163,-0.07527142,-0.18523982,0.07790595,-0.06960837,0.039545175,-0.19927223,0.1377223,0.045141447,0.18984047,0.07279228,0.07775487,0.077418394,0.041544367,0.055168107,-0.02578833,0.1540822,0.03196637,0.01174491,0.057611432000000004,0.049142692,0.013510692,0.046201933,-0.037139654,0.021770101,-0.012294075,0.14606217,0.086665176,0.14923048,-0.03950707,-0.008433469,-0.09358769,0.0026172125,-0.07282012,0.021214043999999998,-0.093142085,0.08246906,-0.11108900599999999,0.12034944,-0.17312124,-0.014028648000000001,-0.01685405,0.07567113,-0.0036259925,-0.047743898,0.024530966,0.040124964,-0.09515152,0.11260729,-0.043597265999999996,-0.102087304,-0.13070843,-0.05615442,-0.08987148,0.09955599999999999,0.07067817400000001,-0.036301766,0.042024255,-0.003937089,-0.053027563,0.07125211,-0.055814672,0.08659644,0.07498542,0.06801417,-0.010554832,-0.0050149634,-0.09784736,0.027460462999999997,-0.063554905,0.07658532,-0.096714236,-0.059063725,-0.1297801,0.04660559400000001,0.021195864,-0.09250114,-0.10048459,-0.09436688,-0.12001638,-0.023560197999999997,-0.16490903,0.08738507,-0.075322345,-0.03604468,0.07928856,0.007069021500000001,0.015802758,0.08168658599999999,-0.04889665,0.08819127,0.012832333000000001,-0.07290955,-0.04165831,0.09405848,0.07813279,0.013841345,0.108142994,-0.05720286,-0.021643958999999997,-0.11155606,-0.008546939,-0.09331427,0.07680914,-0.029571947,0.038848028,-0.05048667,0.11461113,0.07005664,-0.030641792,-0.03154186,0.05944425,0.014268508000000001,0.022295872,-0.11288308,0.0045427029999999995,-0.05086685,0.0385195,0.09957616,0.071195275,0.06225409,-0.16109425,-0.03395331,0.036415752,-0.080083914,0.073858745,0.09054037
-0.01995218,0.10240650000000001,-0.05699489,0.08727112,-0.030171841,0.09918845400000001,0.08222655,0.05223686599999999,-0.044609937999999995,-0.09630306,0.0803303,-0.002491521,-0.017846003,-0.07852326,0.070864394,0.07452961,0.0875422,0.07627217,-0.09272157,0.016219182,0.048191375999999994,-0.027740648,-0.07059291,-0.03530502,-0.069662645,-0.035619907,0.059171934,-0.09785899,-0.004392127,0.005852871999999999,-0.027301847999999997,-0.05924824,0.07554685,0.04438625,-0.038841836,0.047126405,0.016244436,-0.01675926,-0.0026540454,0.0735188,0.050787005999999996,-0.095391154,0.026248595,0.07175355,0.037174445,0.036559045,0.08979878,-0.003116505,0.10110183,0.07288342,-0.034107703999999996,0.056797497,0.10113375,0.12084593,0.06247619,0.04222427,-0.08201448,0.010315905,0.009159417,0.124148495,-0.05681757,0.09767396,0.017357234,0.0065799076000000005,-0.0038241826,-0.035909865,-0.0389577,-0.020443084,0.064793564,0.13991123,0.08680212,-0.023410631,0.04658258,0.11552202,0.11970066,-0.046803758,0.057752423,0.082336776,0.034135014,0.09020952,0.03317506,0.10671115,-0.023748057000000003,-0.0036165188000000003,0.028787313,0.03682987,0.13829777,0.051648382,0.05432663,0.09322166,-0.10711995,0.105257645,-0.08452839,-0.032885935,0.10467309,0.086726695,0.013502776000000001,-0.03913928,0.06859042,-0.07867234,0.06774706400000001,0.11030506,-0.02623783,-0.061595026,-0.034880485,0.077832565,-0.067435704,0.07248204,0.074702635,0.06446399,-0.037629623,-0.03367376,-0.043315947,0.108849965,0.04674109,0.025618786,-0.040283522999999995,-0.012695583500000001,-0.06757059,0.03030577,0.042033102,-0.02650516,-0.06722199,0.092439875,0.06631267,0.08854403,-0.03907187,0.0675538
-0.04710982,-0.08846424,0.0027249276,-0.10569239,0.12581445,-0.035937153,0.01109049,0.008986234000000001,0.100869454,0.079637975,-0.055768784,0.08577451,0.100454085,-0.013989234,0.037808485,0.12482957,-0.12493031,0.037807297000000004,0.047006212,0.070278786,0.039228223,-0.014714331,0.036259346,0.068516254,0.028144102999999997,-0.06103523,-0.040125884,0.06375059999999999,-0.056318145,0.03737044,-0.05854293,-0.013122565,-0.050259084,0.10420733,-0.026317777,-0.07622582,-0.052577958,0.024830312,0.052006572,0.07830942,0.08160276,-0.0045852526,-0.07162014,0.037898224,-0.025719753999999997,0.09009129,-0.059505794,0.11979754,0.0006992050299999999,-0.05756335,-0.04584487,0.106988795,-0.07102008,-0.02501356,-0.0053917322999999994,0.05396914,0.0019337144,0.031824853,0.028888898,0.10241933,0.06860044,0.13104816,-0.07236992,-0.073996484,-0.09848904,-0.025458226,-0.07196506,-0.06454559,-0.09342695,-0.02732363,-0.036659136,0.09729352,0.11712577,-0.0536576,-0.06734375,0.0017316988,0.10902169999999999,0.10680911,-0.012943449,-0.08078365,0.061992097999999995,-0.07463429,-0.015931468,0.11128351,-0.028792957,0.08833655,-0.10482695,0.014406651000000001,0.10329106,-0.09670378,-0.019781291,-0.08852405,-0.059120648,-0.0983337,-0.08213118,-0.07516284,0.11539849999999999,-0.14998288,-0.13315870000000002,-0.05007166,-0.13308313,0.03494263,0.0051067574,-0.006683827,-0.04566682,0.08066398,0.1268183,-0.030830536000000002,-0.07119399,0.06752656,0.019204753999999997,0.13956389,0.04660833,-0.039567396,0.044485457,0.08190834,0.10274373,0.056624185,0.12631103,-0.023877002,-0.059511392999999996,-0.06801195,-0.10849133,-0.0845526,-0.058155112,0.10063618,0.046806462,-0.07408328
0.00265922,-0.0035115676,-0.07460420599999999,0.07986660000000001,-0.094255134,-0.119543076,-0.057778064000000004,-0.12866184,0.008238533000000001,0.039580375,-0.09601103,0.010928067,0.004009411,-0.09199324,-0.106298305,0.05814706,0.080058016,-0.11883621,-0.00031949888,0.017587171999999998,0.065693885,-0.14323387,0.046755585999999995,0.023073958,-0.001362832,-0.07314425,0.006495106,-0.027621267,0.100938365,-0.11290677,-0.055231437,-0.02750973,0.14522235,-0.13337965,0.11637476,0.03887143,0.041632265,0.050527897,-0.014110506,-0.07217698,0.13645202,0.062064372,0.12164664,-0.0339545,0.13178179,-0.11408959,0.06855089,0.08357017,0.06311112,0.043813784,-0.03256765,0.0034809352,0.03897597,-0.0027657473,0.04177376,0.09581433,0.05158781,-0.028367972,0.13200520000000002,0.09372616,0.06982571,0.04156051,0.07306236,0.06632637,0.18550776,0.11144296,-0.0790668,-0.06619894,0.16162963,-0.048409358,0.10804283,-0.0038645058,-0.082963236,0.016080985,0.12546878,0.10438254,0.0031573428000000003,0.063286975,0.13128108,0.014404027,0.025868653999999998,0.038125347000000004,0.1408814,0.094281815,0.063618824,-0.06799137,0.013437553999999999,0.13805231,0.025624962999999997,0.02831009,0.035282914,-0.012514562,-0.021097904,-0.07116412,0.008993813,0.11936871,-0.03976362,-0.05307327,0.10907362400000001,0.08234929,0.07254063,-0.06349297599999999,0.074836135,-0.071168356,-0.06420073,-0.09099819,0.015714703,-0.078230016,-0.03254273,-0.051021982,-0.15344033,0.13588461,0.12336876,0.017237917,0.10952248,-0.04206118,0.059571835999999996,0.023702955,-0.07262373,0.010162948,-0.014272906,0.04138753,-0.017034713,0.09288415,0.047556415,0.0005423366700000001,-0.09482273,0.0659826
-0.017537665,-0.06642263,-0.0040688883,0.070648186,0.054843899999999994,-0.0031111065999999995,-0.009775327,0.12198427,-0.019701824,0.077701844,-0.10379477599999999,0.04650018,0.08120227599999999,0.039391793,-0.01911226,-0.04107636,0.0505227,0.0052507203,0.09006916,-0.000936432,0.05697093,-0.038068555,0.047719135999999995,0.012045456999999999,0.05495412,0.008613858,-0.017992858,-0.02540159,0.05098571,0.054938648,-0.08152498,0.13321553,-0.05183769,0.08414875,0.016835807,-0.04175603,-0.0625022,0.024928799999999997,0.009601048000000001,0.15296885,-0.10927085,-0.0011968217,0.024311494,0.11311064,0.037148785,0.039290622000000004,-0.012667897,0.07689355,-0.005587929399999999,0.08234002,0.10889072,0.11231693,-0.08582113,-0.009732717,0.07099995,-0.011471995,-0.071869075,-0.011811309499999999,0.01964352,0.069616,-0.095312245,-0.04884989,-0.05004991,0.059260602999999995,0.06841692,0.08756181,-0.14907376,-0.026516817999999998,0.09090696,-0.018344209,0.07531863,0.071868986,-0.10509061,-0.0020653927,0.11510752,0.006017004,-0.07269328,-0.0600425,0.010986528,-0.07122811,0.15716812,0.034322097999999995,0.106572606,-0.03275199,0.039316844,0.076362014,0.16083418,-0.025629155,0.032089043,-0.014691623000000001,-0.040652238,-0.016811855,0.05347472,-0.07454082,0.10067484,0.07970011,-0.040059917,0.08008701,0.03692605,-0.008508342,-0.012609725,-0.011730475,0.18432173,0.054982305,-0.051205173,0.010880174,0.05370169,-0.03446295,-0.0033433086,-0.07428441,-0.15125239999999998,0.001304526,0.06366445,-0.0025415195,0.05849780000000001,0.09133159,-0.028627242999999997,0.035344835,-0.15169242,0.11288703,-0.02403949,0.06178549,0.10230672,0.10494105,0.004508321,0.06242603,0.023380458,0.052104
-0.025148371,-0.0013392072,0.025946077,-0.085826956,-0.02282355,0.11217878,-0.037656154,0.0044523016999999995,-0.061628956,-0.037526894,-0.044216755999999996,-0.017954648,-0.067060664,0.047114853,-0.05519608,0.10663371,-0.08503833400000001,-0.019724783,0.078934655,0.06536137,0.030360866,-0.013565957,-0.043236464,0.0078588715,0.014750646000000001,0.045791063,-0.071490005,0.068019435,0.05455045,-0.035837263,-0.021744404,-0.026446002000000003,0.039160866,-0.06694365,-0.032359008,0.028959434,-0.10576121,-0.09943178,0.086909175,-0.13507554,0.0015982792999999999,0.09464274,0.06619302,-0.093199715,-0.044071145,-0.045380276,0.06428353,0.032942303,0.06871797,-0.09259904,-0.09527585,0.037680328,0.025636015,-0.068661,-0.03377462,-0.030845575,-0.04200952,-0.004090122,0.047003485,-0.0045216694,0.068453826,0.01930102,-0.05748705,0.08280565599999999,0.014704924,-0.010600356000000002,-0.054249122999999996,0.014991177,-0.10495403,0.041946948,0.0076511246,0.09606685,-0.04147285,-0.025989909,-0.026587452999999997,-0.08568669999999999,-0.111632824,-0.019220293,0.11470821,-0.025029995,-0.061450068,0.0030573710999999997,-0.08065114,-0.024743868,0.111953974,0.014707233,0.01057721,0.03776359,0.10303163,-0.100769654,0.08983982,0.12528530000000002,0.0041925595,-0.033755176,-0.15765315,-0.02519687,-0.04434077,0.041135095,-0.038159527,-0.06795304,0.06705189999999998,0.02526857,0.0037096264000000003,-0.012016243999999999,0.04797407,-0.05339809,0.06810915,0.060701862,-0.00432793,0.0735711,0.092640355,-0.11224997,0.058418095,-0.08938344,-0.025152288,-0.11056661599999999,-0.035665307,0.060984295,0.15963794,0.08871974,-0.037674516,-0.043425288,-0.19431579,-0.017641114,0.06367936,0.04250645,-0.08215605,-0.08847141
0.05083875,0.14602214,-0.084018156,0.11245876,-0.076687895,-0.050730105,-0.03793089,0.04393394,-0.10602905,0.009983571,-0.047513205999999995,-0.083211094,-0.019290471,-0.09220642,-0.019812141999999998,0.0043421373999999995,0.07239237,-0.018604267,0.09932346,0.059645705,0.0020975205,0.014348161000000002,0.14469028,-0.07065189,0.11257312,0.05518392,0.100062765,0.041787386,0.010300761,0.012631761000000002,-0.02544086,-0.0032492827000000003,-0.07461967,-0.02251729,-0.021489988999999998,0.041523773,-0.08758826,-0.047677573,-0.084488645,-0.043868594000000004,-0.0131386975,-0.0488448,-0.029314619,0.10854383,-0.09613492,0.06693784,-0.015810663,-0.0016989533,0.03960529,-0.08612043,0.0126662105,-0.04539167,0.04518538,-0.12991595,-0.06568768,0.09593772,-0.09852984,0.039445374,-0.031034414,0.07226588,-0.022218792,0.040050127000000005,0.008138184,-0.11364911,0.06350059999999999,0.031910155,-0.073119886,0.103472516,0.03617434,-0.17632015,-0.15592942,-0.10847907,-0.0016929146,-0.048390657000000004,-0.08431378,-0.06515075,-0.09895825400000001,-0.11294348,-0.0048797983,-0.058176007,-0.04505556,-0.074749626,0.07743632,0.06966738,0.06510127,-0.018537361000000002,0.09732386,0.067958,0.07018579,0.042086005,-0.04091282,-0.11011652,-0.05892106,0.02876802,0.0044838223,-0.14331225,0.056014426,0.03807232,0.019447548000000002,-0.06811712,-0.120693274,-0.021536982000000003,-0.033484392,0.025319797999999998,0.06790138,0.023242277999999998,-0.043455932,0.037149258,-0.009196876,-0.13350536,-0.11187041,0.098100916,-0.11544456,-0.004211514699999999,0.09402867,0.013221888000000001,0.05645218,-0.09780873,0.04016872,0.051674284,0.103893794,-0.03850234,-0.07718484,-0.06802087,0.03615276,-0.041452635,-0.052031085,-0.007187791999999999
-0.09988234,0.05500753,0.013561249,-0.032683145,0.02467779,0.08218444,0.00703798,-0.0026940028000000003,-0.07975863,0.04988436,0.010384954,0.023368115,-0.0008486906,0.01342654,0.06515535,0.08877735,-0.009000499,-0.045567135999999994,-0.080125205,0.0040822686,-0.11510025,-0.060193695,0.006984094000000001,0.030643512999999997,0.012540248,-0.0689074,0.007775084,-0.11770764,0.06016294,-0.088464975,-0.028758803,0.04231883,0.01397588,0.02011977,0.015301466000000001,-0.09650604,-0.030716387999999997,-0.108322926,0.057064604000000005,0.06007041,-0.017174916000000002,0.057274364,-0.047228902999999996,-0.06517284,0.056556456,-0.08360378,0.038287472,0.064289294,-0.08535434,-0.09935735,-0.038881436,-0.01464152,-0.041575838,-0.03682044,-0.00933568,0.023784716,0.037085924,-0.077318035,0.053405225,-0.13205859,0.007971361,-0.033474397,-0.009512769,-0.08933476,-0.057586093,-0.11117517,0.0066819624,-0.05846057,-0.12599739999999998,-0.015795931000000003,-0.012746641999999999,-0.0045327297,-0.015166918,-0.03883104,-0.00799545,0.06264237,0.026755879,-0.04648835,0.05194712,-0.05774931,-0.06614631,-0.043868585999999994,0.027088668,-0.038791016,0.031662725,-0.013253185,-0.02003191,-0.02192905,0.15185319,0.024464054,-0.060277045,-0.01884552,0.053638652,0.04972671,-0.008392845,-0.1569814,-0.011392153,0.049148783,0.05390075,0.009999675999999999,0.06555491,-0.09406621,-0.03610277,-0.10223289599999999,-0.019044898,-0.039937828,0.05716254,-0.00015796379,-0.0882295,0.059772518,0.09191154,0.033016324,-0.105076954,-0.048842944000000006,-0.05056085,-0.06513288,-0.06906724,0.021777486000000002,0.18774860000000002,0.049977902000000005,0.030909602,-0.08463704,0.038205616,0.055288199999999996,-0.016473161,-0.02062156,-0.04924403,0.06751759
0.0070461654,0.035068102000000004,0.08666399,-0.12373368,0.023158325,0.011241576000000001,-0.030851668,-0.09803306,0.09065737,0.07646043,-0.021104647,-0.07655929,0.0786323,0.07851456,0.049440365,0.03862662,-0.05992755,0.0069330074,-0.028563516,0.08833457,0.009595598,0.027965537999999998,0.039217506,0.08837861,0.11938547,-0.046498563,0.086236924,0.04853196,0.06439563,0.03615248,0.05735507,-0.029645192,0.0008500005400000001,0.13879603,0.10997639,0.012893358,0.021905402,0.01214274,-0.054235503,0.058102757000000005,0.08304131,0.10668754,0.089157246,0.014929929,0.09253331,0.062485293,0.007561282,0.06206482,0.03330203,0.008684033,0.030105531,0.046790723,-0.08779450000000001,0.0272958,-0.050822474000000006,0.092141725,-0.12577036,0.12373342,-0.07639254,0.0090140505,-0.068323724,-0.0027337098,-0.006854091,-0.028698351,0.05725603,0.056833673,-0.03517681,0.12776026,0.0972745,0.014596033000000001,0.14300739999999998,0.11868717,-0.08466367,0.082947195,-0.036021292,0.017838983,-0.010954378,0.00895802,0.06428598,0.008759591,0.14054677,0.04169423,-0.06663985,0.057097517,-0.02567545,-0.047820367,0.038545012000000003,0.108659096,-0.00075435644,-0.050020166,-0.04754428,-0.015277826999999999,0.04929226,0.08035573,0.116782695,0.0021146173,0.14725643,0.03776618,0.046292342,0.12142046,0.041091382999999995,0.1131287,0.018827397,0.07517517,-0.04983147,0.099415995,-0.09012056,-0.08666239999999999,0.13247126,0.07296567400000001,-0.03290211,0.14415699,0.04237072,-0.08655741,-0.06236191,-0.042509157,-0.03541419,0.067499645,-0.06333191,0.07427074,-0.11804384,0.016168522,0.14898099,-0.03466086,-0.07862419999999999,-0.067919776,0.036115997000000004,0.04353887
-0.05211024,-0.014515911999999999,0.08267797,0.08275989,-0.0057269335,-0.040543146,-0.031000787000000002,-0.060673147000000004,0.11316529,-0.07047953,-0.003731415,-0.10360581,0.08160895,0.06529914,-0.080919325,0.03168332,-0.014717616999999999,0.10362621400000001,-0.012759898,0.03518865,-0.080377616,-0.012889188999999999,0.08014192,0.054098427000000004,0.04000848,0.14072992,0.018891621,0.116671205,-0.018812329,0.13210677,-0.09683861,0.0073364917,-0.06351711,0.079189934,0.033169013,0.07371153,-0.050305154000000005,0.08338702,-0.07764677,-0.07714051,0.04240675,-0.013801302,-0.11466931,-0.034081995,-0.14313419,0.04936083,-0.030122742,-0.07359211,0.026325922,-0.08556356,0.014828728000000001,-0.1281994,0.026456927999999998,-0.10887472,-0.09715379,-0.057252854000000006,-0.101798184,0.05306202,-0.10759565,-0.10225782,-0.120304324,0.009470185,-0.06634612,0.010455266,0.012979731000000001,0.060577907,-0.08992355,-0.07083781,0.026361244,0.06062431,0.061848253,0.073327504,-0.015007005,-0.05679616,-0.13872308,-0.06651387,0.08371913,-0.00010151740599999999,0.0058392915000000005,0.005166467,-0.102341704,0.016272372,0.004919052,-0.077219315,-0.006686172,0.046406447999999996,-0.027985105,-0.058194682000000005,0.058485735,-0.10813764,0.08654587,-0.06121883,-0.11586873,-0.05092726,-0.033043302999999996,-0.050171315999999994,0.052826777000000005,0.06529197,0.11488757,0.041032918,0.08521456,-0.022342922,-0.081206165,-0.097365856,-0.024084691000000002,-0.08168883,-0.007350414499999999,-0.052172337,-0.1298381,-0.06981713,0.022139195,-0.0063069495,-0.14154226,-0.031696357,0.0748482,-0.03653207,-0.03836889,-0.05761861,0.2013647,0.10876111,0.13359326,-0.1233183,-0.073812045,-0.052241105999999995,0.086817086,-0.07034113,-0.0113296,-0.04932315
-0.090415165,0.0028926244,-0.024178902000000002,-0.019960202,-0.09321377,-0.042964645,-0.05100426,-0.046455,-0.06643955,-0.09719869,-0.018074286999999998,-0.07612292,0.06643557,-0.13003473,0.13182932,0.0025183557999999997,0.059672654000000006,0.04852332,0.1559624,0.07029973,0.14796281,0.065178275,0.0188829,0.10421823,-0.025942767000000002,0.19979045,0.007871056999999999,0.106018156,-0.10595410000000002,0.1358846,-0.11531606,0.079887435,-0.12920068,-0.048227526,-0.06618259,0.14307496,0.034541145,0.020834679,-0.013399611,-0.0053169390000000006,0.00085858477,0.07890949400000001,-0.039771046000000004,0.09254231,-0.043946028,-0.04723908,-0.071587704,-0.0088220835,-0.06709658,0.019032655,0.019051105,0.061125900000000004,-0.16902447,0.030737287999999998,-0.16731748,-0.01579126,0.04385195,0.087168805,0.07442717,-0.00094891666,-0.120353006,0.05219341,-0.05024433,-0.14661267,-0.005052098,0.007817300000000001,0.012061404,-0.045776945,-0.08160795,-0.11588567,-0.15131822,0.0818337,0.066575944,-0.03132043,-0.06747805,-0.058965187999999995,0.00040043589999999997,-0.051417485,0.09580351,0.04157504,-0.06201414400000001,-0.074485354,-0.0017343903,-0.012589605,0.12397168,-0.10764768,-0.10537417,0.01251208,0.017605914,0.063872,-0.12822142,0.065757886,-0.02325424,0.047794607,0.003930416,-0.055377744000000007,-0.08035078,-0.028591381000000003,-0.07969442,0.0026869506,0.049467754,0.013179943000000001,0.031641683999999996,0.0555297,-0.021114726,0.053580627,-0.061099302,0.09704751,-0.071353376,-0.09848429,-0.06697346,0.04606893,-0.06665681,-0.0753522,-0.028561499,0.011790758,-0.10150588,0.021880017999999998,0.21586764,0.09849156,-0.06079786,0.05977967,-0.03748934,0.039835025,-0.100197986,-0.034198172,0.03185526,0.009415106
-0.08092053,0.02959164,-0.06990587,-0.045520335,-0.10718430000000001,-0.045755412,-0.07813459,-0.09977703,0.0024629747,-0.07451077,0.09506285,-0.09459794,-0.055049945,-0.07794971,0.055263272999999995,-0.047050647,-0.04681612,-0.015308144,0.091296084,-0.06953047,0.04018299,-0.068823904,-0.017492928,-0.07757532,-0.057483047,0.11379138400000001,-0.049121052000000005,0.10669489,0.06339685,0.032065567,0.08559309,-0.025690082000000003,-0.032636337,0.066874266,-0.094799936,-0.0011106024,0.089182384,0.029798812999999997,-0.04484417,0.0792878,0.10069903,0.033154637,0.03548885,-0.05752967,-0.04287733,-0.026729772000000002,-0.07767658,0.06496487,-0.06180291,-0.021557352999999998,-0.007499614,0.009267684,-0.003271117,-0.069160804,0.11957386,-0.08342952,-0.0987431,0.03480088,-0.10377762,0.016834281,-0.0036431134,-0.018444622,0.12644684,-0.04685544,0.093403265,-0.08116604,-0.06895225,-0.059814334000000004,-0.027631857000000003,0.13472022,0.10792139,0.10920056,0.010671591000000001,0.073109485,0.037567332,-0.02200232,0.06511273,-0.046800725,-0.068353385,0.062281355,0.054077107,-0.023337092,0.07118638,0.05732184,0.11351671,-0.07961015,-0.028439847999999997,-0.062127024,-0.041484077,-0.04686357,-0.04475440000000001,0.0349145,-0.09393543,0.10969064,0.14125259,-0.007669825600000001,-0.011630826,0.012281432,0.07712002,-0.031106052999999998,0.057191927000000004,-0.011381771,-0.047387495999999994,0.013745516999999999,0.107749835,0.08122981,-0.14160335,0.067511074,0.010100831,-0.04893182,-0.13756178,0.09369623,0.13186319,0.11186847,-0.080362886,0.038619526,-0.046330857999999996,0.026334472,-0.08639476,-0.0002438483,-0.12919614,-0.07632635,0.11174393,-0.02236206,0.08065982,0.021823178999999998,-0.06915352,0.0045131533
-0.085156955,-0.08426943,-0.09233322,-0.008682304,-0.015883798,0.032922532000000004,0.058428314,-0.10089145599999999,0.061248300000000006,0.021678107000000002,0.106954694,0.04924958,-0.0053275363000000004,0.09737394,0.08506517,0.16559733,0.082163945,0.11633361,-0.09247849999999999,0.00379144,-0.052042200000000004,0.049423132,-0.13583289,0.09072252,-0.009619362,0.048902135,-0.13066034,0.07598451,-0.095301546,-0.08191997,-0.11410549,-0.066889875,-0.00027648633,0.08389731,0.021778122,0.07143476,0.096488565,0.008981348,-0.058388475,0.03507088,0.006149944,0.060928065,-0.07987389,-0.034217153,0.020646051999999998,-0.049621608,0.07565844,-0.036988422,0.022265326000000002,0.07036437,0.010589863,0.0337898,0.010929436,-0.01543167,-0.03468424,0.062842,-0.14577782,0.016575318000000002,-0.01036788,0.06619016,0.09368136,0.029333527999999998,-0.08137531,0.03995157,0.0918848,-0.0060177035999999995,-0.110787645,0.12339384,0.040645327,-0.0006672577,-0.042808812,-0.09783225,-0.046276007,0.048518907,0.027198697,0.12355277,0.040390227,-0.008909051999999999,0.065822214,-0.093057945,0.00823222,0.06847752,0.0057155625,-0.0010877623,-0.09628058,0.03914714,-0.027723638,0.12232483,0.06072687400000001,0.041123938,-0.0764421,0.009538664,0.03374873,0.09048937,0.10938342,0.14393306,0.0042739054,0.114659995,0.010638917,-0.0990052,-0.033201836,-0.07892805,0.070140004,-0.0040256892999999995,0.014400981,-0.07129229,0.0064558540000000005,0.003465797,0.14371146,0.11860196,0.030028812999999998,-0.007925916,0.111593835,0.09584898,0.09740008,0.008682628000000001,-0.10261866,-0.0844005,-0.01401,-0.10170063,-0.04543272,0.059056397999999996,0.02415939,-0.039513078,0.06590486,0.07838748,-0.10810369,0.050325993
-0.15118217,0.033856586,-0.014087973,-0.067739286,0.05255622,-0.05005642,0.03380781,-0.104568526,-0.06464833,0.059490617,0.010480241,0.08919154,0.13430437,0.06101197,0.02184888,0.014458398999999999,0.09114158,0.05418354,0.031584386,-0.00700746,0.033038415,0.09694647,-0.0062068947999999995,-0.043433577,0.049607184000000006,-0.043694395999999996,-0.0010790139,-0.046884265,-0.05465961,0.11146758,-0.09094689,0.07035006,-0.03365602,0.02267428,0.057756305,0.095630065,-0.094473936,0.004360123,-0.07971600400000001,0.0029623248,-0.04599864,0.08689311,-0.04141269,0.059469048,-0.025071677,0.061465632,-0.06737161400000001,0.09337176400000001,-0.008366823,-0.09656022,0.018774106999999998,0.021039411,-0.0072655394,0.012049043,-0.04221701,-0.014510015,-0.029762747000000003,-0.07487967599999999,0.06942686,-0.09992985,-0.016317561,-0.0030782432,0.01947164,0.06267801,-0.16130154,0.049117126,-0.095835745,0.055605825,-0.088101186,-0.10859932,0.020667883999999997,-0.09334684,0.009793801999999999,-0.11029365,-0.06437911,-0.03975414,-0.06447118,-0.114722885,-0.05400403,-0.09554134,-0.06262125,-0.08660367,0.061841235,0.00035957830000000004,0.046363242,-0.0066579543,0.0011766844,-0.10534771,0.03796493,-0.030057706,0.04675924,-0.01529803,-0.008790204,-0.040957212,-0.10326418,0.0119863,-0.0033645907,-0.087814905,0.03207943,0.07410987,0.007418259,-0.14670329999999998,0.04487124,-0.036483396,-0.053106915,0.03082052,0.13256003,-0.1371848,-0.014329158,-0.10539274,-0.06016439,-0.054469477,-0.009938051,0.08117444,-0.042911563,-0.024096887999999997,-0.010782903,-0.045871504,0.03361414,0.03175755,0.016436476000000002,-0.028304057,0.06046298,-0.08937683,0.12475865,0.002989934,-0.031880416,0.05872719
0.15520878,-0.0660477,0.016629484,0.13017583,0.118191406,0.024465557000000002,-0.04547254,0.18270476,-0.061480402999999996,0.16259804,-0.12562202,0.003990968,0.005998185,-0.017964116999999998,0.014885912,-0.07480765,-0.05945331,0.10263307,-0.16023819,-0.07989219,-0.07459547,-0.04972099,-0.06772791,-0.07218899599999999,0.011050077,0.012254816000000002,0.011356421,-0.16295086,-0.07172561,0.015843017,-0.061522067,-0.039400112,-0.019781,-0.07421327400000001,0.0079793595,-0.03701089,-0.08788122,-0.02407841,0.030901661,-0.050033264,-0.06547058,0.09451420599999999,-0.04573605,0.037565056,-0.04653505,0.10617437,-0.0077163638,0.0717625,-0.033442684,0.027804602,-0.0071797219999999995,0.048695687,0.06936914,-0.057118747000000004,0.10915178,0.074011095,-0.060471687,0.02835281,0.074967764,0.03989516,0.09630687,0.046363454000000005,0.048015032,0.017275328,0.015063297,-0.056163616,-0.00026640642,0.11504088,-0.04040712,-0.12698226,0.03340999,-0.08794163,0.020769918000000002,0.06472579,0.028698232,-0.12218525,-0.01693077,0.099659,0.059069987000000004,-0.04328379,-0.021335423,-0.004523784,0.04146132,-0.0060392986,-0.035939097,0.10454554,0.0118786665,0.016143441,-0.0027821203999999996,0.028940697999999997,-0.008472679,0.089613415,0.08088954,0.03958069,0.037260033,0.012653721000000001,-0.056468565,-0.048586883,-0.07894996,0.02099875,-0.018338703999999997,0.059387695,-0.050767485,-0.076724455,-0.07600964,-0.09409279400000001,0.026542582000000002,0.0860081,-0.040572375,-0.08282934,-0.08310737,0.13241329999999998,-0.09299026,0.030974513,0.02037984,-0.081252865,0.091350615,-0.059703503,-0.010737719,0.10758179400000001,0.04585762,-0.039027732,0.002863418,-0.047784846,0.044418458,-0.05499192,0.08288701,0.15080003
0.06539842,-0.08519594,-0.0649531,-0.06488869,0.03967734,0.054724067,0.048983306,0.01266081,-0.072572015,-0.0049065915,0.083111554,-0.056528762,0.083270825,0.056781806,0.058775604,0.09056864,0.06629794,-0.016463444,0.10721443,0.10870018599999999,0.0022817284,0.056242876,0.012113637,0.05575392,0.08293231599999999,0.0006964752000000001,-0.00848163,0.013393563999999998,-0.039790463,0.023496213999999998,-0.031033622,0.022129025,0.04670221,-0.07259563,0.030353345,0.09322061400000001,0.058138452,-0.005418219,-0.015994608,-0.022932127000000004,-0.0961182,0.05687398,-0.04073086,0.12785403,-0.03083392,0.06921859,0.07714698,0.03315651,-0.119360544,-0.024204097999999997,-0.039945886,0.018806553,-0.08399071,0.08179474,0.08231079599999999,0.067507185,-0.064053275,0.06500092,-0.05492302,0.021714486,0.05656102,-0.06541877,0.06141165,-0.032817233,0.1675087,0.1397787,-0.10660608,0.13360946,-0.011600165,0.16923912,-0.03118055,0.09247866,-0.009041289000000001,0.07060403,0.117671125,0.11379917,-0.04356611,0.004629783,-0.041304126000000004,-0.08687766,0.11867902400000001,0.015720903999999997,-0.10417311,0.04967747,-0.10985466,0.0716155,0.1465714,-0.04481651,-0.03702676,-0.025384171,-0.023524579,-0.04318681,-0.03470988,-0.017875713999999997,0.08436574,0.07695094,0.09145218,0.05557475,-0.00054554077,0.09648657,-0.105020545,0.09658737,-0.021577055,0.09716659,0.11874156400000001,0.07513439999999999,-0.031445272,-0.03480405,0.12067764,-0.08429427,-0.01010318,0.12332176,-0.02670744,-0.035285242,-0.07753182,0.011222028,0.025018968,0.0068747685,-0.15117717,-0.04530645,-0.013796916000000001,0.011609163,0.06806412,0.006405536999999999,-0.07790109,0.10050192,-0.018896317,0.09010459
-0.019646095,-0.06219423599999999,0.16385573,0.010019941,0.099272326,0.09548132,0.15182297,0.02474502,0.07765549999999999,-0.0022843526999999997,-0.09514037,0.17497748,0.039591815,0.071017385,-0.12734166,0.15266424,-0.053146492999999996,0.08791652,-0.08853199,0.059944085999999994,-0.055345185,0.0032761612,-0.11073311400000001,-0.03231015,-0.15280823,-0.09289936,0.048913937000000005,-0.05090084,-0.12495988,0.00073517417,-0.0540201,-0.1439885,0.0630503,-0.049525555,-0.11837239999999999,-0.057228025,-0.06350704,-0.018084614,-0.10281194,-0.124928996,0.053330917,0.10286552,0.022549642,-0.07188543,-0.09293532,-0.06543356,0.07672277,0.103969306,0.055582993,-0.00035034873999999997,0.09456299,-0.07379998,0.015170443,0.07564463,-0.038197123,0.05696545,-0.09483865,-0.08160212,-0.0978483,0.024275927000000003,-0.055770524,0.033034924,-0.11923307,-0.064006634,-0.021190893,0.000706727,0.0048236162,0.063074246,0.007128891500000001,0.043961785999999996,0.036725442999999997,-0.07620989,-0.12079377,-0.004718994000000001,-0.041747827,0.08488731,-0.0005439524,0.011967716000000002,0.047545787,-0.004378975,0.015141472,0.0255173,0.11708782,-0.010521033,-0.06999291,-0.08708118,-0.05651588,-0.04457384,-0.08785629,0.0816522,0.033423897,0.057773727999999996,0.07219337,-0.07401447,0.002614439,0.025467467,-0.053977303,0.05201267,-0.06676389999999999,-0.09122192,-0.07772149,-0.015233778,-0.04383724,0.005371965500000001,0.04503409,-0.023836713,-0.024651226000000002,-0.034052093,-0.07162916,0.06271411,-0.012357836,-0.053025674,-0.09600791,0.10032519,-0.057130355,0.018310484,0.10466236599999999,-0.07009608,-0.05523059,-0.03238412,-0.05354479,-0.043691553,0.04241216,0.0018574892000000002,-0.046054717,0.06386214,0.12576298,-0.07894504
0.010526436,0.043619182,-0.041601587,0.05567346,0.03275811,0.06546631,0.03525741,0.07968051,0.09641222,-0.08827902,0.06632990400000001,-0.07471857,0.06378569,-0.05302016,0.055648025,0.02701802,0.055029664000000006,-0.014686706499999999,0.10118181,0.13781463,0.02105498,0.12910655,-0.11722038,0.028098487999999998,0.044980377,0.10920642,0.018361524,0.11665232,-0.09776837,-0.0047033397,-0.06890648,-0.08011041,0.0073968642000000005,-0.020475613,-0.12249203,-0.0022328511999999997,0.074343555,0.05787071,-0.11583857,-0.11854269,-0.0045612855,-0.037410986,0.037230656,0.08274389,-0.07823796599999999,0.050972763,-0.11625961,-0.06570849,-0.12147827,0.020081144,-0.063323066,-0.0070468313000000005,0.020844856000000002,-0.08972784,-0.00027878216,0.073994726,-0.12084463,0.106368855,-0.0880933,-0.04286507,-0.0658168,-0.081330925,0.025354259,-0.034509726,-0.097811535,-0.06697063,-0.030890083,0.026978357,-0.13069382,-0.10923193,-0.15176594,-0.07369329,-0.009885666999999999,-0.12463133,-0.026810712999999996,0.03190294,0.09756803,-0.10494249,-0.07981686,-0.06464846,-0.054483645,-0.041334726,0.046529178,-0.035657957000000004,0.023973491,0.06393517,-0.11686376,-0.02699745,0.021216435,-0.05764128599999999,-0.044270664,0.047766007,-0.0801577,-0.0678107,-0.04622467,-0.058130357,-0.114106536,-0.08705863,0.051335778,-0.045950647000000004,0.09073358,-0.09642474,0.047396608,0.07581439599999999,-0.12936294,-0.008167034,0.018922295,-0.023054792,-0.118002266,-0.020727953,0.13072465,-0.14020593,0.04488501,-0.017934926,0.024650252999999997,-0.07986376,-0.03782403,-0.054148104,0.16913061,-0.037227985,0.031654906000000003,0.0823409,-0.052303616,-0.07984912400000001,-0.04324271,0.05280295,0.038306694,-0.09852263
0.16280921,-0.10252077,0.12887093,-0.015397194,0.12623258,0.06644731,0.14757758,0.113195226,-0.058986448,0.18569866,0.07846402400000001,0.18358026,-0.12539901,-0.0027412802,-0.17911896,0.100679345,-0.0346995,0.011035233,-0.006328713000000001,0.006258311,-0.0835563,0.047928933,0.00931782,-0.04615951,-0.11447435,0.03953576,-0.06603581,-0.023000883,-0.09007008400000001,-0.07371336,-0.03322943,-0.09556102,0.031683326,-0.12945461,-0.04263394,-0.023491355,-0.07760289,-0.006935223000000001,0.09446687,0.06411209999999999,0.07254137,-0.025617382999999997,0.10414249,-0.09163062,-0.05353819,0.051642355,-0.0876046,-0.064115874,0.14737612,0.093503386,-0.0761543,0.051368925999999995,-0.0021995252,0.023086246,0.069545574,0.07516838599999999,0.05032778,-0.053777818,0.06065588400000001,-0.025391248999999998,0.059023052,-0.029885685,0.06348988400000001,-0.049957056,0.0713678,0.065058,0.016361767,-0.009510626999999999,-0.09191611400000001,0.025968185,0.04489296,0.07190189,0.06761132,0.024080168,0.048980188,-0.07523991,0.023111657999999997,-0.07128321,0.053752445,0.06322409,0.10850155,-0.014087711999999999,0.1001423,0.07042557,0.09575861,-0.07331431,0.10260564,0.018878378,-0.113487154,0.009367447,-0.10272432,-0.075191244,-0.028749619,0.027027175,0.08259111,0.09140989,0.032267425,-0.021956569,-0.094726235,0.06627319,-0.051399846,0.02835736,0.15694338,0.101492345,0.0033981607,0.011833296,0.05176503,-0.040055797000000004,0.04138109,0.019290516,-0.027323611,-0.041850552,0.03871109,-0.06305199,-0.07459926,0.062083803,-0.087471135,0.053804804000000005,-0.12691288,0.049618546,-0.08879133,0.02187342,-0.006173688,-0.027658591,-0.04427191,-0.06698376,-0.052469112000000005,-0.022426536
0.03393146,-0.04770163400000001,-0.0268241,-0.08879661,-0.06837797,0.0827085,0.018856604,0.027366808,-0.030275306000000002,0.11707835,-0.050470263,-0.067129076,-0.070050575,0.07154019,0.018340709,-0.03977043,0.050079215,0.10765938,-0.07844195,0.05212428400000001,0.045366332,-0.004808951,-0.0019556014,7.7180164e-05,0.078915045,0.11202988,0.022286095,-0.09318783,0.080767274,0.11133817,-0.04622849,0.023231237999999998,-0.018980546,0.029973615,-0.072133616,0.05493851,-0.008883816,-0.07534431,0.02396854,-0.09523794,-0.03708575,-0.03127194,-0.11509291,-0.018909914,-0.014282824,-0.017619018,-0.13534263,-0.08595981,-0.0035861768,-0.121824294,0.022837106,-0.09570241,0.06541005,0.018725798000000002,-0.095727645,0.021575797,0.10246896,-0.055807322,0.04520938,-0.02978475,-0.00039337942,-0.080120474,0.03400967,0.06520509,-0.14377043,0.0020440652,0.056024294,-0.025663475,-0.035015613,0.048646435,0.04442183,-0.06465134,0.009272078000000001,-0.053402915999999995,-0.0059862593,-0.10093431,0.0037865445,0.05334934,-0.052115753,0.02177444,0.045160655,-0.13851257,-0.0705302,-0.09473539,-0.07435245,-0.0825929,0.06716128,0.07188654,0.09497430000000001,-0.019210432,0.13945548,-0.11067498,-0.08467026,-0.06302116,-0.099815816,0.009998358,0.030509979,-0.03492734,0.0236557,-0.09709377599999999,0.08024319,0.07538854,-0.110443085,0.032496456,-0.0070732357,-0.060491946,0.12280567,-0.087824255,-0.094005495,-0.03338017,0.10754788,0.012205223000000001,-0.026347574,-0.09602293,0.016189948,0.0035000243,-0.053637825,-0.00011424181000000001,0.031722706,0.01329295,0.078291796,-0.091165796,-0.07366103,-0.07862225,0.025813594,-0.09444767,0.100637436,-0.1088486
0.10686226,-0.123161785,-0.050234996,0.10940504,0.072179675,-0.08668023,0.09873563,0.0869311,0.119068615,-0.0013992593,-0.039986856,-0.04872509,0.012652938,0.10952054,-0.04502389,0.11420485400000001,0.04460556,0.13771765,-0.07387597,0.13205588,0.01597747,0.10480109,-0.044631205,0.15446833,-0.046089232,-0.010079264000000001,-0.051249363,0.019512035,-0.07056469,0.04383357,-0.004790129000000001,0.079018764,-0.05495726,0.11704187,-0.13085116,0.050087694,-0.058022812,0.102019906,-0.109928474,-0.0936403,-0.12901537,0.04399545,-0.039088067000000004,0.01851155,-0.03593232,-0.030699199,-0.07448798,0.042035773,-0.13247141,0.02465551,0.06596149,0.019839026000000003,0.06257533,-0.0069833067000000006,0.008592815,-0.012763858000000001,-0.01220163,0.009261748,-0.04478213,0.046301123,-0.101097964,0.072134756,-0.12684389999999998,-0.08242146,-0.08348238,-0.019962313,0.0719517,-0.09678902,-0.16657834,-0.087523915,0.056024252999999996,-0.096449904,-0.06619579,-0.083287165,-0.018236848,-0.054538403,-0.03108924,0.015893955,-0.058133606,-0.06539461,-0.019557236000000002,0.052545805,0.09829259,0.0019234803,0.051287163,0.035656652999999996,-0.09290393,-0.025472498,-0.05252037,0.023682427000000002,-0.031548373,0.058236342,0.10916162,0.07714448,-0.13199818,-0.031836715,0.048283275,0.10195446,-0.04738949,0.09037495,0.10585549,0.067741975,-0.06944836,-0.04007178,0.010077407,0.06434905,0.09607828,-0.027967462000000002,0.058506228,-0.058424647999999996,-0.05421094,-0.05465294,0.0045007607,0.0005713192,0.013199299999999999,0.012563736,-0.08798246,-0.12758775,0.11615301,0.029074102999999997,0.16819991,-0.07181662,-0.00011169903,0.07453582,-0.07566777,-0.12340298,-0.008089362,-0.09499287599999999
0.027828664,0.12827809,-0.20037779999999997,0.078753,-0.074785635,0.06912728,-0.11880112,0.043376334,-0.0011842172,0.08129255,-0.037375767000000004,-0.03092837,-0.0762405,-0.07684583,-0.16585256,-0.0645985,-0.10446087,-0.13041614,0.06668926,-0.100704215,0.11129091,-0.13600162,-0.019887332,-0.053805005,0.09061075,-0.12727049,0.065400735,-0.049737635999999995,0.03188238,0.013040548999999999,-0.094602466,-0.036986492999999995,-0.035237208,-0.103668064,0.08969013,0.06444836,0.005599119699999999,0.08912233,-0.021363827999999998,-0.07509237,-0.013334833999999999,0.08229403,0.022670165,0.009465214,0.10398518,0.028449507000000002,0.023251645,-0.10781654,0.17509693,-0.07704278,-0.07044683,0.113939725,0.0020097294,-0.029580811000000002,0.024770854,-0.06575844,0.052579667000000004,0.05319808,-0.037401907000000005,-0.023688532,0.13550842,-0.030292162999999997,0.11797979,0.04652375,0.028038057,0.06846647,-0.028314437999999997,0.10159114,0.16026784,-0.08023926599999999,-0.029607626,0.0017027454,-0.07926772,0.01923551,0.1300684,0.05423282,0.05830755,0.07014869,-0.062864535,0.060952418,-0.039599914,0.03615801,0.03859744,0.034382135,-0.04338465,0.08311758,-0.097194545,0.037388906,0.07272197,-0.09118501,-0.09033763,0.06446489,0.022014488,-0.016240261000000002,-0.027559225,-0.06202919,-0.12458358,0.08316866,0.068602525,0.04283858,0.06340653,-0.028072711,-0.01632191,0.025657443,0.07662572,0.12312475,0.033542164,0.057026464000000006,-0.08976426,-0.11257816,0.010275376999999999,-0.027973908999999998,-0.04829693,0.032337386,-0.054935057,-0.0779719,0.057133913,-0.09325507,-0.09920889,-0.047104437,-0.07706784,0.034997318,-0.00843823,0.020893501000000002,0.020335935,-0.083616585,0.011571318999999998,-0.0009473691
