0.16643842,0.00012487623,-0.03623413,0.056395605,-0.056585535,0.16575228,0.069567814,0.0046853115999999995,0.04238085,-0.051689293,0.028090692999999996,0.08139568,-0.053876035,0.09305749,-0.11339528,0.013527063999999998,-0.14663510000000002,0.17834914,-0.10246535,0.10802136,-0.17939086,-0.02108155,-0.16721508,-0.09795858,-0.10237419,-0.047423914000000005,-0.0024310017,-0.13979651,-0.0978745,-0.11915573,-0.008800686,-0.04661764,0.03993502,-0.0928914,-0.04475158,0.02316716,0.027477084,0.025342567000000003,0.03373277,0.013316146000000001,0.15514585,-0.03200251,0.036196735,-0.0028903175,0.062203098,-0.040697362,0.024420197999999997,-0.096874565,-0.08627879599999999,0.090747565,0.035552587000000004,0.0344403,-0.0002995631,0.05422793,0.07141502,-0.033926614,-0.083408386,-0.010445467,-0.0233309,0.039272115,-0.006488689000000001,0.08411881,0.015541135,-0.10728814,0.077566266,0.0046245744,0.10815705,-0.08209128,0.07870047,-0.002111608,0.11269027,-0.11245734,-0.10837822400000001,-0.00558231,0.022343067,0.006123918000000001,0.10515295,-0.0083423145,-0.0037114983000000002,-0.033105902,-0.06095601,0.032018002000000004,0.118734166,-0.013091503999999999,0.06439477,0.088633925,-0.0030876424,0.10448610000000001,0.13641366,-0.08174353,-0.005770875,0.011751798999999999,0.013368696999999999,-0.08674211,-0.12482274,-0.06245087,0.010579381,-0.09438942,-0.038241476,0.08718382,-0.0943985,-0.045823737999999996,0.13244270000000002,-0.0697784,-0.05967336,0.003876239,-0.05176152,0.02546222,0.033627853,0.03725159,-0.001203912,-0.07293685,0.09699923,0.07041887,0.012708118999999999,-0.020939868,-0.06664698599999999,0.00510294,-0.105650954,0.011945683,0.12166167,-0.078922324,0.12985066,-0.08623673,-0.038848272999999996,0.067952074,0.048884625999999994,-0.07390054
0.035564452,-0.03184878,0.11164378400000001,0.06828698,0.06906805,0.13314398,-0.10591661,0.10630972,-0.17037898,0.11859047,-0.18881979999999998,0.01954637,-0.08694111,-0.057341333,-0.067467,-0.032814056,-0.14256427,-0.029661508,0.011079018000000001,-0.12516151,-0.00071264774,-0.043261744000000005,0.03574715,-0.013303223999999999,-0.0024734605,-0.013141682,-0.08061094,0.06028993,-0.004332641,-0.121451214,0.018305147,0.0863431,-0.036088344,0.09803969400000001,-0.03191369,0.09198617,0.063822985,0.029469078,0.005597243000000001,-0.06106482,0.07701941,0.09453778,0.007368353,0.09069835400000001,0.07434649,0.11010281,0.1273407,0.068418354,0.105892606,-0.0619581,0.021601832,0.07970571,0.13046841,0.09458851,-0.011288885,-0.009290373000000001,-0.0434026,-0.10413328,0.0029552593,-0.07541346,-0.06517964,0.056549367,0.1961415,0.011624381999999999,-0.06339193,-0.04227982,-0.07171260000000002,0.06350483,0.07106896,0.0030837618,0.029138828,0.07688553,0.09343926,-0.087022774,0.027145889,-0.04956514,0.030885974,0.058816664000000005,0.05258859,0.11990991,0.030269146,-0.08618839999999998,0.020211756,-0.010673108,0.054642003,-0.06654199,-0.05145234,-0.0044216258000000005,0.025905954,0.099851064,0.20058194,0.055853757999999996,0.04019699,-0.01933479,-0.04025854,0.10248827,-0.18250658,0.020856164,-0.0063619743999999995,0.060999267,0.027377252999999997,-0.048906162,0.15825507,0.10244848599999999,-0.15789299,-0.0338914,0.09519732,0.057186548,0.18088384,-0.0045726000000000004,0.04057619999999999,0.091515206,-0.17751005,0.061555352,-0.09385108,0.10758207,0.032924342999999995,0.111620285,-0.08331625,-0.081922285,0.020078082,0.09007802,0.10078977,-0.08433654,0.0916857,-0.0029602395,0.03191226,0.060613025
-0.07102159400000001,-0.0813663,-0.12034795,-0.091880344,-0.08819218,-0.012909443999999999,0.031985793,-0.04033752,-0.03170931,0.12125354,0.037413366,0.07957645,0.028352084,-0.08606017,0.056816842,0.017028093,-0.09468356,-0.13456818,0.06067676,-0.10104104,0.05643502,-0.13075952,0.10675672,-0.15988229999999998,0.11795251,-0.044864733,-0.08009494,-0.035396703,-0.055084884,-0.12673523,0.11669326599999999,0.005804085600000001,-0.05150514,-0.08728983,0.09001745,-0.016000029,0.09230484,-0.015508593999999999,0.04227106,0.0028141001,-0.009788606,0.120229945,-0.0100596,0.055461500000000004,0.033997346,-0.046301155999999996,0.14280225,0.008185298,0.16971996,0.016198847,0.08342102,-0.04660938,0.11863317,0.011047848,0.11773089,0.096711114,0.106021285,-0.09905739,-0.034229215,-0.07156243,-0.05472918,0.03370969,0.19323136,-0.044757534,-0.059110552000000004,-0.043015882000000005,-0.046998675999999996,0.08713649,0.12993354,-0.014657248000000001,0.023671255,-0.06021483,0.009305405,-0.039079726,0.056442827,0.069060825,0.14655079999999998,-0.019315453,0.10153887,0.015897814,0.08122744,-0.029346682000000002,0.011272843999999999,-0.07324919,0.018068281999999998,0.070580244,-0.063760266,-0.06465295,0.019388436999999998,0.11133801,0.13353318,-0.016561193000000002,-0.005047575,0.10638869599999999,-0.009800273,-0.06058339,-0.15172742,-0.03577309,0.009993114499999999,0.114555255,-0.13929394,0.11295697,0.11797529999999999,0.07607403,-0.0798247,-0.08273277400000001,0.13213255,0.07070461,0.18935977,-0.035442058,-0.14304629,-0.04664981,-0.22729649,0.020102798999999998,0.013689323,-0.037546217,0.015253643,0.12103471,-0.055723377000000004,0.13276212,0.011399534,0.028194072,0.035887998,0.013276953999999999,0.016356906,-0.02633342,0.08617649,-0.06948713
-0.06244646400000001,-0.061142817,-0.076909974,-0.04180178,-0.09305822,0.072359875,-0.12089271,0.09202984,-0.1497353,-0.073100545,-0.057417385,-0.21256348,0.10431399,-0.10475407,0.008006125,0.0042190203,0.14996149,-0.058754575,0.17251636,0.100781254,0.040439237,0.02084498,-0.050371632,-0.006713434599999999,0.11245576,0.13521773,0.033923656,-0.005755506,0.090648755,0.0056680576,-0.07302719999999999,0.041388667999999997,0.06092649,0.07986748,0.053483143,0.09272343,-0.08117221,-0.055305652000000004,-0.04562205,-0.06600583,-0.019574674,0.016929764,-0.040983554,-0.08122513,-0.05402326,0.07421296,0.0920893,0.0039981776,0.08563741,-0.017274452,0.07035031,-0.10042587,0.04140857,-0.05974719,0.104610726,0.10879557599999999,-0.059343107,0.02003792,-0.10729532,0.030950949,-0.05477782,0.09132715,-0.011355489,-0.05610699,-0.015092005,0.0008749069500000001,-0.045984842000000005,0.07686665,0.0764243,0.01914693,0.00880564,0.12260430000000001,-0.012218528000000001,-0.013845378,0.0032936722999999998,0.010363200999999999,-0.007087581999999999,0.02098701,-0.14833304,-0.00893664,0.09888401,0.09208817,0.12618482,0.041171927000000004,0.09251243599999999,-0.04108729,-0.056701303,0.06372937599999999,0.11549816,0.06392717,0.1146337,0.08495428,0.023382204,0.08917574,0.0030300557,-0.0044276103999999995,-0.051812000000000004,-0.006513584,-0.118133955,-0.077090286,-0.011371825,-0.07152728,0.10305974,-0.062069383,-0.07216695,0.110012166,0.08176408,0.006600376999999999,-0.079362415,0.06500009999999999,-0.10201237,0.109534666,-0.110308215,0.09112969,-0.08091602,-0.019980708,0.037379067,0.028962081,-0.080762655,0.010809735,0.07961033,0.07914837,0.1587446,-0.05342959,0.07078053,-0.062022127,0.009151215,0.05186749
0.056775503,-0.011766387,0.09615618,-0.028905057999999997,0.04775916,-0.023750202999999998,0.03532859,-0.0488844,0.08219903,0.10656083,0.06987199,-0.038539678,-0.07922613,0.051910594000000004,-0.09715786,-0.071325965,-0.08610613,0.018540991,-0.02962056,0.05637062,-0.14084728,-0.13589819,-0.06159652,-0.09547947,0.006761799000000001,0.03830515,-0.023803128,-0.043024625999999996,-0.08328759,-0.08495023,0.1152512,-0.07566141,0.11488487,0.05989014,-0.0023327142,0.0019588722,-0.016242405,0.018265326000000002,-0.091776736,-0.096840315,-0.039166324,-0.066669956,0.08059909,-0.0990665,-0.06984613,0.021429043,-0.040276627999999995,0.018569268,0.052593167999999996,0.11103792,-0.07746152,0.006957305,-0.03003818,0.006596560600000001,0.08296104,0.011879573000000001,0.099483855,0.07408841,-0.090606436,-0.079064466,0.047919154000000005,-0.032030072,0.12275926,-0.08572922,0.09908788,0.075402044,0.028009217000000003,-0.07100033,0.10469638,0.10365857,0.09692736,-0.048825577,-0.04301765,0.061265796,-0.09636873,-0.09636248,-0.10776131,0.0063253427,0.08196814,0.037304908,0.06507199,-0.057416838,-0.08868099,0.041407152999999995,0.08602556,-0.08277208,-0.049775947,-0.00304804,0.14052494,-0.002605121,-0.001144497,0.0781558,-0.01984986,-0.082908556,0.03402239,-0.07466026,-0.072427884,-0.07389251,-0.045727894000000005,0.10287034,-0.059289827999999996,0.042732075,0.08266714,-0.09190829,-0.09904978,0.014713272,-0.10796224,-0.028260492,-0.007866199,-0.042919606,0.06851858,0.007886256,-0.06941114,-0.049205784,-0.11923961,-0.10567621,-0.019692756000000002,-0.04663611,0.034034405,0.080367036,-0.05772897,0.0024522038,0.0077346335,-0.028434284,-0.19165279,-0.07719895,0.11002782,0.03398845
0.053475097,0.089090765,0.10567581,0.046699545999999995,0.11094562,-0.031654138,-0.03796105,0.067674,0.11510621,0.007858736,-0.017652364,-0.04784537,0.051247016,0.14200870000000002,0.009174281,0.13505833,0.046238493,0.16083518,0.08058352,0.09361757,-0.14847253,-0.03656923,0.03414499,0.042807378,-0.08218783,-0.07241195,0.057190236,0.08242200000000001,-0.008894916,0.008117553000000001,0.05802082,0.053765938,0.11121597,-0.07676916,0.0053421543000000005,0.012412268999999998,0.065177366,-0.050257444000000005,0.07794963,0.098433614,0.10560586,0.027220905,0.07591263,0.055958524,0.03437206,0.03174057,-0.049287483,-0.035618662999999995,0.034300227,0.0015700789000000002,0.11880173,0.09118247,0.08073809,0.021475574,0.12766103,0.06435902,0.01110239,-0.06823549,0.0017663869,-0.07121723,-0.06752852,0.07157817,0.053584848,-0.08008938,0.15996626,-0.031517062,-0.04365336,0.055339657,-0.010482764,-0.07425467,0.013022028,0.047183264,-0.07686701,0.030331694,0.079029895,0.030831612999999997,0.017887885,-0.030977162000000003,-0.019550227,-0.021528041,-0.17447574,0.008965529,-0.025573732000000002,-0.011692996,-0.06652732,0.078395166,0.09302315,-0.05758467,0.16149145,-0.04968148,-0.08463122,0.07348618,-0.057640254,0.05244891,-0.11378094,0.039837286,0.22204085,0.0059693367,-0.13651232,-0.030164555,0.13657899,0.12147766,-0.17691126,0.080113485,0.08598765,0.03772955,0.034112625,0.12267549,-0.09917756,-0.056868978,0.07744477,0.038625788,0.05974955,-0.051026747000000004,0.05017623,-0.039720725,-0.090797365,-0.0127278175,0.06845484,0.105030976,-0.042591747,0.057282686,-0.21111620000000003,0.07256041,-0.014274011000000001,-0.051320657,-0.012462077,0.011372895
0.05768733,-0.030660972,0.09380383,0.065311335,-0.10089583,0.25288367,-0.041180678,0.21671085,-0.11102258,-0.09571139999999999,-0.13925892,0.05808576,-0.050707012,-0.09550366,-0.10031824,-5.2233909999999995e-05,0.030687425,0.09210499999999999,-0.03078788,0.09338248,0.054231122,-0.09243519,-0.12689553,0.05482694,0.017535376999999998,-0.02242477,0.041851923,-0.06725410000000001,-0.11047455,0.04591341,0.08722292,0.025602042999999998,0.08767627,0.042368925999999994,0.08017257,-0.021505592,0.07709167,0.03510606,0.014760506999999999,-0.07916581,0.058755207999999996,-0.009525059,-0.005713845,0.058631364000000005,-0.02372721,0.04463195,0.043931082,0.019477631999999998,-0.006277861500000001,-0.0014773281,0.024464905,-0.11211353,-0.07437516,0.015155818,0.027606579,0.08171713,-0.1099596,-0.014594586000000001,-0.09851858,-0.10854181,0.06261363,-0.09419481,-0.13477989,-0.067392044,0.00735198,0.07876035,-0.06434566,-0.03806354,-0.0065235959999999996,-0.020174947,0.10760905,-0.004044218,-0.12782358,-0.10469022,0.07053474,-0.013178577,-0.060928036,0.04622934,0.12240826,0.07702027,0.08453655,-0.00358922,0.13740519,-0.07570023,-0.17703733,-0.07652096,-0.02740962,-0.10083324,-0.09040071,0.08062635,0.013120215,-0.1184683,0.11957709,-0.060365517,0.06127002,0.05105748400000001,-0.040827043,0.06642586,0.00041175922,0.014562475,-0.08350952,0.012166838999999999,-0.0029712312,-0.076389216,-0.12093337,0.07741098,0.015024766,-0.1201827,-0.02882666,-0.04572206,0.11952029,-0.012640996000000002,-0.079790525,-0.10389111,-0.014705434,0.09406833,-0.029361745,-0.026357482999999998,-0.13778375,0.10106112,0.17437784,-0.041052899999999996,0.063322574,-0.1064091,-0.055703245,-0.045222003,-0.08861597,-0.045030415
0.061222028,0.12653601,-0.09837261,0.13405086,-0.07574762,0.14866447,-0.07329747,0.12987606,-0.1303088,-0.08460759,0.029430268,-0.07283003,0.038928587,-0.0009240844500000001,-0.105603896,-0.12031358,0.08445551,-0.08204224,-0.026089112999999997,-0.10652765,0.04595863,0.052107234,-0.003807032,0.08969844,0.024291111,-0.010180224,-0.04426705,-0.04198317,-0.027757881,-0.052007604000000006,0.050670624000000004,0.019267038,-0.08118194,-0.013847666000000002,-0.13748133,0.04924631,-0.025123218,-0.05696028,-0.037889894,-0.03850307,0.07137851,0.011145138999999998,-0.002565237,0.05982180000000001,0.022452509,-0.012952916,-0.11795296,0.03379009,0.06327079,-0.062067788,-0.10479092599999999,-0.07576726,0.0744067,0.044826258,0.019749338,-0.12263193,0.048666025999999994,0.06507843,-0.054877218,-0.02436727,0.020306599999999998,0.063466206,0.10729045400000001,-0.11586461,0.020372625,0.039803244,-0.06487856,-0.08743993,0.16829562,-0.08021708,-0.038635734,-0.09791521,0.07230723,-0.021372031,-0.02709875,0.018581096000000002,-0.058305893,-0.10549457,-0.14161497,0.02703637,0.061665837,-0.09177923,-0.025405614,-0.039774794,0.05097407,-0.023342077000000003,-0.07853642,-0.08647614,0.001329909,-0.058813784,0.15213859,0.044091675,0.059613716,-0.017872306,-0.051745065,-0.03518647,-0.08003791,-0.09738446,0.025423638999999998,-0.02064829,0.10814104,-0.108754806,0.14437702,-0.0047041457,-0.11702453,0.07974969,-0.0035265328000000005,0.049471002,0.06120173,-0.0422016,-0.0539388,-0.11698237,-0.05634023,-0.11026664,-0.05280229,-0.03961664,0.06190968,-0.021590255,0.015093505,-0.117838465,0.026222546,0.036637526000000004,0.15582879,-0.068531126,-0.021810532,-0.11860596,-0.036257199999999996,0.054227117000000005
0.07113416,0.16117914,-0.028183075,0.044218205,0.056981348,-0.0171208,-0.08287152,-0.008927962,-0.075216964,-0.07969507599999999,-0.12636042,-0.048709302999999995,-0.12333809,0.041462183,-0.08898103,-0.10384214,-0.005488715600000001,-0.029169174,0.0248408,-0.02974215,-0.078209326,-0.07786521,-0.08932503,-0.12141777,-0.09209035,0.026570857000000003,0.06365965,-0.029809516,-0.02205912,0.010686045,0.0683327,-0.06043057,-0.004736965,0.016352773,-0.045297895,0.043210864,0.070451416,0.018000675,-0.033905916,-0.05667216,-0.036166534,-0.01280679,-0.056677467999999995,0.058871075999999994,-0.012794481000000002,0.054045185,-0.009290922,0.01563483,0.09557919999999999,-0.017627923,0.11640873,-0.016193645,-0.055532875999999995,-0.019554602,0.09743853,-0.1029448,-0.07263073,0.045535136,0.07709260000000001,-0.11675005,-0.013004242,-0.07357133,0.01068812,-0.051998977,0.00394076,0.0031751227,-0.01857853,-0.12510991,0.07500632,0.081099845,-0.030990534,-0.029622575,0.0040355213,0.09930812,-0.03400929,-0.03432684,0.14814370000000002,-0.037102353,-0.15888909,-0.111928634,-0.1414973,-0.05963379,0.0139071215,-0.10142365,0.02334172,-0.06701362,0.01881277,0.0002517061,0.072204694,-0.03992932,-0.15408593,0.0008778238599999999,0.11065288,-0.11051656,0.009085207,-0.074725136,0.06161107,0.0154669555,-0.082540154,-0.105709225,0.10645845,0.030080898,-0.03897785,-0.059272833,0.018014356000000002,-0.0984955,-0.05828049999999999,-0.107980184,0.022889158,0.009051354000000001,0.012848097,-0.07335271,-0.040366925,-0.08965978,0.06579784,-0.026649997,-0.015604578999999999,-0.098556034,0.036562555,-0.11871707,-0.0666753,-0.058956046,-0.11326997,-0.025009108999999998,-0.12952694,-0.068128765,0.05863214,-0.08729592
0.07085805,0.029092688,-0.046838555,0.12741476,0.10396728,-0.0031496746999999997,0.17215535,0.14408074,0.026594466,0.124977425,-0.12766996,0.14407912,-0.17778765,0.07225511,-0.20219687,0.085683346,-0.1231247,0.049949392999999995,0.008235151999999999,0.0032254253,-0.12895648,-0.08128248,0.0046046437,0.049186178,0.037113372,-0.08176505,0.07522983,0.022290268999999998,-0.028093523999999998,0.03230141,-0.02567916,-0.09017617,-0.06162239,-0.08876285,0.112703055,0.06983043,0.10903114,-0.07939749,-0.03182776,0.04822774,0.08972123,-0.054950997,0.042107984,0.06495918,0.093400046,0.024333822,0.13475505,-0.024778541,0.10694659,-0.06842815,0.009026326999999999,0.036576647000000004,-0.0039004218,-0.06130728,-0.037936877,0.10071922,-0.0011381339,-0.009041556999999999,0.06084507,0.00648063,0.11376608,0.06567948,0.025866937000000003,0.050373122,0.15368721,0.031735502,0.12426462,-0.026846727,-0.08693419,0.095698744,-0.025929973,0.018202996000000003,-0.10513473,0.01217151,0.06623326,0.092124924,-0.096676506,0.10416337,0.09849577,0.040904403,-0.06967312,-0.06778255,0.012879247,0.04036813,0.056702007,-0.01306403,-0.047355015,-0.04949324,0.13329172,-0.05046705,-0.021939524,-0.08010413,0.0804439,-0.008143757,-0.08880991,0.11514762,0.05143355,0.072733946,0.014753164,0.07510943,0.108279094,0.051234405,-0.078642935,-0.07318388,0.05033975,0.1131988,0.013802405,0.08978802,-0.005657258399999999,-0.041698407,-0.04156472,-0.025850717000000002,-0.07471918,-0.080741875,-0.171509,0.0035726484000000005,0.06415579,0.017341163,0.10894468,0.054337464,0.006649883499999999,-0.05309704,-0.0005725184,0.0032296209,-0.15167034,0.11810214,0.11052635,-0.010147316
-0.035145983,0.0048383459999999994,-0.13046771,-0.08156953,-0.03500243,-0.06480064,0.0670198,0.00017994218999999997,-0.069284044,0.021008572000000003,-0.039540894,-0.08566156,-0.099818766,-0.07368434,-0.0023744819,0.005132075,-0.12606769999999998,0.033953622,0.024449376000000002,-0.024554522999999998,0.020098964,0.010073954,-0.04958507,-0.016960941,-0.00018947145,-0.010776906000000001,0.07848671,-0.14572611,0.1229289,-0.030391017000000003,-0.031281643,-0.027537797000000003,-0.030275267,-0.12141964,0.0033222819,-0.05701878,0.03907861,0.07959972,0.101541035,0.070177376,-0.06314681,-0.06303886,0.0312741,0.09342714,0.116475135,-0.004059213,0.07911809,0.02325416,0.11626516,0.080025256,0.09250174,-0.07074201,0.13118678,-0.07889848,0.1179507,0.08903839,0.14843124,0.08987071,0.1011836,0.024375385,0.006942352,0.053055044,0.11294860000000001,-0.076079115,0.06332064,0.061049532000000004,0.09441121,0.0027258124,-0.088527076,-0.04673938,0.091470204,0.00017724011999999999,0.21262643,0.033587072,-0.06897649,-0.028419685,0.0016750331,0.06408057,0.111656256,-0.05885408,-0.04193051,0.10036063,-0.058332752,-0.038492623999999996,0.06063416,0.105679706,0.15179259,-0.006560443000000001,-0.03161134,0.06432936,0.0013757711999999999,0.09476004,-0.09712501,-0.06536922,0.07491331,0.06952719,-0.06424793599999999,-0.0057785994999999995,-0.05422905,-0.104990505,0.011086345,0.018208208,0.05938390599999999,-0.050658355999999995,-0.0599168,0.073351555,0.06032776,-0.044430095999999995,-0.013931416,-0.10414512,-0.07831245,0.010200818,0.0040256716,0.08458529,-0.040027898,-0.07668374,-0.052069843,-0.0026173443,-0.008074121,0.11381456,-0.052584242,-0.02188956,0.09226781,-0.06624317,0.0149795795,-0.031396583,-0.013814296,0.006453431700000001
-0.18268047,-0.105365455,-0.018786259,-0.16078109,-0.10688632,-0.10918863,0.051262286,-0.029323276000000002,-0.08697704,-0.021917691,-0.14526638,-0.06427425,-0.16989718,0.038049273,-0.13943934,-0.01754113,0.076251715,-0.03728869,-0.051094985999999995,0.017622299999999997,-0.08740917599999999,-0.11062896,-0.05434631,-0.035229787,0.04391728,0.043663482999999996,0.09536509,0.048141997,-0.018701553,-0.1253512,-0.0011725401,-0.07707534,0.115119986,0.035351022999999995,-0.06804071,0.0070038647,0.12103359400000001,0.051406424000000006,0.08091427,0.008410715,-0.11313737,0.012646174,0.060839027000000004,0.0571447,-0.07628196,-0.09722728,-0.077654675,0.034765564,-0.008453066,-0.08863325,-0.055908673,0.022825936,-0.031491697,0.037302703,-0.09904421,0.036956273,0.089490645,-0.043036017999999995,-0.022195516000000002,-0.046464153,-0.09304539,0.05951522,0.100361735,0.02198479,0.06186487,0.053028427,-0.02795334,0.034417655,0.07928057,-0.1388501,0.03865256,-0.08132784,0.020410214,-0.03507873,0.0005627755,-0.098312505,-0.018615087,-0.07060974,0.13779812,-0.06426899,-0.046721883,-0.03863608,-0.026314741000000003,-0.0867001,0.07241495,0.050886392999999995,-0.048898995,0.059458192,-0.016760992,0.07014833,0.06405482,0.002370993,-0.03204348,0.045464117000000005,0.0070968894,0.08216514,-0.129502,0.052095827000000004,-0.05080613,0.06920947,0.10593138,-0.0134930285,0.04905955,-0.10811664,-0.20027812,-0.09573179999999999,0.029246254,-0.08026230000000001,0.10616945,-0.15165958,-0.10738218,0.018194407,-0.0077977013,0.094737075,-0.03401319,-0.0030402321999999996,0.077649996,-0.03645889,-0.048725396,-0.014963622,0.096455045,0.0021276628,0.07433043,-0.013401941,-0.023350965,-0.036239855,0.05212101,-0.08693935
0.022288238999999998,0.10849866,-0.015679635,0.08813919999999999,0.05538391,-0.012926412,0.10519757,0.009593563000000001,0.08845808,-0.06968746,0.1261489,0.085257135,0.007455069,0.07352247,0.050091345,0.039300423,-0.08944760000000002,0.13120401,0.03025196,0.05652368,-0.09863835,0.021112539,-0.043120082000000004,0.052876204,-0.10271891,0.028848255,-0.12417121,0.018366305,-0.030054705,-0.1305598,0.074639596,-0.08903688,0.07277448,-0.038569897,-0.020868275,-0.10690448,-0.06944778,-0.06191556,0.084376305,0.016729264,0.04442052,-0.03842775,0.06768114,0.017889243,-0.07817323,-0.021177302999999998,0.08441406,-0.09008088,0.047703438,-0.03131245,-0.06849974,-0.08446349,-0.10390999999999999,0.03308533,-0.11058695,-0.01956129,0.010924682,0.03548749,-0.08483396,0.021250736,0.007116028000000001,0.08598679,-0.18803181,-0.10787239,0.10324154,-0.039504647000000004,0.0072812736,0.04084031,-0.07666339,0.0018542883999999999,0.03065748,-0.11396412,-0.09396601,-0.039167296000000004,-0.056617033,-0.0432529,0.035697035,-0.05232775,-0.0020149697,-0.09780585,0.035476856,0.10290029999999999,0.07067665,0.054432772000000004,-0.036142007000000004,-0.06981895,0.07744981,-0.09808904,-0.016200578,-0.038773187,-0.06343178,-0.062462542,-0.099510826,-0.035125412,-0.0391956,-0.06297644,0.08763768,-0.12198925,0.011476819,-0.026331652,0.12539503,-0.017584512,-0.008151826,0.04593594,0.054982826,-0.03325062,0.014988895,-0.037528392,-0.0035870338,-0.07961129,0.035880074,0.06778888,0.048116643,0.023742,0.022154702000000002,-0.10113809,-0.0705584,-0.09511137,-0.003976779000000001,-0.076956764,-0.072144695,-0.04893678,-0.11059487,0.059057932,-0.03902777,-0.091714986,-0.050290007000000005,0.02067993
0.038402066,-0.05303359,0.19630663,0.022600957999999997,0.15727831,-0.06429702,0.119294286,-0.026872113,0.14465414,0.13859321,-0.010034678,-0.014893202,-0.013850699,0.054683406,-0.055876665,-0.032839272,0.04273894,0.13363294,0.021755467999999997,0.07870035,0.03944058,0.06778596,-0.12950975,0.12045652,-0.039523594,-0.030247806000000002,-0.063330315,0.11855917,-0.004324515,0.043599445,-0.046395976,0.12233611,-0.04843167599999999,-0.070489496,-0.041492056,-0.037025742,-0.10718854,0.09014715,0.044662755,-0.047355507000000005,-0.11793756,-0.04101223,-0.16596241,0.017587012,0.017861653,-0.12158038,-0.13679464,-0.0023440272,-0.17180751,0.014611628,-0.0018673417999999998,0.005238004,-0.047412243,-0.07337062,0.06803906,-0.08563671,-0.08868656,0.06818547,0.08301572,-0.05404357,0.04946407,-0.0026249585,-0.17959249,-0.055758502,-0.058941383,0.0054244716,0.07383185,0.008608703,-0.036242485,-0.10826859,-0.07808265,0.014287883000000001,0.040993992,0.019818721,0.03200291,0.057021424,-0.06311224,0.032586325,-0.07800493,-0.027207447000000003,-0.14656229999999998,-0.09401505,0.025397502000000002,-0.069757946,-0.10890055400000001,0.00807292,0.05659077,-0.10112645,0.06428578,-0.07176289999999999,-0.27849805,-0.07391055,-0.11300879,0.014068891000000002,-0.12604968,-0.09824479,0.04264661,-0.07492626,-0.08817979,-0.08314442,0.11491314,0.0047859163,-0.18630894,-0.05387728,0.080293454,0.04897415,-0.08763102,-0.07815466,-0.110102504,-0.07450083,0.12264877,0.012684263999999999,0.12922285,-0.0060695440000000005,0.07560594400000001,-0.07875319,-0.1045057,-0.02197939,0.14349589,0.07959088,-0.06606055,0.02855419,-0.22451963,0.06413966,-0.00961884,-0.06784176,0.09005081,-0.017946132
0.049003396,-0.055472184,-0.027720802000000003,-0.0013181616,-0.051945925,-0.077236004,0.009543603000000001,0.03316279,-0.1427381,0.061179195,-0.03446904,-0.027610863,-0.16800196,-0.0005144416,0.022528977999999998,-0.17056587,-0.011471338999999999,-0.061530255,-0.044728067,-0.032919668,0.12467453,-0.13957642,0.08710555,0.0078087830000000006,-0.024709415,-0.065886155,0.022329272999999997,0.021359299999999998,0.047511607000000004,-0.14541186,0.0006961571,-0.050933562,-0.07029869400000001,-0.056625199999999994,-0.060050514000000006,0.03566988,0.060360692,-0.08489534,-0.030251265,-0.023041687999999998,0.0044380105,-0.05426069,-0.028210482999999998,0.05682048,-0.07222406,0.11007563,0.10996669,-0.037700452,0.1397908,0.0054759076,0.043053996,0.04132935,-0.011805151000000002,0.090841144,0.15247649,-0.09164863,0.035209168,-0.009800059,-0.12732886,-0.060203593,-0.09482025,-0.025164693999999998,0.07660030000000001,0.03931238,0.03956468,-0.106243856,-0.014079286000000002,0.03617405,0.10666703,-0.028459385,0.026096268,-0.01893653,0.04258301,-0.0019787624,-0.15291665,0.016362565,-0.030241182000000002,-0.05124798,-0.015342123999999999,-0.0366875,0.09299191,0.049576767,-0.028687307999999998,0.102216475,0.03010479,0.009262605,0.013865073,0.08268277,-0.06959989,-0.015489603000000001,0.10507076,-0.004591857,-0.05255084,0.029952178,-0.017071374,0.08731291,-0.035223853,-0.03410649,0.038338795,0.098070115,-0.061922625,-0.06588194,0.04092844,-0.026519299,-0.05001327,0.08110833,0.19635493,-0.08848028,0.18445273,-0.12010954,-0.15681029999999999,0.11731110000000002,-0.119010426,0.01629487,0.073182985,-0.047789752000000005,0.13865267,0.014224775,-0.04946695,-0.035200167000000004,0.014995481000000001,-0.08900344,0.055685612999999995,0.057960436,-0.010259079,0.030365258,0.07614457,0.0029292353
0.0013720719,0.03622517,0.09499935,0.1283404,-0.037600335,-0.008412508,-0.08979067,0.10415136,-0.0059376718000000005,-0.043430835,-0.095468365,-0.057380415,-0.14396441,0.038682323,-0.050428465,-0.0045705586999999995,0.056345407,-0.03873141,0.020567415,-0.029886452,0.10017978,-0.033190437,0.037899483,0.031467657999999996,-0.08647987,0.015790818,-0.018099481,-0.11990995,-0.089711264,0.053923007,0.040487222,-0.13869922,0.05463222400000001,-0.0045012333,-0.030579945,-0.011480839,-0.07601967,0.075510345,-0.08706785,-0.021330032000000002,0.10103288,0.030033844,0.01735082,-0.14317735,0.09920256599999999,-0.060910787,-0.0021058011,0.09095223,-0.029166993,0.035114232,0.033606984,-0.014172531,-0.060163565,-0.07001462,0.116057016,-0.124925725,0.07090361,-0.047944855,-0.15929133,-0.014157588,-0.09907195,0.06406308,-0.0056589227,-0.041590437,-0.21521354,-0.019816214,-0.09253215,-0.0027963535,0.10544123,0.005137634,-0.02457431,-0.10257193,-0.04190297,-0.02808558,0.1487321,-0.040311124,0.09552078,0.0791679,-0.06889206,-0.12310877,0.032012958,0.06886829400000001,0.0627546,0.022442155,0.027919307,-0.07324648,0.019870661,0.0045533013,0.12056499,-0.068495594,0.0036725447999999996,-0.077268794,-0.10632076,-0.10504814,-0.18168908,-0.11038564,-0.13955604,-0.11080758,-0.07550516,-0.101846114,-0.05488088,-0.08152481,0.10786404,-0.11801295,0.06451661,-0.10817939,0.027646643999999998,-0.00025539542999999997,0.16609102,-0.053141274,0.021779869,-0.0150324525,-0.13032639999999998,-0.094549134,-0.023585208,-0.00015146601000000002,0.17949234,-0.10911889400000001,0.00080152985,-0.015592245,-0.1610662,-0.0008488891000000001,-0.07326847,0.07532538,-0.08968666,-0.10907648,0.09012985,-0.06038209
0.01527724,0.11226171,0.06406372,-0.04684343,0.016612688,-0.021466954,-0.032623954,0.10835835,0.087677136,0.073471375,-0.018999519,0.011017938,0.025260087,0.028526159,-0.078634694,0.14656837,0.052233376,0.084256425,-0.10574469,0.05044843,-0.12407123,-0.08324396,-0.061128999999999996,-0.033067506,0.04637406,0.0203017,0.0009592476,0.041769225,-0.08486249,0.052760858,-0.07805441,-0.12629837,0.11202608,0.065812446,0.014858466,-0.10907049999999999,-0.03563563,-0.07217876,0.01763039,0.056593362,0.11254843,-0.09872895,0.03597004,-0.07814858,-0.08453442,-0.02586863,0.005933966999999999,-0.10573653,0.038667652999999996,-0.037662182,0.025872556,0.09365742,-0.076047756,-0.016864046,-0.00038312620000000003,0.06955812,0.00071776495,0.09484948,-0.014440818000000001,-0.059492707,0.016792087,-0.08094555,-0.08966857,-0.0634437,0.18076214,0.041118085,-0.16202894,0.08816937,0.06917349,-0.08231375,0.07601133,0.04770398,-0.10500441,-0.026847938,0.13188015,-0.043045007,-0.0149882585,0.024556757999999998,0.090501145,0.020631537,0.05435667,0.050306435999999996,0.050738465,-0.08874448,-0.095117435,0.07702318,0.14009778,-0.019832322,-0.06329271,-0.05912138,-0.13754314,-0.012381437,-0.04442648,0.037472032,0.06678419599999999,-0.052447837000000004,0.15824161,-0.037894193,0.16594785,0.023077262999999997,-0.09990916400000001,-0.012901925500000001,-0.039652236,-0.07482517,0.020665545,0.112156466,0.049582448,0.0011795794,-0.108753756,-0.03866229,0.19963786,-0.03192461,0.050713994000000005,-0.07181306,0.016737577,0.07107602,0.0011252986999999999,-0.08382773,0.06693148,0.07861885,0.07110168,-0.053069226,-0.026677836,-0.06731233,-0.038851764,-0.013936366,-0.02718593,-0.030743986
0.08187361,0.073517054,-0.14076339,0.03296523,-0.01730923,-0.00014041046,-0.074568525,-0.12624398,0.094883725,-0.12906682,0.04720142,0.021186787999999998,-0.036089275,0.06181817,-0.028316785,0.09397113,-0.039577555,0.074006096,0.091412306,0.0054912319999999995,0.11306663,0.014328843999999999,0.07454173,0.08467423,-0.048178878,-0.030635785,-0.02143309,0.02464365,0.016161878,0.016036741,0.03826556,0.0600047,-0.10774841,-0.056615452999999996,-0.017104518,0.021589217999999997,0.02390331,0.013125109,0.014267743999999999,-0.008166722,-0.089179695,0.00019891199,-0.07192688,0.021607852,-0.11590039999999999,-0.10802836,-0.05202227,0.008715871,-0.025694186,0.04981757,0.07297833,0.09847456,-0.026211537000000004,-0.05871707,-0.16213192,-0.08191369999999999,-0.08416684,0.10371474,-0.037839099999999994,0.049067404,0.040039636,0.05353117,-0.026170986,0.08795139999999999,-0.04523558,-0.03937732,-0.06896614,-0.03719682,0.015572899,0.022083467000000002,-0.08289849,-0.06623291,0.09089910000000001,-0.04311481,0.008767223000000001,-0.11450547,-0.012664796,-0.06168194,-0.0739507,0.0013484032999999999,-0.018223183,0.005855776,-0.041460324,0.05465040400000001,0.031439636,0.011703576,-0.07966277,-0.059461247,-0.04017286,-0.0920091,-0.10677758,-0.0975227,-0.14463285,0.062418215,-0.1513628,-0.11535549,-0.06030247,0.018163439,0.11102716,-0.048465926,-0.054018736,-0.11812753,-0.03467553,-0.09582589,0.099953674,0.04049546,-0.0014773051999999998,-0.028506754,-0.013125316000000001,0.02300929,-0.06611089,-0.04563503,0.053056717,0.034406193,-0.02436334,-0.020913456,-0.12118489,-0.005848371,0.17000271,-0.11539721,-0.044986992999999996,-0.09952678,-0.19625922,-0.094718255,0.05283979,0.06726241,0.16411793,-0.114642896
0.037141792,0.05485019,-0.06089595,0.01617513,-0.04567609,0.069985256,0.028721794,0.06130866,0.048000935,0.0446947,-0.043771632000000005,-0.09922518599999999,-0.037637368,0.009276926500000001,-0.07167678,-0.13744846,-0.092089936,-0.12385926,0.03829955,0.010200322,0.07287192,-0.043997865,-0.055967297,-0.01957175,0.038592678,-0.0848552,0.03424919,-0.09327081599999999,0.059783265,0.015458458999999999,0.091192916,0.0743181,0.07289791,0.082316205,-0.086707294,-0.060731452000000005,0.10919535,-0.09388757,-0.009050389,0.099255994,-0.017679961,0.0680582,0.06379288400000001,-0.10470944,-0.046582207,0.026620058,0.045001395,0.089442864,-0.0648875,-0.000990403,-0.08127095599999999,0.039677343999999996,0.061095428,0.032859333,-0.11311243,0.020039326,-0.013054736,0.082868025,0.0911443,-0.018135678,-0.11596223,0.09700107,0.0030214190000000004,-0.098109156,0.17974603,-0.019945959,-0.10078766,-0.02575166,0.11111231,-0.05133362,0.11559841,-0.06368806,0.07326949,-0.10357336,-0.09203423,0.058283724,0.09996442,-0.005132571,0.09214066,-0.041120682,0.121505365,-0.07712089999999999,-0.0026770758,-0.076789595,-0.047336776,-0.03757364,0.15984441,0.048150744,0.013079715,0.06309365,0.11049799,0.04699449,-0.0055549145,0.042247817,0.17118558,0.101289295,0.03577139,0.023566285,-0.020498725,0.03688211,-0.08705517,0.104264304,0.13555945,-0.008853698,-0.08089628,-0.08389629400000001,-0.088711195,0.0020248189999999998,0.24210142,0.022978092999999998,-0.06455362,-0.10228286,-0.09716065,-0.06362883,-0.14360169,0.08208626,0.020818477,-0.09814338,-0.07092412599999999,0.06466893,0.027355477000000003,-0.02377112,0.069687866,-0.017593862,0.011986461499999998,0.019124073999999998,-0.14766257,0.049860924
0.021374745,-0.08534054,0.10664647,-0.013976498,-0.08873682,-0.036595017,-0.12777917,-0.08950377,-0.010257313,-0.0693235,-0.08788689999999999,0.023115177,-0.11055142,-0.09188610000000001,-0.017376347,-0.10537288,0.09448601,-0.08751746,0.04262357,-0.033428192,-0.0039382894,-0.008053956999999999,0.05188719,0.11538186,-0.005230488,0.12274028,-0.011905381999999999,0.119525544,-0.0015652635,0.026151896,0.013197486000000001,0.051641747,-0.026217131,0.0042121396,0.056220777,0.05109079,-0.07470112,0.053937282,-0.066420615,0.09727441,-0.047778025,0.038493942,-0.14397828,-0.024113607000000002,0.012363632,-0.010818781000000001,-0.109112166,0.012102916000000002,0.02417278,0.039777997999999995,0.05234079,-0.04121093,-0.019441059,-0.10828566,-0.07335001,-0.09077084,-0.075802945,0.049835775,-0.05292447,0.083645225,0.07933459,0.084245674,0.09144897,0.041406337,-0.03951277,0.06607277,-0.07137652,0.08537142,-0.09643563,0.007236564,-0.13913971,0.0794706,-0.011177732,0.027281195,0.06314302,0.09580582,0.07663647,0.070430286,0.12784469,0.06140528,-0.10208961,-0.073781736,-0.24988279,-0.09149756,0.03912869,0.0035574809000000003,-0.09097959,0.09590307,-0.016690213,0.023069266,0.066635616,0.025796587000000003,-0.020162648000000002,-0.0045938253999999994,-0.081840925,0.014166854,-0.028135962999999996,-0.07156737,-0.022068157999999997,0.0093090525,0.022307342,-0.101556,-0.059482828,-0.051894832,0.05140800400000001,0.09175762,-0.009510058,0.09412171,-0.15269612,0.09471571,-0.06356804,0.05410822,-0.017431213,0.04611027,0.025929604,0.07496636,-0.17781964,0.029101972,0.046258892999999995,-0.11306513,0.031703744,-0.020946868,-0.1630838,0.004379264,-0.0016990639,-0.041675053999999996,-0.016456353,-0.06495961
-0.0062763165,0.060965843,0.04204807,0.017611416,0.028483717000000002,0.079311,-0.09649874,-0.058299877,-0.06930206,-0.104813136,-0.087133646,-0.0039867586,-0.064853854,0.02440939,0.04873461,-0.008099755,-0.011861561999999999,-0.00021358168999999997,-0.09046971,-0.14017199,-0.09910184,5.7340590000000004e-05,-0.11348688,-0.002294328,-0.10040568,-0.07616122,0.009384976,-0.04508434,0.07361182599999999,-0.054986637000000005,-0.020761855,-0.05759961,0.003901231,0.05715757,0.07755441,0.06612953,-0.049645588,0.06199206,0.047675867000000004,-0.06686386,0.07991711,-0.029796816,0.011055616,0.043320943,0.09814184,-0.114492565,0.045076717,-0.054927494,-0.07848989999999999,0.0012183011,0.06476666,0.030420968,-0.06033355,0.054717604,0.15408360000000001,-0.052970283,-0.052176445999999994,0.03080917,0.08410889,-0.05036118,-0.062401257,0.009867527,-0.062442700000000004,-0.05151401,-0.060005054,-0.084688425,-0.06994214,-0.10621027,0.044741288,-0.10379962599999999,0.030015886000000002,-0.026523937,-0.081293695,0.056905847,0.055294237999999996,0.06623324,-0.15517528,0.08512109,-0.08889553,-0.0018430904,0.016588718,-0.0055057113000000005,0.0743267,-0.11873175,-0.10903652,-0.06393532,0.07406739999999999,0.0058174767,-0.08700485,0.028281774,-0.025806102999999997,-0.056713346,-0.08954567,0.0022871846,-0.05790303,-0.03123693,-0.03276739,-0.05445642,0.048240885,0.019425876,-0.07413946,-0.11255976599999999,-0.01505289,-0.01124964,0.112626,0.020561809,0.0009036331300000001,-0.029862061000000002,-0.039260115,-0.03420959,0.09831723,0.07446694,0.14231706,-0.040226687000000004,0.11256842,-0.07849403,-0.051699918,-0.09254161,0.029930777999999998,-0.06626354,-0.078214996,0.009757877,-0.13695665,-0.10068088,0.009461194000000001,0.05920307,0.07151993,0.024365589
-0.090924755,0.1173143,-0.019591816,0.06326742,-0.044085853,0.14177588,-0.1518056,-0.05413205,-0.046998553,0.045712866,-0.03777838,-0.00089222507,-0.059354067,-0.14764589,0.12303465,-0.15924256,0.10013652599999999,-0.08042174,0.029036827,-0.16510724,0.12951566,-0.029729082999999996,-0.005718421,-0.11704375,0.05016413,0.049355500000000004,-0.07012119,0.08655821,0.030744677,-0.011459081000000001,-0.02048756,-0.07985925,-0.042677168,-0.02594593,-0.011585921,0.034373693,0.04386607,-0.0181315,0.0932107,-0.009745871,0.09865626,-0.050771712999999996,-0.08061169,0.015792111,0.025949609,-0.09730834,-0.0840184,-0.055554267000000004,0.025480218,0.045897227,0.02962091,0.032926023,-0.005560656999999999,-0.06645088,0.061995506,0.0014038523999999998,0.0015668529000000002,-0.020944158,-0.04011498,0.06740983,-0.11836051,0.026007995,0.17352082,0.009129975,-0.06612768,-0.064190604,0.03832442,0.06655566,0.12408331,0.07643209,0.08841763,-0.081152245,0.11740796,-0.06650392,0.043456,-0.074492365,0.15692133,-0.1004932,0.005345733399999999,0.019514022,-0.05248112,0.086036555,-0.02981634,-0.08149284,0.061535154,-0.026444325,0.11453684,-0.070283525,0.14727075,-0.04250290599999999,-0.060272053,-0.083773725,-0.009509037,-0.013045282,-0.010485201999999999,-0.0047888425,0.055752397,0.0018787602,-0.23609947,0.007647971,-0.04297925,-0.05939043,-0.015095235,-0.108402126,-0.1634511,-0.008292723,0.006751233000000001,-0.08485169,-0.018541925,-0.04445719,-0.06671136,-0.05715359,-0.04114799,0.06304227,-0.17145231,-0.03077425,0.0017848506,0.029736062999999997,-0.077083595,0.01897863,-0.025821083999999998,0.0051021166,0.13565667,0.09638098,-0.04163957,0.036169875,-0.14961597,0.008751545999999999
0.10664056,-0.061208583,0.043105118,0.070803195,0.19516627,0.123852424,0.02408447,0.08903229,0.05583686400000001,0.017080495,-0.05609325,0.1232722,-0.0135143325,0.13263293,-0.07565847,0.05461348,-0.06349117,-0.0010043792,0.029349655,0.0039497484000000005,-0.11747961,-0.05967346,-0.027629222999999998,-0.10566838,-0.11663225,0.07120212,-0.048643875999999996,-0.010647686000000002,-0.11447555599999999,-0.04961117,-0.092516325,0.082649045,0.0063386415000000005,-0.06267351,-0.024511712,-0.0650092,0.036549974,0.011309033000000001,-0.04479231,-0.0063570593000000005,-0.035481083999999996,-0.06915965,-0.086044446,-0.014233056000000001,0.033083655,0.04274181,0.12142598,0.06741033,-0.07873001,0.098869435,-0.045257747,-0.05617198,0.01090544,0.009965775,0.18039626,-0.0015182707,0.048805952,-0.06066416,0.031738136,-0.027082745,-0.11361128,0.071288794,-0.05730911,-0.08084119,0.08956405,0.0006716152,-0.01920409,-0.011307825,0.16462386,-0.087986454,0.09152632,0.06777604,-0.10634253,-0.112085566,-0.107394114,0.027745093999999998,0.011081748999999998,-0.025527714,-0.02597293,0.009754224,0.14206058,0.046197474,0.13609302,-0.008652600000000002,-0.082658954,-0.08974829,-0.04146343,0.017510941000000002,-0.16219978,0.08309283,0.06274373,-0.083192654,0.17690581,0.011224682,0.055637985,-0.018821135,-0.022786833,0.09698617,-0.07214554,-0.11761435,-0.0002515195,0.0863443,0.1262231,-0.057108883,-0.010383203,-0.01698433,0.022689696000000002,-0.122454904,0.16739556,0.024397891,0.08901078,-0.08141585400000001,0.09711189999999999,0.025560496000000002,0.016497636,-0.10652134,0.011853883999999999,-0.1082964,-0.122556955,-0.09178587,-0.06557556,0.051385812,0.11267063,0.025848778,0.14010336,-0.11095387,0.01676788,-0.018270269
-0.16741127,-0.00419812,-0.13322579999999998,-0.059774052,-0.017311212,-0.04020697,0.101951495,0.005223268,0.18980743,0.02829429,0.11375822,-0.05830172,0.04257242,0.12205908,0.12351575,-0.021544565,-0.09035759,0.12216324,-0.09781472,-0.012145817,0.033858664,-0.057673022000000004,-0.033575263,-0.06073607,-0.08331174,0.10558723,-0.08525818,0.08347907,-0.039605096,-0.0146132065,0.09164931,-0.07732287,-0.060066275,0.08996974,-0.00097117905,-0.015553116,0.09934842,-0.046025305999999995,0.11882287,0.0118121,0.012200596999999999,0.059329625,-0.060811315,0.11906301,-0.0776207,0.12787798,-0.0076904986,-0.066219576,0.00139403,-0.06662828,0.06187714,0.03285322,0.019657252,-0.060413475999999994,0.102364466,0.040609274,-0.071498685,0.0065647990000000005,0.023550564,0.114430375,0.11105501,0.12271244,0.024058424,0.07233418,0.08383286,0.0071627814,0.048334997000000005,-0.06168991,0.10068308599999999,0.057735138,0.043944724000000004,0.009616098,-0.16150993,0.102773495,0.060895078,-0.04465997,-0.06417128,0.08376289999999999,0.0028055396000000003,0.0359239,-0.033297576,0.027582005,0.06798768,0.12165581,0.025885887000000003,-0.07008541,0.10080389,0.12249917,0.032797616,-0.07343919,-0.053205974,0.09085589,0.042307954,-0.06148259,0.13791315,-0.07220356,-0.027141232,-0.04377282,0.09176466,0.09589236,0.002059606,0.11141812,0.08654755,-0.016211688999999998,0.080421485,0.09519311,-0.06498855,0.12319286,-0.007307286,0.012174776000000002,0.18528911,0.045857713,0.018634073,-0.02677082,0.0733993,0.12862383,-0.06783759,0.0051534297,-0.0077284155,-0.069691375,0.05355776,-0.04597012,0.14706407,-0.019642523999999998,0.1526469,0.009397220999999999,-0.15383461,-0.05717503
0.005705439499999999,-0.05600525,-0.020914622,0.09723493,0.14779265,0.0147563955,0.051258124,0.03656224,-0.022265779,-0.06717946400000001,0.093107805,0.0107299425,-0.015339891999999999,0.025811795,-0.10309909,0.12577991,0.04489447,-0.04031849,-0.055500016,-0.06991537,-0.07085331,-0.09623708,-0.044527385,0.051011025999999994,0.029562432000000003,-0.15409260000000002,-0.114270315,-0.10467653,-0.098813996,-0.01439587,0.01567678,0.07557127,-0.06288385,-0.08012178,-0.04458159,-0.13975474,-0.087334275,-0.115038924,-0.07656024,-0.0013833926,0.06158216,-0.0995516,-0.08027758,0.056875058,0.040604323,0.021387007000000003,-0.066879496,-0.099117376,-0.058565892,0.116841964,0.020193914,-0.013126269,0.014158593999999998,-0.041087285,0.12746179,-0.08616419,0.098479725,-0.0007765424000000001,0.10570919999999999,0.07861304,0.041500174,-0.04247577,0.02258318,-0.015229363000000001,0.064125195,-0.047262628,0.04169212,0.0006514732,0.09381711,0.018049806,-0.061967022999999996,-0.11112655,-0.14697756,-0.109850235,0.07538019,-0.09737443,0.020288728,-0.097218715,0.04389124,0.0025922025,0.11420512,-0.06794046,0.05514382,0.05485807400000001,-0.01801156,-0.082890786,0.029926007999999997,-0.013176723000000001,-0.06220471,-0.029727378999999998,0.013573218,0.06370031,-0.08936564599999999,-0.039456997,-0.023839539,-0.06016856,-0.0720301,0.038707427999999995,0.095130235,-0.011343803999999999,-0.059694797,-0.020880472,0.034028098,0.048049065999999994,0.13901779,0.03471441,0.03285469,-0.11255929,-0.0042779506,0.10482849,-0.055807162,-0.017180538000000002,0.2102047,0.08895417,-0.029998472,0.01949667,-0.06723325,0.03245779,-0.028573502,-0.06632521,0.06077679,0.0890383,0.02660107,-0.042553887,-0.048008262999999995,0.024240332000000003,0.0136071555,0.019750992
0.101232424,0.16205870000000003,-0.06305195,0.05482041,0.057937235,-0.057133902,0.09350303,0.104938075,0.07603956,0.060363155,-0.05455328,0.10963616,-0.17397039,-0.026165279,-0.11596947,0.008891258,-0.182401,-0.12488857,-0.09838967,-0.03742992,-0.07445601,-0.17056939999999998,0.10390497,-0.16745703,0.06950126599999999,0.032909106,0.12044273,-0.11480933,0.021071073,-0.040564194,-0.043223802,-0.08710383599999999,-0.02159603,0.02778178,0.12527855,-0.07526657,0.027685333,-0.07529537,-0.055774644000000005,-0.072014466,-0.03937152,0.05627796,-0.09232151,-0.07310741400000001,-0.042744443,-0.053340427999999995,0.050854065,-0.047078475,0.018889965,0.07919504,0.009597132,0.080726765,0.05341271,-0.039153766,0.029181197000000002,-0.07872464,0.04741821,-0.06698988,0.15431270000000002,0.029386992,-0.03036726,0.009885597,-0.021644821,-0.07182997,0.007465612,-0.07547712,0.08279222,0.05692602,-0.027345192,0.097670145,0.15514539,-0.047839846,-0.13661951,-0.063534126,-0.025918653,-0.023247551,0.0053252606,-0.06596139999999999,0.093905926,0.062367436,-0.050695977999999996,-0.08488441,0.08007984,-0.0009938917,0.0025882954,-0.004520302,0.14364724,0.0026348056,-0.14657179999999997,-0.015982054,0.017200356,0.11570678,0.005732224,0.07521041,-0.060846467,0.025798078999999998,0.060516648,-0.0067835813,0.098189555,-0.049129695,0.108074,0.0124934465,0.10860863,-0.019887011,-0.06367629,0.002895025,-0.10853335,-0.08071266,-0.17580897,0.092329435,-0.007344783299999999,-0.024616871000000002,0.11263465,0.0060970094,-0.021712027000000002,0.050786175,-0.014311246000000001,-0.07774189,-0.10172119,-0.017543931999999998,-0.005484441800000001,0.08516875,0.093998246,-0.08293257,-0.0010629934,0.10355879,0.12598354,0.09854194
-0.07907102,0.013444221999999999,0.0913407,-0.01579867,0.025566812999999997,0.10425738,0.029164207999999997,0.081670955,-0.13719551,0.029510261,0.027762393,-0.044932738,-0.111651845,-0.040316362,-0.11859410000000001,-0.06859386,0.017757461999999998,-0.017944328,-0.015825693000000002,-0.16206014,0.082064636,0.03562041,-0.025916562999999997,-0.069397874,0.008792678,0.06704497,0.12242272,-0.029455857000000002,-0.006848170400000001,0.0016043431,0.033442836000000004,-0.050856378,0.009547393000000001,-0.08620148,0.0035297721999999997,0.046655644,-0.06728166,0.00021909847000000003,0.020225381,0.031373654,-0.07201715,0.054740958,-0.015011263,-0.0744963,0.08905861,0.03930141,0.04941879,0.054944083,-0.025722021,0.08501139,0.09524818,0.009822296,-0.049679004000000006,-0.04660915,0.037812173,0.048654452,-0.09246128,0.01664358,-0.09278286,0.050237384,-0.024337683,0.047439132,0.1420129,-0.0093735,-0.06218483,0.09586893,0.07567012,0.037022416,0.12810218,0.026765892000000003,0.13939765,0.026501253,0.0064103226,0.004870379,0.04250175,-0.104378805,0.15996322,0.021949497999999998,0.10416902,-0.08498455,-0.05141749,-0.09355089999999999,0.053531885,-0.03976422,-0.13314258,-0.09466411,0.02635389,-0.089618556,-0.015129125,0.074138165,-0.07237119,0.032676194,-0.01612737,0.06843334,0.10170346,-0.08029411,-0.016304033,0.06255513,-0.09910254,0.06309549,0.03536433,0.08906244,0.14544626,0.079448804,-0.19802962,-0.06675088,0.04080151,0.05768311,0.025146984,0.0048760140000000006,0.004516986,0.07844315,-0.031991646,0.009462401,-0.16880643,-0.053504504,0.006997936,0.09431002,-0.096012235,0.05847149,0.033714905,-0.04888728,0.13016698,0.03895438,0.029251195,-0.041308477999999996,-0.09768202,-0.045061372
0.08058565,0.07330171,0.06904743599999999,-0.14872245,0.10003068,-0.011160363000000001,0.15909815,0.05232525,0.12582594,-0.030801916000000002,0.15157157,0.09468243,0.097834125,0.07420675,-0.07706014,0.14284082,-0.063241996,-0.06978912,0.032276023,0.074382715,-0.044714972,0.10336580000000001,-0.03929374,0.02788289,0.014181382,0.0037784881,0.06085987,0.033252776,-0.026085097,0.10579935,-0.0847074,0.051623724,0.04929033,-0.056935303,0.07657529,-0.00601734,-0.030894882999999998,0.06196008,0.061302382,-0.11425369,-0.059926398,-0.07438289,-0.10939093,-0.07382163,-0.06814657,0.08577584,0.0463071,-0.09316492,0.044098585999999995,-0.019311659,-0.122642286,-0.052440654,0.02651892,-0.030465012000000003,-0.02720121,0.061059337000000005,0.06790034,-0.06579361,0.033476307999999996,-0.09953668,0.06830069400000001,0.011305649,-0.17898521,-0.07789783,0.07375557,-0.08492122,-0.11271977400000001,0.036596883,0.013867615,-0.044394564000000004,-0.050077765999999996,0.06182277,-0.04222578,-0.011182526000000002,-0.11042771,0.07340146,-0.19070916,-0.012602026,-0.018745894,0.056829013,-0.048631743,-0.01645676,-0.05289581,-0.09778059,0.10442854,-0.046909254000000004,-0.018226687,-0.04278251,-0.020924734,-0.054331500000000005,-0.122234754,0.0073348545,0.04012623,-0.10287318,-0.01432564,-0.11449594,0.07676321,-0.024829142000000002,0.11580454,0.042961545,-0.03718019,-0.119083755,-0.08781422,-0.036128968,0.1019298,-0.06445791599999999,-0.0024949955,-0.09729732599999999,-0.04729855400000001,-0.021153333,0.13616112,0.07403914,0.0035959645000000003,-0.015855655,0.1369764,-0.0009635784,-0.08903726,0.0775296,0.01298443,-0.09231887,0.07743611,-0.11240539999999999,-0.07808705,0.084195115,-0.019296609,0.07590526,0.08073795,0.059613224000000006
-0.04420295,-0.054017138,-0.10849609,-0.15434879,-0.08153072,-0.15181755,0.12505360000000001,0.0018936713,-0.058307655,-0.04047791,-0.019938461,0.050219793,-0.015541062,0.007957383,0.092017,0.027778313,0.07740122,-0.04504653,0.12664036,0.0013226464000000002,0.016626209,0.04951988,0.13130502,0.060178064,0.034793824,-0.055687465,-0.006264895699999999,0.13359514,-0.0468515,0.1401376,0.00016453888,0.14633076,-0.08080266,0.10340799,-0.035536583999999996,0.019264529,0.01318742,0.006330834699999999,0.08090997,0.0957209,0.026580475,-0.07732969,-0.068785585,0.009761799,0.019182611000000002,-0.044220153,-0.026295437999999997,-0.042712400000000005,-0.08458299,0.06215954,0.06793141,-0.106679894,0.061309117999999996,0.025914802999999997,-0.14027831,-0.06395365,-0.025592126,-0.011646338000000001,0.013479586000000002,0.029341542999999998,0.03600637,0.11215657,-0.018842082,-0.03524203,-0.114576526,0.03165819,-0.09490809,0.103533275,-0.11223919,-0.025542494,-0.009157661999999999,0.024658976000000003,0.13089895,-0.080260925,-0.12762177,0.05997044,-0.07092177,-0.027639296,-0.11148453,-0.07822356400000001,-0.19215535,-0.08933602,-0.08366205,0.12435326,0.14218928,-0.092297815,-0.14218675,0.058528055,0.06152463,-0.04796247,0.01576908,-0.07692478,-0.16458109,0.029988952000000003,-0.06597305,0.04131125,-0.14057922,0.04242203,-0.06587594,-0.05413176,0.046731424,0.011783996000000001,-0.17295067,0.016320825,-0.035867773,-0.022616683,-0.063057445,0.057775192,0.01253447,-0.04731435,-0.0072158759999999995,0.025567792000000002,0.01199015,0.03212716,0.17749463,-0.049737018,0.01247733,0.09419333,-0.008965751999999999,0.050722674,0.11879849,0.083822206,0.0010935549000000001,0.013480737,-0.10888321,-0.08620702,0.17456385,0.075987205
-0.027820986000000002,0.12012437,0.0009891157,0.13817626,0.03947643,-0.040465157,-0.05253202,0.03272687,-0.107237004,0.15102062,-0.12643471,0.030868467000000004,-0.16288197,-0.027332757000000003,0.03393246,-0.024736676000000003,0.03812301,-0.047740515,-0.0043201186,-0.08759638,-0.06392683,-0.020291885,-0.06761498,-0.01479965,-0.008355725,-0.14959228,0.050037242,-0.10456505,0.03543215,-0.16278194,-0.09249143,-0.044881965999999995,0.0055790804,0.038591452000000005,-0.019086652,-0.10385329,0.0765253,0.01781617,-0.07078881599999999,-0.01778178,0.03207709,0.024713693,-0.037386205,-0.030131085,0.12299429,0.06447653,-0.056028895,0.08968254,0.016754918,-0.050374478,0.0048329234,-0.047318152999999995,0.08740861,-0.019536423,0.098974496,0.080598965,0.10132356,0.07072545599999999,-0.06504436599999999,0.06003781,-0.041989893,-0.06499324,0.11074242,0.105346315,0.031439193,-0.088530764,0.019849885,-0.02888406,0.16030954,-0.027480481,0.121988624,-0.09303631,-0.04967604,0.07463760000000001,0.13500865,-0.0940472,0.13907619,-0.04550137,0.037770256,0.09010001,0.06720824,-0.025560334,0.16049963,0.025810909,-0.11607161,0.017351173,-0.021448689,0.053885505,0.06866639,-0.05457727,0.067885816,-0.103397906,0.040867176,-0.020429318999999998,0.08513115,-0.0983573,0.10932910000000001,-0.043754182999999995,-0.036912682999999995,-0.08904723,-0.05708842,-0.04506369999999999,0.08359483,0.04470554,-0.012537673000000001,-0.033308774,-0.041475557,0.04413817,0.11985465,0.054957322999999995,-0.0717071,0.027710007999999998,0.017128993000000002,-0.029610759,-0.165606,0.10017986,0.021165457000000002,0.029673774,-0.039992746,0.015225406,0.09554455,0.013446755,0.022384167000000003,0.07312552,0.11069693,0.03185597,-0.15414913,0.0002334196
-0.08352722,0.02795538,-0.00025042310000000003,0.10138132400000001,-0.0019407782999999999,0.084061645,-0.06791776,0.02867408,0.009868321,0.0621576,-0.024461059,0.067525394,-0.036249418,-0.08769688,0.055014577,0.026519774,0.049758524000000005,-0.07782843,-0.055842325,-0.11209669,-0.065144375,-0.018466473,-0.03215511,0.011993515,0.072677374,0.10300435,-0.0016511885999999998,-0.07029333,0.07285312,-0.05154245,0.049593255,0.049030565,0.10213448,-0.087693304,0.08155628,0.13346814,0.11745968,-0.00044578767999999995,-0.07730219,0.054252907999999996,-0.041606717,0.026216407999999997,-0.042328343,0.05917754,0.112855636,0.0522745,0.035112284,0.020264508,0.08174555,0.08573255,0.14207493,0.06996358,0.1041151,-0.09756245,-0.16330932,0.047902618,-0.059737895,-0.043807764000000006,0.07005281,0.06460336,0.04759884,-0.024224897999999998,0.032604598,-0.04880102,0.11118532,-0.007928997,0.09733762,0.05031974,0.15161711,-0.07883651,-0.012349454,-0.04598754,0.0065911952,-0.06266002,0.056294404000000006,-0.06837827,0.10990665,-0.024703700000000002,0.06239723,0.08365891,-0.0888922,-0.040299423,-0.05875788,0.048594385,-0.07979928,0.015522003999999999,0.105139256,0.08732394,0.15468273,-0.042911634000000004,-0.012824008999999999,-0.024351427000000002,0.05108503599999999,0.059839074000000006,-0.026685594,0.032413237000000004,-0.048433803,-0.043162685,0.07764496,0.08004296,-0.08263752,0.04795796,-0.034594446,-0.08921498,-0.12289946,0.0069623496,0.014019058000000001,0.080384485,-0.032605127000000005,-0.08351472,-0.01783944,0.04604728,-0.13465968,0.11744724,0.024211813,0.043032285,0.034722835,0.07051026,0.10277001599999999,-0.029556861,0.015755998,0.04991004,-0.084207535,0.039139695,0.028888745,-0.01647079,-0.14811046,0.05195313
0.06619625,0.13707235,-0.1116712,0.03670342,0.010954307,0.071793884,-0.013775056,-0.14365646,0.06901760400000001,-0.058166984000000005,-0.01730827,0.006400141999999999,0.073940456,-0.08980263,0.002541261,0.053387377,-0.0029099071000000002,-0.045197975,0.069328815,0.10305021,0.021490796,0.03442265,-0.02820551,-0.03660645,-0.017594626000000002,0.12088162,0.04746388,0.09243084,-0.053833473,0.05568579,-0.031472344,0.082821324,-0.026879173,0.06280346,-0.10125731,-0.0012556993,0.058796815999999995,0.004577836,-0.05895121,-0.06648327400000001,-0.04093906,-0.114134036,-0.1007628,0.06510509,0.06569781,0.067061946,0.030003857000000002,-0.015776591,-0.07174575,-0.044656254000000006,-0.12389462,-0.09285737,0.052699674,-0.010244623000000001,-0.05982327,0.033168018,0.012333341999999999,-0.051529784,-0.075310506,-0.09996121,-0.09488842,0.016058702,-0.15591004,0.08437002,-0.0698701,0.06435653,-0.010864883,-0.11173035,-0.12695281,0.015211983,-0.11508455,-0.04336480400000001,0.12359244,-0.07352131,-0.06503426,-0.05276131,-0.09229484,-0.06930449,-0.11771713,0.07843027,-0.05460698,0.014039723999999998,-0.14336582,-0.07352859,0.11553478,-0.0066188895,0.0043550297,-0.028195621,0.0074362145,0.011902600000000001,-0.09113798,0.0020100374,-0.20580217,0.07518043,-0.10828312,-0.0120066395,-0.15097108,-0.08768678,0.08767278,-0.033646207000000004,0.048192594000000005,0.025993789,-0.104560405,-0.10707895,0.10224429,-0.019831123,-0.07018767,-0.108837344,-0.056248065,-0.005136318,0.05955971400000001,-0.086319804,-0.07473848,0.036408678,0.042695057,-0.06057353,-0.0566701,-0.040431514,0.056116875,-0.0036908095,0.008823447,0.04922836,-0.079232015,0.07115756,-0.06280741,-0.089667045,0.14052321,0.0035931063
-0.011284647,0.10827562,-0.053307362000000004,-0.08138999,-0.026438694,0.07875086,-0.033448845,-0.036269654,-0.011689406999999999,-0.09279201,-0.02306023,-0.004368533,0.04891057,-0.17030598,0.14612938,-0.07403439,0.02273078,-0.060095817,0.13177682,-0.07684966,0.05298841,0.09137242,0.036621448,0.07433539,0.079012506,-0.01852418,-0.008754092,0.14756229999999998,0.072015055,-0.0051700994,0.0603225,-0.07915354,0.006152414,0.11029405,-0.09874911,0.10531389999999999,0.06436355,0.07740459,0.05431566400000001,0.10092469,-0.14445016,-0.021863986000000002,-0.06888982,-0.08037173,-0.04626491,-0.018257637,-0.045657977,0.061660275,-0.020290231000000002,-0.025366793999999998,-0.04579786,-0.08573404,-0.14138581,0.06592884,-0.14053763,-0.02644169,0.056065094,-0.07587927,-0.051426797999999996,0.04561597,-0.12996815,0.0053594685,0.014614315,0.0007026524400000001,-0.063821025,0.01946531,-0.09309822,0.082306154,-0.19881329,-0.07205605,-0.0666957,-0.10233015599999999,-0.00380744,0.087107345,-0.13325578,0.014661107,-0.07341671,-0.039380873999999996,-0.090322435,0.047585577000000004,-0.069060765,0.10404909,-0.084396444,-0.032266535,0.13037577,0.01762736,-0.16925146,0.05825585,-0.08952345,-0.022370972000000003,-0.11051303,-0.07772212,0.045281995,-0.050624195,-0.08560302,0.033245556,-0.113327526,0.058337875,0.035992645,0.0444389,0.009927156999999999,-0.05747434,-0.094475396,0.100971445,-0.14348572,-0.014630566999999999,0.03410440000000001,0.0005815639,-0.15148775,-0.059011962,0.004694024000000001,0.02250575,-0.115725294,-0.07019776,0.15936498,-0.08686034,-0.23246002,0.07961221,-0.00705034,0.07667996,0.031263046,-0.04374639,-0.11291516,-0.04463244,-0.097494274,0.012106226000000001,0.07571132,0.049492645999999994
0.036897544,-0.16088973,0.032914445,-0.04893581,0.013953749,-0.09612144,0.076967806,0.089975715,0.16580601,0.021476755,0.05550681,0.013608739,0.12822986,0.13048436,0.06737167,0.17126526,-0.027007475,0.04981441,-0.0035114205,0.044289287000000004,-0.009751773,0.12157585,-0.042728864000000005,-0.09763087,0.04769774,0.005976104,0.027426744,-0.06429283,-0.0020954371,-0.059269615,-0.07009988,-0.0759316,-0.0013464567999999998,0.009671095,-0.0739997,-0.099414,0.12214520599999999,-0.008592474000000001,0.09003198,0.09492379,-0.0018380784,0.029416395,0.111696765,-0.033157602,0.14147489,0.10333016,0.17528091,0.057316262,0.051020197999999996,-0.025279729,-0.026564747000000003,0.12038617,-0.0060193556999999995,0.038864497000000005,0.26893836,-0.010687044,-0.072543345,0.04596455,-0.026963353,0.060156632,-0.023264458,0.06762793,0.07817897,-0.058557805,-0.039123356,-0.0576979,0.041553937,-0.0005211365,-0.06891674,0.033022072,0.046016615,0.02714406,0.09190563,0.024917794,0.066266894,0.0419745,0.0595785,0.08117073,-0.19592574,-0.01465082,-0.010739163999999999,0.08394474,0.11060764,0.061501436,-0.17040665,-0.08057632,0.024422,0.12321152,-0.013007076999999999,-0.03369402,-0.056646052999999995,-0.012798513999999999,0.25878572,-0.025986157000000003,0.14983004,0.02866346,0.01176413,0.048065204,-0.13203107,-0.015447239,-0.14095744,0.006811304000000001,0.12999368,0.09326381,0.003988858,0.0142532,0.098794416,0.08483283,0.14106546,-0.07485506,0.10796773400000001,0.040358245,-0.06469633400000001,0.0006751208,-0.06979605,-0.02173079,0.13245308,0.015492106,0.015061723999999999,-0.017890327,0.030008432999999998,0.092400864,0.036971048,0.0949368,0.01201831,0.08703839999999999,-0.062963404,-0.039324187000000004
-0.087734856,-0.13665082,0.09682488,0.037425056,-0.012721383000000001,0.021253167000000003,-0.15761745,0.08246352,-0.13106169,-0.039282503999999996,-0.16375469,0.044943300000000005,0.039163317999999996,0.0031060642,-0.033578295,-0.0034805091999999998,0.024070906,-0.054701976,-0.08315869,0.008994967,-0.06381887,-0.07380814,-0.018323958,0.005106642,0.087247394,-0.023749486,-0.024288155,0.058527336,0.072375976,-0.037814993,0.014614343,-0.09306956,-0.062571935,-0.11774631599999999,0.11293051400000001,0.027561147,0.032548487,-0.0007686675,-0.05023333,0.006870828000000001,0.0038087282,0.034440804,0.15504691,0.07424677,-0.034070763999999996,0.051862568,0.052703843,0.08125575,0.008415794,-0.03159978,-0.064761214,-0.038568947,0.010211926,0.06032402,-0.03442626,0.020285608,0.015627112,0.06864311,-0.059725355,-0.06718869999999999,0.11416799,-0.037598394,-0.01451376,0.0059527825,-0.006923474399999999,0.04799263,-0.07452573,0.057326194000000004,0.083323404,0.0074155945,-0.03885887,0.085739315,-0.0012349647,-0.078766294,-0.035172224,0.018694503,-0.022189123999999998,0.041121483,0.12846749,0.11178463,0.04456141,0.011138121,-0.007857239,0.03587363,0.0014042820000000002,-0.023139497000000002,0.17249215,-0.014853922,-0.103822015,0.10279864,0.12932895,0.12337138,-0.038698886,0.080408834,-0.047965735,0.028324362000000002,-0.18400359,0.049733795,0.11428986,0.031954962999999996,0.13273223,0.09561294,0.035064828,-0.025865085,0.041375693,-0.11169572,0.015642717,-0.045877084000000005,0.011534106,-0.021674900000000004,0.060824804,-0.043181613,0.049554105999999994,0.08333898,0.045778308,-0.0030964203000000004,0.076811165,0.029821204,-0.10383748,0.110877685,-0.14964394,-0.033652548,0.10061975,0.018892411,0.06617916,0.08671369999999999,0.07109899,-0.035659414
-0.17836942,0.026825532000000003,-0.13562624,-0.07429648,0.009853804,-0.16007566,-0.07814739,-0.09542705,0.12727816,-0.04054802,-0.007876348,0.043562237000000004,0.0022591597,-0.044821195,-0.017130459,-0.021080399,0.010239634000000001,-0.074464194,0.07882735,-0.015350733,-0.09721469,-0.066430606,-0.06573692,0.08860287,0.0058406126000000004,0.09510239999999999,-0.088980034,-0.059507146,-0.031788137,-0.04896195,0.10163503,0.0536602,0.10554697,-0.015419671000000001,-0.02923983,0.07554272599999999,0.059888717,-0.09043999,-0.040650684,0.006602848000000001,0.07534327,0.014477185,0.04044049,-0.039422000000000006,-0.06470581,0.08909009,-0.030009642000000003,0.050907417999999996,0.086620666,-0.07190569,-0.084250554,-0.037717234,0.058216832999999996,0.040936504,-0.13244401,0.065223865,0.018702567,-0.026082368999999998,0.10542060000000002,-0.03962336,-0.09024347,-0.09987561,0.022120132999999997,-0.083638765,0.1505537,0.045473125,0.1530658,0.021200005,-0.2705072,0.098199464,0.11998569,-0.045230288,0.11133820000000001,0.08887288,-0.17235987,0.02639702,-0.06699642,-0.083311275,-0.08897024,0.08181553,-0.12473095,0.053321194,-0.14390273,-0.0046090390000000005,-0.0087486375,0.07141636,-0.039682277,-0.035998497000000004,0.00094392424,0.05040217599999999,-0.20046975,-0.028334564,0.088958286,0.084831744,0.12155969999999999,-0.070785835,0.15982497,0.08938549,-0.03278235,-0.045805402,0.0010070265,0.012832966000000001,-0.067951754,-0.09473186,0.04897935,0.073413834,-0.11148766,0.005340829,-0.07514514,0.05587662400000001,-0.022162974,0.07469609,0.036530595,-0.07701704,-0.020959996,-0.008855151,-0.138826,-0.06922188,0.21808920000000004,0.062985994,0.20451759,0.021897811,-0.18349561,0.06014568,-0.12620102,-0.074808076,-0.11222911599999999,-0.04916447
-0.18725032,0.00571424,-0.10345248,-0.021571614,0.09105052,-0.16719717,0.05269756,-0.1910445,0.1010698,-0.11315112,0.06560604,0.01272819,0.08092746,0.088439435,0.10575586,0.073600605,0.04318755,0.06467366,-0.033405732,0.05688396,0.10184932,0.09066693,-0.049579397000000004,-0.015503518999999999,0.016113631,-0.08778947599999999,0.041134205,-0.001022435,9.805427499999999e-05,-0.017630299999999998,0.079909466,-0.0026284768,0.020707067,0.097213656,0.051962602999999996,0.10221085,-0.039056502,-0.024364637,-0.13473356,-0.01877186,-0.14802547,-0.01415854,-0.1304096,-0.032953836,0.008806496,0.09302332,-0.08549667,0.033658464,0.02743409,0.019275775,-0.006326577,-0.06245355,0.026127543,-0.109960355,-2.2486579999999998e-05,0.03465923,0.033435072999999996,0.020736767,0.05364443,-0.021845153,-0.11993896,-0.07478829,-0.009581726,0.01130939,0.017017428,0.05157533,0.029617393,-0.035367467,-0.2319685,0.042581886,0.11791685,-0.041063346,0.020223953,-0.033829827,-0.078719005,0.07221436,-0.0015918147,0.021303292,-0.08440469,-0.022704468999999998,-0.06934977,0.027051795,-0.026185514,0.0073693380000000005,0.05493675,0.077034436,-0.22129017,-0.039991923,-0.03692785,0.045006614,-0.09533766,-0.09452445,0.079125606,-0.09070166,0.081210785,-0.025933262000000002,0.13879423,-0.0448827,-0.0221585,0.020396687,0.072072156,0.005561901,-0.037688907,-0.0037178309000000004,0.025956245,-0.025262617,0.062147688,0.059355523,-0.14690977,-0.0034674140000000003,-0.01528842,0.054223022999999995,0.05298041,-0.03721139,0.09875379,0.023156125,-0.18103586,-0.08256749,0.0069878437,-0.112852685,-0.05996083,0.031538542,-0.21704009999999999,0.09467955,-0.09985264,-0.05983391,-0.039164282,-0.08525160000000001
-0.021593402999999997,0.14727533,-0.05707652,0.032390077,-0.018587984,0.15390820000000002,-0.10077715,-0.108232655,-0.055338584,0.07655227,-0.016752543,-0.02654507,-0.008385219000000001,0.006369925,0.11956414,-0.0047043553,-0.004088261,0.021522515,-0.07546715,-0.041960493,0.037457593,0.049767032,-0.063221976,0.05342037,-0.005366937,-0.04265005,0.07276587,0.03157696,0.12883909,-0.07095722,0.08870608,-0.04640114,-0.003676375,-0.10280129,0.043473903,0.085327536,-0.020471167,0.04638153,0.026078895,-0.04359491,-0.02457498,0.011700975,0.042024195,0.06261496,0.15013084,0.088164724,0.15693378,-0.004991059,-0.0011485269,-0.04470217,0.086534135,-0.021275207,0.10454746,0.096128985,-0.11447904,-0.025020506,0.03771555,0.031520717000000004,0.063643515,-0.00039162230000000005,0.09230045,-0.06793930000000001,-0.021608053,0.024209855,0.06949361400000001,0.10731978,0.04438139,0.039536756,-0.09980643,0.11323035,0.12414822,0.049737815,0.1104133,0.10428594,0.085167594,-0.025381355,0.017280923,0.092498034,0.05204075,0.013189451000000001,-0.041042224,0.057207192999999996,0.057166207999999996,0.03452931,0.22225678,-0.022447309,0.01987762,0.069536075,0.13074343,-0.0035994665,0.045618583,-0.023401227,-0.02121333,0.12766014,0.013066267,0.007857064,-0.08806893,-0.0007352535,0.08706148,0.13184915,0.012002171,0.006829215699999999,-0.10130996,-0.02002891,0.09583811,0.12326263,0.09110137,-0.062430672,-0.0033534027000000004,-0.007440257,-0.0322789,-0.04437308400000001,-0.05061648,0.011010246000000001,-0.07965989,0.09500218,0.004330289,0.051560115,0.052538472999999995,0.10340831,0.06839317,0.0013452743,-0.09965464,-0.00864203,-0.12226303,0.10362818,0.056071572,-0.09098338
-0.08091226,0.0046934765,0.0019206706,-0.19697346,0.05742491,-0.052531455,0.1125086,-0.08002641,0.08149295,0.024743509,0.09291559,0.11036048,0.02029519,-0.054756794000000004,-0.07169960000000002,-0.032463383,-0.07415797,0.15491939,-0.047796503,0.13846481,0.017560946,0.10889483,-0.0039910465000000004,0.06905084,0.00462122,-0.035732694,-0.037826337,0.0046783565000000004,0.039964497,0.077657424,0.004470702,0.07479274,0.025263801000000002,-0.012229957,0.059818953,-0.062313315,-0.08039573,0.022575404,-0.053426296,-0.099255174,-0.09083692,-0.096297845,0.05354041,0.030885916,0.050694037000000004,0.082426295,0.03520088,0.016051415,-0.06846613,0.03476272,-0.17228395,-0.09772832,0.06323072,0.07812611,0.052644777999999996,-0.01870139,0.028548032,-0.022120506,-0.012405458000000001,-0.09044951,0.06036552,-0.0020559463,-0.13000688,-0.08925028,-0.17409733,-0.024692005,0.009073308,-0.0919245,-0.0028104353999999997,0.09161112,0.0959471,0.08660052,-0.07475369400000001,-0.101249054,0.017449494,0.0661499,-0.025555871,0.07000854,-0.16415343,0.07658941,-0.07735332,-0.056830075,0.053205594,-0.018170988,-0.19147238,0.06960767,-0.13362433,0.07715782,-0.005181113,0.036749765,0.046163443,0.007813656,0.116730645,-0.10485736,-0.013654708,-0.059453465,0.10115431,0.048748765,-0.046545826,0.020417005,0.029276785,-0.06565069,-0.06309809,0.05022311,0.066528246,-0.06984006,0.05272999999999999,-0.056608085,-0.10055656,-0.085291535,0.07698042,0.028984403,0.010529094,0.056382112000000005,0.034947532999999996,0.015227156,-0.08383519,0.050837707,-0.06793302,-0.09101099,0.038735975,-0.05839482,0.056447025,0.06486292,0.06587206,-0.0028957583,0.04728357,-0.101981714
-0.10066577,0.119833834,-0.12778477,0.058759525,-0.11534554,-0.078536116,0.014796976000000002,-0.120911285,0.051050343,-0.08976226,0.022560706,0.00869472,-0.07893702,0.03230846,-0.022571836,-0.13137071,0.029561599999999997,-0.12318117,-0.06568114,0.03484826,0.08454664,-0.124611884,0.0002165706,-0.041955374000000004,0.059157968,0.081292465,0.072097674,-0.10295686,-0.034187302,-0.11856603,0.09684192400000001,-0.0011766482,0.12372008,-0.013640428999999999,-0.08979342,-0.016251303,0.09973977,0.10837338,0.10999493,-0.09478665,0.04044073,0.11808995,0.16331218,-0.050830285999999995,0.06743116,0.070706844,0.040161207000000004,-0.022938164,0.13220118,0.035590217,0.15330328,0.0013859579,-0.017511314,-0.08806721,-0.028396701,-0.048141147999999995,-0.100147024,0.10828781,0.08242813,-0.08470944,0.07452338,0.042137562999999996,0.115357935,-0.02254767,0.06936945,0.071026795,-0.16974132,-0.0031463691999999996,0.23761019,0.0071060252,-0.13905655,-0.029371433,-0.07267818,-0.048464455,0.06943426,0.06248484,0.05781758,-0.0048883220000000005,0.07308568,0.040553156,0.1027403,0.05824835,0.045764413,0.10473473,0.058934875,-0.0055467486,-0.02344353,-0.035372972,0.055455178,-0.07304215,0.055181447,0.07752711,-0.06821843,-0.07689145,0.041850116,0.08716451,-0.07035728,-0.019545896,0.006707492,0.10075176,0.087591566,-0.06115919,0.11992301,0.038089305,-0.1621047,-0.038517836,0.018450417,0.09232983,0.17334059,-0.06641860000000001,-0.06048154,0.11423609,-0.17701261,0.05743029,-0.008192243,-0.09917324,0.22517310000000001,0.08061178,-0.013027878500000001,0.0413541,0.0026981979999999997,-0.07012149,0.06446639,-0.003276972,-0.033109747,-0.055515558,-0.09558113,-0.025622467000000003
0.09444599,-0.013135521,0.11500046400000001,-0.121950135,0.04271157,0.11183728,-0.020181222,0.10546198,0.077911116,0.14815839,-0.13382044,-0.00047821687999999996,-0.06883071,0.04591959,-0.016051402,0.075502045,0.085933715,0.018324679,0.06149546400000001,0.05767446,0.15725595,0.049243905,0.16067584,0.0240524,0.11573588,0.07304375,0.10294625,0.07839421,0.041818585,0.079569824,0.085273646,0.13315184,0.09550505,0.18775547,0.02333319,0.07330419,0.034406964,0.02070233,0.007220336999999999,0.12102254,-0.11539303,-0.060949076,-0.025510041,-0.018419076,-0.015446661,0.08931666,-0.020123981000000003,0.12415803,-0.02838066,0.099150375,-0.10430159,0.12733239,-0.018130021,-0.073055856,-0.085410915,0.08864979,-0.083005525,0.064396255,-0.11512524,0.07155045,-0.04971303,0.071453065,-0.007422750400000001,-0.05574704,-0.15327436,0.026754871,-0.061227914,0.082744494,-0.00583229,-0.072147824,-0.14900579,-0.0064796247,-0.02097315,0.08384431,-0.06672699,-0.047183300000000004,0.03303381,0.09625637,0.041776452,0.06859649,0.019331595,-0.01782083,0.0820027,0.06629457,-0.039958283,0.017151829,-0.05549768,0.061652735,0.039456766000000004,0.09197936,0.13752054,0.097066075,0.10378887,-0.06047869999999999,0.031800967,0.083146065,0.029467542000000003,-0.03404766,0.09413698,0.04675723,0.07065558400000001,-0.010162437,0.036015067000000005,0.053667045999999996,-0.011897422,0.017883898999999998,0.09428517,0.10912328,-0.05824630000000001,-0.0041213883,-0.16091786,0.13395536,-0.17766714,0.014885036,0.09391110400000001,-0.00071277714,0.14501044,0.047199915999999995,-0.07675754,-0.03767487,-0.0023952073,-0.014623688999999999,0.059985433,-0.011873624,0.0044539435999999995,-0.0015076201000000001,0.15675898,-0.030737424
0.09014971,-0.013361732,-0.0060694423,-0.13670419,0.09834223,0.033287015,-0.07670691,0.044061265999999995,0.058355454,-0.050452024000000005,0.06871954,0.002198174,-0.051346336,0.016891204,-0.060723945,-0.08365878,0.07200830400000001,0.092683166,0.022957485,0.03373958,-0.10070434,0.029627811,0.0455404,0.0065026630000000005,-0.074427515,0.049839287999999995,0.093447216,-0.065491736,0.06689682599999999,-0.030234985,0.06658389,0.035361506,-0.0060538827,-0.08416313,0.047825493,-0.099684425,-0.047336128,-0.04642137,0.041570276,-0.093847565,0.05815609,0.04192592,-0.006252113,-0.10175652,-0.05792521,0.07139134400000001,-0.08985755,-0.06047497,0.009829163,-0.08057962,-0.07937759,-0.06475268,-0.057490848,0.029386386,0.08247985,0.08960935,0.03223171,-0.0776421,-0.02778155,-0.050832506,0.020938147,-0.024665099,0.063951895,0.09061895,0.024677707000000004,0.03519483,0.051953584000000004,0.006944846,-0.05984403,0.092780255,-0.08163093,0.07101169,0.02865373,-0.071112834,0.17875512,0.058734044000000006,-0.07731861599999999,-0.029695187,0.101115555,-0.10772524,0.033538237,0.08542939,0.0056164796,0.04940205,0.0082529485,0.022831421,-0.11205826,-0.011887885,0.07444717,-0.085236095,0.04230232,0.120897554,-0.07720713,-0.053932097000000005,0.04344756,-0.11054162,0.10434246,0.0722124,0.06452328,-0.042377137,-0.0520817,0.047704924,-0.020425148,-0.02362575,-0.010821131000000001,0.10643978,0.039212633,-0.006325489399999999,-0.13839665,0.0243963,-0.0036424617,0.029427601,0.039750232999999996,0.06285177,0.021355307,0.017347263,-0.0287716,-0.07276288,0.12229569,-0.038434632,0.02762193,-0.035512116,-0.15850894,-0.09822981,-0.07157236,0.05223105,0.05427178,-0.054851618
0.019419793,0.13770723,-0.089732856,0.07256669,-0.008791881999999999,-0.064688206,-0.04621019,0.03237222,-0.051336322000000004,-0.08230404,-0.015612488,-0.08283561,-0.07871042,-0.1311984,0.0048325057,0.010548675,0.14980583,-0.07837960000000001,0.108517565,-0.0053740446,0.14135139,-0.059727807,0.085054874,-0.011784596000000001,-0.026924517000000002,0.057827663,0.10979988,0.12892203,0.033806987000000004,0.10601132,0.060788485999999996,0.04543086,0.012377837,0.0006848287,0.03504426,-0.06813544,-0.10861044,0.10758104,0.016275665,0.09570806,0.06050689,-0.06428694,-0.10986108,-0.0063514834999999995,-0.086296655,0.08977692599999999,-0.15824386,0.05555162,-0.09267439999999999,0.011197881000000002,0.07889082,-0.005555572,0.046441145,-0.05079565,0.022074414,-0.04803406,-0.054735467,0.06367679,0.10402138,-0.031427354,-0.08518712,0.10138692,-0.017602231,0.033136833,0.12648988,-0.09133183,-0.11098676,-0.023472773,0.035920557,-0.00911074,-0.15417768,-0.09151714,-0.10811926,-0.026622862,0.0074721994,0.0225733,-0.12028554,-0.022286482000000003,0.12768851,-0.05598423,0.048552572999999995,0.010736903999999999,0.009995174,0.09292902,-0.07889936,-0.02283968,0.10105476,0.09595265,-0.070190735,-0.080212824,0.09918675,-0.11217372,-0.07081981,0.022382067999999998,-0.062243372000000005,-0.069405206,0.05767561,0.0074502463,-0.026682447999999998,-0.06510801599999999,-0.08926733,0.043944348,0.027967019,0.05891635,0.10038496,-0.07942411,-0.0160398,-0.10506227,0.008944138,-0.04861114,-0.034509514,0.028048119,-0.032647938,0.011313536,0.07214438,0.0069843330000000006,-0.015546643,0.05372718,0.041306805,-0.0074520553000000005,0.113831855,-0.004246067,-0.07178145,-0.08348249,0.009143003,0.10296217,0.06408443,-0.011908516999999999
-0.10485145400000001,-0.012763931000000001,0.0688793,-0.048739217,0.02432359,0.04411227,-0.033552013,-0.034958143,-0.086443625,-0.023440309,0.049027234,-0.016602541999999998,-0.1375391,0.048630904,-0.11782929,0.01948616,-0.035668782999999996,0.08678543,-0.034524143,-0.008125364,-0.053035766,0.04161961,-0.086078614,-0.10050157,-0.09485943,-0.035512067,-0.013631012,-0.0998688,-0.056792904000000005,-0.07425899,-0.083528504,-0.07094045,0.08729138,-0.11053659,-0.05864392,-0.078739636,0.08674819,-0.04388947,0.09350446,-0.05971191,-0.0016996984,-0.10136337,0.024540807999999997,-0.079937935,-0.056656595,-0.11317992,0.0520087,-0.03223081,0.05233244,-0.020820145,-0.06243722,0.020589579,0.07463445,-0.08894266,-0.025472672999999998,-0.018303301,-0.034398954,-0.04304795,0.019952932,0.06508344,0.1272825,0.022252202000000002,-0.03834205,-0.045486357000000005,0.06535977,-0.08959803,0.017169952,-0.0626203,-0.07881669,-0.066899754,0.046087425,-0.071342066,-0.08700894599999999,0.029089602000000003,0.077949345,0.079340175,0.040004003999999996,0.0052029346,-0.042937635999999994,0.018352335,0.09325446,-0.06525477,0.086798266,-0.08585094,-0.023983043,-0.051992595,0.13300206,-0.011685086,0.014541382,-0.04750295400000001,0.001148255,0.0033762446000000002,0.07114580000000001,-0.11408124,0.08936098,0.013306479,0.06362801,0.07927488,-0.07761654,0.013389026000000002,-0.04641097,-0.11828044,0.09040678,-0.029616615,0.05474785,-0.03589637,-0.08760082,-0.11573931,0.03912405,-0.08285444,0.030776908999999998,-0.08550302,0.16998841,-0.04041042,-0.03973079,0.025795007000000002,0.061117116,0.089130975,0.014069228999999999,0.040410105,-0.13021649999999999,0.028491814,0.018851928,-0.09297261,0.011567271,0.07579669,0.008017128,-0.032557055
-0.06269309,-0.13932942,0.004455312,-0.072828226,-0.04953826,-0.0016319046,0.06162034,-0.15243822,0.00043947445,-0.053540702999999995,0.05817024,-0.07226515,0.10553175,0.0973184,0.17091244,-0.03416769,0.019092279,0.031617362,-0.015178968000000001,0.12146773,-0.014682233000000001,0.0037441512,0.15871741,0.036528464,0.14001031,0.09783185,0.07442351400000001,-0.03549532,-0.03547501,-0.008054136,0.044904335999999996,0.0014740585999999999,-0.074461944,0.031409587999999995,0.0418719,0.15333101,0.014333845,0.14351133,-0.0038908416999999997,0.08803989,0.0018033313000000001,0.13995238,0.08275473,0.13116442,-0.058807585,0.049289398,0.08633402,0.027164906000000003,-0.08289471,0.120898604,0.048680115,-0.073932596,0.051065347999999997,0.018296398000000002,-0.024441177,-0.03790277,0.12396519,0.12955292,-0.02803249,0.050625667,-0.07849192599999999,0.1206808,0.11208228,-0.07315908,-0.12972283,-0.009394836,0.12313154,0.13938399999999998,-0.042895794,0.009578754,-0.04849567,0.14246841,0.008372022,0.028258335,-0.08952893,0.025014894,0.02245114,-0.0824497,-0.09391604,0.032042798,0.022779413999999998,0.00199375,0.13668947,0.005407254,0.10444028,-0.06208474,-0.055188637,0.029804347000000002,0.13799848,-0.025850582999999996,-0.04955691,-0.035073217000000004,0.07956682,-0.0028788059,0.1032627,0.1195914,0.078350395,0.07630365,-0.11646081,-0.01703926,0.044285007,0.06793867,-0.08771637,-0.004813515,-0.07888334,0.041683342000000005,0.053380214,0.14598699999999998,0.084152505,0.08272748,0.06392748,0.14838067,-0.06909493,-0.020216513000000002,0.04405734,0.040866103,-0.12046645,0.016649483,0.14797938,0.12848628,0.080300026,-0.027184708,-0.0083019575,0.027354205,0.0011591649,0.031922407,-0.08705468,0.14131218
0.13008405,-0.07332612599999999,-0.050419595,0.033191513,-0.015602841000000001,-0.09479023,0.06782911,-0.076824024,0.06541856,-0.012030056,-0.022814362999999997,-0.08969205599999999,0.13107033,0.013266927,0.013972100000000001,0.13495156,-0.032591882999999995,0.08153007,0.06070262,0.13540542,0.11796938,0.070767075,0.027157884,0.012795733,-0.08507273,0.13293704,0.07910102,0.0049161594,0.0044664424,0.06795525599999999,-0.1241963,0.046395625999999995,0.04664829,-0.04117953,0.0059056659999999995,-0.11764884,-0.037793975,0.020580614,-0.0796982,-0.104624696,-0.08032141599999999,-0.047596775,-0.09947774599999999,-0.04870899,-0.061146922,-0.09745963,-0.10275432,0.014509592,-0.021590611000000003,-0.084151745,-0.02766362,0.0141985705,-0.03674361,0.04759206,0.076086745,-0.07390787,0.034414914,0.059918042000000005,-0.0040976517,0.07638969,-0.06373587,-0.074699566,-0.09507188,-0.018087732,0.04385486,-0.109129235,-0.020276826,-0.08392601,-0.16541314,0.05549786599999999,0.027247885,-0.023990575,-0.02044031,-0.08102029,-0.04632776,-0.029684352,-0.15904614,-0.07914285,-0.026612025,-0.033337064,-0.038917955,0.06397816,-0.20356629999999998,0.08525915,-0.119277835,0.07612358,-0.029565394,-0.099362805,-0.07225668,-0.12136369999999999,-0.18027394,-0.00028214447,-0.026145605,0.04057782,0.049704812,-0.010463736999999999,-0.0033624843,-0.007969282,-0.0025772231,-0.07775401,0.046566196,0.009041861,-0.1622131,-0.06506622,-0.033466667,0.040756285,-0.028052561,0.009407425,-0.13585901,-0.057990692999999996,0.0054506976,0.0068717804,-0.031192426000000002,-0.059268947999999995,0.0033439838,0.044614355999999994,-0.22931063,-0.06231911,0.055446997000000005,-0.06743608400000001,0.12889306,-0.05291060400000001,-0.15793099,-0.10028766,-0.09274867,0.0019222517,-0.06446027,-0.087740846
-0.13170627,-0.015588757,-0.08137710000000001,0.027739557,-0.0806788,-0.025383746000000002,-0.058712165999999996,0.03802982,-0.033526674,-0.10207977,0.016379368000000002,-0.0882608,0.062087607,-0.15512246,0.175273,-0.019381084,0.14088237,-0.019326035,-0.05413134,0.12149086,0.04384165,0.08902022,0.0073287287,0.15077099,0.01967057,0.06010566,-0.038917642,0.12133329,0.012805902,0.11409069999999999,-0.0076036407,-0.0026156227,-0.09471778,0.030685231,-0.04274368,0.040696032,0.06815529599999999,0.09584694,-0.016101832,-0.06299181,-0.051293775,-0.08492132,0.053210348,-0.10585276,-0.09240321,-0.01477044,-0.07712269,-0.036340207,-0.14358672,0.07387583,-0.024425662999999997,0.053806285999999995,-0.10635443,0.07013716,-0.046527356,0.07858842,0.054816663,-0.025302036,0.022784152999999998,0.018211147,-0.12947498,0.06254900000000001,-0.013563432,-0.07468095,0.042840417,0.083743,-0.064399816,-0.07872944,-0.0007899836599999999,-0.09657662,-0.0855051,0.07685652400000001,0.033477414,0.057338074,-0.033623908,0.077765085,-0.14943665,-0.036935177,0.03921827,-0.11016231,-0.08733599,-0.041602083,-0.26072243,-0.09840604,-0.071672924,-0.05227319,-0.0662176,0.06684399,-0.052494000000000006,-0.038302377,-0.069742054,-0.110133484,-0.016537603,0.04322705,0.03258263,-0.10741403,-0.1255424,0.05013818,0.088133305,0.026670568,0.017178783,-0.07327406,-0.16689554,0.05233146599999999,-0.049824648,-0.055775933,-0.109820105,-0.056468103,-0.024781799,-0.10553827,0.009428131999999999,-0.09470296,-0.02423893,0.01565403,0.15898912,0.077635765,-0.21901318,-0.10504745,0.19643506,0.069021165,-0.055481385,-0.015904322,-0.1009219,-0.0072577693,-0.1493916,-0.020152401,-0.0036593762,-0.006798047
-0.10619704,0.016016863,-0.15700778,0.014499338999999998,-0.19448587,-0.01125146,-0.034010515,-0.01937822,0.044908643,-0.11221457,-0.09425634,-0.16843806,0.050519272999999996,-0.17614819,-0.073634475,-0.07179686,0.12243298,0.04699352,-0.014690903,0.004346491,-0.03133087,-0.004936396599999999,0.030276421,0.051597286,0.03317453,0.031893753,0.034493815,0.01893014,-0.034003984,-0.07599862,-0.020402903,0.008363401999999999,-0.08673193,0.07186121,0.069831945,0.049339022,0.08933387,0.01562649,-0.039287034,0.094559036,-0.005166727,-0.08148912,0.049456928,0.03204204,0.056839257000000004,-0.036795102,-0.0036207022999999996,0.021794337999999996,-0.045366875999999993,0.026527965,-0.0023315227999999998,-0.085138075,0.07400879,0.06678142,-0.22469118,-0.019494265,-0.07815643,0.005374182,0.022188626,-0.039412603,-0.027108105,0.0006043741,0.06277935,0.037673984,-0.042633325,0.0469091,0.013473742,-0.067926735,0.019817911,0.08408760000000001,0.05555768,0.079431824,0.037956487000000004,-0.021569142000000003,-0.035710093,0.035585698,0.07542769,-0.03492721,0.0834806,0.07802393,-0.05578309,-0.08347523,-0.16169825,-0.06208033,0.15656438,-0.05074337,-0.16403879,0.08073539,-0.011863956,-0.015552861999999999,0.034879662,0.0983562,-0.03337561,-0.008116534,0.031590845,-0.034477424,-0.18506423,-0.015223713,0.004372075,-0.050787814,0.13719273,0.08945718400000001,-0.092834696,0.075708464,-0.09339966,0.07645089,0.051831484000000004,0.043401387,0.0319616,0.095910884,-0.013001736000000002,0.09310611,0.0839222,-0.009372845,-0.011210280500000001,0.10095610000000001,-0.10132472,0.077695325,0.1408178,0.09512043,0.1192798,0.056301683,-0.007316995400000001,0.08639468,-0.07647588,-0.09833909,-0.13844216,-0.06835559
-0.120970026,-0.05917892599999999,-0.06289917,-0.070864394,0.037789817999999996,-0.0865733,-0.053786772999999996,-0.051588999999999996,0.12382102,0.014014673,0.13365328,0.008300313,0.09531817599999999,0.013077409,0.08057267,0.05728421,-0.03010562,0.15727934,-0.029780732,-0.045603197000000005,-0.04981433,0.0044419565,-0.06292579,-0.025792573,-0.006794039,-0.040147804,0.04956757,0.06272018,0.0047342586,0.10457168,0.015994277,-0.043769546,-0.036428705,-0.020583683999999998,0.079684116,0.044228777000000004,0.07647235,-0.046758167,0.041164037,-0.01617086,0.11387534,0.08646254,0.02312272,-0.055463925,0.0082634,-0.0044137392999999995,-0.060847152,0.090331435,0.04835863,-0.045795724,0.09250142,0.009933965,-0.010644964,-0.0052568386,-0.0398592,-0.054270875,-0.10898325,0.048917416,0.11356235,-0.048113998,0.15828778,0.117571674,-0.05751986,-0.048351806,0.117217734,0.006284805500000001,-0.019942641,0.06287227,-0.12725437,0.06359713,-0.13015096,0.08471127,0.048658747,0.11908203,-0.09289666,-0.04518586,-0.12659468,0.0137288775,0.1321753,0.086443655,0.17733824,-0.034082826000000004,0.13432872,-0.04796133599999999,-0.1110751,-0.06745331,0.07281259400000001,0.103290886,-0.0531908,0.017491605,0.0318877,0.009487985,0.061986732999999995,0.077615395,0.06964722,0.013487866999999999,0.11585404,0.030453993,0.026529717999999997,0.02157653,-0.043205626,0.04444579,0.20607181,-0.01935674,0.06530109,0.064505026,0.01186595,0.074260525,0.014340338000000001,0.07697732,0.0042700185,-0.014629858,-0.058309194,0.10724232,0.011255611,0.09877067,-0.15926698,-0.08370609,-0.0650987,0.026119747999999998,0.05629713,-0.06042644,0.13053253,-0.034135826,0.1715769,-0.06103564,-0.010616978000000001,-0.07030528
-0.19471364,-0.07804433,-0.07462706,-0.19105352,-0.04637582,-0.12536547,-0.060463265,-0.1204519,-0.006957894,0.05591283,-0.0844504,0.08904113599999999,0.10142332,0.056602784,0.09459253,-0.02050044,0.103732504,0.052903175,0.013504735,0.11184540400000001,0.10460038,0.11421569,0.0038523218,-0.015448219,-0.026322491,0.060692187,-0.006290175500000001,0.14681312,0.02374626,0.03490707,0.08697705,0.0029766816,-0.069854684,0.031600997,-0.04185225,-0.056139115,-0.06242076,0.11035615,-0.07668419,0.010258255,-0.037325878,0.08080594,-0.0002857431,-0.030061765,-0.10210596,0.083900906,0.0049688346,-0.10183979,-0.04152061,-0.044360593,0.021209468999999998,-0.054946895999999995,-0.025222251,0.014500386,0.14404579999999997,-0.036951035,-0.11446714,0.043847088,0.012546163,-0.03693025,0.042310532000000005,-0.0002036273,0.033567265,-0.10476289999999999,-0.017736377,-0.048327137,0.039009206,-0.039093062000000005,0.06023338,-0.0028763427000000003,0.10406079,0.04483784,-0.017540688000000002,-0.1001995,-0.02626196,-0.056304593,-0.16340320000000003,0.061134346,-0.00091492326,-0.10974779,0.077258356,-0.12825923,0.09507191,-0.042889036,-0.12064108,0.006382058,0.13101198,0.036014304,-0.024938228,-0.0970875,-0.021529289,0.04064496,-0.05338554,-0.03321442,0.06918844,0.07820909,0.048527546,-0.03610883,-0.004135995999999999,-0.057496153,0.07497447,-0.07472332,0.15661563,0.013268026499999998,0.059197407,-0.025731366000000002,0.0389219,-0.08938257,0.10355908,0.009828640999999999,0.0655887,-0.11944349,-0.01626161,-0.06656471,-0.07205181599999999,0.095363066,0.09401914,-0.03463726,-0.017242903,-0.053479236,-0.034870847999999996,-0.0051882197,0.06916720400000001,0.05061895,0.02282179,-0.012615568,0.017437644,-0.05625639
0.11746784,0.090840325,0.12253106400000001,0.10177201,-0.062418047000000004,0.06650884,0.0077626946999999995,0.22405434,-0.10230556,-0.0049439715,-0.123508595,0.09208164,-0.1304777,0.14437222,0.020287583,0.07054547,-0.016834153,0.0746796,-0.1016831,-0.109999664,-0.13826300000000002,-0.046479188,0.092283405,-0.02982562,0.041597653,0.060690902000000005,-0.06778439,-0.011873353,-0.020189354,-0.06721852,0.11829735,-0.056822624,0.047120024,-0.08892230000000001,0.07331094,-0.06502459,-0.07372334,0.083672,-0.053278587999999995,0.011059959,0.09300495,-0.08668324,0.037874933,-0.0034588028000000002,-0.08682127,0.07818908,-0.061580565,-0.015465727,0.07564688,0.05017505,-0.08390666,0.05115976,-0.012660757,-0.0717808,0.096419536,0.07104316,-0.013520721000000001,0.07060386,-0.06250111,-0.037552502,-0.08013611,0.0057007126,-0.04869914,0.019742601999999998,0.044099383,0.072265945,0.05138302,0.094421126,0.028086742,-0.04654407,0.06976683,0.034334004,-0.021570904,0.059814624000000004,0.056785997000000005,-0.10718957,-0.17628933,0.09957351,-0.10332112,0.07783283,0.04305767,-0.051583786,-0.07142812,-0.04316601,0.024329389,0.053267434,0.11795179,-0.005419027,-0.0066681476,-0.08282257,-0.077950835,0.047570087000000004,0.05725041,0.030135935,0.0075746830000000005,-0.051132377,0.06687048,0.030082708,0.071787,-0.021053245,-0.16425596,-0.07008248,-0.16642696,0.006857279,0.0023208626,0.044772584000000004,-0.017852405,0.058992937,-0.029255637999999997,-0.086439185,-0.11129977,0.07791696,0.09355848,0.10185946,0.029008957000000002,-0.08147517,0.005397819399999999,-0.033882994,0.13363026,-0.03596656,-0.061704595,-0.023919562000000002,-0.10284998,0.07500617,-0.022082248999999998,-0.08321963,0.10115234599999999,0.12175448
-0.0305815,-0.02005157,0.013584848500000002,-0.011364985,0.009946318,0.07393938,0.12821601,-0.053107675,0.041893836000000004,0.0022118338,0.11672211,-0.009601496,-0.016596051,0.060699157000000004,0.11670478,-0.030984586,0.034952212,-0.008922926999999999,0.11766498,0.11104201,-0.0010327025,0.15705079,0.10778789999999999,0.09929187,0.079703905,0.115888104,-0.08866749,0.044713235999999996,0.00027785363,-0.007940435,0.045019902,-0.03581038,0.01842075,-0.0023421806,0.056026865,0.013915325,0.061328318,0.065110475,0.12918861,0.065375686,0.02794886,0.13686836,-0.035722464,0.14303756,0.06747733,0.09056092,-0.0074822735,0.08381412,-0.09004448,0.10908603,0.07939635,0.027497472000000002,0.03158422,0.058820922000000005,-0.05094613,0.09674369,-0.083701804,0.05440103,-0.044617727,-0.041170373999999996,0.08625693,0.024243675,0.04163628,0.04892959400000001,0.12600654,0.06400808,0.120162144,-0.030779544,0.010294344,-0.018151683999999998,-0.079126075,0.058010917,0.051960636,-0.01500177,0.026155553999999998,0.052835900000000005,0.03669696,0.059154093,0.07002188,0.017233137,0.09161223,0.11921894,0.07492139,-0.045838572,-0.053302675,0.13284920000000003,0.13172227,0.023046952000000002,-0.016420078,0.040064607,0.0029113314,0.039663646000000004,0.12115625,-0.025098857999999998,0.032912317999999996,0.10465839999999998,-0.036276393,0.07752896,0.072436795,0.08516421,0.07847213,-0.06144619,0.08145898,-0.022468252,-0.12678765,0.13001089,0.08041715599999999,0.038690355,-0.06963388599999999,-0.076594315,-0.10414055,0.065089256,-0.092503116,0.0031660325,0.012141113,0.055703953,0.013904806,0.057130992,0.049519453,-0.06691343,0.10864283,-0.05111926,-0.008815841,0.037151042,0.054636825,-0.050920438,-0.040271316,-0.059429225
-0.06766886,0.02543871,0.02095383,0.025361644,0.21709874,0.111182846,0.16603929,0.088187076,0.02883062,-0.0056557776,-0.081102826,0.04931539,-0.12139983,0.17991604,-0.012741541499999998,0.11370182,-0.12935753,0.15371613,-0.12952156,-0.022766745,-0.123799816,-0.085871205,-0.09258393,-0.09631647,-0.035166785,0.036651365,-0.1093028,-0.05424974,-0.03803093,-0.018485673,0.009665356,-0.06513069,0.09308555,-0.10710553,-0.07208027,-0.08773034,0.013237438999999998,-0.088784695,0.013230151499999999,-0.025559192999999997,-0.053255565,0.06930092,0.09681378,0.040991105,-0.059490938,-0.07031873,-0.09133626,0.083996326,-0.12638912,-0.031940695,-0.007780154,0.10616166,0.07404773,-0.06916482,0.010921997,-0.08020792,-0.017466561999999998,0.08702467,0.093715295,0.049952592999999997,0.08923851,0.025767265,-0.04056802,-0.015065771499999998,0.09481791,0.08612831,-0.028121583,0.03470281,-0.028477862000000003,-0.04352278,-0.11825597,-0.03946865,-0.06418022,-0.0062315190000000005,0.12761046,-0.033661935,-0.06685735,0.012134458,-0.03843651,-0.047476396,0.10280732,0.07270354,0.053788375,0.04116833,-0.111849315,0.09325421,0.15326476,-0.025384882,0.12444797,0.06411865,0.12182812400000001,-0.075392164,0.061263535,-0.006240545,-0.022474721,-0.06221095,0.053120895999999994,0.04803146,0.09312508,-0.0992128,-0.007676429,-0.062850356,-0.003588655,-0.07154838,0.10374431,0.03191749,-0.05718179,0.031261574,-0.008867704,-0.036366414,0.047990914,0.022660686,0.010342832,0.0054740203,-0.055149592000000004,0.07273785,-0.15674688,0.007193914,-0.1384342,0.10654038,-0.07132257,0.0068015517,0.15441594,-0.09442903,-0.03877847,0.059217043,0.038393788,0.011680613999999999
-0.08591802400000001,0.030413361,0.0839225,0.042360123,-0.09923357,0.070176266,0.08957678,0.04987373,-0.043128467999999996,-0.04226386,0.03980209999999999,-0.075824596,0.074741915,-0.115287244,0.10951161,0.03474225,0.14152727,0.063242406,0.10142804,0.11349862,0.14603688,0.12575097,-0.088311106,0.07706410400000001,-0.09105614599999999,-0.057159747999999996,-0.04963923,0.14115867,-0.03726946,0.1276869,-0.041876324,-0.050001826,-0.06683311,0.024259329,0.034285735,-0.09868239,0.029091548,-0.10929833,-0.07948065,-0.123714305,0.021306482999999998,-0.07478391,-0.10557227599999999,0.07877904,-0.09377902,-0.017844818999999998,-0.10138029,-0.017548978,-0.17550892,0.033158485,-0.069418855,-0.033497408,-0.08515676,-0.07904682,-0.07734124,0.0057988428000000005,-0.12846547,0.061220735,0.043127532999999996,-0.044554878,-0.0021541044,-0.102575675,-0.20207104,-0.09380313,0.18582746,0.094862886,0.10410576,0.073966146,-0.012021552,-0.049115337,-0.17123914,-0.080235794,-0.08304512,-0.10711522,0.06136724,-0.015056799,-0.13661851,-0.09912165,0.031963877,0.04575424,0.025360128,0.008721019,0.12819703,0.009836392,-0.084065855,0.060902238,0.15697919,0.07825431,-0.029706791,-0.02538017,0.0783075,0.027314609,0.031334516,-0.08100201,0.055632799999999996,-0.054387026,0.1452594,-0.014362073999999999,0.04619433,-0.09622123,0.12009023,-0.12533537,0.062761724,-0.0020214655,-0.029850855,-0.10887502,0.02610904,0.06217607,-0.17676231,-0.073934965,0.0336908,-0.09889148,-0.046213622999999995,-0.009281399000000001,-0.011975736,-0.002276041,-0.18678233,0.01577806,-0.0010546664999999998,-0.048803512,0.16375852,-0.07705844,0.10849947,-0.03479249,0.03730343,-0.03207046,0.066935405,-0.106030285
0.07001046,-0.10732448,0.19266507,-0.019334279,0.028131917000000003,0.136981,0.13472699999999999,0.04906039,-0.03212076,0.25515413,-0.0993923,0.25042936,0.044659343,0.074939355,-0.05811391,0.0837067,-0.14533271,0.048891958,-0.11088358,0.08060952,-0.08667187,0.03911739,0.04886771400000001,-0.002782459,0.056613065,-0.0149456365,0.0026353697999999997,0.065307625,0.055363435,0.007472106700000001,0.068489686,-0.10061391,0.086302795,-0.13395534,-0.04175985,0.019934673,0.08468246,0.07419553,0.0006665447000000001,-0.061248578,0.12909847,-0.081924334,0.09128106400000001,0.028711062000000002,-0.026181335,0.002317028,-0.07348145,0.01026037,0.011698465,-0.001108848,0.08748345,-0.021856847999999998,0.09054864,0.06600083400000001,0.081477396,0.043449234,-0.03374444,0.10546788,-0.0024423245000000002,0.052337155,0.023641423999999998,0.018627353,-0.14588723,0.016567286,-0.049210493,0.031890508,-0.04653446,-0.03039781,-0.059335027,0.1116506,-0.056285508,0.07871729,-0.045094407999999996,0.02055112,-0.05129815,-0.08069910000000001,0.06744773,-0.07395237,0.04315431,0.013131031999999999,0.067310095,-0.087228954,-0.0040950426,0.10276060599999999,-0.059768416,-0.058074900000000006,0.0053127175,0.040553316,-0.07386806,-0.03157334,-0.06157937,0.04464548,0.022880678999999998,-0.07846405,-0.047330257,0.026956156000000002,-0.037668046000000004,-0.027004221000000002,-0.07237898599999999,0.017754847,0.06732975,-0.047477905,-0.03951808,0.020667689,0.03602249,-0.0175412,-0.005082768400000001,0.060567647,-0.07030689999999999,0.102727205,0.07427212,-0.05029027,0.061908122,0.08673206,-0.063801445,-0.007182990699999999,0.029776392999999998,-0.08870546,-0.017572122,0.04128147,0.039317757,0.027935995,0.1407671,-0.05480302,-0.05283793,0.06874696,0.06791849,-0.008887288
0.11891523,-0.08763096,0.06254889,-0.14032258,0.011954125,0.047330867,0.0071290303,-0.058839842999999996,-0.1113103,0.03423141,-0.04762736,-0.05035526,0.065445445,-0.007644909399999999,-0.010811265,-0.039274786,0.07970501,0.040082894,-0.09113315,-0.031606626,0.049812213,-0.030809166000000002,-0.04393067,0.090250336,-0.11598689,-0.006021633,0.053688146,0.08253316599999999,0.038289156,0.1304177,0.022024123,0.07567639,0.038729400000000004,0.096441716,-0.05141214,0.0015731426999999998,-0.039132252,-0.088076554,0.022608291000000003,-0.13990229999999998,-0.0478551,0.046054855,0.003526285,0.018794494,-0.10349586599999999,-0.03236554,-0.10933401,0.026039003999999998,0.0035336034000000003,-0.09176943,-0.12466291,-0.049463704000000004,-0.06374961,-0.101972885,-0.005357736700000001,0.07548991599999999,-0.029220507000000003,0.06699905,0.006622274399999999,0.06767092,0.010787277,-0.12273159,-0.07443517,-0.09243963,0.12688553,0.023847907999999998,0.024306212,0.06782569,-0.12367239599999999,-0.027385335,0.040895198,0.06532399,-0.05615845,-0.08893073,-0.08724887,0.046827517,-0.19649594,0.085536,-0.12564452,0.0630856,0.045279734,-0.117350385,0.0106928,-0.07235461,0.027078722000000003,-0.08989370599999999,0.23674178,0.031606827000000004,-0.16372606,0.07579425,0.011983773999999999,-0.04897637,-0.0021090945000000003,0.034397908,0.046053387,-0.10458122,0.11335863,-0.10335449,0.07756559,-0.12790455,0.06281497,0.070282385,-0.04532289,-0.047212157000000005,0.036284007,-0.06767147,0.021195186,-0.12086956,-0.05236442400000001,-0.055969603,-0.0031983908,-0.032169588,0.15546031,-0.07005738,0.035897005,-0.10639145,0.065585636,0.05036098,-0.087267965,-0.13158067,-0.029587684,-0.038728923,-0.09285303,-0.1361571,-0.10485981,0.022307168999999998,-0.03011355,-0.03701003
0.09256542,0.02175299,0.003425615,0.022217637000000002,-0.024383877999999998,0.024284575,0.00032013863999999997,-0.06251607,0.006563076700000001,0.04457555,0.083856106,0.031473733,0.08838334,0.13260148,0.01881857,0.10597797,0.028264415,0.09332314,0.058003637999999996,-0.04557645,-0.08538539,0.07595332,-0.10258391,0.031874146,-0.05763288,-0.052435793,-0.08605623,0.110790156,0.04381078,0.10025011,-0.042896643,0.03461573,-0.07167049,0.0984686,0.09416469,0.08150015,-0.0670826,0.100821495,-0.07913476,-0.010495231499999999,0.007320157,-0.088641234,-0.0724457,-0.06724639,-0.019202623999999998,-0.12019467,-0.06419879,-0.0721291,-0.10639554,-0.060505465,-0.026766326,-0.06859109,0.07616224,-0.0030127286,-0.014859061000000002,-0.08109342,-0.15088978,-0.047750857,0.13570204,-0.08005997,0.007636994,-0.06548389,-0.12757774,0.060924955,0.049100254,-0.10535029,0.10736985,-0.010750448999999999,-0.11940263,0.081258334,-0.06243742,0.108531825,-0.049669835999999995,0.049938418,-0.05737210400000001,-0.012050792,-0.16527945,-0.02272381,0.14169838,0.006820464,-0.042838354,0.05610081,0.012236598999999999,0.0926327,-0.13616247,0.00056263164,0.078625716,0.033737022,0.034347575,-0.048980575,0.061850194000000004,-0.08712049,-0.0028853205,-0.091976374,-0.12794080000000002,-0.012311371000000002,0.19519259,0.03095855,0.062117532,-0.07312043,0.07104939999999998,-0.032295797,0.14722413,0.019070892,-0.014355011,0.04804975,0.059231713,-0.0035967959999999998,0.0061658625,0.12987152,-0.09374792,-0.053739518,0.055522062000000004,-0.01995479,-0.054558717,0.00897177,-0.22854885,-0.07878535,-0.09925259,0.048285518,0.14998699999999998,0.061271027,0.12424180000000001,-0.017452778000000002,0.043492816,0.08501028,-0.041374765,-0.030302817000000003
0.025742797,0.08753072,-0.16114855,0.06553707,-0.054830782,-0.06725396,-0.12371876,0.09498275,0.03132911,-0.00563808,-0.03301134,-0.09623343,-0.03017707,0.055945054,-0.0553009,-0.09484637,-0.07373403,-0.07719072,0.025900045,-0.039074495,0.07276012,-0.106837325,0.084555514,-0.1375615,0.056696694000000006,-0.11202399,-0.017410232,-0.01104681,0.037545998,-0.10263387,-0.054629594000000004,-0.03539262,-0.052050455999999995,0.099119395,-0.024614805,0.078673676,0.10765048,0.07374322400000001,-0.094839446,0.10903339,-0.06885045,0.0038951492999999998,-0.071425386,-0.078413285,0.004255823,-0.044684075,-0.03911567,-0.11265416,0.11715794,-0.025773327999999998,-0.049699900000000005,-0.03931616,0.061301972999999996,-0.107745886,0.029701197999999998,-0.088307425,0.10191082,0.03245239,0.010014669,0.086755425,0.053017862,-0.013120853,0.17049262,-0.06755046,-0.14766571,-0.0057193507,-0.0685995,0.017506825,-0.02743754,-0.0014202045000000002,0.10832698,0.07599829,-0.061201554000000005,-0.024060707999999997,0.06247918,-0.06267044,-0.027020806,0.018583877,-0.11873668400000001,0.03156742,-0.08314322,0.08623942,-0.07624032,-0.052802622,0.13261054,-0.008913072,-0.18533537,0.08639539,-0.05557158,-0.08699772,-0.0737136,0.0031874953000000004,-0.04900628,-0.056497942999999995,-0.05929574,0.09885634,0.012622491999999999,0.080015205,-0.01240993,-0.016393015,-0.13059695,-0.016690454,-0.20941414,0.049154405,0.16473676,0.06899796,0.027395632000000003,0.042733777,-0.054176222999999996,-0.06740395,0.05154445,0.042724005999999995,0.105254255,-0.07374986,-0.13793594,-0.051474012,0.24892516,0.055014513,-0.0031158137,0.099278614,-0.035899077,0.027031247,-0.08515258,-0.081890166,-0.064958766,0.06769723,0.17765678,0.041513413
