-0.107523195,-0.015504252,0.043809608,0.06969318,0.07651652,0.0023429883,-0.040772725,-0.055090252,0.04930494,-0.095306516,-0.10975952,0.022477796,-0.08383259,-0.098952875,-0.057692043,0.03982374,-0.06743389,-0.031648897,0.028342262000000003,0.07341011,-0.03181679,0.05293406,-0.06953163,-0.07736354,-0.012631523,0.01732525,-0.07651836,0.0859528,0.065046825,0.026241733,0.090501346,0.024321076,0.037907675,-0.10560567,-0.032848015,-0.007650845,-0.039384563,0.010207967,0.033959813,-0.04881667,-0.045049900000000004,0.029010888,-0.064249486,-0.052903414,-0.06684077,0.09286776,-0.048802412999999996,0.017836756999999998,-0.07798139,-0.103768416,-0.0012294994,0.02080138,0.04058318,0.07176781,-0.008373041999999999,0.046983725999999996,0.07803041,0.014082196000000002,-0.050157587999999996,0.059833407000000005,-0.06570878,0.012095318,0.08095903,-0.041477833,-0.009174479000000001,0.055218607,0.051670577,0.05701159,0.10112534,-0.07308752,-0.06138586,0.06947959,0.024781438,0.05563189,0.028471084,0.08174075,0.028529366,0.10152547,-0.070362285,0.09738356,-0.07874511,-0.11103837,0.015837897,-0.055781696,0.07180337,0.03507063,-0.08789553,0.053671435,-0.008274645,-0.03778716,0.06574503,-0.054382785999999995,-0.028989695,-0.060300484,-0.06473894,0.047697797,0.015917176,0.06816977,-0.05348687,-0.10268593599999999,-0.13589114,-0.034915213,0.14533632,0.037321884,-0.09573613,-0.03935324,-0.064454556,0.025306482,0.11113999,-0.08482943,-0.12453094,-0.019739384,-0.058575653,-0.049488105,-0.006018509599999999,-0.08096669599999999,0.129001,0.007479438000000001,-0.10708093,-0.04030129,0.032615464,-0.05711158,0.0748765,0.07280354,0.0023922494,-0.08263337,-0.07822917,0.10152312
-0.08956014,0.041443426,-0.07093256,0.036830302,-0.0031561823999999997,0.008512798,-0.027225545,-0.055017974000000004,-0.101992145,0.10257195,-0.033558615,-0.07434692,-0.042876202999999995,0.003930581,0.050849445,0.05749714400000001,-0.09385206,0.057947606,-0.04693663,0.029031467000000002,-0.033790663,0.054470263,0.03323005,-0.11844942,-0.050512735,-0.05556149,-0.008260429,-0.016991708,0.0982123,0.08411504,0.0050219240000000005,0.06077397599999999,-0.07837797,-0.05745368,-0.021083219,0.04601924,-0.03645098,-0.06819700000000001,0.059568442,0.027167558999999997,-0.10809958,-0.059585657,0.038506847000000004,-0.06960188,0.11706012,0.08204516,0.024514016,-0.050316848,-0.0563881,0.034681868,0.04017065,-0.08244772,0.06142955,0.02815455,-0.04997802,0.07413511,0.040533777,-0.00034740436,-0.059831284000000005,-0.06503575,0.08253832,0.06374896,-0.07515396,-0.094669,-0.07756319,-0.006580000999999999,0.02415348,-0.09735827,-0.113338165,-0.06198745,0.06890057,0.033213407,-0.017456764,-0.030599646,0.01362406,0.0035558008000000003,-0.0047931103,0.012022791000000001,-0.008273615500000001,-0.06975778,-0.15485646,0.07659503,0.08871528,-0.07526058,-0.02307958,0.017287381,0.015085243,0.06646793,0.061657685999999996,0.082669795,-0.08049808,-0.0045996084999999996,-0.12574142,-0.015647242,-0.11321181,0.02131364,-0.047364183,0.040194493,0.089583606,-0.024636647,0.1630707,0.07922768,0.051200956,0.01115642,-0.090995856,-0.056986615,-0.13535151,0.08033379,-0.10929768,0.01769572,-0.023835374,-0.028047267,-0.12132328,-0.08771216,-0.09197860000000001,0.07958508,-0.11017728,0.052608464,0.026186453,0.045235813,0.16061336,0.013851485,-0.011780663,-0.025711183999999998,-0.08541839,-0.07935228,-0.102149844,0.10068259
-0.096113205,0.10029425,0.043971315,0.034461517000000004,0.05483193,0.07759680599999999,0.021584312,-0.053480607,0.08836891,-0.017430529,-0.07130135,0.08611088,0.022988575,-0.062218584,0.04786932,-0.014167735,-0.040746,0.03588865,-0.019096164,0.06785818,-0.07498082,-0.01382298,-0.059910967999999995,0.06918045,0.030268421,-0.06714736,0.017190576000000003,-0.07336808,0.07884573,0.08506699,0.02324534,-0.0074527967,0.051858053,0.004716238,-0.10863145,-0.09114808,-0.0660935,-0.010472863,0.02162727,0.06536121,-0.029980267999999997,0.038556903999999996,-0.12642223,-0.032121547,-0.06505234,0.06713891,0.097169936,-0.021813167,-0.029227246000000002,0.0074024713,-0.048206247,0.031037224,-0.09697696,-0.06526897,-0.14757143,-0.050183687000000005,0.019248674,0.06547011400000001,-0.027177292999999998,-0.058210604000000006,0.05633668,0.06804457,-0.11743390599999999,-0.06551503,-0.093636006,0.037069753,-0.06898288,-0.058478165,0.049882277999999995,-0.005423304,-0.01650821,-0.09474437,-0.09121331,0.0690977,0.04362196,0.04447793,-0.014588753999999999,0.06129579,-0.14167839999999998,0.030650848999999997,0.08320767,0.027255388,0.016460583,0.052186236,-0.08832258,0.08722025,-0.15733229999999998,0.011197064,-0.07855434,-0.09220045,-0.09681207,0.056383695,0.11789257,0.010374958,0.056284115,-0.044598445,-0.061331502999999996,0.0012500973,0.038723983,-0.08315891,0.06788153,0.042334337,-0.074285276,-0.00943836,0.10951081,-0.05995461,-0.13736868,0.08806725,0.08395219599999999,-0.033727605,0.15927391,-0.067536175,0.06668285,0.03649229,0.017336585,-0.026614747999999997,-0.027743194,0.029578442000000003,0.115105465,-0.03860701,0.117063396,-0.0009442294999999999,0.08890119,0.08189874,0.053745203,0.008249279,-0.13869855,-0.046955775
0.039014954,-0.016407888,-0.028586927999999998,-0.061851107,-0.06418521,0.025780902999999997,0.009244294,-0.020291099999999996,-0.007411607,0.043293905,0.02914492,-0.00021645792999999997,-0.0196634,-0.07990008,0.0056679156,-0.039387748,0.037743777,-0.031146577,-0.01768583,-0.06346767,-0.0586063,0.04318732,0.064971715,0.08548409,0.0940962,0.06825769,-0.030633197999999997,-0.003048732,-0.032955486,0.030022807000000002,0.0017266532000000002,0.05079444,0.08880187,-0.065884545,0.072802894,-0.007155608000000001,-0.06838408,0.09962718,0.10331593,0.10877987,0.07695416,-0.024767868,-0.042579338,-0.01904477,-0.07601249,-0.07555874,0.0064713190000000006,-0.04555777,-0.05097003,-0.062164992,0.031149331000000002,0.0014774832,0.0214776,-0.009550531999999999,-0.05742576,0.031459346,0.05779861,-0.020044839,0.014817678,-0.018151322,-0.021351817999999998,-0.012230533,0.033880956000000004,-0.076500826,-0.040689137,0.0710841,-0.07440391,0.060038622,0.05991021,-0.08214543,-0.014738135,0.05215839,-0.112376064,-0.058821358,0.007584654000000001,0.054804042000000004,0.112160094,-0.0154656395,-0.08506378,0.055963043,-0.1463063,0.035472944,-0.06493644400000001,-0.024273512999999997,0.036018416,-0.07307752,-0.12239116,-0.06450454,0.015284548500000002,-0.005492731999999999,0.18858786,-0.04737008400000001,0.03149609,-0.05762562,-0.047338653,0.06049345,-0.10555810000000002,0.011631539,0.12163787,0.0588768,-0.019026287,0.07319337,0.08288067,-0.049213167,0.008768565,0.05826207,0.12275184,-0.05481885400000001,-0.13887152,-0.08593651,-0.0172601,0.025525354,0.0053335363,-0.037849132,0.07335058,-0.037633017000000005,0.020083537,-0.002555057,-0.10423734,0.0704541,0.04788237,0.026412308,0.12616943,-0.07904258,0.042989306,-0.08141233,-0.11375103,0.10043617
0.01134574,0.07032317,0.06964957,0.009696565,0.053975217,-0.020114167,-0.059182055,0.026738627,-0.032362804,0.056728907,0.09443919999999999,-0.034860067,0.038716442999999996,-0.04661474400000001,0.06652428,-0.007942217,-0.10341879,-0.046752800000000004,0.07795598,-0.016690226000000002,0.07176844,0.04857497,0.017584711,-0.094200246,-0.0835159,-0.0014274410999999998,0.01242258,-0.047521412,0.007046975,-0.015122021999999999,-0.016486783,0.08646189,-0.07269814,-0.04364024,0.08558213,-0.008469935999999999,0.06897405,-0.03557556,-0.08914322,-0.0673654,-0.007830269,-0.059497237,-0.020773482,0.09323818,0.08520038,0.071019,-0.00566502,-0.0067468975,-0.0048296438,0.01309469,0.019328548,-0.01972035,0.0630674,0.09188818,0.12069219,0.07000973,0.08831769,-0.039200163999999996,-0.023392696,-0.07698418,-0.06334341,0.058678694,0.097119994,-0.05493187,-0.05357657,0.06769956,-0.103229985,-0.081833646,0.012212448999999998,0.08962838,0.10649739999999999,0.07875616,0.05644764,0.05582954,-0.16157684,0.05182244,0.014812638000000001,-0.06333541,-0.033328813,0.0694791,0.06164566,0.07845307,0.011973883000000001,-0.003947699,-0.016128013,-0.07585647,-0.12354575,0.031884324,-0.023803664,0.056559667,-0.04292668,-0.066201754,0.03073983,-0.05995327599999999,0.054939583,0.04708608,0.09298424400000001,-0.01957529,-0.011844977,-0.018003775,0.03675677,-0.08763281,0.065616645,0.0051450524,-0.08924876,0.026748368999999998,-0.13084017,-0.10518156,-0.15050937,-0.10070712,-0.007820208,0.057927623,-0.061632857,0.07676578,-0.14240831,-0.08838502,0.051439412000000004,-0.032397915,0.046443902,-0.021326791,-0.012591723,0.050026238,-0.066907205,0.028400006000000002,-0.13624384,-0.028870475,0.021417981000000003,-0.09378348
0.048699886,0.015866239,-0.039060883,0.012371564,0.055689092999999995,0.0415845,-0.010268721,0.019502508,0.08150511,-0.04347392,0.109319955,-0.08384983,-0.066325665,-0.030540602000000003,-0.05382019,0.04202377400000001,-0.027945957999999996,-0.11038795,0.05953921400000001,-0.009847340999999999,0.08912191,-0.08980444,0.06561417,0.023755856000000002,-0.063254125,0.07811642,-0.02876106,0.049359600000000003,0.08989237,0.09548596,0.028127823,-0.025203506,-0.011704233999999999,0.061535075,-0.0019365022,-0.08769500000000001,0.06958936,-0.012972986,0.0908463,-0.04732413,0.07061816,0.029974772,0.019255457,-0.04741897,0.0034968404,0.024670506000000002,-0.055102583,0.000526896,-0.018798655,-0.03380504,0.06717587,-0.08822487,-0.10501245,-0.011324427,-0.09773061,0.05649688,-0.072266735,-0.08205056,0.017448923,0.06972083400000001,0.064731315,-0.062433872,0.044371046,-0.04823232,-0.13845454,-0.08409039,0.1221447,-0.08028026,-0.054255605,0.008492865,-0.021174017000000003,0.051879983,0.14650828,-0.06931047,-0.1339781,-0.025869522000000002,-0.020933855,-0.016608045,0.053063847000000004,0.07244283,0.025711887000000003,-0.046755977000000004,0.004279971,0.06321052,0.0056787855,-0.05968033,0.06096044,0.07750951,-0.09160187,-0.027339758,0.102458954,0.053050615,0.03874014,0.10272977,-0.03190885,0.067402564,-0.13782957,0.10572764,-0.12646814,0.04562023,0.0075027984999999995,0.044644717,-0.085406594,0.009224345,-0.009498249,0.0033217953000000003,-0.09026845,-0.03997964,0.0033469705,0.048630732999999995,-0.0191273,0.0036468664,-0.09533283,0.104366705,0.11410933,-0.07241413,-0.052489682999999995,-0.038064073999999996,-0.03226506,-0.056289412000000004,-0.029243599999999998,-0.03803669,0.017676005,-0.09947162,-0.047606427,-0.057692725,0.058891248,0.0019846829
-0.006042584,0.027777688999999998,0.030837222999999997,-0.00549576,0.018478097,-0.09488218,-0.015658013999999998,0.049356878,-0.0656058,-0.027944226000000003,-0.034472913,0.068947114,0.056937277,0.054246005,-0.011347281,-0.023826267999999998,0.084888935,-0.01977179,-0.06398351,-0.048453577000000005,-0.08255127,-0.054437455,0.084974095,0.035099335,-0.016888036999999998,-0.06697182,-0.06584598,-0.018188445,0.05600058,-0.067351915,-0.049851704000000004,0.112469874,-0.04418627,-0.08468091,0.032125816,0.08456399,-0.023148876000000002,0.05600064,-0.016392505,0.018693776999999998,-0.08293104,0.020703085,-0.055104513,-0.08806271,0.06346503,0.07630106,0.046019252000000004,-0.052154700000000005,-0.10502547,0.002563079,0.04443278,-0.08469177,-0.06289813,0.09010086,-0.0034152218,0.009065812,0.07506974,0.016442407,-0.064234145,-0.019626796000000002,0.036648326,0.06901873,0.11260461,0.09313938,0.07347949999999999,-0.011203168000000001,0.03640279,0.009608275999999999,0.13059492,-0.07076825,-0.1321649,-3.8537444e-05,0.07852956,0.10332787,-0.0062792217,-0.03367558,-0.07274259599999999,0.027892858,-0.08644744,0.0058843335,-0.11855075,-0.040804535,-0.07307161,-0.06543216,-0.061972,-0.03536133,0.013997714,-0.08545522,0.11508927,0.065153845,-0.11704052,0.0667594,-0.117549,-0.033102393,-0.090258546,-0.08016376,-0.04209241,-0.08614528,0.03617369,0.037281207999999996,-0.058636077,0.025641836,-0.108909555,-0.096619055,0.08937619599999999,-0.029159114,0.071452625,0.061183963,0.06617630000000001,-0.08100369,0.056179617,0.019537133999999998,-0.08782344,-0.008684642,-0.11185863,0.024292551000000003,0.13370773,0.029634748,0.040823728,0.03396491,0.052309632,-0.012349036,0.024028478,0.05185179400000001,-0.22936863,-0.054004945,0.2188649,0.076726705
0.06935584,0.017347462,0.021948086000000002,0.069623634,0.06630950000000001,0.0013528523000000002,-0.016759856,0.044332735,0.031190517999999997,0.038094777999999996,-0.076167166,-0.015399288,0.07340022,0.026807696000000002,-0.02747215,0.024929302,0.0038602294,0.00821425,0.060560774000000005,-0.029208472000000003,-0.0038692888,0.09197865,-0.06590021,-0.06941579,-0.059688486,0.010458333,0.059166532,-0.07005091,-0.04302862,-0.080330685,0.05995968,0.019455746,0.095987454,0.041454695,0.00942189,0.044127867,0.07539288,0.02033073,-0.09797794,-0.02100633,0.035446893,-0.014462947,-0.064525135,0.07867901,-0.0037834554,-0.04184989,-0.00031671027,-0.016554853,-0.07359107,0.0919487,0.059027072,-0.0258546,-0.014516211000000001,0.092003495,-0.109719865,0.07488133,-0.029322282999999998,0.023926448,-0.10541715,-0.00085533276,-0.08188787,0.00040144307,-0.015069563000000001,0.0005442102999999999,-0.033404447000000004,-0.011020713,0.010457563000000001,-0.012743545,-0.017961266,-0.047968185999999996,-0.21296625,0.10272336,0.043246612000000004,-0.09705531,-0.09478497,0.033355772,0.0980529,0.08772431,-0.044400852000000005,0.08218592,0.07915653,-0.07048081,-0.0021876127,-0.06165836400000001,-0.015663,0.08500023,-0.016604334,0.041425943,-0.0030130753,-0.038558558,-0.06768734,-0.01752855,-0.09032964,0.050363265,-0.07652858,-0.028368602000000003,-0.051108774,0.0024258744,-0.12367059,0.015017075,0.20626505,-0.08685382,-0.15996169,-0.032608222,0.010558376000000001,0.03628135,-0.089765035,-0.06776405,0.02630479,-0.089078456,-0.030744177999999997,-0.06968786,-0.14202629,-0.04501265,-0.07641274,0.002614736,-0.06918338,-0.055013686,0.044056766,0.098560154,-0.08877266,-0.08452784,0.11389093,-0.09044494,0.06343430000000001,0.09382222,0.09643759,0.09192644
0.019440662,-0.029860111,-0.041843537,0.0034141896999999996,0.029586473,0.015312728500000001,-0.03994123,0.020261193,0.07485868,0.08633549,-0.02928321,0.049762197,0.06473440000000001,-0.09452537400000001,-0.019062432,0.07969289,0.04898546,0.021129357,-0.010385772,-0.103820324,0.06378817,0.029449637999999997,-0.08113895,0.06864299,0.087361306,0.06610273,0.08778663,-0.11531296,-0.110491246,0.06657924,-0.08583350000000001,-0.022946857,-0.034185900000000005,0.018872628,-0.015304185,-0.04550663,-0.07325369,-0.12584901,0.07487955,-0.106524386,-0.027224919,0.056855507,0.08941788,-0.08863479,-0.0027330536,-0.088072814,0.017780028,0.012649357,0.020557187,0.02265195,-0.0067653083,0.0132969525,-0.02898849,0.034497317,-0.043311544,0.081139475,-0.088423684,0.09757889,0.03861128,-0.10903492,0.11353968,0.10261898,-0.088136844,-0.029550347,-0.07565034,-0.038366638,-0.03746499,-0.055849195,0.0015639139000000002,0.08977353,-0.07615053,0.0027405266,-0.0047805705,0.006275509499999999,-0.14501545,-0.010346534000000001,0.14224838,-0.021449666000000003,0.0148094725,-0.028655762,-0.07942301,0.054465506,0.09977312,0.00957427,-0.030512167000000003,0.006088181,-0.13248226,0.06283871,-0.035016958,0.048063707000000004,0.10267068,0.06399153,0.16283853,0.082033776,-0.022880387000000002,-0.08527611,0.061176315,0.07730201,0.06914127,-0.058323957,-0.024371548,0.004860752,0.07176581,-0.009538434,-0.03586877,-0.05425694599999999,-0.00872464,0.036900252,-0.046054992999999995,-0.0007614792,0.008215094000000001,-0.0925824,0.09890767,-0.027594721000000003,0.12415909,0.09701132,-0.019278595,0.0921488,-0.016056554,-0.032872513,0.17320855,0.00038216294999999996,0.07181426,-0.091249645,0.046406515,0.04335588,-0.03568779,-0.059300885
-0.018197,0.00031451654,0.081360325,-0.01895871,0.0035546892,-0.04080948,-0.004771544,-0.018263975,0.06093667,-0.097511426,0.005609121999999999,-0.06797794,-0.020768573999999998,0.060346074000000006,0.01956896,0.07964429,-0.024550686000000002,-0.07748347,-0.01332905,-0.04539236,0.06522386,-0.03460157,-0.005909489,-0.06033441,0.041425843,0.072162524,0.039924044,0.054787800000000005,-0.0043702098,-0.103951365,0.06983128,-0.009487704,-0.010711304,0.061849147,-0.050437417000000005,-0.062665835,-0.09053583,-0.040385302000000005,0.004280219,-0.10649243,-0.042586967,-0.11259898,0.04441373,-0.01285612,-0.07312432,-0.010095024499999999,-0.09353256,0.09891644,-0.02944857,0.084059685,-0.021837372,0.030720612,0.07140069,-0.074879445,-0.08363415,0.06633161,-0.08020431,-0.0039360127,0.086122096,0.02992141,0.054230295,0.04078765,0.006981541,-0.011273202,-0.056149933,0.10173008,-0.08137786400000001,-0.07664025,0.065848105,-0.055310987,-0.04689343,0.01947938,0.07427103,0.10006774,0.06090427599999999,0.07803421,0.058210354000000006,0.03317804,-0.092336856,-0.07006884,0.00931879,0.061516855,-0.13675839999999997,0.09814856,-0.16774198,0.05317571,-0.15372023,-0.028157111000000002,-0.043922199999999995,0.029458346,-0.019619431,-0.005172879,-0.07750639,0.09478815,0.01760247,-0.06533886,-0.2079229,-0.043830663,0.018776337,-0.038613107,-0.011972778500000001,0.008991631,-0.14576115,-0.049138546,-0.036951855,0.027415035,0.07035918,-0.026887907000000003,-0.15783368,-0.09964617,0.045769673,0.023393426000000002,-0.07380867,-0.065530635,-0.012071273,-0.0066512,0.12320568,-0.060251802,-0.07851575,-0.03966705,0.022471162000000003,0.027581643,-0.04388442,0.09582165,-0.038022354,-0.053406507,0.09019355,-0.027363637000000003
0.08637888,-0.029126107999999998,-0.04465223,-0.0710474,-0.07892169,-0.05438996,-0.023608217,0.02879153,-0.08870326,-0.04727453400000001,0.043515372999999996,0.08968241,-0.077499665,-0.0770575,0.05649646,0.04941763,0.015732283,-0.11599406599999999,-0.024148053,0.06907504,0.09331444,0.054245282,-0.022220142000000002,-0.0070826844,-0.008324123000000001,0.09359884,-0.046185672000000004,-0.07244468,-0.037355583,-0.038818486,0.09804082,0.06410993,0.051900532,-0.07702975,-0.05569217,-0.066099785,-0.06771105,-0.026287042000000004,0.053504113,-0.077688746,0.042013127000000004,0.09356575,-0.06906873,-0.09676816,-0.043154895,-0.024388722999999998,0.10520564,-0.035528794,0.06881669,-0.050771027999999996,-0.05479348,0.058471177,-0.051335663,0.06372636,-0.13629502,-0.062524594,-0.07629981,-0.023296846,0.10619873,0.03026667,-0.06842867,-0.031974003,0.1196139,0.027356347000000003,-0.09658116,0.047807722999999996,-0.017263813,-0.06851576,-0.12972783,-0.0833076,0.02417612,-0.065607816,-0.11396980000000001,0.06470269999999999,0.045869455,0.04382466,0.13395306,0.07729054,-0.011392237,-0.08872444,-0.09253417,0.052771505,0.07256888,0.08849566,-0.09960636,-0.10227153,0.019616252,0.031282436000000004,0.07003173,0.085336,0.018585725,0.05059435599999999,0.052900300000000004,0.04342168,0.09173566,0.09005239999999999,0.084743716,-0.07673693,0.10623725,-0.019995175,0.06578086,-0.07953473,-0.13121423,0.0018578091,-0.13664068,-0.08444834,-0.037899427,-0.0024578206,-0.003371398,0.00829758,-0.13618843,0.086621426,-0.08841132,0.015082564,-0.058818165,0.038308904,0.0011101773,0.002939812,-0.046726647999999996,0.07601776,-0.081515,0.12212724,0.09143759,-0.09037598,-0.023221346,-0.028983562999999997,-0.06029640000000001,-0.040305883
-0.05030928,-0.064317964,0.02166956,0.01900081,0.076559864,0.09008735,-0.0039349296,0.013903371000000001,0.079380184,-0.08847879,0.066910185,0.035432696,-0.08416712,-0.07402569,-0.048706862999999996,0.09612723,0.027344583999999998,0.042630777,0.016061148,0.06375078,0.07680488,-0.040718127,-0.012933558999999999,-0.09566528,0.05100775,0.05496659,-0.03265512,-0.013693301000000001,0.0115953,0.08039725,-0.032688238,0.05804318,-0.04033713,0.008019421,0.0056050713,-0.008466578,-0.084901996,-0.09572921,0.0012449281,0.060239177000000005,0.0927738,0.0055678985,-0.0024295496,0.09397751,0.07268287,-0.064474136,0.021318054,-0.0039414642,-0.07271263,0.013699545,-0.01935828,0.08967809,-0.10228746400000001,-0.08223589,-0.07159126,0.014872111,0.046774514,0.014619443999999999,0.08584147,0.0657947,0.034648683,0.0796411,-0.021631043,0.082594536,-0.122526035,-0.028252912999999998,0.07967193,-0.066276275,0.122151464,0.06100825,0.082527295,-0.07760299,0.06580148,-0.095920295,0.082825206,0.06696129,0.08778494,-0.027485374,-0.014355053999999999,-0.035898432,-0.026506722000000003,-0.10485075,-0.0024231442,-0.0695191,-0.019382598,-0.06839613,-0.072713815,-0.02845896,-0.043129593,0.06494113,-0.03337209,0.057931487000000004,-0.12562062,0.002559516,-0.17863677,0.027346022,-0.16182768,0.014266498,-0.09909369,0.021273851,-0.13677551,0.047229633,-0.012122424,-0.021082953999999998,0.12046388,-0.08436617,0.016130488000000002,0.10033885,0.13102785,-0.051707532,-0.17391738,-0.065493226,0.014081443999999999,0.07147408,0.080072924,-0.06080268,-0.098692715,0.078837104,-0.08454194,0.09098271,-0.0054686437,-0.046248625999999994,-0.08261533,-0.057033774,0.15155847,-0.06655704,-0.11936753,-0.05036713599999999
0.030941091,-0.010597525,0.071090765,0.06895462,-0.10484155,0.07551730400000001,0.08140608,0.100965455,0.06794705,0.015094759,0.024781253,-0.025585478,-0.08440857,-0.043655400000000004,0.019265061,0.09581189,-0.06591111,0.09966733,0.010916766999999999,-0.08233795,-0.020785151,0.03666904,0.09337032,-0.040368993,0.08178435,-0.03543329,0.06355871,0.053021307999999996,0.06613256,-0.014545235,-0.08991311,-0.0060162335,-0.022438793999999998,-0.010111842,0.0059311369999999995,-0.061013807,0.02349638,-0.020301886,-0.06295173,0.06740109,0.04111271,0.03705805,0.092282735,0.07145499999999999,-0.035606257999999995,-0.025466327999999996,-0.093805656,0.049428605,-0.036246058,0.090040356,0.09943893,0.05661984,0.105864264,-0.047141947000000003,-0.08227894,-0.10369905,-0.010746159,-0.06515677,-0.117251575,-0.07612384,0.01486626,0.028514726,0.022339907000000003,-0.032312006000000004,0.041297086000000004,0.041846312999999996,0.0818678,0.032537684,0.17142588,0.08341619,0.010131669,0.05205582,0.053506367,0.035298973,-0.108511545,-0.008520205500000001,0.101739,0.02479277,0.091707855,0.04518418,0.043404788,0.045758112999999996,0.037509907,0.012621905,-0.057623137000000005,-0.10575680400000001,-0.17446513,-0.09565879,0.04165947,0.011581795,-0.019373318,0.010107755,0.09546861,-0.116605215,0.07488671,-0.08947226,-0.13023652,-0.05534490000000001,0.064539105,-0.031709857,-0.052193165,-0.09163874400000001,0.01900158,-0.035925623,-0.07230617,-0.09962283,-0.0611654,0.04746909,0.12928537,0.06422845,-0.04940707,-0.022680078,-0.1073995,0.014474936,-0.05310481400000001,0.020836056999999998,0.09698506,0.09241963,-0.13273394,0.060776297,0.24139044,0.08397181,0.17947882,-0.08740367,-0.060994915999999996,0.015306779,-0.026830412,-0.010654852
-0.03775918,-0.05096814,0.043564845,0.049295034,0.048051033,-0.055197645,-0.08677066,0.05242857,0.10394473,0.03437968,0.07009015,0.063307405,-0.028526861,-0.039549198,-0.031671435,-0.07519295,0.06351361400000001,-0.006773065,-0.11216561,-0.05485666,0.019964365,-0.06516991,-0.013446682,-0.06864837,0.05334597,0.08391954,-0.05954408,0.045980755,-0.10250455,0.024504302000000002,0.07958579,0.07694118,0.011852696999999999,0.054292272999999995,0.010496055,-0.03566086,0.059613448,-0.050595655999999996,0.026600301,-0.010358443,0.06004659,0.0011757337,-0.034867134,-0.12394893,-0.12550071,0.018932443,0.009223729,0.08149715,-0.08623628,0.013204948000000001,0.016503435,0.062395725,-0.11074017,-0.014552835,-0.10892574,-0.07681329,0.08369213,-0.044541303,0.03433439,-0.0015089075,-0.05986865,-0.0003124675,-0.00817378,0.031978547999999996,0.10765776,-0.03786697,-0.006354087,0.07336852,0.007349455699999999,-0.04919245,-0.018086234,-0.07672462599999999,0.008503923,-0.07370691,0.02346336,0.0432655,0.11504418,0.040182576,0.047538854000000005,-0.08690506,-0.018550003,-0.06323568,-0.018283404,0.06702144,-0.10823922,-0.052312675999999995,0.116946846,0.03517477,0.03668354,0.02851724,-0.16617964,-0.00069079443,-0.16312592,-0.097761504,0.04441612,-0.044499385999999995,0.1949857,0.025275732999999998,-0.04246064,0.07601182,0.14240481,0.03179401,0.0016987316,0.08455844,0.035369877,0.056277577,-0.07705325,0.06677158,0.102991074,-0.009891299499999999,-0.030150035,-0.049399357000000005,-0.026501399,0.06765721,-0.07902185,-0.021318275,-0.11029939,-0.012808865,0.041182645,0.02654531,-0.18713292,0.062770985,0.012367462,0.03752018,0.08298939999999999,-0.0051087476000000005,-0.054021202000000004,-0.062060304000000004
-0.06546642,0.007418961999999999,0.07235197,-0.07603784,0.027124212999999998,-0.014076338,-0.06963689599999999,-0.12119774,0.06157378,0.06391314,-0.04241166,0.017629476,0.08628311,0.04294767,0.06917767,0.044408145999999996,0.06786589,0.060588993,-0.05508763,-0.050645217,0.08023946,-0.045101166,0.07015785599999999,0.04981235,0.09432802,-0.032487966,0.01730403,0.057439525,0.02011156,0.027448725,0.09999678,-0.031176847999999997,0.05274619,-0.05542361,-0.08025769,-0.09714641,-0.060794864000000004,-0.0899263,0.093009494,-0.022670336,-0.057866834000000006,-0.018152243000000002,0.09175516,-0.057462215,-0.08895749,-0.036524682999999995,0.09450745599999999,-0.030392889,0.035408072,0.04724404,0.12684567,0.077667825,0.09037998,0.06927052,-0.043078754000000004,0.031198673,-0.07180679599999999,-0.06777117,0.053131845,0.08409761,0.029849576000000003,0.088713236,-0.039897777,-0.06265488,0.19385287,-0.030483197000000004,0.07770605400000001,0.026862936,-0.047037944000000005,-0.07634505,0.036134973,-0.044433184,-0.09011222,0.09279486,-0.20953469,0.065770775,-0.09292708,-0.05448829400000001,0.024384124,0.044096872,0.08821051,0.090555176,-0.03959386,-0.024814604,-0.057097234000000004,-0.03672891,0.010958448999999999,0.029647008,-0.1516178,-0.0075185040000000005,0.062698096,0.06433918,-0.062188565999999994,-0.0043629264,0.07420737,-0.00039152705000000004,0.11312986,-0.045414977,0.13611695,-0.04294639,0.10811884,-0.07311496,0.110430874,-0.04449643,0.06540655,0.00795766,-0.13885505,-0.052712305999999993,-0.04249751,-0.033774287,0.06430743,-0.08552328,0.14066435,-0.01894805,0.039779935,-0.08126608,-0.15045933,-0.030440021,0.0028294547999999997,0.06404030000000001,0.040039763,0.00854001,0.075426675,0.04459958,0.0092806835,0.019245608,0.030556522000000003,-0.0058896686
0.041233588,0.06771141,0.027521642000000002,-0.053692747,-0.056061413,0.08237648,-0.03348402,-0.06570521,0.0059253485,0.026281869,0.053070515,0.07929491,-0.017113553,0.033681534,0.10424117,0.033048227,-0.044758882,-0.0043850834,0.0011682529,-0.030613074,0.0039533204,-0.061447065,-0.029488113,-0.014206616000000002,0.007583064499999999,0.052534345999999996,0.057081192999999995,0.10854254,0.028997863,0.00837661,0.0046134065,-0.04368912,-0.031127747,-0.09066819400000001,-0.036758997,-0.0019999014000000002,-0.012364459,0.07292899,0.08107322,0.036510512,-0.018796487,-0.046535112000000003,0.06413197,-0.03962353,-0.0814923,0.072561294,-0.013718268,-0.059437382999999996,0.08370781,0.06697230000000001,-0.011758474,-0.052651208,0.03500566,-0.0822881,-0.054121573,-0.025627386000000002,-0.015258243000000001,0.06539252400000001,0.08941842,-0.07909877,0.073948026,0.08795644,0.084232785,0.07972625,-0.03270233,-0.07010233,0.13112603,-0.016690848,-0.15032817,-0.08919275,0.037412642999999995,0.08307557,0.14237370000000002,0.07044426,-0.15574057,-0.009637982,0.017353462,0.006090678,0.10446605,-0.086153895,0.013417845,-0.0037827343,-0.15153863,-0.07639994,0.12651736,0.11272912,0.02117712,-0.03540123,-0.17045794,0.095041215,-0.07472066599999999,0.044832714,-0.014361516999999999,-0.00862281,0.088545755,-0.0860625,0.13841254,0.05335317,0.05323468,-0.080549724,-0.06135207,-0.057779815,0.05515834,-0.035223495,-0.08240092,0.093576856,-0.09212725,0.03566746,-0.05090307,-0.0072145313,-0.054777164,-0.010184966,0.12961164,-0.046802722000000005,-0.0038034536,0.013060786000000001,-0.12843597,0.05906416,0.09189051,0.028451059,-0.088598534,-0.0056746183,0.021936106,-0.08372829,-0.027349747999999997,-0.032347333,-0.04910659,-0.06814434400000001
-0.012337911000000002,-0.062988326,-0.046427626,-0.06740284,-0.012863053000000001,0.047948033,-0.016223896,-0.03817901,0.07041111,0.022973727000000003,0.042724054000000004,-0.065439716,-0.090652205,0.044327862999999995,-0.03551985,0.005693556999999999,-0.06827023,0.043186497000000004,-0.023642516000000002,-0.037687052,-0.006232465600000001,0.09827654,0.011800594,0.06730473,0.046999655999999994,-0.046434365,0.035643294,-0.103723854,0.046911135,0.10139852,0.05996081,0.07676263,0.08578402,0.07102985,-0.032504525,-0.06267789,0.045552734000000004,-0.0495252,-0.034259375,0.095208086,-0.10306659,0.10279198,0.058670044000000005,-0.061818417,-0.07755010000000001,0.009801496,-0.03230344,-0.021701341000000002,-0.062112346,0.046863645,0.0068424516000000005,0.03578387,0.12240233,-0.041832414,-0.0142672835,0.04932057,-0.087780945,0.037827942999999996,0.115730435,-0.007465617700000001,-0.11160795,-0.053624682,-0.015735028,-0.05753453,-0.041472323,-0.0021697313,-0.09220583,-0.0619523,-0.046101199999999995,0.07363692,-0.11614065,-0.08601038,0.0388379,0.025979416,0.0018173211999999998,0.002540807,0.022776347000000002,-0.040344267999999996,0.0663075,-0.06453077,-0.12823159,0.071455486,0.030082103,-0.087271556,0.068526015,0.021284552,0.1099104,0.0008007879400000001,0.12562503,0.02193911,0.15095234,0.0005228809,-0.041180827,0.08938039,-0.04754852,-0.06603702,-0.100934304,-0.03129968,0.0049911415999999995,0.053094487999999995,-0.06029486,0.0013583519,-0.034309123,0.09107866,0.025294837,-0.0013429142,-0.030267457999999997,-0.08317588,0.007246399000000001,0.058719154,-0.16718976,-0.06670533,-0.09316646,0.05677006,0.018817578,-0.081247985,-0.024447563999999998,-0.08155437,0.076916724,-0.03944473,-0.0068015154,0.044604033,-0.10915134,-0.025249837,0.10084132,-0.04716882,0.038260993,0.09763581
0.056730688,0.0017797056,0.051961962,-0.0056458237,0.04168504,-0.06260246,-0.0033851888,0.08502362,0.02029234,-0.091281295,-0.07361171,-0.04529356,0.045311254,0.09583797,-0.02693357,0.056233915999999995,0.041217376,-0.0448521,0.06576349599999999,0.014549572,0.026557043,-0.024368167000000003,0.08434873,0.044791017,0.003724663,-0.0042808005,0.00926398,-0.0026761508000000002,0.006371261600000001,-0.09155017,0.008496555,-0.055433813,0.08352319,0.008796558000000001,-0.013691816,-0.046508342,0.097706065,-0.060779158,-0.056910325,-0.042302493,0.105723165,0.04532934,-0.026244804,-0.058959026,-0.056320305999999994,0.058302704000000004,-0.08739343,-0.10746087,0.00791116,-0.106702015,0.10066206,0.037790313,0.052100975,-0.009947781,0.06212308,-0.04518424,0.07280288,0.046199955,-0.03878695,0.02760014,-0.11393858,-0.07201713,0.047772035,0.07077939,0.08691905400000001,-0.024363013,-0.022665812,0.06656332,0.0007925281500000001,0.029273108,-0.0014963864,-0.07437739999999998,0.12551948,-0.033503267999999996,0.10292425,0.033167455,-0.059787612000000004,0.015585516,0.032329093999999996,0.103930265,-0.1018712,-0.08312793,-0.07693839999999999,-0.09989638599999999,-0.018402888,-0.091290005,0.008150815,0.103708334,0.115456864,0.08056497,-0.08146025,0.052298847999999995,-0.04909358,0.038191617000000004,0.13154772,0.012733392,0.060914962999999996,-0.022965176,-0.17004697,0.07610107,-0.069860965,0.07533972,-0.0181761,-0.10109604,-0.13419405,0.0035494096,-0.052345965,0.01680057,0.042995237,0.1010025,-7.358074000000001e-05,0.0015224833,-0.17542376,0.044723563,-0.05469872,-0.03488091,-0.034896716,-0.0955462,-0.047066644000000005,0.04911104,0.023532683,-0.053779107,-0.043462124000000005,-0.054903332,0.1217855,0.0050567929999999995,-0.13561992,-0.066279575
-0.033257358,0.08187353,-0.031332254,-0.055695303,-0.070521675,0.092837125,-0.07394066,0.04879722,0.01677515,0.096028246,-0.07336715,0.0107658915,0.08417873,-0.08659023,0.08104793,0.055322982,0.038805127,0.06331734,0.07611423,-0.112227455,0.012482866,-0.004452345,-0.01886643,-0.022136394,-0.06598841400000001,0.06990210000000001,-0.09530616,0.06725968,0.060410414,-0.056778997000000005,-0.0011980148,-0.013407676499999998,-0.105273694,-0.038555015,0.068043105,0.028385995,0.08346882,-0.049050067,-0.06943239999999999,-0.017528893,-0.10801469,0.020613441,-0.06666115,0.011255409,0.013632431,0.03536905,-0.04674018,0.06788085,0.09068572,-0.07677496,-0.11060113,0.011697205,0.07040604,0.04161525,0.043698400000000005,-0.03555730000000001,-0.018282226999999998,0.065530986,-0.07767441,-0.019003935,-0.12975614,-0.10324501,-0.08021605,-0.09261416,-0.06983108,0.06736039,0.017667314,0.037902948,-0.14194867,0.042583328,-0.096848905,0.09487309,-0.026955819,-0.07612109,-0.14861019,-0.073512696,0.15359457,0.10135898,-0.13419902,0.04584313,-0.07365516,-0.029351676,-0.038758207,-0.02606294,0.06464126,0.07233526,0.046154544000000006,0.096317604,0.015958358,-0.09285317,0.09245964,-0.022279382,0.102905676,0.044014804000000005,0.111896686,-0.09304265,0.08133984,-0.09266250599999999,-0.13422881,0.08040747,0.022166243,-0.039737076,-0.14691542,-0.05676902,-0.06721645,-0.08357239999999999,-0.06039014,0.066009745,-0.12890407,-0.06642128,0.078701355,-0.067583635,-0.1450899,0.09502284,0.026803373999999998,-0.06977221,-0.07965246599999999,0.0940048,-0.08075994,0.014347761,-0.052399833,0.06878268,-0.08848884,0.01877518,0.047745947000000004,0.09881698,0.110346496,-0.10615935
-0.00274326,0.025346765,0.06289944,0.054502554,0.06624928,-0.0038698929999999997,-0.07036754,0.055486205999999996,-0.016267656999999998,0.010406919,-0.0124581065,0.10076809,0.124380425,-0.041079886,-0.044528965,0.014367738,-0.011622607,-0.06769667,0.089987434,-0.04551246,0.059503615,-0.032530416,0.04827192,-0.04334411,-0.10128923,-0.089335255,-0.041974845999999996,0.018678822,0.00035755297999999995,0.08814693,0.08762583,0.104660474,0.036952667,-0.01186008,0.042790018,-0.10059764,0.102862895,0.097163185,-0.06042643,0.017603176,0.07439051599999999,-0.07676979,0.050478697,-0.06595753,-0.02447844,-0.06792659,-0.025775568999999998,0.020542365,0.0011737458,0.020443805,0.061399423,-0.09092823,-0.057403695,-0.035152037000000004,0.13447152,0.0058461702,-0.05816134,0.07201494,0.124547035,0.034510437000000005,-0.04302156,0.02230117,0.011560177,-0.056355387,0.13404334,-0.0071295130000000005,0.0042020394,-0.055252462999999995,0.022786556,-0.061415087,0.09043755,0.0007196807,-0.094458684,-0.08677532,-0.079543896,0.08415362,-0.12852132,0.10233007,0.05444668,0.025800617,0.01079257,0.022336321,-0.033606436,-0.007130307,-0.100980036,0.027680462000000003,-0.007179056,-0.05218973,0.018281369,0.09828632,-0.050415237,0.10562709,-0.06428573,0.061852794,0.0019259938,-0.09803928,0.17323618,-0.09303126,-0.08449838,0.09586945,-0.07394748,0.038424682,0.040495947000000004,-0.02407169,-0.09130628,0.010519141000000001,0.15183938,-0.04705112,-0.10317915,0.01976116,-0.09447153,0.04660202,-0.04188881,-0.06097801,-0.12694387,0.027632967,0.12112208,0.052555162,0.055299014,0.01560079,0.024672521,-0.07314423,-0.08615408,-0.0028221341999999996,-0.017150125,-0.10079927,0.03516986,-0.055162873
-0.0048197084,-0.06346187,-0.011332408,0.0007266322999999999,-0.0033749284000000003,-0.07448199,-0.024430325,-0.06278174,0.10916386,0.037738275,-0.053945365999999995,0.039507117,-0.028359342000000003,0.002158262,-0.016348125,-0.008109475500000001,0.045896355,0.01594619,0.07401894,-0.04186652,-0.07840302,-0.04696107,-0.06513047,-0.07778275,0.008285413,-0.06272847,-0.06642468,0.011038125,-0.031496968,-0.11562647,-0.009805171,0.07946407,-0.05222037,-0.024638575,-0.091301866,-0.06583892,0.08281634,-0.06416999,-0.05291303,-0.025771252999999997,0.03101723,-0.08333766,-0.026980814,-0.054908868,-0.08290264,0.058391657,-0.061712764,-0.0015130082999999998,-0.062559634,0.095825106,0.0037210620000000002,0.08579799,-0.025172833,-0.06510272,-0.07255314,-0.023731679,-0.05442663,0.03880338,0.115937665,-0.015243979,0.056462742,0.042824435999999994,0.10203346599999999,-0.08242009,0.085451625,-0.068755805,-0.072614394,0.04205911,-0.10176071,-0.09283166,0.016278569,-0.09456958,0.1035114,0.07360155,-0.062353335,-0.08341933,0.11668669400000001,0.01835054,0.023585802000000003,0.08467725,-0.052355148,0.08751102,-0.045505058,0.09209885400000001,-0.08522337,-0.07890851,-0.06118563,0.02177806,-0.012909931999999999,0.050467193,0.095612995,0.03858811,0.1185911,0.08153632,0.118690714,0.049316764000000006,0.013421279,0.09678819999999999,-0.06601743,-0.062597826,0.057531465,0.034118168,-0.08297273,-0.081982456,-0.11340029,-0.03572365,-0.13580751,-0.014993353000000001,0.038014397000000005,0.005124289000000001,0.046159837,0.061216313,-0.07836804,0.0008448389999999999,0.0015744918,-0.05068543599999999,-0.11595846,0.10450656,0.059886586,0.079665504,-0.026415896,-0.098035045,0.0022267024,0.030284956000000002,-0.03882358,0.05262361,-0.18367068,0.00016403563000000001
0.107409894,0.01669484,0.015713593,0.0053177252,-0.081576236,-0.018757353,-0.073195755,-0.06442715,-0.017001523,-0.06611522,0.041385494,-0.021022207999999997,0.013872457,-0.035605744,-0.04795895,-0.00607159,0.02842269,-0.029250642,0.024196887,0.02300409,0.047934078,0.045101802999999996,0.0069720306999999995,-0.01987742,0.009309315,0.07320987,-0.054875765,0.043390118,-0.014532838000000001,-0.07667424,-0.04417956,0.027658036,0.03145773,0.0910606,-0.021816626000000002,-0.024739152,0.003164761,0.08692267,0.047742575,-0.02967827,-0.0819806,0.066547126,-0.0064571337,0.0800831,0.017550645,-0.014647569499999999,-0.08501773,0.0015715561999999998,-0.03376734,0.07614072,-0.05322289,-0.059941087000000004,-0.098914735,0.022808919,0.062099963,-0.0012628522,0.049883544,-0.051798145999999996,-0.024929522000000003,-0.040623978,0.0929355,0.01638301,0.017479427,-0.089864,-0.010822448,-0.047801163,-0.07160422,-0.06760465,-0.079776675,-0.07193527,-0.05461871,0.04547072,0.11692617,0.030236517999999997,-0.018573724,-0.047759403,-0.010490166,-0.04749718,-0.007000855,0.09864110000000001,-0.14754719,-0.07237072,0.06681863,-0.045866624,0.037034284,-0.027311977,0.006598725,-0.01757588,-0.028298597999999998,-0.07539905599999999,0.025889006000000003,0.01670959,-0.06696898,0.09072423,-0.05112221,-0.023268282,-0.074869305,0.0042067864,-0.031648822,-0.08563959,0.07315578,0.008030335999999999,-0.14858311,-0.05497839,0.04489933,0.08583684,-0.034065723,0.10284937,-0.18698286,-0.0076852890000000005,-0.019081581,0.091436654,-0.10247192,0.034660764,0.13941012,-0.07031816,0.06629075,-0.06148575,-0.07866532,-0.027621452,-0.0092355525,-0.05108985,-0.08370282,-0.035130695,0.005241823400000001,0.10154913,0.17054494,0.046759903
0.02014091,-0.04140092,-0.055349972000000004,0.04772919,-0.001067742,-0.07297235,0.024296176000000003,-0.037248258,0.08011761,-0.041925732,-0.0046183458000000005,-0.015816277,0.017526902,-0.086792685,0.0767369,-0.11745818,0.050054412,-0.09645979,-0.07457459,0.04761153,-0.015787512,-0.07349821,-0.008221237,-0.046023062999999996,0.06975729,0.08282702,0.09617668,-0.032834526,-0.035438534,-0.0626019,0.04605099,-0.08127451,0.029288096,0.08718221,-0.07382351,0.09706002,0.007584959699999999,0.08191934,0.050564468,0.0133702755,-0.0034405384,-0.04765385,0.08347343,0.02310431,0.06432921400000001,-0.057727262,-0.009904909,-0.01750514,-0.076178096,-0.08228582,-0.07513623,-0.06124735,-0.042531017000000004,0.04613672,-0.02994208,-0.08343840400000001,0.07987044,0.0728634,0.08861952,-0.065161645,-0.1730752,-0.07378253,0.087728254,0.013186077,-0.08028184,0.055415,-0.011101668,0.058756486,-0.02700703,-0.062019187999999996,-0.08834054,0.06224797,-0.05743432,-0.08776613,-0.041849494,-0.08604354,0.09920091,-0.062875435,0.05730406,-0.08363951,-0.20526170000000002,0.0017017129999999999,-0.04748703,-0.015343453,0.08610294,-0.015586495,0.12065639,0.03223626,0.10312532,0.0075133513,-0.062416226,-0.049947556,0.09872531,0.054827064,0.045948,0.0045165545000000005,0.04010917,0.10627552,0.0057727657,0.053689115,0.10715082,-0.07816374,-0.005631304,-0.08759629,-0.197772,-0.0018988864000000002,-0.05869802,0.09448065,-0.067829035,0.09574952,-0.02167737,0.056386205999999994,-0.13707034,-0.015584458999999998,-0.124346465,0.09804606,-0.05676446,-0.03446647,-0.08795917,0.021710476,-0.0463841,-0.05572872,0.07969554,-0.0044311920000000005,-0.040032487,-0.07556139999999999,-0.12208504,-0.07383124
0.091133244,-0.022982439,-0.03237409,-0.017292822,0.08481151599999999,-0.026595307999999998,-0.004108784,-0.09925535,0.045875492999999996,0.049820453,-0.06705912,0.015629468,0.0040826146,0.010571576999999999,0.0007062498,0.0037297597,0.05023409400000001,-0.022242524,-0.0055346503,0.035556104,0.0042482405,0.017800806000000002,0.0039821146,0.06294254,0.03635794,0.056627616,0.04143271,-0.0060403026,0.025565378,0.017210104,0.07858729,0.051983416,0.03654567,0.07731049,0.003270007,-0.042491827,-0.03519512,-0.09754102,-0.090008475,0.079171635,-0.09185999,-0.031092664,0.041774314,-0.03334208,-0.07631381,-0.05759397,0.055991556,0.023484478,-0.051351782,0.08196208,0.03836771,0.00029806356,-0.01771389,-0.056902826,0.13588767,-0.0567423,-0.043241534000000005,-0.100597985,0.02319134,-0.046821147,-0.05394364,0.054006535999999994,0.08876128,0.05569298599999999,0.06965918,0.07246114,0.05530755,0.0435545,0.16720936,0.05337165,0.1904489,0.08289708,0.14620896,0.026641585,0.08435008,0.07331447,0.0104848435,0.047131803,-0.035803687,-0.07852866,-0.074872255,-0.06922011,-0.16058296,0.011542636,-0.09782595,0.023081848,-0.080721766,-0.09980868,0.025833883999999998,-0.033387896,0.018833429,-0.071405366,-0.04843523,0.028777514,-0.06300486599999999,0.08995469,0.10005056,0.02200971,-0.048443742000000005,-0.08908293,-0.015238782,0.005371784300000001,0.08514151,0.060878935999999995,-0.13252208,0.075686075,-0.0075936667000000005,0.07173910000000001,0.18239738,-0.029369004,-0.03672843,-0.09254075,-0.11246491,-0.04182301,0.019398258999999998,-0.07008389,0.044048823,0.044545065999999994,0.10538778,0.077477194,-0.11426284,0.06973071,-0.10655747,-0.10916751599999999,0.051546565999999995,-0.06494341,0.04898335400000001,-0.058289497999999995
-0.040807842999999996,-0.05706378,0.01113179,-0.040552624,0.07696660599999999,0.017874036,-0.012034383000000001,-0.043627,0.016747931,-0.03705179,0.05072665,0.0029073893,-0.067071214,0.021116383,-0.10188187,0.038684674,-0.039059952,0.0719185,0.0854255,-0.00703392,-0.009193932,-0.09678046,-0.076635756,-0.0273664,0.04029952,0.08792546400000001,0.03922406,0.06739542,-0.08796904,0.09845454,0.1046125,-0.107767016,-0.08483849,-0.05501154,-0.014517691999999999,-0.084867746,0.022283167000000003,0.04657707,0.08230045,0.09478492,0.029253274,-0.015335274,-0.017610637,0.038161855,-0.05103781,-0.08135881,-0.035021346,0.005021606,-0.0391038,0.07188603,0.016409757,-0.024723288,-0.09807883,0.08980137,0.048810713,0.01799985,0.035096723999999996,-0.07402896,0.04289392,-0.015577431999999999,0.12028333,-0.059458025,-0.13698307,0.02830282,-0.08588081,-0.044782456,-0.05760273,-0.02315072,-0.039803866,0.07115927,-0.11267152,0.09325192,0.032797627,-0.043192178,-0.12635556,0.091450125,-0.05841485,-0.06845364,-0.037366517,-0.026643185,-0.13475664,0.025067027999999998,0.12864558,-0.10388315,0.017998353,0.08919858,0.015557178999999999,0.008059505,0.026332882999999998,0.022310447,0.12585536,-0.09482904,0.072751015,-0.009891396,0.10192517,0.07174508,-0.08195785400000001,-0.037721764,0.14922489,-0.06550526599999999,0.08929907,-0.055145647,-0.05821208,-0.009218255,0.075719155,-0.06462239,0.07599629,-0.07948015,0.081371635,0.05226342,0.006039924499999999,-0.008329529,0.026864812000000002,0.06160626,0.029187097999999998,0.031140689,0.11300451,0.068258315,0.03672187,0.05780963,0.11680754,0.067739874,-0.09181582,-0.05437079,-0.043418545,0.04574288,-0.0074681877,0.028401577999999997
-0.057708245,0.035690732,0.02903299,-0.1141802,-0.070529915,0.0127711,-0.04888103,0.06305501599999999,0.055318713,-0.11379425,0.042226695,0.02506259,-0.066716135,0.049009725,-0.031845026,-0.065733835,-0.08986807,0.001224425,-0.03658413,-0.047083482,-0.062964275,-0.016237041,0.087782264,0.0097512975,-0.09890558,0.08013587,-0.062484458,0.08566675,-0.038714457,0.09540906,0.023090199,0.0026290189,-0.07661401,-0.08072798,-0.05650454,-0.029029772000000002,0.06335002,-0.088301376,0.03700126,-0.09350499999999999,-0.08221311,0.08072251,-0.08431288,0.07354935,0.05237057,0.08301419,0.05520398,0.034309592,0.00028113232000000004,-0.08871118,-0.08100653,-0.023253322000000003,0.0013757898000000001,0.016105343,-0.082690485,0.08854996400000001,0.033593833,0.08936444,0.009674772,0.07908658,-0.045099314,0.040907763,-0.13865,0.08507942,0.006443624,0.07225615,-0.06774651,0.06732899,-0.09154628,-0.03942387,-0.02251434,-0.05618763,0.03574541,-0.04211856,-0.0027014795000000003,-0.0093709,-0.07484257,-0.012482324,-0.057900585,0.07796614,0.06391377,-0.03299523,-0.08446667,-0.10031727,0.00890578,0.012311566999999999,-0.086548224,0.058803602999999996,0.10850397,-0.0070915480000000005,0.16814575,0.020642405,0.088107675,0.038069967,-0.12963332,-0.07611909,-0.061637375999999994,0.080699585,0.12442566,0.018638115,0.12787381,-0.05758703,-0.13198408,0.04281874,-0.083980314,-0.08707794,0.0072255344,-0.07019994,-0.05813252,-0.004018164,0.08732505,0.09426073,0.057409577,0.07806215,0.120112225,-0.10415457,-0.10212655,-0.06590621,-0.030565746,-0.040806666,0.10971186,-0.09155907,-0.07144541,0.023647346,0.045951787,-0.008230615,0.11385753,-0.033240896
-0.07912422,0.10146008,0.09787442,0.06313398,-0.0020424316,-0.05540253,0.027479352000000002,0.05190977,-0.06700567,0.016612394,0.04804711,0.061051052,0.065779224,0.040495247000000005,-0.08349233,0.062361397,0.0054410724,0.0011993479,0.06187265,-0.075144485,0.07348495,0.104923114,0.082146,0.0061537473999999995,-0.0020398987,0.06571079,-0.023890862000000002,0.03368596,-0.05801745,0.034671456,0.05608200000000001,0.07031384,0.10986652,-0.045156552999999995,-0.019846775,-0.024809439,-0.049850654,-0.075832106,-0.052024234,0.009058794,-0.07058411,-0.01756865,0.11453551,0.07931054,0.013741743,0.040743634,0.020927658000000002,0.09639715,-0.06431801599999999,0.038795695,0.018078841000000002,0.09032274,0.08117965,0.11401203,-0.13216865,0.07803259,-0.04878341,-0.03308655,-0.027123502,-0.031300537,0.0017434623000000002,-5.8898826e-05,0.0064964574,-0.07019608,-0.095376074,-0.07257662,0.08953366,-0.016181098,-0.041476335,-0.081424534,0.035371598,-0.05352585,-0.055776976,-0.0323056,-0.058480818,-0.041618697,0.0061026909999999995,-0.08200598,-0.0029625634000000002,-0.08150008,-0.025973677999999997,-0.024873415,0.052159388,-0.008544483,0.025610995,-0.04610692,-0.16229235,0.04608002,0.047964256,-0.017153013,-0.012702448,-0.022016432000000002,-0.08584367,0.034518737,-0.14400636,0.0142659,-0.02349607,0.0046322187,0.03590658,-0.035224665,-0.017844735,-0.08425139,-0.117338695,-0.067007355,-0.06699742,-0.034935426,-0.04655996,-0.06981267,0.096593305,0.10618269,-0.06611544,-0.032478377,-0.09610482,0.046687145,-0.026546026,0.10152159,-0.11535139999999999,-0.0040698185999999996,0.15642719,-0.09047413,0.05235411,-0.040374137000000004,-0.036302265,0.10024695,-0.14047244,0.022539753,0.018930808,-0.01920206
-0.024351877999999997,0.02780701,0.009664973,-0.05098705,0.08329822,-0.011326428500000001,-0.0687074,-0.038994122,0.08498235,0.08906162,0.040680997,0.017090911,0.05591136,-0.025839917,0.026087059,-0.015423868,-0.07243725,-0.07844767,0.030498274,0.10999556,-0.062042817,-0.016492348,0.09220831,-0.034479216,0.028855258999999998,-0.031898305,-0.10153379,0.004975937299999999,0.07088774,-0.070839144,0.0029166576000000002,0.012015605,0.024250652999999997,-0.0027443964,-0.065912426,-0.07363596,0.0021594870000000003,0.050373673,0.10287605,0.029180625,0.0088016465,-0.0012778003999999999,-0.08948091,0.0032036409999999997,0.1054406,-0.044752553,-0.006992388,-0.013979006,0.09115895,-0.058488417,0.11452654,-0.03351151,0.03108849,0.077695705,0.07738588,0.012679106,-0.0016553447,-0.060267214000000006,-0.049448412000000004,0.09169063,0.032811068,0.043261595,-0.054363657,0.06790814,-0.07152662,-0.05775068,0.04048434,0.095963195,-0.024959797000000002,0.017443476,-0.07793714,-0.028298588,0.050561335,0.07430165,0.06498096,0.013994099,0.040063825,-0.08913651,-0.111905836,-0.06571926,0.05573281,-0.039831523,0.05136437,0.009432653000000001,-0.047655933,-0.015330497,0.114817634,0.03926316,-0.068293795,0.016835054,-0.061400425,0.040105384,0.04275728,-0.026238589,-0.04505288599999999,0.040470745,0.119015194,-0.04185363,0.079074964,-0.05842544,0.059021957,-0.031911112,0.033929,-0.04583772,0.18460362,-0.05886873,0.08857667400000001,0.07053708,-0.09026003,-0.08382315,-0.002832802,-0.08449143,0.14648072,-0.089540675,0.02833292,0.10327904,0.067925654,0.037178512999999996,-0.10050105,0.027592408,-0.06546138,-0.07569157,-0.10175001,0.08493312,0.056853312999999996,0.028411207999999997,0.1909773,-0.010400323000000001
-0.06020569,0.08502887,0.044300277,0.09642838,-0.03897219,-0.02981693,0.033673666,0.011595381,0.0660915,0.060739648,-0.009049132,0.07470278400000001,0.017571019,0.062377878,-0.02786457,0.05724989,-0.023243755,0.09237372,-0.031297233,-0.0980472,0.008102338,0.054638047,0.07467831,0.018398302,-0.034314666,-0.07140718,-0.018948808,-0.032522995,0.08907325,-0.10621381,-0.023204705,0.07835215,0.040863205,0.048800137,-0.0530299,-0.0058440086,0.060627494000000004,0.008793093,-0.10766603,-0.065719895,-0.012815699,0.019907923,-0.009592811,0.08598884,0.061014067000000005,-0.03480021,-0.042511497,0.09106552,0.05713891,0.0881802,0.07314872,-0.03538302,-0.088403106,-0.091395065,0.09473829,0.030042488,-0.12243991,0.090141214,0.10219917,-0.012904461499999999,0.053560697000000004,0.06323758,-0.11734877,-0.008733656,-0.029796747000000002,0.07104882,-0.10172044,-0.012467647,0.108631685,-0.025896022,0.029864752999999997,0.053907353,-0.07140102,-0.038925257000000005,-0.024135273,-0.009138733000000001,-0.029214596000000002,-0.051640794000000004,0.09133951,0.055156514000000004,-0.008255683,0.05887487,-0.05825702,-0.05620975,-0.01206401,-0.10840075,-0.026218622999999996,-0.030549344,-0.17343370000000002,0.009571637,-0.027686062999999997,-0.009495762,-0.15948881,-0.006428435400000001,-0.035593964,0.06677960599999999,0.054240134,-0.09499517,-0.029440105,-0.049637325,0.011382473,0.06748175599999999,0.17979646,-0.032000553,0.12287647,-0.11351759,0.03711999,-0.10081612,0.07166552,0.10033981,0.07574703,0.00037426262999999997,-0.016612363999999998,0.082297415,0.06487653,0.034572825,0.09355161,0.018821117,0.052628376,-0.05233476,0.00078696094,-0.101837605,0.056781624,0.02181127,0.09012829,-0.0042118337,-0.07938037,0.07134945
-0.029971967999999998,0.046586514,-0.004153336,0.024923325,-0.061221443,-0.06209987,0.063362285,0.0025105537,0.04140882,0.024604525,-0.009284624,0.050455347000000005,-0.07587069,-0.08215823,0.07800801,-0.00749289,-0.030034045,-0.075033784,0.02028836,-0.0075795315,-0.009935889,-0.07717039,0.007656509000000001,0.09163318,0.09904297,0.032913952999999996,0.030165717,0.03759296,-0.09070974,-0.10201012,-0.023329364,0.07318047400000001,-0.06793442,0.060034502000000003,0.0030172083,-0.046265226,0.0062221265,0.003610458,-0.047767885,-0.044105627,0.004325430999999999,0.005315067,0.091658756,0.09388621,0.041602272999999995,0.05960138,-0.012380336,-0.11023682,0.053871177,0.03620826,0.08891469,0.07386111,0.06982655,0.07892135,0.04834703,-0.034538683,-0.06655789,0.026161091,0.06320816,-0.04298455,0.08872011,-0.056385577,-0.00849781,-0.10100572599999999,-0.089799196,-0.06835623,0.054832000000000006,-0.03874886,0.05575538,-0.0046958285,0.027274596,-0.0024329767999999997,-0.058110666,-0.097979106,0.039805565,0.019820761,0.095270686,-0.07562200000000001,-0.051390048,0.06366257,0.011027805,0.08471825,0.022400892999999998,0.019355947,-0.053322557,0.09099822,0.007974631999999999,0.0032023243,-0.063961916,-0.03577892,-0.00862976,0.07953454,-0.11767828,0.029522285,0.08310825,-0.009199131999999999,0.019396013,0.08926094,-0.07494916,-0.014337504,-0.04511215,0.04829779,-0.04457478,0.016235958999999998,-0.044323508,0.065144435,-0.09044949,-0.053596657,0.03519832,0.055811018,0.11567543,-0.10727370000000001,0.08923992,0.048146892000000004,0.052404083,0.038953915,-0.031477973,-0.039583348,0.07621101,-0.106882505,0.043049674,-0.062418573,-0.035414472,0.09955286,-0.04531065,-0.052907172999999995,-0.07585934,-0.05970323
0.03755606,0.029217424,-0.023396952000000002,0.04064292,-0.079636626,-0.046301953,-0.06629323,0.014711119,0.0367691,0.07397768,0.05890954,0.02646503,-0.024121255,0.106355034,0.048262753,-0.08116755,-0.0064749434,0.071259275,-0.06545012,0.021087227000000004,-0.029918097,0.089203104,-0.05130862,-0.00034820178,0.07416539,0.037745357,0.065480135,-0.014329433,-0.018830443,0.0045704017,0.04605334,-0.10043115,0.052221067,0.080716275,0.07132169599999999,-0.050549526,-0.08381612,0.04741966,-0.07668324,-0.015227731999999999,0.012651333999999998,-0.09100399,0.06725678,-0.049616847,-0.054652307000000004,-0.067148134,0.061487775,0.0986402,0.03480347,0.019817235,0.017528724,-0.043434955,-0.07779731,-0.05912206,-0.05299656,0.008315905,0.009517277,0.0030447505,-0.08878660000000001,-0.08724137,0.026677247,0.07388838,0.029757513,-0.003685232,0.032857947,0.018592712,0.12789641,0.03571025,-0.028605439,0.016030656,-0.036543474,0.07850709,-0.09718107,-0.032492723,-0.024196738,0.07039696,-0.07357861,-0.057658877000000004,-0.0092681525,0.014666008000000001,-0.064051315,-0.07290351,-0.017497955,0.08003044,0.01640758,-0.042755358,0.049830097999999996,0.0044859517,0.03086194,0.093747556,0.035177752,-0.020862723,-0.033711232,-0.10063136,0.08211095,-0.062064018,-0.10467811,0.03438662,-0.09026411,0.006606231,-0.10871928,0.046963237000000005,0.017611723,-0.031771414,0.030399682,0.0042924345,0.08939738,-0.10224143,-0.012501100000000001,-0.034352385,-0.09071187,-0.030778967,0.025693547,0.02508624,0.061874345,0.08634526,0.006345651999999999,0.09335481400000001,-0.037170358,0.051657338,-0.032436587,0.061753206,0.12551846,-0.08786741,0.05476895,-0.07827235,-0.018389499,0.09010132400000001
0.022840446,-0.048650324,-0.003636511,0.07274262,0.002197057,-0.10287185,-0.017234027,-0.06375189,-0.08859460000000001,-0.0003513801,0.009042545,0.024707684,-0.0529485,0.008652802,-0.07070648,-0.029469027999999998,-0.055552628,0.03407897,-0.08475418400000001,-0.058213577,0.088051,0.09066609,-0.090755075,0.05981044,-0.09082051,-0.089886345,-0.03632401,0.0407959,-0.071715,-0.048655633,-0.04911722599999999,0.03266285,-0.09295647,0.007662658,-0.013725491000000001,-0.010838759,0.05801581,-0.07444217,-0.009109772,0.044080235,0.02728678,0.088575736,0.07625768,-0.09185121,0.08601059,-0.01573346,-0.036784917,-0.019737495,0.01811912,0.102197774,0.09527216,-0.023804596,0.0043442715,0.011415241000000001,-0.03458781,0.09485085,0.00035964027999999996,0.01747326,0.054389805,0.0877927,0.097485684,-0.061269492,-0.063054875,0.060741123,0.07955897599999999,-0.0906811,-0.09546160000000001,0.038632937,-0.08152655,0.06864074,-0.019115176,-0.010084491,0.02665517,-0.012646886000000001,0.040513624,0.09133663,-0.007236234,-0.0067944895,0.07191941,-0.007272534000000001,-0.12057309599999999,-0.05691311,-0.082405046,0.05419639,0.06462132,-0.027232153,0.051384654,-0.047595188,-0.06024718,0.09510297,0.0399248,-0.03229743,0.14945973,0.007686597,-0.059923384,-0.04387157,0.116422415,0.0209172,0.011808777,0.038249966,0.15404631,0.048326097,0.083737,-0.07231858,0.034680102000000004,0.08091704,0.04574086,-0.033214685,-0.081128545,0.01993316,-0.011234098999999999,-0.04782426,0.03143963,-0.08842897,0.04429244,0.08778482,-0.018487224,0.022928776,-0.018021826,0.01239849,-0.042828035,0.04742904,-0.13733026,-0.010704595,-0.043755215,-0.042219475,-0.10980292400000001,-0.016958145
-0.052717097000000004,0.023932007999999998,0.05702857,0.050298907000000004,0.038607746,-0.037848927000000004,-0.03140465,0.05284836,0.055836264000000004,-0.03233289,-0.013060216000000001,-0.016173437,0.077861585,-0.0900325,-0.032875437,-0.043494377,0.06044544,0.058589503,-0.05540611,-0.051340062,0.03617623,0.001560173,0.07820181,-0.061411034,0.04359563,-0.11661517,-0.07003730000000001,-0.022873052999999997,0.015511687,-0.009307383,0.027065484,0.061822582,-0.094958164,0.05507339,0.056543275999999996,-0.013441633,-0.054211184,0.029639361,-0.082464926,0.088385485,0.01864156,0.011129722,0.0039713313,0.0067733824,-0.06597543,0.04993407,0.027300382,0.05357885,0.071397714,-0.098636135,0.061939843,-0.09362345,0.04819569,-0.018523432,-0.043957464,-0.024853345,-0.08278351,-0.02468281,0.03847229,-0.032444827,-0.08992458,0.046157826,0.011614375,-0.00094367523,-0.122125484,-0.10085173,0.06594857,-0.10922418,-0.032358635,0.10176626,-0.09118522,0.07910471,0.040330872000000004,0.021839399,0.00065001467,0.049812876,0.029982895,-0.04219773,-0.08390142,0.044434312999999996,-0.11316367,-0.016733002,-0.18196498,-0.1051999,0.0034722677,0.04685987,-0.090864494,0.06531324,-0.002736771,0.05194021,-0.051700007,-0.025435124,0.026641129,0.025583223,-0.06780545,-0.10175214,-0.055441,-0.00875476,0.09240523,0.03625864,0.21320155,-0.025562873,0.014052233,-0.08050929,-0.04713947,0.06174014,-0.12344192,0.049849164,0.00039465944,0.03685717,0.10681932,-0.029061655,0.13174377,-0.021271735,0.02187815,-0.07018076,-0.06746215,0.0554831,0.13426029999999997,-0.048265446,-0.0953625,0.048485945999999995,0.053564775999999995,-0.03304007,0.1002881,-0.0073584196999999995,-0.11796853,0.092997395
0.023010291000000002,0.06287388,0.05700744,-0.024077157000000002,-0.037716426000000004,0.061695095,0.036593318,0.016028646,0.06613456,-0.073372826,-0.01369758,-0.012451776999999999,-0.035695422000000004,0.04916202,-0.07330391,0.05676163,0.040711172000000004,-0.016911661,-0.010817124,0.015635295,0.014480626000000002,0.08851712,-0.08372162,0.09032495,0.03504145,-0.005014015,0.07667786,0.060523365,0.07904576,-0.016150726,0.034284733,-0.032024965,0.05373865,0.037737597000000005,-0.077883005,-0.07933793,-0.045832988,0.004732522,-0.07056156,0.06498702,-0.011084466000000001,0.0056264214000000005,0.05757257,-0.03963704,0.069929495,0.010809478999999999,0.07083398,-0.024036007,-0.066039056,0.027785385,0.06434264,-0.0031041433000000003,0.028387287999999997,0.016359738999999998,-0.07318393,-0.015164351999999999,-0.08833777,-0.019602377,-0.06502253,0.07334466,-0.06684542,-0.08141662,-0.06756665,-0.05672007,0.03368605,0.04788821,0.05366887,-0.007955852,-0.11726745,0.09368388,0.033027682,0.013427958,0.046344742,-0.0050232634,-0.21297167,-0.026662854,0.007353985,-0.006270486,-0.108857706,0.08814249,0.011168653999999998,0.06704207,0.07971536,0.04089055,0.010624748,-0.026178198,-0.023143222999999997,-0.07923569,0.070219465,0.089131795,-0.1398875,0.072909415,0.033512935,0.00715682,0.05157055,0.07327726,-0.08436542,-0.018959056999999998,-0.020810178000000002,-0.10693914,-0.014616576000000001,-0.112077236,-0.1089213,-0.09225759,0.03153719,-0.10280612,-0.16073845,0.064497285,-0.09988284,-0.047488544,0.06879798,-0.032553215,0.021245227999999998,-0.042038023,-0.05472493,0.067484386,0.068187185,0.039602682,0.033642735,-0.036041893,0.013543421000000002,-0.09124774,-0.08051762,0.07800646,-0.09478721,0.08467334,0.035080988,0.08867594
-0.04745534,0.09405013,0.09703495,-0.068165824,-0.08269412,-0.06887214,-0.022131294,-0.048989434000000005,-0.0041754290000000005,0.04595749,0.022155399,0.06766996,0.05646369,0.005204708,-0.051356263,-0.03393207,-0.0013353098,-0.066555716,-0.060528003,0.031872313,-0.019524956,-0.033572324,-0.08374888400000001,-0.0021517992000000003,0.041737847,0.060589537,-0.035014585,0.0009864755,0.022740873999999998,0.09444822,-0.020493863,-0.031811275,0.09169315,0.041367717000000005,-0.07758316,0.068607904,-0.030662823,0.050838567,-0.028284062000000002,0.08058809,-0.06513215,0.046133608,0.09499471,0.069341145,0.014350807,-0.085193604,0.05778428,0.0055160276,0.01859967,0.05437957,-0.030715432,-0.07926905,-0.06037491,0.026420818999999998,-0.11825387,-0.032980192,-0.0025018204000000002,0.03708375,0.12469511,0.075185135,-0.14549658,-0.023244483,0.100843556,0.071861774,-0.04767287,-0.090884395,0.0029875559999999997,0.070917875,0.11567823599999999,-0.016031984,-0.12483677,0.013346967,-0.047539785999999994,-0.037646722,0.09982829,-0.041535016,-0.043697442999999996,0.06364902,-0.06355498,0.06544037,0.019409386,0.024479765,-0.13573278,0.057652405999999996,0.064959906,-0.038064856,-0.06829485,-0.019422065,0.012178264,-0.015541643999999999,0.024353845,-0.08489098,0.052300077,-0.08803216,0.019025734,0.09036001,-0.06879226,-0.020609928,0.09238387,-0.033116322000000004,0.0706278,0.010456386,-0.14489616,-0.05495698,-0.052565083,-0.062292404,0.10542845,0.0016693381,0.005766769000000001,-0.036608152000000005,-0.028779197000000003,-0.008697781,-0.21177629,-0.04610082,0.07984327,0.055981074000000006,0.13383482,-0.045447968,-0.08736648,-0.060439114,0.02025522,0.044657964,-0.116540805,-0.007663950300000001,0.042630024,-0.056045927,0.08758018,-0.022467582000000003
-0.07108508,-0.015282148999999998,-0.016974453,-0.032814205,-0.01138436,-0.020372493000000002,0.05999758,-0.050356943,-0.10577015599999999,-0.09469662,-0.008608679000000001,-0.009997246,-0.07910396,-0.094199054,0.070317775,0.08857360000000002,-0.09398602,0.0041998443,0.061448037999999996,0.061134223,0.05358483,-0.029203732000000003,-0.012550718,-0.118156165,-0.0009850889,0.06734557,-0.10013868,-0.102650225,0.08657396,0.032308687,-0.053204626,0.04685651,-0.00711159,-0.038209423,0.062487107,0.032596227,-0.016560635,-0.07925501,-0.07873335,-0.043822553,0.016936023,0.07243312,-0.109982416,0.08712951,-0.11677830000000002,-0.000431025,0.064727575,0.09480072,-0.0065609347,0.037870515,-0.10384104400000001,0.028289229,-0.06958702,0.028958416,-0.07817655,0.076873615,0.048296402999999995,-0.01135375,0.0037570659000000003,-0.069728024,0.09752992,-0.056330685,0.064264335,0.028345302000000003,0.079315044,-0.019870115,0.06811351,0.037340853,0.023554595,-0.006583144,-0.026824912000000003,-0.045355427999999996,-0.06035293,0.021982616,-0.06397189,-0.04535948,0.042342395,0.03853283,-0.059541453,-0.111681245,0.0058190916,0.090955935,-0.2055721,-0.018190144,-0.046384607,0.081913464,-0.053479787,-0.009716925,-0.072303966,-0.05455876,0.06093637,0.047778703,0.01721805,0.03991562,-0.027654609,0.013738221,-0.048421346,-0.00034624300000000004,0.08949976,-0.021493698,-0.054327738,-0.05687272,-0.010787412,0.01312521,-0.07116295,0.012931543,-0.16987799,0.019007506,-0.12513423,0.020920835,-0.06893108,-0.08682042,0.087777115,0.012570921,0.050127294,-0.08940367,-0.060893767,-0.043990432999999995,0.08203479,0.08089128,0.08530454,0.03605257,-0.10054629,0.08961902599999999,-0.027651612000000002,-0.0087864,0.11978314,-0.099967696
0.048926002999999996,-0.041202936,-0.11198082,-0.10795437,0.057296824,-0.022384314,-0.06664532,-0.012682091999999999,-0.047336575,0.039729968,-0.074963704,-0.027461044,0.032994077000000004,-0.040715713,0.010328951999999999,0.022244099999999996,0.033564866,0.049809985,-0.018815894,-0.06473814,-0.0104314955,-0.008203016,-0.05417787,-0.020989612,0.0616382,0.04704454,-0.03984298,-0.042110565999999995,-0.043054413,-0.061597068,0.08346594,0.041708667000000005,-0.08559401,-0.109115005,0.09151049,-0.019682491,0.037918095,0.10052656,-0.0072095515,0.03322639,-0.1021357,-0.05583007,0.08967852,-0.044788275,-0.12772727,-0.049835372999999995,0.06695454599999999,-0.06347453,0.036804073,-0.03404092,-0.07323521,-0.030667068,-0.053394906,-0.004080726,0.017982693,0.028256182999999997,-0.03790911,0.056227814,-0.10722659,-0.017455703,0.00869445,0.02918521,0.050481385999999996,-0.017009424,-0.12496538,0.039367877,-0.08012810000000001,-0.04128935,-0.012011478999999999,-0.0071689063,-0.16406034,-0.04298204,-0.011180296000000001,-0.03242145,-0.05903036,0.058008052000000004,0.027472500000000004,-0.10444067,0.03245212,-0.006609788,0.025257746,-0.016230073,0.012668782,0.07694712,0.091938786,-0.0054579405,-0.06521983,0.06412248,0.118785225,-0.06973039,0.04332814,0.011698196999999999,-0.086078815,0.05668891,-0.05104087,-0.058681637,-0.15083092,0.046837088,0.093196556,-0.052147567,-0.034142826,-0.07289413,-0.016039258,-0.01679611,-0.1135636,0.047895927000000005,0.09591043,0.079982564,0.07992732,0.08589367,0.014263062,0.047675192000000005,-0.0048540356,0.08036182,0.046852912999999996,-0.09347512599999999,-0.042355537,0.049888387,-0.0028547209999999997,0.017030535,0.09722023,-0.08058609,0.0006053898000000001,0.05202908,0.089463726,0.07305872,0.18457326,0.026053539
-0.009484046999999999,-0.03092781,0.04780631,0.050408848,0.042142797,-0.052815895999999994,0.079597645,0.019694032,0.08038736,-0.06060019999999999,-0.06309933,-0.092060424,-0.06406516599999999,-0.052541424,-0.04026389,-0.07412851,0.07751108,0.017349714,0.024046596,0.10223379,-0.04799479,0.039160863,-0.07133018,-0.056446947000000004,0.011962615,-0.07519651,0.09770982,-0.069607966,-0.09284878,-0.06668156,-0.03129658,-0.037370462,0.006024791999999999,0.08212104,0.038611017000000004,0.012399344,0.031839844,0.07214963,-0.0029785356,0.030346857,-0.042394645999999994,0.005500783,-0.07323117,0.048381925,0.065898165,0.11288117,-0.043957632,-0.08215915,0.025675049,0.08430067,0.107793905,-0.062385055999999994,0.07701160000000001,-0.053458724000000006,0.05485635,-0.063434504,-0.0185925,0.008290852,-0.03646893,-0.091183215,-0.027749369,0.049711767999999996,0.09059034,-0.053680625,-0.022635166,0.04130457,0.08405123,-0.028288482,-0.03076787,-0.03172884,-0.039411485,-0.071390465,0.015235695,0.087982565,-0.120083235,0.04010518,-0.024833024,0.09031417,-0.02822567,-0.045441125,-0.14626378,0.09568167,-0.08103348,0.05197105,0.16323532,-0.054846465999999996,-0.042195402,-0.03006558,-0.12029032,-0.010597399999999998,-0.08383891,-0.037992767999999996,-0.009533575,0.008582376999999999,0.1287095,-0.015551376,-0.048621255999999995,-0.07122386,0.057634257,0.00048525269999999995,0.08906015,0.11274993400000001,-0.03699061,-0.063832216,-0.13800962,-0.05664931,-0.047643635,0.028488856,-0.053634197,0.034631199999999994,0.065328926,-0.016548278,-0.02403991,-0.0048761279999999995,-0.0010854928999999998,-0.040210712999999995,0.018171895,-0.013260419499999999,-0.07388392,-0.074971445,-0.09808996,0.09498924,0.052698623,0.07825511,0.018445193999999998,-0.08029395,-0.108619615,-0.081996515
0.0076678987,0.052117947000000005,-0.05693068,-0.10899357,-0.04205746,-0.02662536,-0.04496657,-0.03336085,-0.057790734,0.10626395,0.07807981,0.08168535,0.08866366,0.03544015,-0.01044514,0.053634677,0.09857384,-0.057692464000000006,0.07279365,-0.027834114,0.044502745999999996,0.07915309,0.0053848657,0.004076263,0.09666722,0.0652326,-0.09660235,0.0034359118,0.046842944000000004,0.008831523,0.07037744,0.0034484256,0.027335444,-0.04476771,0.08996736,-0.06712453,0.040793676,-0.058053844,-0.051674526,-0.0067094564,0.07353662,-0.06435444,0.05460024,-0.08826587,0.101378866,-0.01785114,-0.019448355,0.026713409,-0.0423283,-0.049752094000000004,-0.08088337,-0.062019742999999995,0.027589796,0.08284517400000001,-0.06854793,0.018748304,0.07625322,0.08195558,0.09639951,-0.08269481,-0.053034585,0.036809705,-0.018719196,-0.0041207922999999995,0.10315897,0.040687084,0.031733774,-0.045618597000000004,0.13790247,-0.06602683,0.04924803,0.004869778,0.044371784000000004,0.024599233999999998,0.0026762036,-0.09574442,-0.14139481,0.06336909,0.07320511,-0.019141322,-0.0284778,0.09123652,-0.034021124,0.06263148,0.02201861,-0.033272468,0.00023820217999999998,0.08551982,-0.121257745,-0.035235107,-0.05164299,0.023828546000000003,-0.085975096,0.020910066,0.03417283,-0.06785773,0.091780595,0.0007570847,0.029537745,0.0029065834999999996,-0.05494086,-0.043463193,-0.095627256,0.057806958,-0.024695678,-0.06703967,-0.08714283,-0.0162219,-0.031156033,-0.06714061,0.08705485,-0.087174214,0.0069615836,0.08069487,-0.07362048,-0.0661922,-0.07566551,0.06908278,-0.009734306,-0.005710221,0.04612103,0.027576443,0.0045707759999999995,-0.06021585,-0.19557767,-0.0004098996,-0.0196571,0.10784183
0.06277426,-0.0633768,0.047417834000000006,0.0014720242000000002,-0.011724656000000002,0.014007898000000001,0.023477047999999997,-0.078456834,-0.1021329,-0.08490814,-0.01751126,0.05486902,0.016822424,0.030315964,-0.018643983,-0.09491606,-0.0110185435,0.06481402,0.06331553,0.045524932000000004,-0.050488133,-0.0075254645,0.018129885,-0.062643535,-0.091821276,0.00940262,-0.010655852,-0.06700349,0.0053984276,0.021665942,-0.004036434,0.052278057,-0.10239033,0.00027969995,-0.10417961,-0.05573655,0.07275644,-0.06874576,-0.107521735,-0.102775455,-0.06831173,-0.075021975,0.07039928,-0.0028242054,0.060395297,0.075363085,0.091788776,-0.073412806,0.092685394,-0.09741760000000001,-0.0012004437,-0.0108329635,0.014739468,0.013611162,-0.10112929,0.081014715,0.098936684,-0.044592157,-0.100006215,-0.022670764,-0.03285724,0.039696075,0.022263464,0.044678852000000005,-0.107252374,-0.08214182,0.045605365,-0.10041317,0.14208764,0.026140252000000003,-0.13296472,-0.021095086000000002,0.019864487,0.096999735,-0.05862130000000001,0.09360284,-0.06010543,0.05580781,0.088355295,-0.030970084,-0.047111202000000005,-0.018314034,-0.17064074,0.039878500000000004,0.100479126,0.06516564,0.122674726,0.07312894,-0.10092931,0.055760905,-0.034884937000000005,-0.06391307,-0.08185097,0.09616985,-0.028709704,0.092464775,0.07077168,-0.041195847,0.047322754,0.07693614,0.008304439,-0.049912643,0.0017413870999999999,0.07698788,-0.0017229217000000001,0.095749326,0.011920409,-0.025427664,0.12714699,-0.019316694,-0.14412966,-0.0030183925,0.111110024,-0.059128582,0.10303612,-0.069049574,-0.014820918,-0.040487915,0.12431725,-0.07324565,-0.18588297,-0.06445196,0.006256299,0.07609035,-0.07021229,0.06635657,0.00625144,0.050034635
-0.027675077000000003,0.10714336,-0.023115942,-0.056072533,0.07132438,-0.062188108,-0.009022147,0.0077131125,-0.034150705,0.010295503000000001,-0.09600963,-0.030890727000000003,0.018782264,-0.0029327634000000003,-0.0044857766,0.08475022,0.056024164,0.038899828,-0.017466007,-0.0032577976,-0.032969106,-0.0040860875,0.06370475,-0.09257748,-0.035609014,-0.016677719,-0.05750289,0.025001697000000003,-0.0077324915,0.057182524000000005,-0.0443399,-0.061965384000000005,0.011793247,0.05744702,-0.029631315,0.01925794,0.0121543575,0.011133025,-0.10515208,0.027676167,0.06335265,0.010121785,0.058922015,-0.0055845156,-0.062353652,0.05845931,0.0007661234700000001,-0.036702424,0.01576775,0.083001725,-0.09319104,-0.07307941,-0.04723065,0.022828536,0.014280922,0.07543044,-0.050936315,0.076499104,0.070604645,-0.026089614,0.016617863,-0.07412659,-0.018222472,-0.083714165,-0.12301163400000001,0.04442982,-0.05334118,-0.071286485,0.0005301993,0.07525425,0.01111501,-0.04038705,0.09977866,0.02312295,-0.09773567,0.07822146,0.14029074,-0.036669735,0.092128806,-0.027525477000000003,0.11484916,0.05648879,0.01714553,0.100767285,0.022735482,-0.10393056,0.025743952,-0.09279336,-0.02926915,-0.020521296,0.08411301,0.087993406,-0.009474597,-0.08682035,-0.012534802,0.0037218854,0.1004671,-0.014370527,-0.08601836,0.085941985,0.054400585999999994,-0.02317705,0.11310062,0.025714995,-0.046146158,-0.009571424,0.12424118,-0.0055905175,0.12346487,-0.104419254,-0.20820099,-0.06388761,-0.014693458999999999,0.030909916000000003,0.07484889,0.085878775,-0.033392306000000004,0.05861408,0.0071579413,0.08968481,-0.14548376,-0.09154111,0.061402503,-0.0031539376,0.15630667,0.05410044,-0.06793939,-0.0045852396
0.051134128,-0.03490066,-0.012930487,-0.017695911,0.0629567,0.06819547,-0.021423506000000002,-0.00028387742000000004,0.034831148,0.076821595,-0.0023128326999999997,-0.020788973,0.0013410322,-0.03044902,-0.06927580400000001,0.0041837837,0.010990126999999999,-0.0424506,-0.021098139,0.009110763000000001,-0.0010069276,0.009162458,0.076254636,-0.022990879,-0.034401316,0.06267664,-0.0094611235,-0.08094154,0.013030377,-0.059573102999999995,-0.040657867,0.099511765,-0.036128,-0.016488027,-0.022214945,-0.0062794914,-0.021030128,0.05304851,-0.03604692,0.08807884,0.019947838,0.040918984,0.03754478,0.018797299,0.025965178,-0.037715975,-0.0795341,0.06555807,0.041739635,0.04818730400000001,-0.055253737000000004,-0.052174263,-0.05176921,-0.093179256,0.043117788,0.02305579,0.018019157,0.062143736,-0.02810338,0.023761997000000003,0.041949455,0.0062688887,0.065706,-0.0044183573,0.03254496,-0.00092063507,0.036860403,0.005974561999999999,-0.020945136,-0.06984549,0.037820462,-0.046399015999999994,-0.027421495,-0.04382809,0.16198887,0.072594985,-0.018777777,0.07747836400000001,-0.026356512999999998,-0.035021596,0.14252385,-0.020001803000000002,0.045992597999999996,-0.10395252,0.070734374,-0.08481928,0.043133814000000006,0.0047726226,0.07792585,0.02954561,0.07215461,0.032536145,0.12546916,-0.015421694,0.09174271,0.008248911999999999,-0.058072875999999995,-0.08825065,0.018798597,0.08980382,-0.027021986,-0.020162358999999998,0.07742998,-0.001244693,-0.05240575,-0.03582104,0.14506549,-0.07638136,0.059595257,0.055049952,-0.09923292,0.036741782,-0.038196035,0.032593947000000005,0.06559108,0.08482989,0.13921687,0.054979842,-0.14886121,-0.09429072,0.11288191,-0.06413447,0.18888508,-0.009968811999999999,0.15685147,0.09455616,0.09563142,0.023045449
-0.030006697000000002,-0.07124370000000001,-0.0239034,-0.092896655,0.00017711325000000001,0.051054545,0.06485002,-0.099002935,0.07584059,0.0009149817599999999,0.022688951000000002,-0.03872085,-0.07158542,-0.056204446,-0.022507937999999998,-0.0035851782,0.07234817,0.014198328,-0.07298754,-0.07005858400000001,-0.039520487,0.0026087947,-0.06258234,0.05193458,0.07980798,-0.09123989,0.06081008,0.07521843,-0.020204548,0.02730929,0.045959067,-0.015020316,-0.0026195948,0.046966556,0.088390365,-0.048190277000000004,0.08542589,-0.04732357,0.025779007000000003,0.07247977,-0.11828719,-0.034146395,0.036196887000000004,0.055466544000000007,0.017086638,0.0643805,-0.019632824,-0.031762097,0.027017409,0.08209597,0.003020293,0.039796248,0.10732675,-0.03156612,0.06562243,0.027392257000000003,-0.076432526,0.07946205,-0.02298122,-0.00813927,-0.1288022,0.012066718,0.09178434,0.07284632,0.04083334,0.060143284000000005,0.029979653999999998,0.03429745,0.03197488,0.020149112,0.085230134,-0.102571726,0.037188273,-0.05235127,0.07963735,0.07310976,-0.007817674,-0.031944495,-0.053686384000000004,-0.089111745,0.02304048,-0.11038983,0.07805604,0.029372321,0.078279935,0.036704995,0.16322681,0.08660419,0.044952568,0.03471901,0.022494424,0.028862352,0.039502855,0.08326232,0.09413613,-0.10599577,0.07886289999999999,0.088591404,-0.11866488,-0.07589171,-0.022686163,-0.08267165,0.08006067,-0.1169465,0.04228734,-0.07383269,-0.031464446,0.045367222,0.027488082999999996,-0.11316942,-0.08632022,0.057468787,-0.093515664,-0.054949403,-0.12947468,0.084054425,-0.046984177,-0.013764811000000002,-0.18252520000000003,-0.07014669,-0.01997888,-0.05775177,0.17086917,0.05752115,-0.03700623,-0.08751857,0.0014635051000000002,-0.021012949
-0.010533595,-0.07735158,-0.051818817999999996,0.05482907,0.06859559,-0.014468844,-0.06931591,-0.010901073,-0.009724808,-0.014654933500000002,-0.035224803,-0.09439122,0.04281259,0.052285302,-0.09081009,-0.03302884,-0.011862679,-0.06066756,0.030266415,0.0837758,0.057908718,0.044120837,0.0057467045,0.04226017,0.079064846,-0.010936484,0.029073263,0.0026673459999999997,-0.009112256,-0.08127031,-0.046464026,0.019505886,0.04519796400000001,0.0157029,0.07861667,-0.01740113,-0.03790085,-0.09454752,-0.015922222,0.024106136,0.00048777316,-0.04723492,0.00024215632999999997,0.03304243,0.09663814,0.07327936,0.010024778,0.09097888,-0.05602721,-0.047531433,0.11584298,0.052185073,0.06274054,-0.030356873,-0.14589848,0.008254729,-0.05822306,-0.08815577,0.08977955,0.02664618,0.04146836,-0.039245743,0.031623226000000004,-0.04270897,0.07225694,-0.084577665,-0.061214585,0.06636664,0.050722804,-0.08113538,-0.14003216,-0.094603114,-0.110030524,-0.08142560000000001,0.22402798,0.0918334,-0.12795638,0.09639282,0.19850868,0.032891113,0.06750074,0.008411100999999999,-0.075468905,-0.018439945,-0.052228487999999997,0.016448235,-0.013019628,-0.0882279,-0.13996412,0.069868915,0.00822708,-0.0005022768,-0.09524878,-0.09941242,0.07415031,0.09258734,-0.06446993,-0.023660546,0.014697598000000001,-0.10776777,0.026964176,0.03993702,-0.010704468,-0.070095986,-0.07979656,-0.04733913,0.15285818,-0.09000714,0.10132599,0.057786457,0.05005465,0.05915107,-0.005051737,-0.0088401195,0.12427946,0.053292133,-0.10716163,0.027858663,0.07102964,-0.00425631,0.04353069,0.028661275,0.049848627,0.10332805,0.07975049,0.0067845284999999995,-0.0024057562,0.009786747
-0.030668346000000003,-0.06890515,0.043360483,-0.021168312,-0.008514292,0.005499423000000001,-0.08190108,0.04663604,0.020297922,-0.04059984,0.057774715,0.006828755,-0.06726962,0.0056417855000000005,0.074754775,0.04809047,-0.04754869,0.07730671,-0.10554622,0.01758701,0.063182704,0.060012143,-0.015707413,0.02197797,-0.0717903,0.0027749238,-0.040441208,0.07103035,0.08187423,-0.10639698,0.0013074719,0.031220352000000003,0.015337656000000002,0.0037840987,-0.047483455,0.08372505,-0.07462114,0.056666355999999994,0.09570319999999999,0.056638822000000005,0.026592263999999997,0.07562603,0.077909105,0.100301,-0.025714094,-0.034755465,0.113779016,-0.02122474,-0.042004257,0.014588604,0.030044848,0.022661794,-0.02384939,-0.09234931,0.025080564,-0.025764445,0.09515239,0.047550797,-0.08603715,0.011998911000000001,-0.019849613000000002,-0.07540345,-0.010772519,0.058969665,-0.13719925,-0.030098425,0.12715715,0.06388021,-0.060286522,-0.028486451,0.06481035,0.078349374,-0.041301835,0.05233554,0.06800775,0.022274006000000002,-0.033887953,-0.031098444,-0.15531005,-0.05728304,-0.061645195,0.07125771,0.111860156,-0.014534129,-0.12488298,-0.060060665,-0.09622529,0.021536722999999997,0.08517801,-0.081518576,-0.12089488,-0.0047548027000000005,0.12873152,0.026202861,-0.09031266,-0.090294465,-0.011657761,-0.07387503,-0.055464383,-0.06769948,0.085342355,0.08286048,0.028507296,0.035084303,0.008112467,-0.06308975,0.12296802,-0.022040527,-0.12777479,0.084921055,-0.05933565,0.083274245,0.107136026,-0.015015718,-0.05120044,-0.016504642,0.027067767000000003,-0.019563058,0.0341839,0.078942575,0.108822696,-0.07566781,-0.048518162000000004,-0.0666624,0.0038631188,-0.027405059,0.08429256,0.022731766
0.0102463355,0.03660121,0.027181916,-0.025272448,0.040827062000000004,0.029468917999999997,-0.06289584,0.059733685,0.06150346,0.008710363,-0.006786470300000001,0.0008310511999999999,-0.094542645,0.097942606,0.069879904,-0.032953575,0.099861205,0.11080019,-0.04587083,-0.07989252,-0.011066925,0.103301905,0.0757279,-0.05187311,-0.067443885,0.02212849,-0.04303567,-0.06307772,0.0098776175,-0.08797486,0.0026498102000000003,0.059829336,-0.062309496,0.0045773535999999995,-0.07307764,-0.06739817,0.03117932,0.057431083,0.090749815,0.06393347,-0.027180022999999998,-0.03824503,0.09768958400000001,0.09112321,0.07995429,0.023332952999999997,-0.01216075,0.004513544,0.05094181,0.011836979,-0.08898377,-0.07302455,-0.0036588628000000004,-0.042753723,-0.024104087000000003,-0.07292449,0.05840524,-0.030831888,0.115300015,0.08884587,0.10895614,-0.0525585,-0.044735500000000004,-0.10404706,0.063705154,0.059823867,-0.14049233,0.047291465,-0.012954728,0.022111417999999997,0.12302353,0.08991397,0.013729079,-0.06379835,0.13317789,0.014892653999999998,-0.06468376,-0.088545054,-0.09259958,-0.07735677,-0.050642612999999996,0.068040386,0.008991184000000001,0.016993203999999998,0.03230364,0.00585702,0.11978094,0.026874337,-0.021310896,0.012733781999999999,-0.088066995,-0.047756112999999996,0.1123749,0.099382035,0.15914173,0.04884908,0.14760275,0.029041754,-0.03968648,-0.08288973,-0.16517836,-0.07554997,-0.03412774,-0.06846932,0.084872484,0.04764793,0.058955844,0.0045031467,0.12590191,0.08577968,0.08386893599999999,0.09910777,0.16808113,0.060539257,-0.09135292,0.07693224,0.07617984,-0.023396121000000002,-0.0021522408,0.07705581,-0.14718111,-0.07103431,-0.08398963,-0.08321219,-0.013167502,-0.035569943,-0.08593612,-0.079995915
-0.043647192,0.028279357,-0.012608550500000001,-0.0771083,-0.009724080999999999,-0.02130804,-0.050076794,0.0889111,0.037820313,0.06651839,0.019747103000000002,-0.09067612,0.017104924,-0.03669115,0.006590425,-0.07709816,0.07390077,0.10700744,-0.08106534,-0.0620313,-0.044074357,-0.035226606,-0.06527205,0.06881767,0.0017071285999999998,-0.041915566,-0.029101117000000003,-0.088160805,0.026320066,0.0027365289,-0.007146833000000001,-0.009941754,0.036943868,0.043857902000000004,-0.05445011,0.07955692,0.0679737,0.03468039,0.0053636785999999995,0.030148895,-0.06441123,-0.084199056,0.015575258,0.030150557,-0.043487057,0.03942816,0.025310982000000003,-0.044088904000000005,-0.025480676,-0.06088616,0.07710379,-0.030558118999999998,0.06696687,-0.09793202599999999,-0.029587222000000003,-0.09849624,-0.0067813867,0.08288576,0.0210834,-0.034518383,0.04580136,0.06501112,-0.03478492,-0.08110278,0.011378421000000001,0.029292937,0.053399123,0.06872614,-0.13830167,0.041869216,-0.1295046,0.039065592,0.005897335,-0.08209395400000001,-0.087354295,-0.016302168,-0.12390570000000001,-0.042019032000000005,-0.010698678,0.077822685,-0.13880566,0.04123704,0.029031877999999997,0.055263795,-0.05675102,0.032481268,0.11739296,0.024039617000000003,0.08688774,-0.0029335679999999997,-0.06135826,-0.0049990320000000005,0.052629944000000005,0.056653485,0.05064821,0.08542962,0.053359665,-0.09463243,-0.035098128,-0.048803426,0.09103507,0.038550816,-0.12971516,0.10576326400000001,0.12597725,0.049043175,-0.017897306,-0.08603402,0.05477055,0.07500821,0.11872318400000001,-0.037633203,0.14336355,-0.006971743000000001,-0.05585761,-0.032141253,-0.12133166,-0.05095094,0.027578386,0.013835991,-0.034487832,-0.027750197999999997,-0.11736276,0.05786617,0.12840033,0.0044464613,-0.058786448,-0.09587369999999999
-0.031108117,-0.030569486,0.06378649,0.05508007,-0.020769496000000002,-0.0030535946000000004,0.08689754,-0.00016523339,-0.06773438,-0.0058365757999999995,0.074319065,-0.04932894,-0.033377673,0.009496088,0.0012629041,0.10363997,-0.013062147,0.106591985,0.07798213,-0.04538567,0.07247875,0.027662852999999998,0.03877184,0.027695324,-0.049751498,0.08149699,0.041348927,-0.10309329,-0.005703616999999999,-0.03811177,0.08077623,-0.051775467,-0.016222667,0.031186067999999997,-0.017163803999999998,0.031626664,-0.10662413400000001,0.022743884,0.086838365,0.08948617,-0.027211167,-0.0023954324,0.02935319,-0.08389993,0.0323344,-0.042570736,0.055998564,-0.078663796,-0.08744298,-0.11172263,-0.050280653,0.06911288,-0.051457204000000006,0.09768543,0.09229483,-0.11592107,0.064306654,-0.08996755,0.1215383,0.08854451,0.04884931,0.057920426,0.056517508,-0.02396271,-0.030513952999999996,-0.024923345,0.05428644,0.03875043,-0.17229779999999997,0.05682157,-0.13546394,0.06156707,-0.11811284,0.004384068,0.061982956,-0.07678082,0.12758105,-0.06682338,-0.072581194,0.068852834,-0.09255852,0.01732923,-0.09188919999999999,-0.0070262756,-0.053325232,-0.0976025,-0.038706034,0.056109723,0.18668310000000002,-0.07979251400000001,0.13672121,0.035773132,0.10847892,0.0059778806999999995,0.02452644,0.056895956,-0.07528092,0.06473399,-0.030334947999999997,-0.06520930000000001,0.023276359,-0.08178822,-0.016713649,0.06672460599999999,0.03958312,-0.08170123,0.17358932,0.005659810699999999,-0.18473275,0.081188574,-0.081763886,-0.08896433,-0.13394532,0.054413285,0.10008489999999999,-0.008296135999999999,-0.116802104,0.026164297000000003,-0.07130999,0.022547832,-0.104266115,0.030490441,-0.14812817,0.06810152,0.09742665,-0.09640399,0.0925824,-0.017430173
0.031539414,-0.04489527,0.026910427999999997,0.076738715,0.06978369,0.07153016,0.07839874,-0.019367858999999998,0.089514494,0.058763776,0.021154005,-0.010721278999999998,0.06698578599999999,-0.07486304,-0.022104363999999998,-0.06950817,0.031834523999999996,-0.024316825,0.07147249,-0.023880476,0.025692156,0.07546073,-0.030252868,-0.04678898,-0.05590478,-0.049801,-0.076565415,0.020788945,-0.009556976,-0.10340948400000001,-0.0042253279999999995,0.092192225,0.10910587,0.06492385,-0.028575996,0.07141476,-0.005440524,0.04448626,0.058271147,0.023682375,0.0832554,-0.0775888,-0.049139052999999995,-0.058679823,0.04568869,0.016437395,-0.08988049,-0.03803206,-0.022878025,0.07155197,0.013345546000000002,-0.06954387,-0.0016761379000000002,0.08230068,0.0014969066,0.020650681,0.008031543,-0.058143977,-0.092338264,0.052593492,0.039614346,0.06677759400000001,-0.05868531,0.038571134,0.054357376,0.03467515,0.09103044,-0.023545349,0.03649656,-0.014828227,-0.1239489,-0.06306482,-0.055615097,-0.04437565,-0.10043289,0.06133487,0.08305282,-0.028052288999999998,0.12005388,0.026674496000000002,-0.15497167,-0.07046185,0.044634125999999996,-0.022185264,-0.064488016,-0.089532435,-0.119296595,0.036125793999999996,0.034673233,0.102503754,0.091562256,-0.058048964,0.038498804,-0.021121195,0.100533284,-0.052422512000000004,-0.10315443,-0.06792797,0.1601001,-0.034862752999999996,0.03838338,-0.08624411,0.005315410400000001,-0.07529538,0.026651574,-0.0027371873,-0.054482996,-0.0019776023000000003,-0.069570415,-0.0015445161,0.24263707,-0.047823526,0.11420182,-0.051990252,0.1434773,0.10752099,-0.04448352,0.09011489,0.15794016,0.08396689,0.09005289,0.039687400000000005,-0.024833376,0.010129829,-0.07021675,0.03238383,-0.14813693,-0.08666635
-0.009040023000000001,-0.01731946,-0.018867515,-0.008118245999999999,-0.08152333,-0.046748605,-0.026651314,-0.055649884000000004,0.01192228,0.08750381,-0.071491845,0.06572266,0.016338952,-0.06876442,-0.03722114,-0.06256167,0.10845348,0.061525073,-0.067666195,0.06847214,-0.10293753,0.02773118,-0.08631933,-0.03196041,0.09370529,0.08265625,-0.014262876,0.056325622,0.08305177,-0.106716335,0.03807858,0.03601042,0.052069172000000004,0.034347672,-0.096955046,-0.050403025,-0.040561522999999995,0.020722259,0.040852662000000005,-0.074244045,-0.015541853999999999,-0.020530351999999998,0.045420274000000004,-0.007615748,0.07847231,-0.013030361,-0.10191255,0.057099912,0.0009897532,-0.08090525,0.036227267,0.03966363,0.01180358,0.06143529,0.04116474,-0.06401528,-0.08231779,-0.050046045,-0.027836647000000003,0.04221685,-0.0038453554999999997,0.0026910146999999996,-0.020932745,-0.10038366,-0.05612631,-0.060396288,0.08654104,-0.004865857,0.057538193,-0.065085635,-0.054998673,0.08219943,-0.0778323,-0.058589872,0.13154055,0.02597151,-0.0034906904,0.041713953,-0.20508052,0.06154594,0.042785548,0.07952581,-0.082807906,0.09650357,-0.09501068,0.05955654,0.025951946,0.075818904,-0.03723534,0.016161216000000003,-0.10110675,-0.022444934,0.058289506,0.0050416184000000005,0.01065278,0.030075576,0.016686458,0.025409816,0.0047299033,-0.04271899,-0.09599462,-0.0989505,-0.16902502,-0.09672594,0.16003342,0.059990484000000004,0.0923301,-0.05093807,0.06965591,0.037192214,0.16462868,0.079132825,0.11551780000000002,-0.04059244,0.031405482,0.027080696,-0.050893907,-0.07315243,0.05915508,0.0086399745,-0.07849145,0.08379407,-0.097399086,-0.03887826,-0.020397061,0.025826814,0.10977772599999999,-0.072207466
-0.005733790999999999,-0.06481995,0.04561737,-0.08151504400000001,0.026090581,-0.08484112,-0.030486405,-0.018665275,-0.08369006,0.033828843,-0.0025953094,0.030505471,0.05349101,-0.021775377999999998,0.020439822,-0.10143806,0.013239951000000002,0.060485567999999997,0.019397506000000002,-0.034505196,0.03335903,0.068968266,0.064817294,-0.010114104,-0.1077256,-0.08796711,-0.085313655,-0.07386138,0.06345299,-0.042681195,0.0699957,0.08640342,-0.042542294,0.03145007,-0.0036864470000000002,-0.11409939,0.05298661,0.019061441999999998,-0.08470495,-0.055475388,-0.026682712,-0.048402812,-0.0017177720000000002,0.003187257,0.10119869599999999,0.028593276,-0.010529458,0.061228595999999996,-0.042209048,-0.040055763,0.0034027096999999997,0.07265107,-0.08766346400000001,0.04782765,-0.045128055,0.05298549,-0.031854622,-0.103577726,-0.089759655,-0.100830846,-0.09193314,-0.044515356,0.044502933,-0.009001515,-0.16169617,-0.06487653,-0.08860799,0.05851105,0.023813521,-0.09153959,0.019809261,0.08870234,0.014307543,-0.08963977,0.1704832,-0.033824757000000004,-0.07105545,-0.0947071,0.066362016,0.046386015,0.09476304,0.026554355,0.10620103,0.049554005,0.12983985,-0.019001605,0.09797894,-0.05171344,0.06220813,-0.041098177,-0.05668717,0.012847951000000002,0.08355009,-0.09470762,0.13445137,0.030589541,-0.039725695,-0.07347464,-0.09786169,0.06798696,-0.12882896,0.07074655,0.08425238,0.022376936,-0.008672266999999999,0.06096179,0.063653365,0.07630204,0.16456544,0.028467957000000002,-0.06122731,0.032397177,-0.08151813599999999,0.002304331,-0.083135165,0.08780905,-0.11625887,0.055703018,0.020280112,0.024199331,0.07199315,0.08945175,0.14491229,-0.027735997000000002,0.12186141,-0.03208403,-0.22711636,-0.0007620721000000001
-0.064246565,0.06465237,0.13165005,-0.038320888,-0.05985474,-0.056378134,-0.027276421000000002,0.058391277000000005,0.05869411,-0.078335,-0.080808066,0.04447151,0.07593912,-0.08543405,0.06881159,-0.062413655,0.09503356,0.08086821400000001,-0.11012355,-0.05117882,0.03508642,-0.09728839999999998,-0.10221595,0.07357545,-0.056127004,0.021569542999999997,0.10275697,-0.035097364,-0.0076732477,0.09826542,0.04276111,0.10400726,0.017714381,-0.034036335,-0.027274191,0.0030763684999999996,-0.027004072,0.021521357999999997,0.09018575,-0.05259513,-0.07866032,-0.047394294000000003,-0.032762453,-1.2371795e-05,-0.079697296,-0.06643403,0.13322574,0.0048387363,-0.069850795,-0.094516896,0.07076074,0.10192382,0.086697556,-0.076737255,-0.0842191,-0.06713065,0.07904804,-0.04070718,-0.083764456,-0.09127976,-0.031009922000000002,0.03755019,-0.08765344,0.07483858,-0.052354846,-0.014508507,0.07467293,0.036526382,0.049682554000000004,-0.061982024000000004,0.11095810000000002,-0.07955194,0.11870699,0.042684827,-0.087382935,0.092697255,0.06398908,0.027986702000000002,0.049706146,0.010542886999999999,-0.038690068,-0.08846004,-0.03467984,-0.07921516,-0.11158269999999999,-0.021773979,-0.13819635,-0.07019446,0.15533718,0.08891953,-0.00428932,-0.008008516,-0.084733605,-0.038531847,0.17478547,0.07237704,0.07538846,-0.02447024,0.027593147000000002,0.094414264,-0.004397569699999999,0.10409589999999998,0.008141583,-0.021038596,-0.19766699,-0.03346668,-0.10502702,0.08453658,-0.06516693,-0.010065084,1.4768768e-05,0.08400596,-0.12963495,0.00029054482000000003,-0.15129924,0.09140692,0.090380445,-0.0591303,0.075592756,0.0010478564,-0.033777516,-0.10288084,-0.04517575,-0.020070154,-0.0025277166,0.07997255,-0.16976860000000002,-0.015320821
0.01061613,0.062078595,0.056786325,-0.021413641,0.05515386,0.048454567999999996,-0.040889673,0.07746032,0.053515352,0.017397031,0.07676839,0.02258884,0.028679041000000002,0.020877272,0.06649452,0.07279356599999999,0.08503642,-0.02272432,0.10283919400000001,-0.11335422,-0.015942996,-0.0980791,-0.007771043,0.082973234,-0.050065305,-0.08349392,0.034572385,-0.07810118,0.047760915,-0.053526048,0.07548787,0.09670368,-0.0059833740000000005,-0.030508028,0.04483065,0.05598473,-0.08125871,-0.056124087,-0.00021479412999999997,-0.010423945,0.025593387000000002,-0.09420574,0.07748709599999999,-0.024410137999999998,0.10162513,-0.08086066,-0.08036201,0.08297112,-0.07012284,-0.025565214,0.08819919999999999,-0.0020898114999999997,-0.022774834,-0.07186527,-0.064629935,0.022690969,0.08460699,-0.01731034,-0.054888862999999996,0.06827833,-0.0025349192,0.10330277,0.05022448,0.07267242,0.09803367,0.066191085,0.041789595,0.033053666,-0.038332127,0.06330354,0.16701059,0.07684655,0.06283458,-0.09714484,-0.044468798,-0.014850785,0.046713599999999994,0.03451817,0.108429655,0.03751075,0.08737560000000001,-0.006945931,-0.076522164,0.015817821,0.094297715,-0.041299056,-0.07477009,0.09347599,0.03358055,0.020480981000000002,-0.15380453,-0.05702167,-0.06757385,0.057777367999999996,0.10609101,0.077469684,-0.017913342,-0.042274217999999995,-0.043744378,-0.021682307,-0.14034182,-0.05251215,-0.07718216,-0.08205834,0.089921,-0.090467826,-0.13882789,-0.06942948,0.12425871,-0.020788968,0.12878087,-0.0052815430000000005,0.0068215677,0.0547439,-0.10817004,-0.061575074,0.07134892,-0.07005985,0.115011595,0.043975692000000004,-0.11719098,0.003280333,-0.0010048846000000001,0.068819456,0.060447335,-0.041089557,-0.14389428,-0.085066654
0.037907183,0.031362202,0.029500976,-0.011644017,0.026180431,0.06281825,-0.059732676,-0.07440106,-0.04241331,-0.0108711375,-0.044976283,0.08020739,0.034221603999999996,-0.073509604,0.09603829,-0.008916674,0.03283494,0.020707732,-0.09177065,0.019773876,-0.008545286,-0.021628587,-0.002340403,-0.087070175,0.016534735,0.09741356,-0.06642089,0.017497001,0.008665793,0.004772871,-0.046004325,-0.012216595,-0.0019834326,-0.016229853,-0.10867082,0.072219856,0.09490578,0.0012146718,0.08000038,0.009765813,-0.025094474,-0.05716118,0.10255285,0.054208025,0.058077995,-0.006613654,0.010086834,-0.039526887000000004,0.03802779,-0.014894992,0.094984464,0.019776737,0.0062178127,0.018733397,-0.055864487000000004,0.07189047,-0.03962489,-0.016490776000000002,0.11251632,-0.03723356,0.027293827000000003,-0.0046965918,0.06041362,0.073778465,0.015119033999999998,0.06842144,-0.05370799,-0.06601479,-0.015365107,0.0058504627000000005,0.040293742,0.021935964,0.054078795,0.041059896,-0.10329984,-0.089868926,0.107428886,0.03692717,-0.038763884,-0.032529987,0.13672283,0.0019054001999999999,0.01108977,0.045203887000000005,0.025124677,-0.094042726,-0.074328355,0.05563851400000001,-0.100652084,-0.06968772,0.036636878,-0.07093054,0.162187,-0.07420567,0.11766918,0.021404232999999998,-0.07759151,-0.086444855,-0.10705239999999999,0.09094214,-0.14081943,-0.07355282,-0.040572092000000004,0.021875422000000002,-0.15275787,0.09392499,-0.12667182,0.08971735,0.049259137,-0.00018532593000000002,-0.08507149,0.039731382999999995,-0.046288777,-0.08336136,-0.10468014,-0.02129717,-0.047097296,-0.0024583368,-0.07030139,-0.008838275,0.06077815599999999,0.011237635,-0.012393261000000001,0.056550752,0.11819785,-0.030637422999999997,0.06846361599999999,-0.039181255
0.014398225,-0.04947823,-0.02289047,-0.07066786,-0.03107448,-0.07841941,0.014458418999999998,-0.028019596,-0.04671489400000001,-0.053725815999999996,-0.07283768,0.025582608,0.043649003,-0.066103965,-0.08085742,-0.05188818,-0.018009694,-0.0025149245999999997,-0.058391124,-0.02976644,-0.087946266,0.042384427,-0.056362543,0.049423594,-0.04803292,0.044054464,0.08630868,0.061830644000000004,-0.07567778,-0.013067295,-0.09164361,0.05549845,-0.037725285,-0.08773314,0.09200549,0.09052134,0.060734500000000004,-0.05144106,0.08901110000000001,0.0680868,0.06484696,-0.059513144000000004,0.026501099,-0.023916053,-0.011121191,-0.060273726,0.08992724,0.03529054,-0.044358265,0.06686395,0.04314038,0.059642464000000006,-0.01619719,-0.07225907,-0.019396393999999997,0.03354775,-0.029483238,0.0006854481,-0.05261694,-0.06438490000000001,0.12923054,-0.045651764000000004,-0.017286811000000003,0.08125744,0.07698333,-0.036686502,0.002499473,0.011958735,0.06096688,0.022566382000000003,-0.11276998,0.09743796,0.14921598,0.002049726,-0.051200833,-0.032480646,0.09944572,-0.10631502400000001,-0.08011955,0.09618711,0.06498424,-0.016204225,-0.06294908,0.08764017,-0.06547216,-0.078948215,-0.08925105,0.06336157,0.048359364,-0.04781608,-0.15357365,0.005054866,-0.12890364,-0.062480904000000004,-0.056781344000000004,-0.09180317,0.06586502,-0.09062682,-0.18927515,-0.015982391000000002,0.11764638,0.10158531,-0.14265084,-0.034940924,0.25478494,0.017137831,0.10951393,-0.010305308000000001,-0.053495645999999994,-0.01642822,-0.0058334363,0.09914911,0.055647395999999995,-0.022222187,-0.07203143,0.0542515,-0.17761667,0.07366339,-0.050402567,0.025048995,-0.011221471,-0.00738053,0.05847196,-0.051258292000000004,-0.13611493,0.018609181000000002,0.009237988,-0.071807414
-0.0023189331,-0.08846336,0.018886328,-0.035623327,-0.088597715,-0.019670697,-0.026981533999999998,-0.04852351,-0.022657383,0.028698877999999997,-0.06960414,0.014309246000000001,-0.01712527,-0.07199735,-0.075587735,-0.02808077,-0.059480265,-0.07212097,-0.09561269,0.09005498,0.07264518,-0.019989293,-0.030700235,-0.10054547,0.054071900000000006,-0.042095627999999996,-0.058593694,0.04455906,0.0057876709999999994,-0.029738415,-0.08827256,-0.043663163,0.008823348,-0.07719858,0.07188663,0.03868485,-0.08222666,0.026808467000000002,0.030857231000000002,-0.036813643,-0.025663747,0.03612831,0.0005741577,-0.059115164000000005,-0.047351338,-0.02159235,-0.05760248,0.04806934,0.047374400000000004,0.038347278,0.06774666,0.058641683,-0.036555994,0.04008524,0.095783144,0.11040145,0.02613272,-0.09030576,-0.07534338,-0.0015104526,-0.022148812,-0.07125005,-0.085385606,-0.04235492,0.032317027000000005,-0.033860587000000004,-0.019470934,0.020579098,0.07816486,0.055304114,0.047846533,0.011843993999999998,-0.0358251,0.07727562,-0.07187671,0.042030912000000004,0.11833225,-0.0927142,-0.05233602,0.053916045,0.047096886,-0.01695683,0.14390752,-0.03128997,-0.124910615,0.030899914,-0.08558831,0.08855407,-0.014964874,0.008073963,0.014103504,-0.03614266,0.0008036197999999999,0.07413201,0.007552855600000001,0.08455933,0.09536821,-0.031242232999999998,-0.11102888,0.08948367,-0.11572672,-0.00942963,-0.0018605492,0.03509698,0.15926600000000002,0.0047380165,-0.010214524,-0.08483569,-0.036290653,0.036403767999999996,0.15224148,-0.040630087,0.10768089,0.023007937000000003,-0.038219437,-0.028903323999999998,0.11241622,0.011540446999999999,0.11970329,-0.11033591,-0.057681825,0.034405574,0.03304977,-0.032784652000000004,-0.120784074,-0.027661638,-0.13103862,0.107307985
0.0020546217,0.071457125,0.006672038000000001,0.039757453,0.015689123,0.043310065,0.064658515,-0.09343510000000001,-0.06576037,0.08460249,0.060831763,0.03546877,0.089593746,0.036073674,0.07075885,-0.06491146,0.028926023999999998,-0.0030723885,0.042289194,0.028447859,-0.019334897,-0.027273571,-0.10411881,-0.09437065,-0.0020043822,0.056933958,0.09645899,-0.08782372599999999,-0.013082813,0.024018636,0.08563856,0.025983645,0.032513573999999996,0.09239151,0.03012055,0.05029813,-0.029787932000000003,0.04843642,0.068283625,0.06843400000000001,0.06740261,-0.07389684,-0.030037973,-0.042163204,-0.03207198,-0.047278232999999996,-0.049311068,0.08919388,-0.07802805,-0.005278964000000001,0.08587091,0.052226245,-0.078602605,0.067905016,0.0034734203999999998,0.0023738104,-0.058344353,0.04700079,0.016395617,0.023862995,0.058800082999999996,0.047851227,0.05137657,-0.05227824,0.09170398,0.032520633,-0.0714345,0.020048594,0.037723485,0.03304117,-0.13408174,-0.058344368,-0.10933426,-0.09672993,0.038422428,-0.09407086,0.015962282,0.04228857,-0.0066643134,-0.08346073,-0.073050804,-0.042179312999999996,0.034923602000000005,0.050515387,0.03111711,-0.08786392,0.033589676,0.020572137,0.13767023,-0.012898857,-0.060077785999999994,0.10103322,0.013621363999999999,-0.07177133,-0.14982134,-0.0828169,-0.038555782000000004,0.08070469,-0.07424877,-0.046331678,0.031908322,-0.006890364499999999,0.04108936,0.05301004,0.06001979,0.036720513999999996,0.113526896,-0.040497698,-0.09313127,-0.09439739,-0.07238397,-0.04343735,-0.038849823,-0.057715904000000005,-0.057229247000000004,0.06286039,0.14895311,0.013556692,-0.015391378999999998,0.0091717085,0.08311727,0.081963345,0.015300552,-0.024435803,-0.08592475,-0.025622044,0.023842605,-0.050074535999999996
0.096459314,0.031612594,-0.061954245,-0.04590484,0.056410762999999996,0.043513954,-0.06648105,-0.07881636,0.06946671,0.07632412,0.05667159,-0.047099937,-0.02312456,0.09238758,0.06662254,-0.02508688,-0.051162097999999996,-0.043733414000000005,0.031161629,0.03200542,-0.08374973,0.047534093,0.07324271,0.057032797,-0.060297992,-0.0033697302,-0.008743566,-0.085027434,0.09170119,-0.0018137085,0.110547386,0.074206635,-0.041785985,0.041574687,-0.063773096,-0.04164276,0.04193844,0.008489019,0.09174395,0.043303665,-0.077699065,-0.0108057475,-0.057709057,-0.01139081,0.07717073,0.02026266,-0.086073,-0.036036983,0.0024421729999999997,0.025328599,0.015883235,0.034200337000000004,-0.014601282,0.029333422,-0.056524205999999994,0.0654784,0.13016184,0.0446446,-0.05219381,0.048323165999999994,0.0020863979999999997,0.082312085,0.11350822,-0.073741265,0.05136524,-0.080205046,0.09594314,-0.10450897,-0.0084060505,-0.07974577,0.06880027,0.086576335,-0.018873246,-0.066849425,0.03163139,0.010345546,0.13002263,0.044925716,0.02518703,0.061948645999999996,-0.13805355,0.08675712,-0.13868129,-0.031164993,-0.048074003,-0.05473466,0.16203298,0.028873725,-0.11334461,0.09811024,0.09605679,-0.05005938,-0.026402466,-0.05378194,0.18837778,-0.07106927,0.027008459,0.08677178599999999,-0.10961343,-0.059223145,0.057825312000000004,-0.03916299,0.11155743,-0.018391993,-0.15600055,0.05622997,-0.0680623,0.021928094,-0.040476248,-0.058458872,-0.015079136000000002,-0.10197393,-0.12522034,-0.08905267,0.036592394,-0.06185598,0.07159083,0.08467246,-0.09724556,-0.019703291,0.0020504254,-0.027009392000000004,0.10953379,0.062471565,0.09326792,0.03372265,0.040301137,0.03531231
