  -0.02507,   0.11507,  -0.10922,   0.05030,   0.11836,   0.07986,   0.08770,  -0.09475,  -0.05533,   0.11890,   0.04198,  -0.04113,  -0.04782,  -0.13333,   0.00934,  -0.07298,   0.07405,  -0.07879,   0.11193,  -0.01421,  -0.01063,  -0.05506,   0.14123,  -0.16316,  -0.09359,   0.14168,   0.07634,   0.05924,   0.09201,   0.00442,   0.10443,   0.03502,   0.05450,  -0.03279,   0.01435,   0.07838,  -0.01843,  -0.05908,   0.01379,   0.03703,  -0.11597,   0.15172,  -0.10898,  -0.00818,  -0.02965,  -0.01040,  -0.00798,  -0.10478,  -0.07926,  -0.11799,  -0.01229,   0.15948,  -0.07929,   0.02302,   0.04570,   0.02774,  -0.14388,  -0.06035,   0.04847,  -0.08561,  -0.05583,  -0.18439,  -0.07586,  -0.07514,  -0.09500,   0.15363,  -0.11724,  -0.00627,  -0.08668,   0.12228,   0.18891,   0.00359,  -0.07627,   0.00050,  -0.09216,  -0.12565,  -0.02373,   0.00075,   0.11187,  -0.04317,   0.00886,   0.17254,  -0.01554,  -0.06437,  -0.10611,  -0.05047,   0.01297,   0.13246,  -0.09981,  -0.15692,  -0.01651,   0.07957,  -0.05367,  -0.03564,  -0.16053,  -0.08465,  -0.09070,   0.01556,  -0.06880,  -0.03956,  -0.01605,  -0.07585,   0.09014,   0.00423,   0.08399,   0.08389,  -0.02524,  -0.12144,  -0.00856,   0.10671,   0.12436,   0.04290,  -0.04486,   0.00190,   0.07518,  -0.13631,  -0.03893,  -0.06664,  -0.05256,  -0.02227,   0.06890,   0.05407,   0.10895,   0.14268,  -0.16666,  -0.06793,  -0.12314,  -0.01937
   0.19651,   0.05680,  -0.02444,   0.03860,  -0.01545,   0.13094,   0.09761,  -0.07762,   0.07399,   0.09621,  -0.05096,  -0.06901,  -0.08206,  -0.01636,   0.13481,   0.03192,  -0.07295,   0.03966,   0.07497,  -0.09709,  -0.14747,   0.06588,  -0.10239,   0.06858,   0.01175,  -0.07279,   0.09944,  -0.12386,   0.08564,  -0.02038,   0.04619,  -0.07668,  -0.04523,   0.00794,   0.07204,   0.04214,   0.11203,  -0.02116,   0.06603,   0.05714,   0.02009,  -0.00036,   0.04999,  -0.04741,   0.09436,   0.05354,  -0.04080,  -0.07745,  -0.11061,  -0.09644,   0.09065,  -0.03528,  -0.11811,   0.00178,  -0.09532,   0.01313,  -0.01033,  -0.01400,   0.03432,   0.07330,   0.04076,   0.03828,  -0.10842,   0.04515,  -0.19235,   0.08861,   0.10558,   0.09765,   0.07421,   0.10909,  -0.08796,  -0.05802,  -0.10200,   0.12839,  -0.00071,   0.00481,  -0.09467,   0.18073,   0.11275,   0.01918,   0.00081,   0.01144,  -0.12654,  -0.08165,  -0.03579,   0.10965,   0.05410,   0.13479,   0.02695,   0.12395,   0.00188,   0.05021,   0.06686,   0.04344,   0.11764,   0.00804,  -0.08248,  -0.05024,  -0.11775,  -0.04927,  -0.02962,  -0.10110,  -0.01245,  -0.09265,  -0.05669,  -0.15070,   0.09254,   0.03938,  -0.06027,  -0.13345,  -0.10290,   0.17713,   0.15529,  -0.10858,   0.19435,   0.02939,   0.08712,   0.08391,   0.01673,   0.10519,  -0.06612,   0.19477,  -0.06484,   0.11956,  -0.07015,  -0.15084,   0.01782,  -0.12538
   0.18437,   0.05115,  -0.03786,   0.11772,   0.06256,  -0.07388,   0.14629,  -0.09953,   0.05247,   0.00426,  -0.05310,  -0.01122,   0.10580,   0.11511,  -0.09303,   0.08678,  -0.00708,  -0.06358,   0.02402,   0.07528,  -0.02635,   0.01637,   0.07589,  -0.00998,   0.01142,   0.13350,  -0.02251,  -0.10042,  -0.02927,  -0.01140,  -0.10239,   0.05338,   0.06133,  -0.03932,  -0.14550,   0.05907,   0.12421,   0.00914,  -0.09496,   0.03820,  -0.10217,   0.10772,   0.10071,   0.11737,   0.04618,  -0.06851,  -0.06652,  -0.00197,  -0.10875,  -0.10668,  -0.13456,  -0.13579,  -0.16719,  -0.02939,  -0.18472,   0.14015,  -0.04545,  -0.17359,   0.03779,   0.14937,  -0.06722,  -0.14011,   0.13009,  -0.00860,  -0.02151,   0.00137,   0.05568,   0.18231,  -0.08191,  -0.04130,   0.05665,   0.14584,  -0.01132,  -0.00040,   0.04020,   0.04327,  -0.01860,   0.06083,   0.06395,   0.10173,  -0.08754,   0.11794,  -0.09762,  -0.03723,   0.06441,  -0.11056,  -0.13424,   0.13559,  -0.00318,  -0.15610,   0.03276,   0.08206,  -0.02562,   0.02917,   0.02114,   0.07016,   0.07611,  -0.02921,  -0.11241,   0.04310,  -0.14328,   0.06839,  -0.11375,  -0.08354,   0.12145,  -0.00142,   0.11883,   0.06330,   0.11132,  -0.02534,  -0.02437,  -0.07996,   0.06083,   0.04082,   0.16722,  -0.04078,   0.06239,  -0.04229,   0.06183,  -0.01293,   0.07869,   0.10394,  -0.00478,   0.05399,   0.09949,   0.13333,  -0.12486,  -0.13638
   0.13919,  -0.19677,   0.05845,   0.09955,  -0.05216,   0.04829,  -0.02823,   0.03732,  -0.02480,  -0.03577,   0.07540,   0.04923,   0.00216,   0.03539,  -0.06892,   0.11540,   0.01531,   0.17236,  -0.05578,  -0.04924,  -0.05106,   0.00322,   0.01377,  -0.07112,  -0.16940,  -0.04785,   0.08590,   0.06181,  -0.19849,  -0.00886,  -0.09548,   0.01577,   0.02742,  -0.07847,  -0.16811,  -0.03305,  -0.05414,  -0.02769,  -0.08176,  -0.07039,  -0.12933,  -0.15073,   0.08540,   0.05586,  -0.00388,  -0.03584,  -0.08468,  -0.21331,  -0.07066,  -0.08551,  -0.08589,   0.08295,   0.07904,   0.09499,  -0.15109,   0.03211,   0.09605,   0.12321,   0.00836,   0.07442,   0.11120,   0.06945,   0.04644,   0.07190,   0.05428,  -0.03389,   0.00467,  -0.08776,  -0.04852,   0.15895,   0.10117,  -0.04956,  -0.02861,   0.05794,  -0.05058,   0.02757,  -0.12735,  -0.09550,  -0.08995,   0.04327,  -0.16362,   0.02051,   0.14060,   0.11709,  -0.19041,  -0.03906,  -0.06340,  -0.16723,  -0.09130,  -0.17413,  -0.02295,  -0.01730,   0.00095,   0.08510,  -0.09949,  -0.00935,   0.07002,  -0.09990,   0.00206,  -0.00449,   0.00225,  -0.09942,  -0.16126,   0.02052,   0.03277,   0.09714,   0.18736,  -0.00513,   0.17453,   0.09582,  -0.06073,  -0.14782,   0.03665,   0.02105,   0.12563,  -0.02450,  -0.06421,   0.09421,  -0.09267,   0.14288,  -0.07962,  -0.02470,  -0.01381,  -0.04698,   0.09618,  -0.00341,  -0.03131,   0.14961
  -0.06488,   0.01369,  -0.09357,  -0.17095,   0.03784,  -0.07892,  -0.01216,   0.07681,  -0.04611,   0.15664,   0.03005,   0.02177,  -0.08088,   0.13945,  -0.13578,  -0.07456,   0.06843,  -0.11269,   0.00876,  -0.02350,  -0.01330,  -0.01419,  -0.03310,  -0.14564,  -0.04069,   0.06370,  -0.19455,   0.00060,  -0.12382,  -0.05413,  -0.03909,  -0.08295,  -0.08897,   0.10950,   0.07338,  -0.06477,   0.08192,   0.00387,  -0.20926,   0.03221,   0.14569,  -0.11599,   0.08711,  -0.08637,  -0.12680,  -0.13481,   0.10893,  -0.02770,   0.13228,  -0.04708,  -0.05944,   0.02720,  -0.04352,   0.09962,   0.07633,   0.06653,  -0.00337,  -0.12716,  -0.04252,   0.11449,  -0.04046,   0.10755,  -0.01859,   0.02475,   0.04700,   0.05868,   0.09983,   0.06550,   0.05626,   0.11657,  -0.06866,  -0.01012,  -0.01861,   0.02487,  -0.06583,  -0.04928,  -0.10295,   0.01061,  -0.04924,   0.17343,  -0.09063,  -0.02642,   0.14909,   0.04888,   0.07747,   0.02182,  -0.07616,   0.03818,  -0.07468,   0.02490,  -0.21772,   0.06670,  -0.08312,   0.09294,  -0.08396,   0.16829,   0.08826,  -0.00473,  -0.07632,   0.02458,   0.10812,   0.06876,  -0.08520,  -0.03840,   0.00408,   0.00171,  -0.01080,  -0.01486,   0.01136,  -0.07825,   0.17338,  -0.02451,  -0.10662,  -0.00230,  -0.12490,   0.03376,   0.03172,  -0.00572,   0.07109,   0.09329,  -0.09535,  -0.03407,   0.12525,   0.08987,   0.06589,   0.03863,  -0.10910,  -0.11124
   0.10016,  -0.07460,   0.02776,   0.00455,   0.06894,   0.18473,  -0.00405,  -0.09856,  -0.06131,  -0.03043,  -0.10857,   0.06425,   0.08693,  -0.05218,  -0.02996,  -0.01822,   0.08654,  -0.19536,  -0.12456,  -0.05368,   0.19326,  -0.11453,  -0.08305,  -0.05570,   0.05873,   0.06825,   0.10556,  -0.12552,  -0.08964,   0.01233,   0.04884,  -0.16693,   0.03679,   0.02548,   0.13686,  -0.11816,   0.11263,   0.15684,  -0.01836,  -0.09865,  -0.06095,   0.08182,   0.16729,   0.01871,  -0.16657,  -0.20468,  -0.01093,   0.11857,  -0.06202,   0.06932,   0.15726,   0.02968,   0.08721,  -0.13775,  -0.05041,   0.02498,  -0.02445,   0.11142,   0.02585,   0.07802,  -0.04966,   0.03301,   0.01190,   0.12609,  -0.07361,  -0.02759,  -0.03755,   0.14892,  -0.11631,  -0.16201,   0.07155,  -0.09913,  -0.08413,   0.02938,   0.10784,   0.13432,  -0.02136,  -0.00532,   0.07199,  -0.00190,   0.08662,   0.10915,   0.07969,   0.06354,  -0.03462,   0.03917,   0.15032,  -0.18530,  -0.10898,  -0.00268,   0.01341,   0.10009,   0.12165,   0.10409,   0.06019,   0.07272,   0.08437,  -0.13177,   0.08615,  -0.00474,  -0.00925,   0.00280,  -0.01286,  -0.15749,  -0.09072,  -0.10280,  -0.14459,  -0.00630,  -0.02302,   0.16162,   0.07427,  -0.01672,  -0.13851,  -0.15070,   0.02084,   0.17061,   0.10789,   0.06503,   0.05492,   0.06910,   0.09115,   0.00512,  -0.13405,   0.10165,   0.01934,  -0.10232,  -0.00911,  -0.05774
  -0.17086,  -0.17079,  -0.15322,  -0.00796,  -0.03253,   0.00025,   0.09299,  -0.07333,   0.14309,   0.14832,   0.06878,   0.10001,  -0.03265,  -0.22977,   0.02500,   0.03818,   0.02734,  -0.03088,  -0.09652,  -0.00514,   0.10695,  -0.03359,  -0.02914,  -0.10432,  -0.06021,   0.00962,   0.04539,   0.15296,   0.13528,   0.04904,  -0.12900,  -0.07485,  -0.03120,  -0.09166,   0.00167,  -0.09006,  -0.10964,   0.04879,  -0.06654,   0.01118,  -0.12363,   0.11038,  -0.01851,   0.12132,   0.02065,   0.04967,  -0.13000,  -0.02054,  -0.03424,  -0.05744,   0.02685,   0.17931,   0.01389,   0.00407,   0.09103,   0.04796,   0.07363,  -0.12702,  -0.12770,  -0.07647,   0.06492,   0.00118,  -0.01470,  -0.00552,  -0.12454,   0.10506,   0.11200,  -0.07486,  -0.04261,  -0.08536,  -0.02743,   0.08608,  -0.02995,  -0.05052,  -0.07147,  -0.09239,   0.04972,  -0.01853,   0.12807,   0.05665,   0.06456,   0.10710,  -0.13376,  -0.07623,   0.06944,   0.10791,   0.03682,  -0.12080,   0.08867,   0.10504,  -0.08588,   0.09486,   0.03232,  -0.02166,   0.07523,   0.02949,   0.11329,   0.06189,   0.02248,  -0.11987,   0.09897,   0.05072,  -0.09813,  -0.02376,  -0.07800,  -0.03799,   0.00478,  -0.01650,   0.05380,   0.17216,  -0.12347,  -0.02264,   0.09073,  -0.04534,   0.01347,   0.11368,   0.12992,   0.01478,   0.09637,  -0.14994,   0.04624,   0.01405,  -0.05403,   0.08438,   0.04707,   0.08165,  -0.03260,  -0.03260
  -0.19237,  -0.14619,  -0.08795,   0.07389,   0.09414,   0.03156,  -0.08794,   0.14652,  -0.07508,   0.12879,   0.07457,  -0.03299,   0.06840,  -0.05688,  -0.00399,   0.14252,  -0.10866,   0.18692,  -0.19999,   0.05921,  -0.01790,   0.08114,  -0.01596,   0.05717,  -0.06940,   0.13905,   0.09663,  -0.05011,   0.04080,   0.04798,  -0.10250,  -0.11594,  -0.17484,  -0.04024,  -0.11813,  -0.07015,  -0.07352,   0.09356,  -0.06962,   0.08545,   0.11461,  -0.09811,   0.04965,   0.06009,  -0.06601,   0.11767,  -0.07555,  -0.05374,  -0.01122,   0.09806,  -0.16502,   0.04964,   0.02497,   0.02537,  -0.00185,   0.14002,  -0.08478,  -0.02261,  -0.01524,  -0.07117,  -0.06544,   0.08866,  -0.03395,  -0.06201,   0.02611,  -0.05625,   0.14405,   0.03483,   0.11293,  -0.06666,  -0.05760,  -0.02273,  -0.07923,  -0.12116,  -0.00536,   0.07225,  -0.01774,   0.01973,  -0.03502,  -0.06862,  -0.02689,  -0.03490,  -0.06558,  -0.04323,   0.08867,   0.08008,  -0.06116,  -0.07305,   0.09106,  -0.12187,  -0.00099,  -0.04163,  -0.08332,  -0.06541,   0.11197,   0.15102,  -0.02861,   0.02642,   0.07789,   0.11483,  -0.04745,  -0.08725,   0.03971,  -0.12263,  -0.02037,   0.09733,  -0.04398,   0.01761,  -0.03618,  -0.05740,   0.03722,   0.09193,   0.13671,   0.07887,   0.07158,  -0.08145,  -0.02753,   0.01885,  -0.04387,  -0.04644,   0.10959,   0.18158,  -0.09974,  -0.01458,   0.02626,   0.04892,  -0.09968,  -0.01520
  -0.09815,  -0.03064,  -0.10946,  -0.14643,  -0.08663,   0.00294,   0.13905,   0.04116,   0.10373,  -0.08459,  -0.09682,   0.15011,  -0.08439,  -0.00146,   0.05579,  -0.11899,  -0.15600,  -0.08240,  -0.12312,  -0.11434,   0.02584,   0.05327,   0.20459,  -0.10283,  -0.03975,  -0.14608,  -0.12166,  -0.02421,   0.09074,  -0.12051,   0.08587,  -0.12022,  -0.00032,   0.11007,  -0.12046,   0.09524,   0.02965,   0.15512,  -0.03995,   0.00838,  -0.01105,   0.11491,  -0.18795,   0.04417,  -0.03052,  -0.08621,   0.08486,  -0.04873,  -0.13563,   0.13476,   0.05947,  -0.07815,  -0.07619,  -0.08293,   0.03894,  -0.02087,   0.00855,  -0.00691,  -0.01540,   0.02137,   0.02100,  -0.05351,   0.10450,  -0.01122,   0.09210,   0.00456,  -0.12188,  -0.01287,   0.08003,   0.07953,   0.03918,   0.03779,  -0.11000,   0.17858,   0.01434,   0.00372,   0.16349,   0.01261,  -0.02960,  -0.03129,   0.14621,  -0.03065,   0.08673,  -0.12011,  -0.14386,  -0.02532,  -0.03222,   0.06263,   0.10154,   0.05060,   0.23389,  -0.12031,  -0.02191,   0.03403,   0.00632,  -0.08076,  -0.05832,   0.03266,  -0.06671,   0.10946,  -0.18242,  -0.11012,  -0.08788,  -0.09715,   0.08315,   0.10061,  -0.15211,   0.00224,  -0.07276,   0.07387,  -0.03767,   0.11562,  -0.12054,  -0.00885,  -0.06348,  -0.07411,   0.13161,   0.08156,  -0.02402,   0.14134,   0.09654,  -0.04891,  -0.08035,   0.13600,   0.04207,  -0.04105,   0.08415,  -0.01158
   0.00363,  -0.12579,   0.00735,   0.03151,  -0.11121,  -0.05953,   0.13792,  -0.15424,  -0.03435,  -0.01315,   0.03995,  -0.18744,  -0.02708,   0.00467,   0.11211,   0.06259,   0.05262,  -0.13656,  -0.03326,  -0.02620,   0.05765,  -0.06098,  -0.05053,   0.12782,   0.07284,   0.04751,   0.03029,  -0.00457,  -0.07517,  -0.09957,   0.02488,   0.00800,  -0.07511,  -0.00553,   0.03494,  -0.08104,  -0.09701,   0.10085,   0.11060,  -0.00011,  -0.08832,  -0.10829,  -0.12757,  -0.12655,  -0.06671,  -0.00335,  -0.04594,   0.06717,  -0.09445,   0.05501,  -0.12783,  -0.08309,  -0.09328,  -0.01625,   0.00284,   0.13324,   0.09604,   0.03008,  -0.15838,  -0.17590,  -0.13504,   0.09245,  -0.11949,  -0.11230,   0.14497,  -0.06337,   0.11994,   0.07733,  -0.11276,  -0.06590,  -0.11890,  -0.01184,  -0.00815,  -0.14574,   0.14239,  -0.01099,   0.08798,   0.11991,  -0.03645,   0.07172,   0.08731,  -0.11887,   0.04772,  -0.00920,  -0.07827,  -0.04744,   0.05657,   0.03128,   0.00293,   0.02964,   0.03430,   0.02840,  -0.08139,   0.01764,   0.13055,   0.00229,  -0.00522,   0.05561,  -0.10207,  -0.09718,   0.08628,   0.02985,   0.07112,   0.12827,  -0.00094,  -0.09875,  -0.15742,   0.07723,   0.04711,  -0.07750,  -0.06220,  -0.09778,  -0.14931,   0.02854,  -0.05099,   0.04095,  -0.08602,  -0.08178,   0.09094,  -0.00912,  -0.00823,   0.10952,  -0.11112,   0.13593,  -0.09475,   0.07368,  -0.18187,   0.11945
  -0.00905,  -0.10241,   0.02100,   0.04297,   0.08996,  -0.02656,   0.02364,   0.01823,  -0.10820,   0.01775,  -0.02226,  -0.15546,   0.00413,  -0.07552,  -0.11082,   0.07608,   0.13398,  -0.05540,   0.07784,  -0.04003,  -0.13146,  -0.06818,  -0.10160,  -0.04213,   0.00710,  -0.06429,  -0.08507,  -0.04810,  -0.03084,   0.04082,   0.06696,   0.06785,  -0.06618,   0.00066,   0.06379,   0.02076,  -0.03097,   0.09907,  -0.10758,   0.00106,  -0.00847,   0.05254,   0.04496,  -0.00187,  -0.06652,  -0.10181,   0.06758,   0.07462,   0.03269,  -0.07046,  -0.02489,   0.05856,   0.01322,   0.08461,   0.14445,   0.11409,   0.12556,   0.04974,   0.06466,   0.04826,   0.08197,  -0.06467,   0.14325,   0.08672,   0.09435,  -0.13661,  -0.16726,   0.09981,   0.01537,   0.00201,  -0.02137,   0.05001,   0.07417,  -0.02710,   0.12040,  -0.12611,   0.09976,   0.03378,  -0.15994,   0.09345,   0.15035,   0.01843,   0.12910,   0.10592,  -0.09904,  -0.06289,  -0.00097,   0.01561,   0.01067,  -0.03143,   0.12869,   0.04785,   0.07020,  -0.04252,   0.15656,  -0.05797,  -0.02831,  -0.05717,   0.12842,  -0.04884,   0.16641,   0.03309,   0.07973,   0.03748,  -0.07206,  -0.17314,  -0.07385,   0.03078,  -0.08702,  -0.16931,   0.01910,  -0.07814,  -0.15720,   0.11120,   0.00251,  -0.08873,   0.10596,  -0.07930,   0.02094,   0.09761,   0.00318,  -0.18609,   0.11982,   0.08464,  -0.00887,  -0.01832,   0.12078,   0.08238
  -0.12802,   0.00569,  -0.20453,   0.04306,  -0.13528,   0.00643,  -0.12240,   0.04740,   0.00640,   0.08714,   0.11040,   0.13786,  -0.06313,  -0.02319,   0.08169,   0.06874,   0.10903,   0.07534,   0.12871,   0.17827,   0.02273,  -0.05212,  -0.07787,   0.02148,   0.03867,  -0.10738,   0.04257,  -0.08751,   0.10817,   0.13187,  -0.02798,   0.09914,  -0.06644,  -0.05305,   0.13532,   0.03570,  -0.09848,  -0.02040,  -0.02953,  -0.08985,  -0.10556,   0.02039,  -0.07260,  -0.02470,  -0.01945,  -0.05075,  -0.10735,   0.01421,   0.05701,   0.09879,  -0.02827,   0.00254,   0.10464,  -0.06183,  -0.01842,   0.10413,   0.11088,  -0.00117,  -0.07849,  -0.02051,  -0.07010,   0.07483,  -0.13359,   0.05758,   0.17828,   0.09305,  -0.00445,   0.00964,  -0.06484,   0.06993,   0.07200,   0.00531,   0.02169,   0.04386,   0.02645,  -0.05520,  -0.06096,   0.07794,  -0.00841,   0.09586,   0.13850,  -0.05894,   0.11852,   0.03120,  -0.00290,  -0.00957,  -0.01841,  -0.07212,  -0.14880,   0.00691,  -0.11002,  -0.07634,  -0.10487,  -0.03944,   0.09744,   0.11937,  -0.13595,  -0.00219,  -0.09965,  -0.02690,   0.11171,  -0.01738,   0.14608,  -0.01705,   0.12523,  -0.10228,  -0.10038,  -0.01079,  -0.04502,  -0.07306,  -0.00016,   0.04682,   0.15562,   0.04112,   0.13438,  -0.02753,  -0.03042,  -0.06431,  -0.05193,   0.06096,  -0.03033,   0.05791,   0.02181,   0.00460,  -0.12874,  -0.04019,  -0.01273,   0.05599
  -0.05884,  -0.07029,  -0.11546,  -0.04391,  -0.04958,  -0.06734,   0.05486,  -0.00946,   0.10904,   0.05671,  -0.03241,   0.02097,  -0.09793,  -0.01888,   0.12743,  -0.01425,  -0.09036,  -0.13715,   0.03905,  -0.02061,  -0.10436,  -0.10678,   0.11972,   0.10972,   0.13383,   0.09769,   0.16088,   0.02690,   0.13528,   0.10250,  -0.06718,  -0.02203,   0.09368,   0.07264,   0.05628,   0.00806,  -0.09405,   0.08504,   0.10721,   0.09711,   0.13756,   0.09591,  -0.08950,  -0.11792,  -0.09241,   0.01820,  -0.16596,   0.10157,  -0.13146,  -0.16050,   0.07058,   0.09130,  -0.14132,  -0.03249,  -0.03016,  -0.14790,   0.02474,  -0.03908,  -0.05040,   0.01091,  -0.11494,  -0.04675,   0.06013,  -0.03151,   0.11230,   0.04477,   0.02085,  -0.13039,   0.15082,   0.00047,   0.04996,   0.01909,   0.05173,  -0.07471,  -0.17259,  -0.00973,   0.05103,  -0.15916,  -0.19619,   0.02565,   0.02854,  -0.02294,   0.05757,   0.05091,   0.04102,   0.01627,   0.12912,  -0.13245,  -0.01181,  -0.06165,   0.08398,   0.01779,   0.08254,  -0.00766,   0.17290,   0.04110,  -0.12512,  -0.08611,   0.10948,  -0.05216,  -0.08083,  -0.07011,   0.15759,  -0.04741,  -0.07611,  -0.07236,   0.04217,   0.05660,  -0.07428,   0.09612,   0.17210,  -0.08606,  -0.09580,  -0.08884,   0.08278,   0.12000,   0.17662,   0.03308,  -0.06366,  -0.03925,   0.08392,  -0.01948,  -0.07136,  -0.09546,  -0.13252,   0.11116,   0.12694,   0.10382
   0.01703,  -0.12141,   0.01419,  -0.00837,  -0.03042,   0.17152,  -0.08983,  -0.04272,   0.08068,   0.12918,  -0.03113,   0.15337,  -0.10907,   0.00411,  -0.10797,  -0.00393,  -0.04233,  -0.12267,   0.05063,  -0.11166,   0.05086,  -0.05921,  -0.09779,  -0.17162,  -0.06768,   0.00701,  -0.05356,  -0.08227,   0.14460,  -0.04378,   0.02602,  -0.12352,   0.07142,  -0.00331,   0.02513,   0.11235,  -0.02310,   0.00059,   0.11324,  -0.01325,   0.00965,   0.08500,  -0.10168,   0.08439,   0.03418,   0.07116,  -0.06674,   0.14737,   0.10652,   0.05950,   0.07891,   0.07228,  -0.11788,   0.03518,   0.01749,   0.02155,   0.02732,  -0.06058,  -0.16117,   0.10635,   0.08622,  -0.02611,  -0.00474,  -0.06549,  -0.11075,   0.09848,   0.03983,   0.02974,   0.10931,  -0.14061,  -0.01859,  -0.15612,  -0.06982,   0.03818,  -0.04077,  -0.16841,  -0.08287,  -0.11415,   0.00848,   0.02695,  -0.01018,   0.17949,   0.10226,   0.17842,  -0.13105,   0.14962,  -0.06311,   0.04332,   0.01091,  -0.11477,   0.10008,  -0.08126,   0.05806,   0.00787,  -0.08037,   0.02751,   0.06247,   0.00135,   0.01223,   0.02088,  -0.04387,  -0.09170,  -0.11088,   0.11686,  -0.08709,   0.10838,   0.15354,  -0.03545,   0.02240,  -0.01750,   0.07608,  -0.02014,   0.10828,   0.12913,  -0.07590,   0.08847,   0.12463,   0.07100,  -0.19851,  -0.03961,   0.14175,   0.03665,  -0.04827,   0.09744,  -0.02787,   0.10480,   0.04499,  -0.05196
   0.04063,   0.04994,   0.07333,  -0.14531,  -0.00829,   0.06361,   0.06249,   0.16770,   0.11679,   0.06484,   0.04253,   0.02649,  -0.15523,  -0.08075,  -0.10011,  -0.05322,  -0.00939,  -0.10353,  -0.07702,  -0.01886,  -0.09934,  -0.14369,  -0.00086,  -0.01740,  -0.01893,   0.16176,  -0.07754,  -0.10672,  -0.05676,   0.01786,  -0.11233,  -0.08789,  -0.15590,   0.09110,  -0.12930,   0.08271,   0.00875,  -0.08241,   0.01342,   0.00780,  -0.13880,  -0.08693,  -0.04851,   0.07609,  -0.06929,  -0.01953,  -0.07026,  -0.13761,   0.10630,  -0.15290,   0.02568,  -0.00786,   0.02869,  -0.07530,   0.12588,  -0.08642,   0.03439,   0.01806,  -0.12167,   0.07981,  -0.07237,   0.06058,  -0.12106,  -0.12305,   0.06005,  -0.04782,  -0.04301,   0.04053,   0.03712,  -0.10026,   0.01774,   0.08097,  -0.09850,   0.05720,  -0.02843,   0.13882,   0.08910,  -0.08845,   0.14586,   0.09157,   0.04689,   0.01989,  -0.15539,  -0.03968,   0.06356,  -0.14175,  -0.05174,   0.13170,   0.08389,   0.12864,  -0.01115,  -0.00108,   0.03557,  -0.02283,  -0.08818,  -0.00596,   0.07544,  -0.11153,   0.08086,  -0.02736,   0.05535,  -0.05936,  -0.03953,   0.00169,  -0.05599,   0.05405,   0.07476,   0.13541,   0.01498,  -0.02957,  -0.04558,  -0.08845,  -0.01433,  -0.03410,   0.04114,  -0.05950,   0.17098,   0.05264,   0.07874,   0.05898,  -0.00825,   0.00825,  -0.01317,  -0.13995,  -0.07188,   0.10348,  -0.15256,   0.04122
  -0.04253,  -0.13046,   0.11205,  -0.17072,  -0.02326,  -0.01249,   0.16837,  -0.10424,  -0.01314,   0.06682,  -0.04158,  -0.04691,  -0.07890,  -0.02737,   0.01920,   0.08463,  -0.01234,  -0.04105,   0.02636,  -0.06349,  -0.01178,   0.16558,   0.11118,  -0.04465,  -0.12606,   0.09032,  -0.19601,   0.05178,  -0.12352,  -0.00127,  -0.09831,  -0.10452,   0.05591,   0.10962,  -0.04464,   0.17199,   0.05269,  -0.11415,  -0.09197,   0.04244,   0.17448,   0.11475,  -0.05234,  -0.12555,  -0.09927,  -0.01392,  -0.13053,   0.05770,  -0.15234,  -0.11690,  -0.08969,   0.10725,  -0.21030,   0.12127,  -0.03581,   0.07852,   0.08233,  -0.05616,   0.02403,   0.00595,   0.01522,  -0.00706,   0.07397,   0.03418,  -0.11604,  -0.01940,   0.09340,   0.19745,  -0.06654,   0.11619,  -0.16339,   0.10282,  -0.02091,  -0.02518,   0.01800,   0.05658,   0.00272,  -0.05280,   0.14642,  -0.02024,  -0.04548,  -0.13367,  -0.07141,   0.10531,   0.08104,   0.14547,  -0.10385,   0.02510,   0.13516,  -0.14212,  -0.04765,   0.07092,  -0.17622,   0.08855,  -0.07402,   0.01451,  -0.08418,   0.09888,  -0.05165,  -0.08474,  -0.01695,  -0.08804,  -0.04589,  -0.08686,   0.06855,  -0.01405,  -0.08901,   0.02649,  -0.05501,  -0.01076,  -0.05373,   0.06071,   0.01321,   0.04602,   0.14611,   0.00180,  -0.04925,   0.10652,  -0.11253,  -0.03874,   0.11027,  -0.09821,  -0.02859,   0.06677,  -0.07121,  -0.03591,   0.12313,   0.06521
   0.06648,   0.04987,   0.03258,  -0.08224,  -0.00927,   0.15451,  -0.16528,   0.12366,  -0.00802,  -0.09878,  -0.09136,  -0.18188,  -0.08353,  -0.16180,   0.00621,   0.16015,  -0.00538,  -0.02371,   0.02566,   0.05898,   0.11757,   0.11121,   0.12841,   0.00443,   0.06584,  -0.09011,   0.04536,  -0.05217,  -0.03656,   0.06990,   0.06215,  -0.09535,   0.15240,   0.06036,  -0.03916,   0.01372,   0.00479,   0.02316,  -0.00028,   0.03431,  -0.04758,  -0.01381,  -0.05497,   0.03437,  -0.04256,  -0.06872,   0.08671,  -0.08473,   0.07475,   0.03416,  -0.05578,  -0.03010,   0.01046,  -0.02218,  -0.14973,   0.11739,   0.02490,  -0.09422,  -0.13821,   0.07043,   0.01370,  -0.10900,   0.14820,  -0.06729,  -0.11412,  -0.04595,   0.08704,   0.00362,   0.01131,  -0.13124,  -0.03138,  -0.10906,   0.14017,   0.00865,   0.13070,  -0.10872,   0.13711,   0.03466,  -0.06670,  -0.09739,   0.04937,  -0.03428,  -0.09095,  -0.15920,  -0.02259,  -0.02809,   0.02009,   0.01059,   0.01101,  -0.07569,  -0.10282,   0.14716,  -0.09307,   0.11714,  -0.09145,   0.09694,  -0.08452,  -0.02294,   0.08936,  -0.08556,   0.08475,  -0.10166,   0.02652,  -0.04370,   0.00513,  -0.03830,   0.16202,  -0.13502,  -0.02606,   0.09262,  -0.06465,   0.06242,   0.09989,  -0.06033,  -0.10668,  -0.09302,   0.15746,  -0.11035,   0.10177,   0.08109,   0.02789,  -0.13926,   0.08494,   0.06190,   0.01025,   0.02527,  -0.01172,  -0.07739
   0.01915,   0.07409,   0.17228,  -0.07907,   0.03477,  -0.09063,  -0.07188,   0.14726,   0.06221,   0.01292,   0.10250,  -0.08863,  -0.07299,   0.03992,   0.07788,  -0.01735,  -0.10809,  -0.02496,  -0.13216,   0.07789,   0.07501,   0.07275,   0.08412,  -0.04259,  -0.04493,   0.09666,   0.01572,  -0.05855,  -0.00972,  -0.05070,  -0.07822,   0.02466,  -0.08852,   0.02073,  -0.12886,  -0.08366,   0.02968,  -0.05444,   0.09441,   0.11874,   0.02513,  -0.09737,  -0.00686,  -0.11002,  -0.11227,   0.01808,   0.03380,  -0.08085,   0.10824,  -0.01356,   0.06018,   0.00493,   0.05715,  -0.00864,   0.03909,   0.14544,   0.13161,   0.17906,   0.02173,  -0.07100,  -0.12158,  -0.10470,   0.13563,  -0.13509,  -0.01569,  -0.00073,  -0.02701,  -0.00688,   0.01921,   0.01760,   0.08671,   0.05974,  -0.00592,  -0.07894,   0.01660,  -0.04049,  -0.10767,  -0.03929,  -0.03144,   0.07288,  -0.06728,  -0.06280,   0.11401,   0.22625,  -0.06836,   0.07389,   0.11713,  -0.10613,   0.05402,  -0.10817,   0.10679,   0.01850,  -0.09161,   0.11874,   0.10189,   0.10978,  -0.06983,  -0.04105,  -0.00234,   0.09320,  -0.08521,  -0.00630,   0.10100,  -0.12616,  -0.11188,   0.01922,  -0.08702,   0.04325,   0.02452,   0.09304,   0.00251,   0.03051,  -0.04977,   0.10854,   0.06164,   0.11982,   0.11941,   0.02006,   0.04502,   0.00803,   0.07723,  -0.14670,  -0.12108,  -0.11350,  -0.08627,  -0.13905,   0.12414,   0.05259
  -0.01002,   0.09700,   0.11926,   0.08644,  -0.09623,  -0.06216,  -0.10220,   0.12300,   0.13978,  -0.01797,  -0.06629,  -0.08949,   0.05906,   0.03552,  -0.02080,   0.08620,   0.06079,   0.02075,  -0.04207,  -0.16382,   0.01230,   0.05006,   0.01118,   0.03875,  -0.10896,   0.10450,  -0.11627,  -0.07111,   0.05227,   0.04439,  -0.13119,   0.03266,   0.10086,  -0.13866,   0.04415,  -0.07102,   0.09091,  -0.13170,  -0.04547,   0.13105,  -0.03934,  -0.00841,  -0.00836,  -0.12528,  -0.03637,   0.00308,   0.08483,  -0.07726,  -0.11835,  -0.04311,  -0.01622,   0.05250,   0.11148,  -0.08567,  -0.05431,   0.01837,  -0.05959,   0.00599,  -0.11797,   0.14004,  -0.04439,  -0.06079,  -0.02312,  -0.00341,  -0.12691,   0.04406,  -0.00296,  -0.01931,   0.02891,   0.04354,  -0.18298,   0.14761,  -0.12782,   0.14731,   0.11678,   0.04779,  -0.02640,   0.01762,   0.08691,   0.09665,  -0.09540,  -0.04283,  -0.03139,   0.00886,  -0.05336,  -0.13696,  -0.10713,   0.15281,   0.14266,  -0.03870,  -0.12560,   0.08002,  -0.05067,   0.16177,   0.04220,   0.04303,  -0.11742,  -0.06201,  -0.08818,  -0.09764,   0.05891,  -0.13927,  -0.11741,   0.06508,   0.00601,   0.13206,  -0.07253,  -0.01893,   0.09513,  -0.00502,   0.06442,   0.05511,   0.08373,   0.15461,   0.02400,   0.02056,   0.10574,   0.04686,   0.10186,   0.18028,  -0.11980,   0.05337,   0.05833,   0.10512,  -0.08397,   0.05524,   0.00181,  -0.09843
  -0.07956,  -0.10702,  -0.01946,  -0.06492,  -0.13543,   0.04042,   0.00342,  -0.09668,   0.00224,  -0.04297,  -0.06521,  -0.15895,   0.10189,  -0.09847,  -0.05216,  -0.03005,  -0.03666,   0.08534,   0.13375,  -0.06236,  -0.07919,  -0.10345,  -0.00269,   0.10118,   0.06254,  -0.10444,  -0.03972,   0.10172,  -0.05648,  -0.10623,  -0.03199,   0.09841,   0.03639,   0.07537,  -0.05269,  -0.02981,   0.06874,   0.16191,  -0.10111,  -0.03400,  -0.08893,   0.07556,   0.02494,  -0.08642,   0.12436,  -0.11391,   0.14078,   0.05603,  -0.03754,   0.02953,   0.10317,   0.08683,  -0.01001,   0.09142,  -0.15501,   0.13616,  -0.13284,   0.07321,   0.11581,  -0.07652,   0.11324,   0.12390,   0.11161,  -0.07390,  -0.11992,  -0.02756,  -0.12859,   0.09237,   0.04070,  -0.05273,  -0.06128,   0.07677,  -0.07250,   0.07352,   0.12218,  -0.06565,   0.03238,   0.00275,   0.11908,   0.10754,   0.09077,  -0.08679,   0.13697,   0.04623,   0.14707,  -0.01688,  -0.02674,   0.17208,  -0.12789,  -0.07379,  -0.09740,  -0.00465,  -0.07237,   0.02185,   0.14359,   0.02707,  -0.08086,  -0.06481,  -0.10107,  -0.08457,   0.03113,   0.13820,   0.01216,   0.04087,  -0.08574,  -0.05047,   0.14064,  -0.10533,  -0.14455,  -0.03872,   0.01393,  -0.02641,  -0.11186,   0.00540,  -0.05735,   0.12023,   0.04609,  -0.07502,  -0.17676,   0.05452,  -0.07071,   0.08849,   0.07514,  -0.06582,  -0.15319,   0.11785,   0.08895,   0.09592
  -0.15522,  -0.05201,   0.07144,   0.03918,   0.00045,   0.00907,  -0.12232,  -0.05153,   0.10779,  -0.06783,   0.21104,  -0.06986,  -0.00192,  -0.09030,   0.04031,  -0.03478,  -0.02256,   0.03939,   0.01603,  -0.06321,  -0.05190,  -0.06759,  -0.05622,  -0.02287,  -0.03602,   0.06820,  -0.15600,   0.07251,  -0.09522,  -0.02784,   0.07032,   0.09364,  -0.00283,  -0.08002,  -0.09681,   0.12084,  -0.02783,  -0.07882,   0.05610,   0.06097,   0.06673,   0.10566,   0.09026,  -0.05975,  -0.02850,   0.04650,  -0.05220,   0.01142,  -0.19052,   0.03307,  -0.05541,   0.07668,  -0.07793,  -0.07211,  -0.04084,   0.04274,  -0.06972,  -0.17375,   0.03688,   0.02745,  -0.10476,   0.18696,   0.16672,  -0.08256,  -0.03996,   0.04273,  -0.10595,   0.07581,   0.01913,   0.08686,   0.07856,   0.00322,   0.14186,   0.09935,  -0.15157,  -0.02367,  -0.14217,   0.08053,  -0.06688,   0.00065,  -0.06512,   0.01240,   0.08768,  -0.14849,  -0.09776,   0.01892,  -0.24887,  -0.10889,  -0.08299,  -0.03706,   0.03309,   0.08004,   0.09445,   0.04920,  -0.01207,  -0.08427,  -0.06231,   0.03493,   0.07699,  -0.00973,  -0.04074,   0.03261,   0.13702,   0.03974,   0.15349,   0.00510,   0.02542,   0.13622,  -0.01149,   0.09524,   0.01281,   0.05846,  -0.13705,   0.03028,  -0.07831,   0.06079,  -0.06719,   0.07886,   0.07963,   0.04179,   0.07780,  -0.15466,  -0.09069,   0.01549,  -0.02634,   0.01504,  -0.07735,   0.01066
  -0.01331,   0.07811,  -0.03743,   0.09438,   0.07370,  -0.04433,  -0.03966,  -0.12195,   0.06934,   0.13239,   0.17600,   0.02971,   0.03202,   0.02119,  -0.09866,   0.01555,  -0.01220,   0.03484,   0.03785,   0.09676,  -0.05001,   0.06050,   0.00181,  -0.09073,   0.09296,   0.12416,   0.01854,   0.02501,  -0.12890,   0.08739,   0.13392,  -0.04139,   0.07273,   0.08472,  -0.21087,   0.03080,  -0.02402,   0.01288,  -0.09988,  -0.06862,  -0.13350,  -0.11565,  -0.16747,   0.08128,  -0.05974,   0.14738,   0.09674,  -0.01548,  -0.00185,  -0.02435,   0.09993,  -0.02611,   0.07792,   0.01988,   0.04191,   0.11358,  -0.15688,   0.04497,   0.01711,   0.06461,   0.06980,   0.06067,  -0.07959,   0.06971,   0.02771,   0.20345,  -0.04362,   0.04697,   0.05456,   0.04650,   0.16799,   0.02334,   0.02016,   0.10204,  -0.11207,   0.00768,   0.12396,   0.00071,   0.05037,  -0.12757,   0.13055,   0.11181,  -0.11692,   0.09327,  -0.11393,   0.01183,   0.01351,  -0.11772,  -0.10562,  -0.04293,   0.03758,  -0.03084,   0.01951,  -0.07998,  -0.17505,   0.05011,  -0.07398,   0.13642,   0.07529,  -0.02462,   0.10011,   0.07355,  -0.09250,  -0.03499,   0.04790,  -0.02888,   0.06842,  -0.00097,  -0.05014,   0.19902,   0.04597,  -0.06324,   0.00132,   0.12816,  -0.11026,  -0.11619,   0.05168,  -0.08177,  -0.08636,   0.12238,   0.02455,   0.10937,   0.15599,   0.00407,  -0.01147,   0.04851,  -0.16129,   0.12718
  -0.09068,   0.03243,  -0.07915,   0.10685,   0.00097,   0.16943,  -0.09879,  -0.01672,   0.04573,   0.07280,   0.00064,   0.16560,  -0.06651,  -0.04882,  -0.15137,  -0.12710,  -0.15955,  -0.02631,   0.09463,   0.06394,   0.05713,  -0.04270,   0.15023,   0.16935,   0.08567,   0.11716,  -0.07282,  -0.09052,  -0.10419,  -0.01696,   0.08983,   0.00222,   0.08755,   0.06977,  -0.08074,   0.11261,   0.06778,  -0.16031,  -0.06357,  -0.05162,   0.12510,   0.11602,  -0.02401,   0.08587,  -0.10311,   0.06853,  -0.02198,   0.02484,  -0.07616,  -0.05763,  -0.01473,   0.04548,  -0.03034,   0.02916,  -0.04879,   0.02237,   0.14559,   0.08052,  -0.02722,  -0.03035,  -0.09671,   0.06592,   0.07600,  -0.00859,  -0.16181,   0.07010,  -0.07923,   0.09347,   0.16477,   0.06813,   0.06455,  -0.20029,   0.12542,   0.03503,  -0.06837,  -0.09717,  -0.04292,  -0.12141,   0.07142,   0.10720,  -0.24790,  -0.03283,  -0.03876,  -0.05241,   0.07286,  -0.01365,  -0.17524,   0.08432,  -0.05556,   0.01838,  -0.02001,  -0.16174,  -0.10220,   0.03409,  -0.09362,   0.04577,  -0.05068,   0.13924,  -0.13178,  -0.16892,  -0.09868,  -0.03346,   0.02833,   0.06587,  -0.16757,  -0.11618,   0.13932,  -0.12316,   0.01857,   0.06539,  -0.09900,  -0.07896,  -0.04965,   0.03997,   0.09638,  -0.08076,   0.17340,  -0.02352,   0.00811,   0.14645,   0.03186,   0.14048,  -0.10226,  -0.05645,  -0.08397,  -0.01339,   0.01307,   0.05843
   0.05773,  -0.04228,  -0.07440,   0.07053,  -0.03154,   0.18277,   0.02513,  -0.14311,   0.01433,  -0.10092,  -0.12051,   0.06483,  -0.07431,  -0.16035,  -0.04036,  -0.09578,   0.12062,  -0.03058,  -0.03360,   0.01192,  -0.03101,   0.16517,  -0.10849,  -0.07493,   0.05315,   0.01138,   0.01522,   0.04025,   0.05320,  -0.05798,  -0.05887,  -0.00463,  -0.07538,  -0.12137,  -0.12858,   0.02653,  -0.11733,   0.01188,   0.15229,   0.11019,   0.07116,   0.09463,   0.04908,  -0.02055,   0.14086,   0.19631,  -0.11125,   0.07097,  -0.01191,  -0.09135,   0.06063,  -0.11553,  -0.01083,   0.07882,  -0.18038,   0.10896,  -0.01858,  -0.08702,  -0.03128,   0.01427,   0.02860,  -0.14531,  -0.05782,   0.00878,  -0.08975,  -0.06709,   0.09400,  -0.06772,   0.07313,   0.02201,  -0.15056,  -0.07247,   0.15147,   0.07241,  -0.07550,   0.10082,   0.06602,   0.08534,   0.05634,  -0.10419,   0.09928,  -0.04432,  -0.08138,   0.07604,  -0.04344,  -0.08590,  -0.00310,   0.01818,   0.18391,  -0.07171,  -0.04647,  -0.02091,  -0.00696,  -0.07721,   0.01641,   0.00376,   0.03824,  -0.08359,   0.01199,   0.03243,   0.03941,  -0.03582,  -0.02331,  -0.10754,  -0.03298,  -0.03774,   0.08265,  -0.10122,   0.09443,   0.05426,   0.11118,  -0.06023,   0.09740,  -0.01242,  -0.06046,  -0.07281,  -0.12575,  -0.08508,  -0.06782,  -0.12790,   0.03904,  -0.05865,  -0.01796,   0.02355,  -0.15883,   0.05438,  -0.04466,  -0.10707
   0.04939,   0.01883,   0.01269,  -0.01657,   0.05345,   0.03229,  -0.08636,  -0.02314,  -0.12753,  -0.04733,   0.07528,  -0.04905,   0.08387,  -0.03997,   0.05375,  -0.03758,  -0.03569,   0.01599,  -0.05728,  -0.01713,   0.10216,  -0.09978,  -0.05785,  -0.01367,  -0.10484,  -0.09001,   0.18158,   0.21801,   0.05982,   0.10730,  -0.05845,  -0.07180,   0.06036,  -0.13513,   0.11610,  -0.03930,   0.12346,   0.06975,   0.08362,   0.09157,  -0.12396,  -0.09980,   0.16513,   0.09767,  -0.01697,  -0.09468,  -0.00160,  -0.02636,   0.12328,   0.08165,  -0.00354,  -0.02990,   0.09174,   0.04589,  -0.11645,  -0.07589,  -0.10832,  -0.08256,   0.02822,  -0.06564,  -0.15101,  -0.07937,   0.09306,   0.10748,  -0.08734,   0.08896,   0.05752,  -0.06192,  -0.08045,  -0.09401,  -0.12594,  -0.14048,   0.05239,  -0.02522,   0.02228,   0.00101,   0.02815,   0.03928,   0.08710,   0.06965,   0.11834,  -0.12990,   0.11943,   0.03662,   0.11526,  -0.07245,   0.21185,   0.06402,  -0.03169,   0.03941,   0.11515,   0.04896,  -0.00934,   0.03952,   0.01555,  -0.02499,   0.03368,  -0.05420,  -0.09123,  -0.06261,  -0.00579,   0.07591,   0.09211,   0.16883,   0.16068,  -0.10176,   0.14011,  -0.18644,   0.10984,   0.08907,   0.02163,  -0.18628,  -0.05739,   0.07468,   0.14645,   0.10539,  -0.03754,  -0.05706,  -0.00173,   0.05096,   0.10132,  -0.04970,  -0.09542,  -0.09987,  -0.02256,   0.07832,   0.05286,  -0.10863
   0.09186,   0.06894,  -0.06041,  -0.11500,   0.03577,  -0.17556,  -0.03831,  -0.12336,   0.02892,  -0.01162,  -0.00165,   0.08283,   0.01876,   0.05063,   0.01037,   0.12227,   0.04812,  -0.04510,   0.05332,   0.11997,  -0.03892,  -0.11820,   0.02549,  -0.11119,   0.07591,  -0.06972,  -0.11823,   0.01459,   0.09458,   0.11519,   0.06187,  -0.01116,   0.04186,  -0.03098,  -0.14818,  -0.07320,   0.06737,   0.09868,   0.08714,   0.00743,  -0.17293,  -0.01833,   0.06655,  -0.01645,   0.10602,  -0.01849,   0.01876,  -0.04272,  -0.05842,   0.05009,   0.06577,  -0.12564,   0.08119,  -0.16138,   0.01081,  -0.04500,   0.05490,  -0.02377,   0.09095,  -0.02994,  -0.09159,   0.02826,  -0.01510,   0.08233,  -0.04425,   0.04456,  -0.11586,  -0.02112,  -0.18093,   0.07217,   0.04690,   0.09419,  -0.07634,   0.09299,  -0.01462,  -0.01216,  -0.17936,  -0.11899,   0.01225,  -0.04642,  -0.19588,  -0.02514,   0.10741,  -0.00133,   0.06038,  -0.08063,   0.10760,  -0.08802,   0.12785,  -0.05309,   0.02431,   0.05862,  -0.05892,   0.11138,  -0.09451,  -0.08575,   0.15243,  -0.04291,   0.19045,   0.07954,  -0.02434,   0.09278,  -0.09287,   0.14227,  -0.02259,  -0.09085,   0.00052,  -0.09109,   0.11200,  -0.12379,   0.09062,  -0.08921,   0.10620,  -0.04292,  -0.16955,   0.02853,   0.03725,  -0.09794,   0.02439,   0.02581,  -0.04925,   0.02700,  -0.06311,  -0.00721,  -0.10341,  -0.09029,  -0.21460,  -0.10875
   0.06614,   0.09333,   0.05676,   0.00336,   0.03012,   0.05680,  -0.15474,   0.07789,   0.11253,  -0.04845,   0.16902,   0.11488,   0.03895,   0.15350,  -0.02065,  -0.09680,   0.09262,   0.02959,  -0.04138,  -0.06391,  -0.11465,  -0.02482,  -0.11833,  -0.04449,  -0.06990,  -0.05109,   0.16109,   0.07267,   0.00503,  -0.11152,  -0.01219,   0.09369,   0.05599,   0.11739,  -0.00857,   0.06723,  -0.10639,  -0.08679,   0.01579,  -0.01028,   0.07918,  -0.07656,   0.02224,   0.10652,   0.11679,   0.03181,   0.00996,   0.11091,  -0.16740,   0.05073,   0.05615,  -0.15181,   0.11549,   0.00322,   0.04488,  -0.06610,   0.10597,   0.12299,  -0.07839,  -0.04498,  -0.08328,  -0.00320,  -0.12788,  -0.13226,   0.01176,   0.14940,   0.06747,  -0.07881,   0.13056,  -0.10762,  -0.11569,   0.10326,  -0.01439,   0.00973,   0.16633,   0.04773,   0.17293,  -0.06112,  -0.10896,  -0.00939,  -0.06196,  -0.05424,   0.03004,  -0.00953,  -0.09270,   0.04985,  -0.01077,   0.01342,   0.07666,   0.16758,  -0.16777,   0.07704,  -0.10395,   0.12724,  -0.01360,  -0.05388,   0.05212,   0.02008,  -0.07500,  -0.04932,  -0.03313,  -0.03643,   0.01262,  -0.04389,   0.07979,  -0.01931,   0.11586,   0.04585,   0.02812,   0.13574,   0.10469,   0.06839,  -0.01691,   0.11133,   0.01426,  -0.00595,  -0.06476,   0.08514,  -0.17062,   0.18411,   0.10864,  -0.12562,  -0.04561,  -0.01505,  -0.01486,   0.01194,   0.10642,  -0.08232
  -0.00761,  -0.05055,  -0.08101,  -0.08948,   0.05958,   0.13004,   0.00122,  -0.09831,   0.12608,  -0.09322,   0.08895,   0.04798,   0.14503,   0.06710,   0.05719,  -0.10773,  -0.07605,   0.04659,   0.19244,   0.13943,   0.12231,  -0.00856,   0.11165,  -0.06574,   0.03439,  -0.09666,  -0.04912,   0.07292,   0.06091,  -0.14055,  -0.06549,  -0.01778,  -0.12800,  -0.00311,   0.07435,  -0.16765,  -0.08308,  -0.14163,  -0.14845,   0.03579,  -0.17983,   0.01359,   0.00909,  -0.14336,   0.03378,   0.11912,  -0.13273,  -0.00310,   0.03894,   0.08334,  -0.08649,   0.08206,   0.03830,  -0.04071,   0.06418,  -0.04847,   0.09737,   0.02082,  -0.09565,  -0.06112,  -0.09782,  -0.13187,  -0.00733,  -0.16342,   0.15864,  -0.06853,   0.07637,  -0.01841,  -0.13256,   0.10247,  -0.09814,   0.03580,   0.03111,  -0.00018,   0.08637,   0.07780,   0.01952,  -0.17128,  -0.00935,  -0.09390,   0.05365,   0.11495,   0.12350,   0.06948,   0.00775,  -0.02590,  -0.16393,  -0.05051,  -0.01407,  -0.04728,   0.12422,   0.15273,   0.02709,   0.18374,  -0.06916,  -0.00310,   0.10083,   0.13825,   0.02088,   0.03506,   0.00528,   0.09337,  -0.09573,  -0.09337,   0.02502,  -0.17378,  -0.00402,  -0.07944,   0.09997,  -0.05656,  -0.01943,  -0.13289,   0.06413,   0.00736,   0.00530,  -0.10802,  -0.06180,   0.16686,   0.10825,  -0.00665,  -0.03819,  -0.06388,   0.00598,  -0.04927,  -0.14729,  -0.11179,   0.00581,  -0.04636
   0.07037,  -0.10517,  -0.11458,   0.08074,  -0.04393,  -0.01511,  -0.01140,   0.10780,  -0.07655,   0.08430,   0.00966,   0.11529,  -0.13077,  -0.09229,   0.07959,   0.12753,  -0.18881,   0.02242,  -0.15376,   0.10001,  -0.13161,  -0.10151,  -0.02801,  -0.00479,  -0.00324,   0.00608,   0.02831,  -0.08237,  -0.02608,  -0.10435,  -0.09775,   0.03552,   0.22777,  -0.09660,  -0.07848,   0.13522,   0.06494,  -0.12704,   0.07144,  -0.00915,   0.01198,   0.08470,  -0.05663,  -0.12225,  -0.15004,  -0.03305,   0.07219,  -0.07787,   0.03507,   0.08126,  -0.03661,  -0.00342,   0.03003,  -0.07873,  -0.12068,   0.16655,  -0.02997,  -0.05371,  -0.01691,  -0.03795,  -0.07254,   0.01650,   0.01327,   0.14453,  -0.10957,  -0.05579,  -0.10461,  -0.07176,  -0.07194,   0.05368,  -0.02463,  -0.01923,  -0.06222,  -0.01821,  -0.00030,   0.05558,   0.17371,   0.00653,  -0.02187,   0.08153,  -0.06047,   0.12088,   0.04537,   0.00714,   0.07627,   0.05762,   0.12315,  -0.08501,   0.11102,   0.11810,  -0.13151,  -0.17244,   0.07225,   0.09453,   0.11277,   0.01017,   0.10565,   0.03927,  -0.02908,   0.08271,   0.01185,   0.04233,   0.07699,  -0.18143,   0.12881,  -0.15867,   0.11659,  -0.15196,   0.02216,  -0.06757,  -0.07071,   0.07840,   0.08158,   0.03843,  -0.03922,  -0.16558,   0.04867,  -0.11805,   0.03520,   0.15454,   0.12021,  -0.12395,   0.04124,  -0.01035,  -0.04980,   0.09581,   0.03326,  -0.09632
  -0.07870,   0.11000,  -0.03681,  -0.07509,   0.07350,  -0.12362,   0.08499,  -0.06913,   0.17661,   0.09998,   0.05205,  -0.04171,  -0.02380,   0.01676,   0.05465,  -0.08772,   0.14505,   0.06567,  -0.08596,  -0.08693,   0.01356,  -0.04320,   0.03288,  -0.00856,  -0.10630,  -0.13929,  -0.01395,  -0.02391,   0.11288,  -0.01364,   0.02812,  -0.02668,  -0.03800,  -0.14752,  -0.01078,   0.13120,   0.09424,  -0.03063,   0.04223,  -0.06305,   0.07469,   0.11904,  -0.12836,  -0.08164,  -0.13696,  -0.18214,   0.02689,   0.08153,  -0.13294,  -0.07594,   0.00153,  -0.07480,   0.04674,  -0.05623,  -0.03537,  -0.08183,  -0.08978,  -0.11428,   0.00983,  -0.00684,  -0.10106,  -0.12368,   0.12881,  -0.13710,  -0.02070,   0.12870,  -0.10452,   0.04098,  -0.15312,  -0.09267,   0.08246,   0.02697,   0.10099,  -0.15346,   0.07804,  -0.04541,   0.16964,  -0.07228,  -0.14795,   0.06121,   0.01510,  -0.08023,  -0.05167,   0.06187,   0.02375,  -0.07658,   0.10779,   0.02684,   0.07765,  -0.05916,  -0.13133,   0.16506,   0.07953,   0.10261,  -0.12872,  -0.12380,   0.08577,  -0.00504,  -0.00087,  -0.09833,  -0.12473,  -0.03604,   0.02788,  -0.14414,  -0.00574,   0.04717,   0.00422,  -0.06264,   0.06793,   0.01297,   0.08021,  -0.01244,  -0.16006,  -0.09051,  -0.08727,   0.04091,   0.13710,  -0.03717,  -0.01537,  -0.02216,  -0.02613,  -0.00751,   0.11915,  -0.01463,  -0.01015,   0.14092,  -0.12774,   0.03071
   0.10033,  -0.06496,   0.01115,   0.03891,   0.00212,  -0.05812,   0.09356,   0.06181,   0.01578,   0.05879,   0.00304,   0.08868,   0.04799,  -0.11903,   0.17846,   0.08347,   0.13231,  -0.10286,   0.09829,   0.07743,  -0.10292,   0.02439,  -0.07498,  -0.12131,  -0.04586,   0.03976,   0.06952,   0.03259,   0.09247,  -0.02382,   0.01790,  -0.08812,  -0.14295,  -0.12293,  -0.05536,  -0.06889,   0.05107,  -0.02176,   0.03982,  -0.13177,  -0.25023,   0.01533,   0.11918,   0.13527,  -0.05706,   0.07870,  -0.01093,   0.09559,   0.11366,   0.04581,  -0.02765,   0.05932,   0.07254,  -0.03102,  -0.11119,   0.03227,  -0.11304,  -0.07032,  -0.09399,  -0.04131,   0.00337,   0.03276,  -0.03069,   0.10032,  -0.09488,  -0.05919,  -0.10341,  -0.06533,   0.12280,  -0.07891,   0.15012,   0.09903,   0.03888,  -0.10322,   0.04993,  -0.10724,  -0.03155,  -0.09573,  -0.14194,   0.14157,   0.10015,   0.09471,   0.06313,   0.00257,  -0.01263,  -0.02172,  -0.05087,   0.12376,  -0.02615,   0.12807,   0.06843,  -0.02932,  -0.04780,  -0.14639,  -0.03888,  -0.03122,   0.15856,  -0.02505,   0.10991,  -0.08946,   0.12602,   0.06789,  -0.05525,   0.16704,  -0.02033,  -0.07019,  -0.06337,  -0.09240,   0.03751,   0.01066,   0.00147,  -0.08016,  -0.10959,  -0.09183,  -0.06884,   0.08804,   0.00188,  -0.08080,   0.03582,   0.10620,  -0.07537,   0.08072,  -0.12684,  -0.00987,   0.01401,  -0.10145,   0.15468,   0.01910
   0.04130,   0.14356,   0.01655,   0.04712,  -0.06421,   0.06103,   0.02948,  -0.03149,   0.10539,  -0.00425,   0.06905,   0.02415,  -0.03264,   0.04392,   0.00063,   0.00202,   0.12416,   0.00241,   0.00729,   0.05116,   0.09815,  -0.02694,   0.07994,   0.15676,   0.09381,  -0.09835,   0.01839,   0.09831,  -0.02071,   0.10108,  -0.13756,   0.02685,   0.01149,   0.16267,   0.09496,  -0.08482,  -0.09219,  -0.01180,  -0.07273,   0.15637,   0.12852,  -0.02274,  -0.08502,   0.07839,   0.11088,  -0.05358,   0.13894,   0.06762,  -0.12998,  -0.02488,   0.13651,   0.10774,  -0.03540,   0.10931,   0.03745,   0.10090,   0.04809,   0.09431,  -0.13889,   0.07823,  -0.12157,  -0.02479,   0.09508,   0.03789,   0.07744,   0.07909,   0.01208,  -0.06935,  -0.05146,   0.11091,  -0.08762,  -0.11911,  -0.05992,  -0.13164,   0.02646,  -0.10032,   0.17165,  -0.03153,  -0.01564,  -0.00773,   0.02279,  -0.03796,   0.05139,  -0.08434,   0.13897,   0.02142,   0.10734,  -0.08582,  -0.06478,  -0.13947,   0.05533,  -0.09447,  -0.11474,   0.10315,  -0.00033,  -0.10895,   0.15511,  -0.09564,  -0.05281,  -0.05200,  -0.02684,  -0.02422,  -0.08263,  -0.10254,  -0.10168,  -0.01481,  -0.01802,  -0.03074,  -0.03204,   0.01591,   0.12507,   0.04916,   0.03915,  -0.15276,  -0.09121,  -0.00230,   0.10731,  -0.13916,   0.04436,   0.14991,   0.10567,  -0.07691,  -0.11036,   0.01293,   0.09038,   0.09133,   0.03038,   0.06362
  -0.02474,  -0.05561,   0.25525,   0.09542,  -0.02806,  -0.04871,   0.11805,   0.19480,   0.11915,   0.09205,   0.00330,   0.07450,  -0.12868,  -0.03928,  -0.07065,  -0.01684,  -0.10874,  -0.05465,  -0.07968,  -0.13866,  -0.12966,   0.07285,   0.09047,   0.05714,  -0.17244,   0.06143,   0.01635,   0.06092,   0.01876,  -0.07402,  -0.04977,  -0.10142,   0.17709,  -0.10902,  -0.11218,   0.04832,  -0.06986,   0.05848,  -0.15859,   0.00851,  -0.11732,   0.00476,   0.01683,   0.06112,   0.05852,   0.11131,   0.06809,  -0.13301,   0.14272,   0.09415,  -0.08316,   0.02511,  -0.08368,   0.05066,   0.10094,  -0.06733,   0.00599,   0.09009,  -0.09109,   0.06571,   0.16840,   0.06734,  -0.08290,   0.10972,   0.11106,  -0.03620,  -0.18860,  -0.02022,   0.05652,   0.00291,   0.01686,   0.05420,   0.13969,  -0.00969,   0.12252,   0.01977,   0.03345,   0.00503,   0.11487,   0.08881,  -0.09652,  -0.00833,   0.05063,   0.04172,  -0.07160,  -0.04551,   0.11070,  -0.02799,   0.00648,  -0.07887,   0.07546,  -0.08716,  -0.13820,   0.09232,  -0.04883,  -0.06533,  -0.11183,  -0.04348,   0.00331,   0.10528,  -0.04562,  -0.08077,  -0.07376,  -0.01907,  -0.07059,   0.24537,  -0.09034,  -0.00556,  -0.02008,   0.11846,   0.07835,  -0.08604,  -0.02594,  -0.04063,   0.11548,  -0.22010,  -0.06090,   0.08104,   0.06402,  -0.00510,   0.08091,  -0.03263,   0.17721,   0.19043,  -0.07985,  -0.06690,  -0.14189,  -0.00445
  -0.17334,  -0.22138,   0.06465,  -0.03605,   0.18082,  -0.15021,   0.08393,   0.07099,   0.09866,   0.12399,  -0.01748,   0.00150,  -0.06046,  -0.02788,  -0.00239,  -0.03090,  -0.13880,  -0.00529,  -0.08068,  -0.08724,  -0.10730,  -0.04625,  -0.01313,  -0.06042,  -0.09371,  -0.03894,  -0.14894,   0.10417,   0.13232,   0.01395,  -0.11290,   0.06106,  -0.05874,   0.08439,   0.03716,   0.08768,   0.05367,  -0.18266,  -0.06229,   0.07669,   0.02077,  -0.05138,  -0.04017,  -0.08907,  -0.03913,   0.11107,  -0.04836,   0.08635,  -0.11756,   0.04385,  -0.15486,   0.03186,  -0.12750,  -0.05286,  -0.06150,  -0.01475,   0.06543,  -0.02098,  -0.09636,  -0.02823,  -0.03846,   0.13936,   0.07696,  -0.00107,   0.03662,   0.03179,  -0.12508,   0.13925,  -0.06706,   0.16234,  -0.03193,   0.02269,  -0.09267,  -0.11769,  -0.02791,   0.00478,  -0.00506,  -0.04242,  -0.16541,  -0.12927,   0.03086,   0.10820,   0.07059,  -0.06209,   0.05710,  -0.13336,   0.04178,   0.02244,   0.08462,   0.03178,  -0.10911,   0.04656,   0.06063,   0.00713,  -0.09154,  -0.02878,   0.10991,   0.06678,  -0.00888,  -0.11533,   0.02621,  -0.02366,   0.00111,  -0.06800,  -0.05121,   0.01485,   0.01386,   0.04956,   0.12460,  -0.07572,  -0.09474,  -0.01420,   0.04198,   0.12393,   0.10914,  -0.06286,   0.08726,  -0.05039,   0.08979,   0.09752,   0.12296,   0.06231,   0.07560,  -0.05488,  -0.14093,   0.02199,   0.10576,   0.02952
   0.21259,   0.03427,   0.15188,  -0.07066,   0.10244,   0.03024,  -0.01257,   0.19619,  -0.04785,   0.14428,  -0.16104,   0.06258,   0.00046,  -0.05147,  -0.00504,   0.07037,  -0.07351,  -0.14773,  -0.12846,  -0.08263,  -0.13895,  -0.02756,   0.10234,  -0.11376,   0.04343,   0.06045,  -0.10430,   0.10162,  -0.17048,  -0.20195,  -0.09019,  -0.15606,   0.06430,  -0.05214,   0.04359,   0.01069,   0.04733,   0.02060,   0.04812,   0.09088,  -0.04675,   0.00678,  -0.05055,   0.15963,  -0.08679,   0.06338,  -0.08181,  -0.15072,  -0.08531,  -0.09516,  -0.02313,  -0.04344,  -0.01116,  -0.10832,  -0.11308,   0.14359,   0.13099,   0.11462,  -0.07106,  -0.11494,  -0.10519,  -0.15031,   0.01923,   0.09377,  -0.10985,   0.04658,  -0.06559,   0.07133,   0.11726,   0.01007,  -0.09793,   0.08561,  -0.03543,   0.03781,  -0.10723,   0.01167,  -0.12355,   0.02703,  -0.11163,   0.07528,  -0.04238,  -0.02669,   0.04610,   0.16430,  -0.13282,   0.13428,   0.00119,   0.08841,  -0.11570,  -0.00827,  -0.00166,   0.07911,   0.13807,  -0.04752,  -0.01961,  -0.07838,  -0.10435,   0.02755,  -0.12819,  -0.06965,  -0.08186,  -0.11439,  -0.07891,   0.11304,  -0.06040,   0.06563,  -0.00518,  -0.05877,   0.16886,   0.05087,   0.06171,  -0.09266,  -0.08514,  -0.15166,   0.11143,  -0.09795,  -0.05397,  -0.07026,   0.05791,  -0.04683,  -0.11348,  -0.01309,  -0.08421,   0.07328,  -0.17785,  -0.09916,  -0.00834,  -0.06308
  -0.11855,  -0.02206,  -0.06915,   0.01685,   0.03853,  -0.12080,   0.11793,  -0.14537,   0.13832,  -0.15344,   0.17687,   0.13731,   0.06749,   0.12215,   0.17316,   0.04551,   0.11592,  -0.07824,   0.05514,  -0.06364,   0.00067,   0.10464,  -0.04870,  -0.04113,   0.01337,  -0.09260,   0.15230,  -0.01673,   0.10107,   0.00463,  -0.03375,   0.12535,  -0.07399,  -0.12117,  -0.10139,   0.12203,   0.02421,  -0.11260,   0.09524,   0.05309,  -0.07755,   0.04224,  -0.06695,  -0.16459,  -0.09423,   0.13215,   0.07941,  -0.15518,  -0.03015,   0.15181,  -0.07944,   0.04013,  -0.09721,   0.06273,  -0.03766,  -0.01454,   0.02324,   0.12845,   0.17466,  -0.14689,   0.13243,  -0.01388,  -0.03081,  -0.02652,   0.16771,   0.02352,   0.12384,   0.06067,   0.10867,   0.00869,  -0.11987,   0.00676,  -0.00552,  -0.00577,  -0.10807,   0.06909,   0.13460,  -0.00584,   0.09301,   0.06379,   0.07770,  -0.11117,  -0.07991,   0.13165,   0.07554,   0.07398,  -0.00462,   0.08551,   0.08943,  -0.09234,  -0.05064,   0.04524,  -0.11645,   0.04563,   0.06112,  -0.10013,  -0.12269,   0.07179,   0.06051,  -0.10434,   0.06673,   0.11066,   0.00441,   0.01574,   0.06038,  -0.04619,  -0.01407,  -0.16511,  -0.16920,  -0.02208,   0.10178,  -0.06403,   0.11845,  -0.07592,   0.14892,  -0.22545,  -0.13971,  -0.07551,   0.15346,   0.06957,   0.13989,   0.11504,   0.00855,  -0.05175,  -0.11045,  -0.03319,  -0.00467,  -0.18261
  -0.14192,  -0.05428,  -0.11837,  -0.29700,   0.10264,  -0.00098,   0.27057,   0.08234,   0.14844,   0.08107,   0.07422,  -0.01064,  -0.03676,  -0.13015,   0.09913,  -0.06951,  -0.09377,   0.11146,   0.06101,  -0.03863,   0.10793,  -0.09629,   0.06364,  -0.05012,   0.00238,   0.01735,  -0.08428,   0.02319,   0.11318,   0.01831,  -0.01647,   0.00717,   0.03408,   0.14885,   0.07902,   0.11767,   0.11559,  -0.19762,  -0.07659,   0.01763,  -0.05250,  -0.07378,   0.01597,  -0.18962,   0.13443,   0.07386,   0.03298,   0.01372,   0.01438,   0.02043,   0.04732,   0.08853,   0.03304,   0.03554,  -0.00373,  -0.06139,  -0.02909,  -0.02303,   0.10190,   0.11786,   0.06635,   0.14376,   0.04416,  -0.03267,  -0.06177,   0.04018,  -0.11693,  -0.05746,   0.10508,   0.06769,  -0.10592,   0.04496,  -0.07117,  -0.22775,   0.01111,   0.12850,   0.07837,  -0.08180,  -0.04826,  -0.01481,  -0.00251,  -0.14879,   0.06640,   0.01523,   0.08870,  -0.05938,  -0.01409,   0.07330,  -0.06906,  -0.10261,   0.07749,  -0.07858,  -0.04197,   0.01197,  -0.02963,  -0.09578,  -0.09567,  -0.04149,  -0.00840,  -0.04602,   0.05260,  -0.17607,  -0.10144,  -0.12247,   0.04931,   0.00100,   0.10318,  -0.05363,   0.00401,  -0.04672,   0.11905,  -0.00604,   0.06116,   0.13392,   0.04825,   0.01078,   0.14588,  -0.05210,   0.15165,   0.00456,   0.03381,   0.11142,   0.14950,   0.00816,   0.08556,   0.07550,  -0.04633,   0.05675
   0.13478,   0.26500,  -0.14829,   0.07170,  -0.13936,  -0.10897,  -0.04181,   0.00526,  -0.12770,  -0.08589,  -0.04244,   0.06144,  -0.03962,   0.00158,   0.03177,  -0.12251,  -0.03812,  -0.14333,  -0.13245,  -0.09692,  -0.09740,   0.13910,  -0.13140,  -0.03327,  -0.10032,  -0.01693,  -0.09057,  -0.05345,   0.01697,  -0.07120,   0.11077,   0.13411,   0.01487,  -0.04851,   0.03931,   0.06342,  -0.15548,  -0.11111,  -0.03196,   0.04226,  -0.00797,  -0.10055,   0.03686,  -0.03119,   0.02432,   0.06072,  -0.06451,  -0.06145,   0.02639,   0.02220,  -0.00040,   0.15492,   0.08798,  -0.09800,  -0.15005,   0.07560,   0.10392,  -0.09906,   0.13659,   0.04752,  -0.09166,  -0.06908,  -0.11010,   0.01818,   0.13134,   0.03036,   0.06476,  -0.04327,   0.07856,   0.10112,  -0.09572,  -0.01252,  -0.00812,  -0.01189,   0.09335,   0.04706,   0.07796,   0.12056,   0.01826,   0.01499,  -0.05818,   0.03814,   0.04371,  -0.15128,   0.08846,  -0.02581,  -0.13426,  -0.05089,   0.05570,  -0.07381,   0.03021,  -0.07208,   0.13215,  -0.04727,   0.00298,  -0.06322,   0.15806,   0.07746,  -0.04007,   0.09701,   0.09308,   0.01361,  -0.12216,  -0.03536,  -0.03709,  -0.10082,   0.08825,   0.06518,  -0.13242,   0.15463,  -0.08242,   0.08610,  -0.13657,   0.16901,  -0.01004,   0.01703,  -0.07358,  -0.05596,   0.01523,   0.16844,  -0.13908,   0.11637,  -0.10441,   0.10909,   0.05905,   0.00515,  -0.02084,  -0.08917
   0.12205,  -0.07922,   0.09755,   0.15356,  -0.09417,   0.07206,  -0.03860,  -0.07439,   0.00055,  -0.08599,   0.03519,   0.05120,  -0.01592,  -0.09057,  -0.12720,   0.12409,   0.15096,  -0.11668,  -0.07356,   0.14585,   0.14564,  -0.02001,   0.04819,   0.06663,   0.05049,   0.00545,   0.16367,  -0.11598,  -0.00317,   0.16089,   0.04108,  -0.00671,   0.00293,  -0.04910,  -0.01760,   0.10026,   0.11527,   0.01349,  -0.04359,  -0.00725,  -0.11463,  -0.01659,  -0.02048,   0.07186,  -0.08743,   0.01081,   0.18160,  -0.11969,   0.09051,  -0.07363,  -0.23285,   0.04867,   0.04354,   0.06637,  -0.00988,   0.09346,  -0.01540,  -0.05399,   0.04417,  -0.08523,  -0.11534,   0.10553,  -0.02909,  -0.05152,  -0.02463,  -0.08250,   0.14622,  -0.04011,  -0.18105,   0.03744,   0.06456,   0.15463,  -0.11697,   0.05586,   0.10736,  -0.10307,  -0.20205,  -0.03211,   0.17761,   0.04987,  -0.06962,  -0.10652,  -0.09138,   0.02867,   0.15118,   0.08509,  -0.12050,  -0.01778,  -0.10641,  -0.05788,   0.07673,   0.04709,  -0.07268,  -0.07154,   0.15120,  -0.06587,  -0.05694,  -0.02672,  -0.18214,   0.13543,   0.11794,  -0.10849,   0.02568,  -0.04101,  -0.03545,  -0.11705,   0.04538,  -0.00858,   0.10406,  -0.06949,   0.08119,  -0.16300,  -0.00898,  -0.08462,  -0.03131,   0.04390,  -0.03684,   0.02485,  -0.00221,   0.02140,  -0.11309,   0.14392,   0.03249,   0.14182,  -0.04323,   0.02560,   0.17844,  -0.10309
   0.10354,   0.01542,   0.11333,   0.10273,   0.17049,  -0.06394,  -0.01905,   0.14180,   0.14726,  -0.04856,  -0.03277,  -0.10912,   0.13666,  -0.08869,  -0.10334,  -0.08140,   0.18279,  -0.05115,  -0.00617,   0.06455,   0.01989,  -0.02140,   0.00969,   0.02899,   0.03124,   0.05020,  -0.03435,   0.11017,   0.23057,  -0.02103,  -0.02522,   0.05560,  -0.07485,  -0.10743,  -0.08230,  -0.07139,   0.08015,  -0.12417,  -0.03564,  -0.02528,   0.10189,  -0.00542,   0.03392,   0.07265,  -0.09996,   0.02180,   0.10452,   0.03876,   0.00127,   0.09827,   0.03758,  -0.02189,   0.00536,  -0.06444,   0.14294,  -0.16252,   0.15341,  -0.04597,  -0.02740,  -0.10259,  -0.04816,   0.05855,  -0.05868,  -0.06491,   0.10270,   0.10617,  -0.04294,  -0.14495,   0.08214,  -0.16384,  -0.16258,  -0.12407,   0.06211,  -0.04402,   0.06255,   0.07835,  -0.15140,  -0.06683,  -0.05176,   0.05737,   0.19316,   0.08431,   0.04522,   0.17711,   0.01177,  -0.02150,   0.05743,   0.05449,  -0.03484,  -0.03152,  -0.17503,   0.13529,   0.07879,  -0.13141,   0.01800,  -0.11268,  -0.00527,  -0.09913,  -0.05418,  -0.13140,   0.06048,   0.05730,  -0.06540,  -0.00649,   0.03411,  -0.00773,  -0.05821,  -0.12148,   0.04651,  -0.09628,   0.05231,  -0.00334,  -0.14083,  -0.05258,  -0.06518,   0.04360,  -0.11326,  -0.02687,  -0.11682,   0.10537,   0.06659,   0.00509,  -0.08905,   0.12591,  -0.05747,  -0.05934,  -0.08631,  -0.13565
   0.03755,   0.03092,   0.02245,  -0.02869,   0.02367,   0.05201,  -0.00910,  -0.01163,  -0.04021,   0.09883,  -0.11605,   0.09719,   0.04130,  -0.10491,  -0.11445,  -0.07038,  -0.06150,  -0.01287,  -0.06667,  -0.17074,  -0.01209,  -0.11777,   0.12943,   0.01913,   0.12106,  -0.06774,  -0.02976,  -0.08795,  -0.12783,   0.00063,  -0.11117,   0.05464,  -0.06458,  -0.02736,   0.01291,   0.02331,   0.06138,  -0.05596,   0.06463,  -0.08146,   0.15582,   0.06488,   0.06621,   0.09560,   0.07216,  -0.11971,   0.00757,   0.01790,  -0.01805,  -0.12594,  -0.14269,  -0.00232,   0.10910,   0.14750,   0.05610,   0.05610,   0.09165,   0.05083,  -0.03204,  -0.09022,   0.04151,  -0.01978,   0.08808,  -0.14119,  -0.04544,  -0.11701,   0.14298,   0.18877,   0.12909,   0.01658,  -0.12827,  -0.09371,   0.06004,  -0.06732,  -0.06050,   0.06752,   0.07258,   0.09317,  -0.05601,   0.00393,  -0.05210,  -0.08116,   0.06856,  -0.05409,   0.03537,  -0.10751,  -0.06278,  -0.02580,   0.00089,   0.06361,   0.10464,  -0.12853,   0.08361,  -0.14237,  -0.11648,  -0.05140,   0.10987,  -0.16382,   0.08739,   0.00251,   0.07947,   0.05760,   0.07781,  -0.14078,   0.12377,  -0.11927,  -0.03186,  -0.07445,  -0.05231,  -0.01155,  -0.05398,  -0.13195,  -0.01654,   0.09716,   0.06418,  -0.05224,   0.22209,  -0.15780,   0.00311,   0.10848,  -0.06347,  -0.00704,   0.02019,  -0.11434,  -0.17285,   0.05179,   0.01206,  -0.02836
  -0.13396,  -0.03528,   0.04883,  -0.21783,   0.07511,  -0.21574,   0.10010,  -0.02860,   0.19429,   0.13196,   0.01255,   0.01550,   0.11934,  -0.15055,   0.03801,   0.03149,   0.00793,  -0.08741,  -0.16140,   0.09943,   0.13821,  -0.16216,   0.00732,   0.00476,  -0.04976,  -0.09793,  -0.03335,  -0.02125,   0.03281,   0.10016,  -0.01557,   0.10223,  -0.08220,   0.07127,  -0.14364,   0.14835,  -0.05085,  -0.00379,   0.17939,   0.04686,   0.04627,   0.13434,   0.10835,   0.13202,  -0.10364,   0.00169,   0.10678,   0.09781,   0.15063,  -0.08566,  -0.07366,   0.01241,   0.12830,   0.00883,  -0.12471,   0.07339,   0.11034,  -0.07182,  -0.14241,   0.07261,  -0.10917,  -0.05293,  -0.00053,   0.14358,   0.00377,   0.02297,   0.01208,  -0.05160,   0.03456,   0.09581,   0.06328,   0.07156,  -0.16550,   0.03536,   0.00561,   0.06917,   0.14521,  -0.09088,   0.07758,  -0.05765,  -0.00109,   0.01678,   0.13251,  -0.00965,  -0.01816,   0.08310,  -0.10002,   0.03472,   0.08401,  -0.14462,   0.08786,  -0.11798,  -0.02301,  -0.02704,   0.03718,   0.02945,   0.01519,   0.03441,   0.01152,   0.04873,   0.03087,  -0.01019,   0.04885,  -0.15489,   0.05744,   0.08382,  -0.08673,   0.01464,  -0.09031,  -0.07840,  -0.03551,   0.00981,   0.06882,   0.10429,   0.01249,   0.01614,  -0.15162,   0.02281,   0.10746,  -0.12607,  -0.08939,   0.05973,  -0.10877,   0.09988,  -0.02262,  -0.09507,  -0.07504,  -0.07516
   0.05971,  -0.16646,   0.02201,  -0.29162,   0.05165,   0.04342,  -0.01669,   0.13055,   0.01091,  -0.06987,   0.05128,  -0.02507,   0.02666,   0.05740,  -0.12473,   0.15032,  -0.10945,  -0.00445,  -0.11820,   0.09711,  -0.10590,  -0.01430,  -0.05988,  -0.11467,  -0.08052,   0.02468,  -0.15485,   0.12144,   0.05184,   0.11578,   0.03184,  -0.00996,  -0.05748,   0.08159,  -0.08434,  -0.00852,  -0.05244,  -0.10892,   0.12607,   0.06610,   0.11207,  -0.08533,  -0.12290,  -0.12157,  -0.02261,   0.03388,   0.09739,  -0.10242,  -0.10499,   0.16864,  -0.12817,  -0.10110,   0.12444,  -0.02593,   0.06701,   0.14131,  -0.15515,  -0.12581,   0.00866,   0.17033,  -0.05061,   0.12435,  -0.00333,   0.04704,   0.07696,   0.01593,  -0.01736,   0.11523,   0.01740,   0.09344,   0.00845,   0.00343,   0.01776,  -0.07596,   0.10443,   0.10790,   0.07790,   0.12799,   0.08799,   0.02361,   0.00956,   0.02192,   0.05773,   0.03103,  -0.14651,   0.09376,  -0.06218,  -0.03012,  -0.00484,  -0.04507,  -0.19432,  -0.12304,   0.04582,   0.12403,  -0.05107,  -0.02403,  -0.18495,   0.05846,  -0.11703,  -0.06234,   0.05257,  -0.06701,   0.01110,   0.06695,  -0.11121,   0.18648,   0.13354,  -0.07268,   0.11503,  -0.00848,  -0.06737,   0.21541,   0.09232,   0.02314,  -0.16966,  -0.09842,  -0.07229,   0.17527,   0.01450,   0.12182,   0.11787,   0.05948,  -0.06096,  -0.06904,  -0.06994,   0.00705,   0.02588,  -0.12249
   0.13440,  -0.10318,   0.14678,   0.05805,   0.11704,   0.11610,   0.18053,   0.06388,  -0.04986,   0.06504,  -0.04096,   0.00191,   0.08680,   0.11785,  -0.03984,  -0.06353,  -0.07979,  -0.03889,  -0.06459,   0.05978,  -0.02688,  -0.00769,   0.07468,   0.04510,   0.02437,  -0.01912,   0.00818,  -0.08322,  -0.03239,  -0.00092,  -0.00670,  -0.08997,   0.11501,  -0.04734,  -0.13985,   0.11154,  -0.05851,  -0.08338,   0.08156,   0.02491,  -0.00570,   0.03898,   0.06610,   0.07521,  -0.04466,  -0.00350,   0.10766,   0.06189,  -0.04329,  -0.04048,   0.09227,  -0.00461,  -0.07472,   0.00653,  -0.04527,   0.05296,   0.04503,  -0.02779,   0.07739,   0.04136,   0.03300,   0.02551,   0.01371,   0.13212,   0.03533,   0.10536,   0.04865,  -0.00085,   0.10177,   0.06098,  -0.04030,  -0.10554,  -0.12214,   0.05324,   0.02399,   0.15423,   0.07070,  -0.03079,   0.06832,   0.12244,   0.10928,   0.09089,   0.16887,   0.10410,   0.06134,   0.03603,  -0.04949,  -0.10009,   0.03281,  -0.13946,   0.13579,   0.07836,  -0.03183,  -0.17755,   0.07594,   0.12274,  -0.01269,   0.12432,   0.10476,   0.00521,  -0.07972,   0.07760,  -0.08165,   0.02723,   0.00654,   0.11785,   0.16337,  -0.05414,  -0.07056,   0.00187,  -0.02153,   0.07064,   0.09232,   0.09855,   0.04854,   0.03184,   0.10501,  -0.07183,   0.13084,   0.12762,  -0.03484,  -0.11352,  -0.05588,  -0.16185,   0.07691,   0.16600,   0.17705,  -0.04389
   0.08657,   0.01528,   0.24271,  -0.04948,   0.16946,   0.17110,   0.11084,   0.09561,  -0.03667,  -0.02261,   0.04340,  -0.04749,  -0.19362,   0.03687,  -0.04811,  -0.19991,   0.06163,  -0.08635,   0.05294,  -0.15609,  -0.00014,   0.06351,  -0.01256,  -0.09599,  -0.08810,   0.03486,   0.13542,  -0.10957,   0.07295,  -0.09591,   0.03852,  -0.15146,  -0.02023,   0.12041,  -0.03341,  -0.21771,   0.09219,   0.02311,   0.06655,   0.00030,  -0.02916,  -0.05220,  -0.13475,   0.10049,   0.03062,   0.09002,  -0.07320,  -0.03771,  -0.09608,   0.00995,  -0.03077,  -0.15050,  -0.09743,   0.07857,   0.04616,  -0.12650,   0.07014,  -0.01533,   0.04609,   0.08574,  -0.09258,  -0.17389,  -0.10954,  -0.18933,   0.06410,  -0.02789,   0.06520,  -0.04833,  -0.05907,  -0.08112,   0.13782,   0.02054,   0.09902,  -0.14539,   0.01980,   0.00844,   0.06102,  -0.10402,   0.01649,  -0.04220,   0.06055,  -0.07936,  -0.07458,   0.11527,   0.12537,   0.08114,   0.14716,   0.04901,   0.10676,  -0.09648,   0.03177,   0.01790,   0.14098,   0.06001,   0.16084,   0.12763,   0.15881,  -0.09945,  -0.11183,   0.07166,   0.11456,  -0.08252,  -0.02895,  -0.00658,  -0.01622,   0.06388,  -0.06548,   0.07943,  -0.18498,  -0.10422,   0.05702,  -0.13149,  -0.06742,   0.04064,   0.10844,  -0.00717,  -0.01418,   0.11192,   0.04140,  -0.11569,  -0.03526,  -0.03591,  -0.07195,  -0.03360,   0.11785,   0.05911,   0.07935,   0.09849
   0.12671,  -0.02252,   0.12994,   0.14721,   0.10938,   0.22505,   0.14185,   0.09578,  -0.01002,   0.05715,  -0.00791,   0.03196,  -0.09709,   0.16452,  -0.14015,  -0.04239,  -0.02577,   0.10395,  -0.09179,  -0.02291,   0.02447,  -0.02329,   0.02912,  -0.00264,  -0.11241,   0.11116,   0.03722,  -0.07539,   0.01606,  -0.12495,   0.12127,  -0.12425,   0.03681,  -0.10189,  -0.03189,   0.10861,   0.15967,  -0.11555,   0.13272,  -0.05161,  -0.06454,  -0.15898,  -0.07728,  -0.12864,   0.12591,   0.17865,  -0.16531,  -0.01143,  -0.10594,  -0.11574,  -0.03640,  -0.05491,   0.07440,   0.05337,  -0.11256,   0.13903,  -0.01690,   0.06118,  -0.08119,   0.13081,   0.10700,  -0.07448,  -0.10230,  -0.11793,   0.02281,   0.16864,  -0.03578,   0.21760,   0.00131,  -0.09924,  -0.02776,   0.09966,  -0.04067,   0.00354,  -0.00579,   0.01223,   0.00044,  -0.11667,   0.03564,  -0.05341,  -0.14831,   0.04526,  -0.09242,  -0.07894,  -0.05437,   0.06878,  -0.05384,   0.05199,   0.11288,   0.02604,   0.15871,   0.06211,  -0.04798,  -0.02343,   0.06463,  -0.09554,   0.02857,  -0.02777,   0.06776,  -0.00201,  -0.06738,   0.06756,  -0.00225,  -0.21126,   0.11080,  -0.06589,  -0.03508,   0.03822,   0.05016,   0.12648,   0.06965,  -0.05683,  -0.00062,   0.03007,   0.05784,  -0.19276,   0.12334,   0.08568,  -0.05937,  -0.05637,  -0.14346,  -0.04520,  -0.08125,  -0.14617,  -0.11113,   0.07937,  -0.19949,  -0.06461
   0.13680,  -0.02000,  -0.02035,   0.10904,  -0.04736,  -0.06742,  -0.12265,   0.02322,  -0.06527,   0.07317,  -0.01912,  -0.02609,  -0.10372,  -0.00348,   0.20405,   0.06961,  -0.05086,  -0.18502,   0.14266,  -0.06508,   0.00947,  -0.20728,  -0.07516,  -0.14216,   0.07472,  -0.13469,   0.00689,  -0.05081,   0.04623,   0.07465,   0.17146,  -0.07999,  -0.03819,  -0.16603,   0.10919,  -0.12221,   0.06224,  -0.08119,  -0.01588,   0.00615,  -0.03600,  -0.03559,  -0.10775,   0.13427,   0.01896,   0.13724,   0.01092,  -0.12490,   0.02015,  -0.03723,   0.13450,  -0.02302,   0.09148,  -0.06130,  -0.07424,  -0.14858,  -0.01208,  -0.01652,  -0.02796,  -0.05414,  -0.14529,  -0.04983,  -0.12731,   0.15968,   0.08244,  -0.02654,  -0.01475,  -0.12542,   0.01605,  -0.04165,  -0.01990,   0.02764,  -0.07276,  -0.08379,  -0.00094,  -0.23147,   0.05362,  -0.11900,  -0.00972,   0.03940,   0.14958,   0.02845,   0.16921,  -0.09533,  -0.07757,   0.04942,  -0.03276,  -0.00690,  -0.09618,  -0.07390,  -0.03500,  -0.11432,   0.01410,   0.04779,   0.11318,  -0.08277,  -0.01842,   0.08438,   0.22149,   0.15790,   0.02491,  -0.03215,   0.00576,  -0.04520,   0.06759,   0.08196,   0.03596,  -0.05556,  -0.10388,  -0.05768,  -0.04690,   0.09645,  -0.02825,  -0.03504,  -0.07751,   0.09116,   0.01644,  -0.12701,   0.09782,  -0.00296,   0.08251,  -0.05895,   0.04446,  -0.08139,   0.06713,  -0.13192,   0.00229,   0.04263
   0.02188,   0.12999,  -0.00754,  -0.04741,  -0.18065,  -0.10967,   0.18779,  -0.00987,   0.19390,  -0.03852,   0.11954,   0.00663,   0.06452,   0.12840,  -0.06429,   0.03570,   0.20037,   0.12920,   0.08370,   0.07766,  -0.14634,   0.08923,  -0.05758,  -0.03745,  -0.12984,   0.13922,  -0.00458,  -0.14381,   0.04094,  -0.07121,  -0.14967,  -0.04732,   0.01371,  -0.04036,   0.08180,  -0.09075,  -0.05685,   0.02616,   0.14982,   0.03856,  -0.10380,  -0.03302,   0.00870,  -0.10292,  -0.12731,   0.06897,  -0.14717,   0.06557,  -0.12889,   0.13788,   0.10428,  -0.09529,   0.00138,   0.02006,  -0.03568,  -0.11598,   0.11657,  -0.14122,   0.10288,  -0.02305,  -0.06731,   0.03813,   0.08840,  -0.08558,   0.03381,  -0.06028,   0.02097,  -0.09480,  -0.06094,  -0.05849,   0.02446,   0.09488,  -0.01296,  -0.10409,  -0.17124,  -0.04799,   0.10138,   0.12142,   0.03581,   0.02309,  -0.04235,   0.03069,   0.12736,   0.04528,  -0.11962,  -0.03588,   0.10003,   0.14359,  -0.03708,  -0.11674,  -0.05227,   0.00240,  -0.17478,  -0.15063,   0.04952,  -0.00904,   0.05742,   0.09188,  -0.15784,  -0.04336,   0.08154,   0.05369,   0.02268,  -0.06104,   0.02551,  -0.08628,  -0.01667,  -0.09161,   0.09090,  -0.04575,   0.10084,   0.11644,   0.01745,  -0.09455,  -0.00071,   0.03152,  -0.05182,  -0.15606,   0.05905,   0.09935,   0.10216,   0.02386,   0.02078,  -0.11778,  -0.13146,   0.11113,  -0.04248,   0.02112
  -0.10347,  -0.13428,   0.07847,   0.03796,   0.08087,   0.00265,  -0.16562,  -0.10043,   0.12742,  -0.13551,   0.13047,  -0.04107,   0.13569,  -0.08372,  -0.03355,  -0.05740,   0.16094,  -0.05247,  -0.01122,   0.12305,   0.17419,   0.08573,   0.07863,   0.06496,   0.12693,   0.00604,  -0.00777,   0.06839,  -0.04240,   0.00005,  -0.07187,   0.07791,  -0.13475,   0.16705,   0.18259,  -0.09879,  -0.13716,  -0.05436,   0.01525,  -0.04351,  -0.04425,   0.11982,   0.12992,  -0.12600,   0.04256,  -0.03805,   0.05617,  -0.06754,   0.00566,   0.12182,  -0.05441,  -0.08956,  -0.07663,  -0.00971,  -0.15186,  -0.06289,   0.04387,   0.02804,   0.03410,   0.06469,   0.02145,  -0.01145,   0.05282,  -0.10414,  -0.01013,  -0.13328,  -0.08237,  -0.05739,   0.05349,  -0.15034,  -0.09584,   0.14830,   0.03053,  -0.12139,  -0.11794,   0.02988,  -0.04935,   0.13376,   0.03946,  -0.08565,   0.09437,   0.15878,   0.08572,   0.10102,  -0.07939,   0.05168,   0.08263,  -0.03453,   0.01840,  -0.06018,  -0.01189,   0.03386,  -0.03051,   0.10043,  -0.05903,   0.10980,   0.06210,   0.17025,  -0.08123,   0.10054,  -0.14361,  -0.01806,   0.13707,  -0.12163,   0.02528,  -0.11988,   0.02205,   0.03230,  -0.11257,   0.01926,  -0.08661,   0.01193,  -0.07456,  -0.01051,   0.12067,   0.16791,  -0.19478,  -0.14056,   0.07868,   0.00710,   0.15048,  -0.09926,   0.00188,   0.11344,   0.05347,   0.03004,   0.04563,   0.00850
  -0.02070,   0.06082,  -0.06717,  -0.02305,  -0.07103,   0.03415,   0.09470,  -0.02361,  -0.06264,  -0.03075,   0.01370,  -0.08125,   0.04873,   0.00383,  -0.00243,  -0.11439,  -0.06659,   0.03705,   0.11654,  -0.05722,   0.19103,   0.12936,  -0.00328,   0.11348,  -0.10844,   0.03345,  -0.05288,  -0.04194,   0.03559,  -0.02455,  -0.06133,  -0.06813,   0.00057,  -0.09536,   0.08538,  -0.03882,   0.05851,  -0.00142,   0.09720,   0.03670,  -0.04245,   0.01587,   0.12888,   0.05885,   0.06005,  -0.06584,  -0.07650,   0.12122,   0.02905,  -0.05170,  -0.07731,   0.09522,   0.11428,  -0.00397,   0.05203,   0.08315,  -0.07237,  -0.10745,  -0.10340,  -0.00549,   0.05997,  -0.09557,  -0.01208,   0.10062,   0.07593,  -0.01114,   0.16924,   0.02978,   0.09241,  -0.02852,  -0.04023,  -0.05945,   0.03540,  -0.02705,  -0.10417,  -0.03817,  -0.01173,  -0.05234,   0.16039,   0.07801,  -0.04862,   0.01407,  -0.02104,   0.04342,   0.07509,   0.09862,   0.08112,  -0.07853,  -0.06071,   0.07900,   0.05665,  -0.12824,  -0.08080,  -0.15066,   0.04596,  -0.01928,  -0.04484,  -0.02050,  -0.07280,   0.03357,  -0.06435,   0.16384,   0.00625,   0.13209,  -0.21472,  -0.10121,   0.05988,   0.06823,   0.09347,  -0.04365,  -0.16272,   0.09638,   0.12851,   0.06817,  -0.06595,   0.06429,  -0.01307,  -0.00269,  -0.06377,  -0.10633,   0.05453,  -0.00684,  -0.00319,  -0.02629,   0.02748,  -0.09911,   0.13890,  -0.04400
  -0.00056,   0.07244,  -0.00251,  -0.01547,   0.12698,  -0.07782,   0.09430,   0.02425,   0.01102,  -0.06328,  -0.06506,   0.03808,   0.10911,   0.04265,   0.02886,   0.12185,  -0.01600,   0.03499,  -0.01614,   0.10390,   0.11429,   0.07607,  -0.01143,   0.14316,  -0.01032,   0.10028,  -0.07063,   0.10202,  -0.10299,   0.07887,   0.08816,   0.04466,  -0.03532,   0.02932,  -0.07311,  -0.00074,  -0.02795,  -0.01540,   0.07131,   0.06322,   0.16127,  -0.10822,  -0.11018,  -0.07058,  -0.15066,  -0.08791,   0.00122,   0.02076,   0.11372,  -0.03966,  -0.04516,   0.09564,  -0.13435,  -0.11302,   0.11879,   0.06077,   0.01150,   0.04860,  -0.09226,   0.10339,  -0.00756,   0.06593,   0.05001,  -0.18344,  -0.16000,  -0.08153,   0.11340,   0.10029,   0.08677,  -0.00780,  -0.02850,  -0.15011,   0.00319,  -0.00116,   0.01667,   0.05764,  -0.13696,  -0.08728,  -0.03417,  -0.03216,   0.12379,   0.13543,   0.11447,   0.02988,   0.10286,   0.12558,   0.03833,  -0.00001,   0.02246,   0.00798,  -0.08839,  -0.13169,   0.03393,   0.06112,   0.13620,   0.12460,   0.12861,   0.01016,  -0.12911,   0.03878,  -0.01663,  -0.09251,   0.01908,  -0.00149,  -0.00828,   0.05419,   0.06792,  -0.12869,   0.07784,  -0.06434,   0.13223,   0.02583,   0.03559,   0.00006,   0.16758,  -0.07567,   0.10106,  -0.14271,   0.20299,   0.12843,  -0.02172,   0.04626,   0.16567,  -0.12581,   0.03069,  -0.01527,  -0.09956,  -0.18589
  -0.04271,  -0.09157,  -0.11649,   0.13565,  -0.09686,  -0.11771,   0.16829,   0.01506,  -0.02251,  -0.11907,  -0.01395,   0.13392,  -0.14804,   0.19321,  -0.08885,   0.03661,  -0.12585,   0.07578,   0.03644,  -0.07376,   0.01653,   0.05067,  -0.08234,   0.03652,   0.13813,   0.03250,   0.01047,   0.00204,  -0.07932,   0.05779,  -0.15233,  -0.17590,   0.15644,  -0.11468,   0.05554,   0.13678,  -0.01419,   0.00644,  -0.13158,   0.04066,  -0.08752,  -0.04116,  -0.09098,  -0.03333,  -0.04663,   0.03811,  -0.06127,   0.02500,   0.00299,   0.05549,   0.05674,  -0.01968,  -0.02596,  -0.05829,   0.14765,   0.12293,  -0.22330,  -0.08502,   0.05008,   0.02902,   0.14253,  -0.09459,   0.15768,  -0.00779,  -0.05349,  -0.01819,   0.01759,   0.10092,  -0.05404,   0.02319,   0.18625,   0.17665,   0.03417,  -0.05606,  -0.01564,  -0.09764,  -0.10103,  -0.06477,   0.00701,  -0.08667,  -0.07334,  -0.11926,  -0.05807,  -0.11006,  -0.06242,  -0.00225,   0.08414,  -0.01672,  -0.03181,  -0.05512,   0.10538,  -0.09566,  -0.12119,  -0.06756,  -0.07958,   0.09814,   0.07578,   0.12620,   0.15989,  -0.12549,   0.09636,   0.00787,  -0.13707,   0.08368,   0.13961,   0.09246,   0.06762,   0.12372,   0.05889,   0.05321,  -0.06998,   0.00336,  -0.01782,   0.08631,  -0.05448,   0.04368,  -0.05594,  -0.19164,   0.02994,   0.06092,   0.02391,  -0.14908,   0.08064,   0.02933,   0.04555,   0.09581,  -0.02092,  -0.00613
  -0.14253,   0.04616,   0.12182,   0.05695,  -0.11511,   0.10329,   0.02208,   0.00085,   0.08656,  -0.12065,  -0.07545,   0.07079,   0.15775,   0.04640,  -0.02202,  -0.11411,   0.00121,  -0.02626,   0.09699,  -0.06439,   0.06122,   0.09713,   0.07292,  -0.10123,  -0.09559,  -0.01886,   0.07663,   0.01007,   0.10138,  -0.04369,   0.02875,   0.01952,   0.00234,   0.07137,   0.12289,   0.01782,   0.07750,   0.06904,  -0.05990,  -0.00730,  -0.06660,  -0.02140,  -0.04969,   0.06432,  -0.02459,   0.08115,  -0.00231,   0.05435,  -0.02066,   0.07398,   0.05182,  -0.13312,   0.13866,   0.14907,   0.03854,   0.00166,   0.01908,   0.07050,  -0.06062,  -0.13020,  -0.04423,   0.09849,   0.03269,  -0.02761,  -0.01765,  -0.08011,   0.09688,   0.01169,   0.08488,   0.02923,   0.04325,  -0.14065,   0.10506,   0.05890,   0.00489,   0.03300,  -0.08258,   0.04657,   0.17350,  -0.12410,  -0.05615,   0.04308,   0.09919,   0.02474,   0.08588,   0.05028,   0.08561,   0.07087,   0.00991,   0.14003,  -0.05790,   0.06526,   0.02133,  -0.03021,  -0.05212,   0.17715,  -0.15145,  -0.07281,  -0.07683,   0.02172,   0.07662,  -0.09600,   0.06895,   0.18660,  -0.04885,   0.09573,   0.00991,   0.05593,  -0.01603,   0.07419,  -0.14570,  -0.09728,  -0.00916,   0.06572,   0.12801,   0.15407,   0.07050,   0.04005,   0.00976,  -0.15856,  -0.02515,   0.13347,  -0.08495,  -0.09317,   0.10368,  -0.08719,   0.01463,  -0.02774
   0.06600,  -0.12300,  -0.09702,   0.04895,  -0.11452,  -0.09476,  -0.06247,  -0.10251,   0.13342,   0.05039,  -0.07526,  -0.11815,   0.10016,   0.09591,  -0.06789,   0.01868,   0.02561,   0.00046,  -0.00854,   0.10223,  -0.10872,  -0.03867,   0.09625,  -0.04759,  -0.05181,  -0.12184,  -0.03070,   0.16891,  -0.08231,  -0.00335,   0.00081,   0.05398,   0.09560,   0.00694,   0.02183,  -0.10642,  -0.16114,   0.04272,   0.01907,  -0.08551,   0.06890,  -0.09355,  -0.01930,  -0.07200,   0.04983,  -0.05885,  -0.07683,  -0.05009,  -0.12812,   0.04437,  -0.15086,   0.07782,   0.06123,   0.01595,  -0.11766,  -0.14859,   0.02176,   0.02952,  -0.02469,   0.06950,  -0.14703,  -0.01437,  -0.04329,  -0.01386,  -0.03989,  -0.06940,   0.03883,   0.07871,  -0.05362,  -0.02118,  -0.06600,   0.10192,   0.01214,   0.02420,   0.02972,  -0.06190,  -0.08328,   0.13318,   0.11098,   0.02858,   0.11277,  -0.00927,  -0.04462,  -0.07367,  -0.02278,   0.02968,  -0.07087,   0.00398,  -0.14131,   0.01365,   0.00522,   0.00258,   0.03499,  -0.07899,   0.09982,   0.09101,  -0.00569,  -0.03303,  -0.11497,  -0.06186,   0.09014,  -0.08392,   0.09929,  -0.15117,  -0.04533,  -0.09039,  -0.18931,  -0.05205,  -0.00575,   0.13584,   0.00972,   0.19079,  -0.09238,  -0.03425,   0.11491,  -0.08311,  -0.11260,   0.03833,   0.04133,   0.06199,  -0.03221,   0.09577,   0.03491,   0.12329,  -0.02889,  -0.05987,  -0.13214,  -0.05508
   0.18018,   0.07123,   0.09549,   0.12176,  -0.04926,   0.04463,   0.06322,   0.00601,  -0.08388,  -0.08216,  -0.12821,  -0.07909,  -0.02314,   0.04421,   0.00312,   0.04038,   0.08016,   0.02901,   0.14102,   0.03190,   0.05901,  -0.06538,   0.18814,  -0.04060,   0.13537,  -0.01344,  -0.00539,  -0.01950,  -0.12490,  -0.01131,   0.17704,   0.05302,  -0.04506,  -0.11974,   0.00310,  -0.04840,  -0.15160,   0.03339,  -0.06479,  -0.04721,  -0.11198,   0.07315,   0.02315,  -0.09213,   0.15492,  -0.04749,   0.11952,   0.06765,   0.12989,   0.00749,   0.17634,   0.01064,  -0.13212,  -0.03761,   0.06491,   0.11340,   0.14669,  -0.00198,   0.11256,  -0.01955,   0.09406,   0.03369,  -0.10497,   0.08220,  -0.03504,  -0.02087,   0.00080,   0.01968,  -0.01606,  -0.00382,   0.07186,   0.01720,  -0.00568,   0.10299,   0.10106,  -0.15341,  -0.13233,  -0.01400,   0.01595,   0.14168,   0.03463,   0.02486,  -0.10129,  -0.06744,   0.09804,   0.04455,  -0.07500,   0.01874,  -0.02257,  -0.15558,   0.01799,  -0.03285,   0.11546,  -0.09578,   0.04965,  -0.10513,   0.22229,   0.05495,   0.02954,  -0.06495,   0.08122,   0.00203,   0.08984,  -0.04472,  -0.04480,   0.01271,  -0.09643,  -0.03754,   0.18032,   0.09111,  -0.02278,  -0.04006,  -0.00706,  -0.06505,   0.08584,  -0.12481,  -0.07998,  -0.11634,  -0.11510,  -0.06218,   0.01280,   0.00947,   0.01073,  -0.02445,   0.04640,  -0.01813,   0.12693,   0.16810
   0.07528,   0.00561,  -0.01622,  -0.03869,   0.00648,  -0.04588,   0.11460,   0.00582,  -0.01989,   0.00292,   0.09515,   0.00043,  -0.07103,   0.09179,  -0.14873,  -0.03204,  -0.07019,  -0.06888,  -0.09881,   0.07155,  -0.05548,  -0.03941,   0.08098,  -0.01441,  -0.17233,  -0.09782,  -0.06458,  -0.15251,  -0.00338,  -0.11650,  -0.03919,   0.05806,   0.14855,   0.15659,  -0.07403,   0.09759,  -0.05114,  -0.05869,  -0.03624,  -0.02208,   0.13283,   0.20503,  -0.17202,  -0.03376,   0.13551,  -0.08011,   0.12019,  -0.03146,  -0.09925,   0.02651,   0.04678,   0.01804,   0.07074,  -0.08094,   0.05283,  -0.16080,   0.13525,   0.03394,   0.12522,   0.11524,   0.11937,   0.10950,  -0.02071,   0.10627,  -0.12637,  -0.11828,  -0.09562,  -0.04007,  -0.10304,  -0.07030,   0.08448,   0.04303,   0.06752,  -0.08611,   0.09632,   0.06799,  -0.10207,  -0.15902,   0.18277,  -0.10741,  -0.13890,   0.04866,  -0.05850,  -0.01147,  -0.05708,   0.07126,   0.08582,   0.06508,  -0.00191,   0.08240,   0.12781,  -0.17288,  -0.09264,  -0.06611,  -0.16089,  -0.09641,   0.03300,  -0.05142,  -0.06940,   0.08221,  -0.11518,  -0.08197,  -0.10772,  -0.09379,  -0.03045,  -0.04610,   0.09213,  -0.06226,   0.06536,  -0.01058,  -0.16545,   0.17091,   0.04561,   0.09171,   0.01039,  -0.02340,   0.11755,   0.10840,   0.05438,   0.09498,   0.12697,   0.05509,   0.04446,   0.01993,   0.11746,   0.03011,  -0.01878,   0.07117
   0.08806,   0.11168,   0.13565,  -0.12183,  -0.05697,   0.04766,  -0.02654,  -0.10736,  -0.00083,  -0.04580,   0.17468,   0.03012,  -0.07504,  -0.06578,  -0.11207,   0.02699,   0.01480,  -0.03102,   0.04678,   0.11894,  -0.05596,   0.05866,   0.00152,   0.03200,  -0.08344,  -0.08410,  -0.09808,   0.01430,  -0.13994,  -0.11322,  -0.02414,   0.08294,   0.14371,   0.03396,   0.10899,   0.07872,  -0.11642,  -0.07575,  -0.03891,  -0.00995,   0.10019,   0.17145,  -0.10705,   0.13869,   0.01831,   0.05356,  -0.01538,   0.07442,   0.16270,   0.01702,  -0.03124,   0.06963,   0.16249,  -0.07339,  -0.02330,   0.10775,  -0.03453,   0.10360,  -0.07752,   0.05863,  -0.03854,   0.06608,   0.05260,  -0.05543,   0.00681,  -0.13459,   0.16632,   0.05425,  -0.02897,   0.14793,   0.11475,   0.13420,   0.00001,   0.06485,   0.01834,  -0.14742,   0.17463,  -0.01280,   0.08920,  -0.03527,  -0.00527,   0.01432,  -0.10963,  -0.22435,   0.09422,  -0.10477,  -0.07010,   0.11670,  -0.08855,   0.07687,   0.10968,   0.02397,  -0.10478,  -0.03766,   0.02869,  -0.02176,  -0.12996,   0.12528,   0.00657,   0.05137,  -0.13453,   0.05735,   0.08926,   0.10004,  -0.03906,  -0.13014,   0.11097,  -0.00746,   0.04297,  -0.00936,   0.18049,  -0.13563,  -0.07364,  -0.04670,   0.08637,   0.21403,  -0.08032,   0.01511,  -0.07362,   0.03429,  -0.00103,  -0.04174,   0.09423,  -0.02466,  -0.18407,  -0.07116,   0.05706,   0.05800
   0.12500,  -0.21059,  -0.01479,   0.02207,   0.17991,   0.04613,   0.11910,  -0.09137,   0.02767,  -0.10423,   0.01947,   0.09934,   0.09832,   0.07855,  -0.04238,  -0.05303,   0.11750,   0.07201,   0.07900,   0.14847,   0.03188,  -0.07746,  -0.03297,   0.01320,  -0.16698,   0.03649,  -0.03693,  -0.05845,  -0.15300,   0.14215,   0.10087,  -0.04905,  -0.15152,  -0.01157,  -0.20389,  -0.03567,   0.07094,   0.06888,   0.02235,   0.01380,  -0.05579,   0.08999,  -0.04731,  -0.08102,  -0.04781,  -0.06938,   0.06344,   0.03525,   0.04471,  -0.02710,   0.05063,   0.01844,   0.13626,   0.06400,  -0.09205,   0.09936,  -0.07030,   0.05426,  -0.01068,   0.17888,   0.05795,   0.00620,  -0.08283,   0.11640,  -0.19641,   0.01476,   0.16205,   0.01002,   0.02639,  -0.03479,   0.07284,  -0.03066,  -0.16653,   0.15168,   0.08621,  -0.07622,  -0.08491,  -0.09734,   0.05179,   0.13928,   0.09216,   0.07513,   0.13423,  -0.01018,   0.03746,  -0.06679,   0.05856,   0.08691,  -0.07372,  -0.10869,   0.00616,  -0.03442,  -0.14100,  -0.00318,  -0.05699,  -0.00359,  -0.05048,   0.16048,  -0.09881,  -0.04560,  -0.00470,   0.05373,  -0.02113,  -0.11117,  -0.03216,   0.02015,  -0.03098,   0.01259,   0.12079,  -0.07273,  -0.00404,   0.19742,   0.10796,  -0.04998,   0.14102,   0.16212,  -0.03356,   0.02227,   0.11574,   0.08666,   0.04976,   0.03384,   0.09550,  -0.08405,  -0.11245,  -0.12644,   0.04612,  -0.06373
   0.08452,   0.02447,  -0.14653,  -0.02339,  -0.08320,   0.01003,   0.13670,  -0.02736,   0.02148,   0.03376,  -0.04682,  -0.09565,  -0.10099,   0.07765,   0.11238,   0.13068,   0.05413,   0.04100,   0.04407,   0.03204,  -0.12859,  -0.07292,   0.12929,  -0.14527,  -0.16802,  -0.02627,   0.04283,   0.09416,  -0.12285,   0.15698,  -0.20610,  -0.07267,  -0.04471,   0.12380,  -0.02594,  -0.05248,   0.05458,  -0.09919,   0.14107,   0.11021,  -0.15398,  -0.05446,  -0.03956,   0.07737,   0.17877,   0.03059,  -0.10601,  -0.08235,  -0.10180,  -0.08975,  -0.09681,   0.15107,   0.07285,  -0.03386,  -0.02012,  -0.00435,   0.10877,   0.05857,   0.06994,   0.12196,  -0.04054,   0.18475,   0.03113,   0.10219,  -0.00436,  -0.05550,   0.12251,   0.00260,   0.04830,   0.01725,  -0.10096,  -0.04925,   0.02178,   0.06137,   0.08731,   0.01898,   0.00008,  -0.12001,  -0.04539,  -0.06974,  -0.10139,   0.08048,   0.07171,  -0.16527,   0.03547,  -0.06793,   0.01806,   0.05839,  -0.04707,  -0.02148,  -0.07280,  -0.01187,  -0.05192,   0.06690,  -0.02385,  -0.13247,  -0.12354,  -0.11234,  -0.12152,   0.10713,   0.08941,   0.08295,  -0.01795,  -0.07068,  -0.09037,   0.01891,  -0.03062,   0.07557,  -0.00373,  -0.08317,  -0.12735,  -0.09484,  -0.02268,  -0.00607,  -0.01795,   0.06761,  -0.12708,   0.09607,  -0.09647,   0.08858,  -0.06725,  -0.16258,   0.02136,   0.14907,  -0.10668,  -0.04045,  -0.04031,   0.04066
  -0.15818,  -0.12050,  -0.08323,   0.06804,   0.16305,   0.08846,  -0.02855,   0.12408,   0.10047,   0.13210,   0.01999,   0.11157,   0.02518,   0.13204,   0.06710,   0.04108,  -0.16917,   0.02307,  -0.11307,   0.01626,   0.10319,  -0.08674,   0.07330,   0.07334,  -0.00673,  -0.02789,   0.04592,  -0.01966,   0.05588,  -0.08451,   0.08850,   0.03049,  -0.15045,   0.11241,  -0.02523,   0.03934,  -0.09993,   0.02138,  -0.03842,  -0.09270,  -0.07645,  -0.15563,   0.08757,  -0.12324,  -0.00648,   0.00896,   0.13385,   0.12853,   0.03547,  -0.03023,  -0.05225,  -0.09018,   0.05657,  -0.05163,   0.12183,   0.00239,   0.09058,  -0.04211,  -0.04646,  -0.04030,  -0.06281,   0.12039,  -0.05947,  -0.01303,  -0.15787,  -0.00837,  -0.03585,   0.08880,   0.15422,   0.05676,   0.01310,   0.01326,   0.10188,   0.11072,  -0.03477,   0.00138,  -0.09483,  -0.11581,   0.02457,  -0.05674,  -0.14478,   0.12418,  -0.06812,  -0.16706,  -0.04116,   0.09764,  -0.04795,   0.05887,  -0.12855,  -0.14330,   0.09286,  -0.06198,  -0.15334,   0.05198,  -0.01943,   0.04479,   0.04348,   0.09936,   0.01792,   0.03225,   0.18415,  -0.02003,  -0.03171,  -0.09092,  -0.07973,  -0.10781,  -0.15840,  -0.07931,   0.10033,  -0.01419,  -0.07266,   0.04425,   0.16688,   0.04094,   0.08093,  -0.06276,   0.02200,  -0.08547,  -0.01134,   0.03105,  -0.01834,   0.05350,  -0.04951,  -0.03568,   0.06126,   0.05300,  -0.15964,   0.01909
   0.07361,   0.10103,   0.17163,  -0.08805,   0.00332,   0.15472,   0.08986,  -0.08008,  -0.12591,   0.04814,  -0.06012,   0.02530,   0.09536,   0.05561,  -0.04314,  -0.12361,  -0.04920,   0.02706,   0.00592,   0.01240,   0.09664,   0.03611,   0.10690,  -0.00473,  -0.05417,   0.13446,  -0.06375,  -0.16540,   0.06014,  -0.13444,  -0.06681,  -0.01683,   0.10916,   0.01206,   0.02969,   0.01800,  -0.03766,   0.08918,   0.09175,  -0.12534,   0.12765,  -0.04604,   0.08424,   0.01313,   0.07687,   0.02450,  -0.11481,  -0.10614,   0.00132,   0.04467,   0.03922,   0.02967,   0.01766,   0.07372,   0.07929,  -0.09209,   0.09687,  -0.06706,   0.01330,   0.09323,   0.01132,  -0.07624,  -0.14527,  -0.09736,  -0.11008,   0.00552,  -0.08125,  -0.09667,  -0.14652,   0.02555,   0.02997,  -0.01505,  -0.01779,   0.06338,  -0.12011,  -0.00528,  -0.03422,   0.06898,  -0.16849,  -0.12288,   0.06531,  -0.12452,   0.13765,  -0.06900,   0.09868,  -0.12957,  -0.13677,  -0.12396,  -0.17160,  -0.03187,   0.01286,  -0.11240,   0.11367,   0.04559,   0.12858,  -0.00104,  -0.07718,  -0.05285,   0.11938,   0.08111,   0.06429,  -0.00030,  -0.08580,  -0.08874,   0.10562,   0.11389,   0.05466,   0.03675,  -0.07662,   0.04966,  -0.10308,  -0.00946,   0.08208,  -0.08882,   0.01860,   0.01540,   0.02535,   0.08560,   0.03314,   0.17045,  -0.17555,   0.07470,  -0.07778,  -0.09476,  -0.06241,  -0.08429,   0.00728,   0.03367
   0.10650,  -0.09057,   0.13620,   0.05835,   0.00988,   0.02826,  -0.08414,   0.02155,  -0.02370,  -0.04785,   0.07052,  -0.04752,  -0.03668,   0.02268,   0.05936,  -0.15568,  -0.01611,   0.07621,   0.01867,  -0.03195,  -0.01459,  -0.20326,  -0.00567,  -0.00105,   0.06434,  -0.10066,   0.12507,   0.00475,  -0.00024,  -0.12078,  -0.00829,  -0.14235,   0.01919,  -0.08496,   0.05062,  -0.16790,   0.06782,  -0.11391,   0.08034,  -0.09862,   0.00172,  -0.00421,   0.03319,  -0.06401,  -0.04370,  -0.01933,  -0.04621,   0.15578,  -0.09947,   0.02771,   0.06497,   0.08296,   0.07408,   0.15814,   0.02925,  -0.05220,  -0.02311,  -0.00166,  -0.03702,  -0.02407,   0.09557,  -0.10487,  -0.00052,  -0.12541,  -0.02986,  -0.10370,  -0.12921,  -0.02542,  -0.04323,  -0.05218,   0.01908,  -0.08991,   0.04714,  -0.16304,   0.06527,   0.02187,  -0.00143,  -0.06297,   0.07372,  -0.11001,   0.10167,  -0.17959,  -0.01188,   0.06758,   0.13224,  -0.06056,  -0.09956,   0.03927,   0.02455,   0.07556,   0.01617,   0.08967,   0.05311,   0.07522,  -0.06264,  -0.08088,   0.00473,  -0.06862,   0.03357,  -0.10580,  -0.18286,  -0.02250,   0.06462,  -0.01880,   0.04924,  -0.15285,  -0.10122,  -0.19139,  -0.05936,  -0.01078,  -0.05767,  -0.08854,  -0.05319,  -0.03016,  -0.02565,   0.11458,   0.13656,   0.07216,   0.11972,   0.01744,  -0.13897,  -0.09414,   0.01731,  -0.02753,   0.03890,  -0.00389,  -0.10261,  -0.07377
  -0.12290,   0.13045,   0.02495,  -0.05451,   0.13948,   0.04654,  -0.01537,   0.00637,   0.00633,   0.03339,  -0.07193,   0.11235,   0.09030,  -0.00446,  -0.04143,   0.04051,  -0.10065,   0.11933,  -0.05904,   0.04650,   0.13652,   0.11416,  -0.08285,   0.02633,   0.15508,  -0.05952,   0.08616,   0.01916,  -0.09065,   0.05543,   0.04884,  -0.06443,  -0.06647,  -0.02646,  -0.10308,  -0.14602,  -0.02145,  -0.09674,  -0.05119,   0.03455,  -0.01763,   0.07335,  -0.15319,  -0.10595,   0.00529,  -0.05571,  -0.03900,  -0.14851,  -0.16052,  -0.02368,   0.00360,  -0.07168,   0.10130,  -0.14877,   0.04915,   0.04578,   0.10189,  -0.05287,   0.10492,   0.10664,  -0.07794,   0.03807,  -0.00571,   0.11801,  -0.05963,   0.04852,  -0.04663,  -0.09150,   0.08779,  -0.00989,  -0.00983,  -0.11571,   0.08285,   0.09486,  -0.16904,  -0.07267,  -0.05606,   0.02852,   0.09942,  -0.13005,   0.17390,  -0.06941,   0.02470,   0.04050,   0.10002,   0.04098,  -0.05581,  -0.05027,   0.02548,  -0.04426,   0.12594,  -0.13969,   0.01079,   0.00151,  -0.10678,  -0.04396,   0.07703,  -0.10949,   0.01434,   0.01365,  -0.04229,   0.02552,   0.08529,  -0.13036,  -0.00226,  -0.08940,  -0.06559,   0.08466,   0.06069,   0.08420,   0.00633,  -0.03163,  -0.02420,  -0.02266,   0.11229,  -0.08768,   0.18198,   0.02665,   0.15338,   0.11515,  -0.13567,   0.02713,   0.02007,  -0.03925,  -0.02427,  -0.00641,   0.13709,   0.10210
   0.15525,  -0.07888,  -0.11213,   0.10927,  -0.05214,   0.09018,   0.00592,  -0.10959,  -0.14750,   0.03086,   0.16007,   0.16172,  -0.13992,   0.11542,   0.02654,   0.10841,   0.11134,  -0.10605,   0.09095,   0.00842,  -0.06013,  -0.14586,  -0.09591,  -0.03146,   0.14268,   0.03735,  -0.10798,  -0.16715,  -0.11719,  -0.07341,   0.17607,   0.14294,   0.00669,   0.04538,   0.02523,  -0.00734,   0.11730,  -0.02040,   0.17985,   0.00852,   0.00003,   0.10185,  -0.05683,   0.01337,   0.04322,  -0.12843,  -0.09525,  -0.02060,   0.02134,   0.04763,  -0.08594,   0.08387,  -0.06946,  -0.01917,  -0.02963,  -0.09636,   0.02989,   0.03031,  -0.11257,  -0.03334,   0.07887,   0.04007,   0.02390,  -0.04192,  -0.00967,  -0.08898,   0.10542,   0.06676,  -0.13315,   0.00794,  -0.09431,  -0.01038,  -0.02501,  -0.06122,   0.00340,  -0.01000,  -0.17821,  -0.08336,   0.08599,   0.02363,   0.01192,   0.09867,   0.01087,  -0.07074,  -0.10121,  -0.12167,   0.05446,   0.11508,   0.03522,   0.05776,  -0.07256,   0.03836,   0.14178,   0.10870,   0.01322,  -0.01348,  -0.02939,   0.00171,   0.00950,  -0.02335,  -0.06098,  -0.10891,   0.04744,  -0.04236,  -0.09642,   0.03121,   0.20650,   0.05103,   0.08563,  -0.12300,  -0.08184,   0.08523,   0.03163,   0.11967,   0.00742,   0.14167,   0.12644,  -0.03676,   0.00401,  -0.07597,  -0.06736,  -0.06604,   0.10824,   0.07625,  -0.13309,   0.01966,   0.08368,   0.02600
   0.14330,  -0.02401,   0.12627,   0.23307,  -0.05766,   0.24964,  -0.08002,   0.07649,   0.00115,  -0.00948,   0.00655,  -0.06624,  -0.05439,   0.01048,   0.11556,   0.05706,   0.08958,  -0.11647,   0.07907,  -0.10740,   0.07737,   0.02016,   0.03024,   0.13297,  -0.05364,  -0.07217,  -0.01062,  -0.08863,  -0.15561,  -0.12261,   0.00643,  -0.09391,  -0.03587,  -0.00831,  -0.01443,  -0.07872,   0.04029,   0.02722,  -0.02228,   0.03634,  -0.05534,  -0.16913,   0.13034,   0.08001,   0.08597,   0.13699,   0.07466,   0.06667,   0.10385,  -0.14921,  -0.00583,  -0.05447,  -0.02110,   0.09607,   0.09330,   0.01050,  -0.11071,  -0.04825,   0.15472,   0.03248,   0.05247,  -0.13340,  -0.15130,   0.00092,   0.07196,  -0.07712,  -0.06035,   0.06453,   0.05003,   0.03341,   0.10630,  -0.01831,  -0.03371,   0.08576,  -0.01627,  -0.13501,  -0.10326,   0.07987,  -0.14594,  -0.06016,   0.01285,   0.03644,  -0.13620,  -0.06983,   0.05111,  -0.01082,   0.26161,  -0.06040,   0.01562,   0.13292,   0.01133,   0.03529,   0.18113,   0.09872,  -0.07062,  -0.11852,  -0.12358,  -0.06924,   0.03670,   0.06030,  -0.03174,  -0.08626,   0.06709,   0.10367,   0.04539,   0.04563,   0.07103,   0.05166,  -0.04438,  -0.09718,  -0.16420,  -0.19984,  -0.08683,  -0.00963,  -0.05774,   0.06178,   0.14306,   0.00887,  -0.09856,  -0.10275,   0.02773,   0.05762,  -0.03347,   0.07339,   0.05369,   0.06474,  -0.06500,   0.09235
  -0.01390,  -0.24810,   0.25013,  -0.08508,   0.08924,  -0.09598,   0.15136,   0.06462,  -0.01758,   0.05275,  -0.05959,   0.02453,   0.03082,  -0.06393,  -0.09289,  -0.02615,  -0.14643,   0.07371,  -0.01633,  -0.05520,   0.02038,  -0.07990,  -0.05562,  -0.15344,  -0.25688,   0.16673,  -0.15032,  -0.02392,  -0.13554,   0.03311,  -0.00275,  -0.12756,   0.01842,   0.13573,  -0.12012,   0.07892,  -0.13243,  -0.14131,   0.04925,  -0.11804,  -0.04082,   0.01918,  -0.02048,  -0.02394,  -0.01737,  -0.01628,  -0.10033,  -0.06534,  -0.01119,   0.06989,  -0.07420,  -0.01133,   0.02509,  -0.05160,  -0.08302,  -0.07939,  -0.13303,   0.04801,   0.07234,  -0.05235,   0.00501,   0.16369,  -0.03235,   0.04317,   0.05706,   0.13626,  -0.10053,   0.17696,   0.11886,   0.13702,   0.08803,  -0.01037,  -0.09047,  -0.02246,   0.06749,   0.17152,  -0.00169,   0.09427,  -0.08371,   0.00038,   0.08478,  -0.06287,   0.03651,  -0.04200,  -0.00530,  -0.01664,   0.01273,  -0.03465,  -0.05322,   0.01028,   0.09069,  -0.04388,  -0.14418,  -0.01657,   0.02026,   0.10864,  -0.00910,  -0.14109,  -0.08514,  -0.06832,   0.08446,   0.04552,  -0.07523,  -0.14723,  -0.02588,  -0.07923,  -0.03343,   0.11039,  -0.18102,   0.10941,  -0.07642,  -0.04558,   0.18016,   0.06409,   0.00548,  -0.12130,   0.04812,   0.16744,   0.06999,   0.02295,  -0.04119,  -0.04496,  -0.01805,  -0.13129,  -0.04651,  -0.00197,  -0.12816,   0.00738
  -0.03805,   0.11123,   0.07170,  -0.03821,  -0.12001,  -0.01134,   0.04926,   0.03568,  -0.08133,  -0.15050,  -0.01127,  -0.04834,  -0.03028,  -0.03474,   0.06450,   0.04730,  -0.00289,   0.02110,   0.12005,   0.00225,  -0.02979,   0.04451,  -0.06835,  -0.12866,   0.00752,  -0.04748,  -0.01683,  -0.11373,   0.04306,  -0.04328,   0.01630,  -0.02526,   0.10618,  -0.06214,  -0.08672,   0.12752,   0.03024,   0.05735,  -0.05512,  -0.09044,   0.18294,   0.09915,   0.03223,   0.04378,   0.10026,   0.08664,   0.09011,  -0.11670,   0.02766,  -0.03111,  -0.00290,  -0.00986,   0.01408,  -0.01777,   0.11803,  -0.04217,   0.06428,   0.00176,  -0.21038,  -0.14517,   0.10838,  -0.06841,   0.08558,  -0.08523,  -0.09997,  -0.07628,  -0.04045,  -0.01939,  -0.08321,   0.03291,  -0.10701,  -0.04230,  -0.05942,  -0.06931,  -0.08504,   0.09853,   0.13307,   0.02448,   0.18703,  -0.06912,  -0.08168,   0.10946,   0.13223,   0.04435,   0.06898,   0.12558,  -0.00499,   0.05460,   0.14341,  -0.02277,   0.05675,  -0.00970,   0.07785,  -0.12721,  -0.08801,   0.07297,  -0.14721,  -0.04433,   0.12956,  -0.07560,   0.17096,   0.08895,   0.13613,  -0.04680,   0.08440,   0.09368,  -0.00762,  -0.03733,   0.07594,   0.09755,   0.00602,  -0.12359,  -0.08709,   0.01049,   0.13317,  -0.06308,  -0.02691,   0.08116,  -0.13007,   0.06699,   0.07009,   0.12546,  -0.12415,   0.06428,   0.19562,  -0.00177,   0.14026,   0.05914
  -0.09921,  -0.04845,  -0.13171,  -0.11329,  -0.05155,  -0.01573,   0.11343,  -0.17144,   0.02594,  -0.14432,   0.17415,  -0.03300,   0.04927,   0.02176,   0.04767,  -0.09783,   0.11628,  -0.03839,   0.03777,   0.11379,   0.04895,   0.05302,   0.07620,  -0.01752,  -0.04480,  -0.16155,   0.04304,   0.08897,  -0.03812,  -0.02233,  -0.09238,  -0.02858,   0.13959,   0.01442,   0.11523,   0.09153,  -0.09312,   0.07893,  -0.04188,  -0.02563,   0.02046,   0.17143,  -0.06348,   0.14263,  -0.05642,  -0.00184,   0.10443,   0.07613,   0.08525,   0.02303,  -0.02524,   0.15403,  -0.01874,  -0.03995,   0.06961,   0.05579,  -0.19825,  -0.04848,   0.08009,  -0.06518,  -0.01145,  -0.05229,   0.08546,   0.13574,  -0.05778,  -0.21911,   0.03111,  -0.04710,  -0.10603,  -0.02907,  -0.00263,  -0.14344,   0.14825,  -0.00434,   0.10999,   0.05449,  -0.01413,   0.11307,  -0.00188,  -0.14944,   0.10935,  -0.13838,   0.04355,   0.01335,   0.10948,   0.07342,   0.09077,  -0.13251,  -0.03810,  -0.02559,   0.08415,   0.05043,  -0.00318,   0.00478,  -0.03009,  -0.00296,  -0.03615,   0.20337,  -0.01631,  -0.03866,  -0.04203,   0.04888,  -0.05065,   0.19408,   0.07692,   0.04880,  -0.09034,   0.01330,  -0.05019,  -0.17594,  -0.15904,  -0.00835,   0.11165,  -0.01146,   0.05438,  -0.06142,  -0.12675,  -0.11417,  -0.00374,   0.11179,   0.15617,  -0.04700,   0.00012,   0.08128,   0.15890,   0.01599,  -0.08583,  -0.04171
   0.10062,   0.13321,  -0.02102,   0.05793,  -0.03214,  -0.11561,  -0.03907,   0.06688,  -0.05844,  -0.13278,  -0.07973,   0.03076,   0.01129,   0.08935,  -0.18837,   0.03116,  -0.00486,  -0.10500,  -0.12925,   0.06046,   0.04476,  -0.09415,  -0.20277,  -0.12123,  -0.07467,  -0.07839,  -0.08645,   0.09296,   0.03392,  -0.17941,   0.04983,   0.08600,   0.07718,  -0.11961,  -0.01991,  -0.15316,  -0.12092,   0.04128,  -0.06676,  -0.16553,  -0.01485,  -0.07775,  -0.17058,   0.09838,   0.11710,  -0.00848,   0.08317,  -0.08069,  -0.01083,  -0.13176,   0.06230,  -0.04950,  -0.07531,  -0.01088,  -0.02904,  -0.09937,   0.05052,  -0.12506,   0.01826,  -0.14617,   0.13442,   0.12105,   0.03054,  -0.14831,  -0.11364,  -0.10108,   0.02469,  -0.07457,   0.09219,   0.04483,  -0.03782,   0.05382,  -0.02754,  -0.01876,  -0.11150,   0.04319,  -0.11895,   0.07713,  -0.03628,   0.12150,  -0.10044,   0.06957,   0.05452,   0.03363,   0.10131,  -0.11702,  -0.07032,  -0.08983,  -0.05115,  -0.09661,  -0.18191,  -0.01408,  -0.11140,  -0.06542,  -0.02687,   0.03257,   0.06891,   0.09899,   0.00414,   0.11977,  -0.08640,  -0.01689,  -0.02315,  -0.10544,  -0.12052,   0.00696,  -0.01911,   0.00054,  -0.16274,  -0.12549,  -0.03689,  -0.01761,   0.04023,   0.11169,  -0.11895,  -0.00023,  -0.00460,  -0.06334,  -0.10084,  -0.05862,  -0.11898,   0.05564,  -0.07963,   0.12098,  -0.03663,  -0.13211,   0.04329,  -0.08577
  -0.00747,  -0.14819,   0.14185,  -0.04271,   0.00511,   0.04060,  -0.08073,   0.01664,   0.04260,   0.08154,  -0.09111,  -0.10497,   0.03112,   0.06168,   0.06234,  -0.05069,   0.02780,  -0.02434,   0.01671,   0.04797,  -0.23032,   0.01816,  -0.04653,  -0.05516,  -0.03339,  -0.13929,   0.06162,   0.00792,  -0.00944,   0.00729,  -0.17036,  -0.10672,   0.16109,  -0.01125,  -0.01100,   0.16081,  -0.02519,  -0.15596,   0.05673,  -0.03868,  -0.11300,   0.02225,  -0.03091,  -0.07507,  -0.15639,   0.07503,  -0.02275,  -0.03868,   0.06301,   0.11119,  -0.15397,  -0.03349,   0.05803,  -0.03827,   0.00825,  -0.03630,   0.01547,   0.08362,   0.19237,   0.00407,  -0.04110,   0.16162,   0.09666,   0.06630,  -0.02795,   0.02379,  -0.11361,  -0.02192,   0.03391,  -0.01316,   0.01917,  -0.02025,   0.11443,  -0.12475,   0.12347,   0.16129,  -0.13367,   0.02629,  -0.07232,  -0.00734,   0.02911,   0.03881,  -0.09023,  -0.02203,  -0.22126,   0.05775,  -0.01660,  -0.02100,   0.08098,   0.03908,   0.12627,  -0.00872,   0.05080,   0.16270,  -0.08281,   0.04266,   0.03478,   0.04046,  -0.13510,  -0.04476,  -0.16730,  -0.01325,  -0.02140,  -0.10812,   0.03906,   0.11817,   0.05259,   0.05459,   0.06063,  -0.12050,   0.03601,   0.08891,   0.15812,  -0.09217,   0.10158,  -0.19203,   0.00375,  -0.07717,   0.02796,  -0.13229,   0.04876,  -0.05964,  -0.06351,  -0.04726,   0.15550,  -0.02409,  -0.12850,   0.03792
   0.06015,   0.16063,  -0.08218,   0.05567,  -0.18160,   0.08788,  -0.05367,  -0.04664,  -0.16165,  -0.19415,   0.03268,  -0.04434,   0.03501,  -0.08599,  -0.05427,  -0.00727,   0.12084,  -0.17500,  -0.04875,  -0.15674,  -0.07142,  -0.13917,  -0.02961,  -0.01450,  -0.06302,  -0.05189,  -0.02665,  -0.17606,   0.09793,   0.06444,  -0.00772,   0.07192,  -0.02832,  -0.01394,  -0.04050,   0.00763,  -0.12290,   0.12658,  -0.17445,  -0.09979,  -0.19340,   0.02684,   0.09327,   0.11543,   0.02295,  -0.04463,   0.10756,  -0.17524,  -0.05182,   0.09243,  -0.10905,  -0.12001,   0.08241,  -0.06740,  -0.02938,  -0.12241,  -0.09870,   0.01770,   0.01047,  -0.06618,   0.05990,   0.08578,  -0.02525,  -0.01326,  -0.00466,  -0.14209,  -0.04820,  -0.14419,   0.06465,   0.10383,  -0.12613,  -0.03168,  -0.09025,  -0.08654,  -0.01042,   0.04175,   0.12888,  -0.01905,   0.10577,  -0.07828,  -0.09767,   0.09920,  -0.08654,   0.05194,  -0.08868,  -0.06540,   0.05043,  -0.17640,  -0.02343,  -0.10391,   0.09199,  -0.05601,  -0.03155,   0.16341,   0.17288,  -0.01244,   0.06216,  -0.04283,   0.02306,  -0.08326,  -0.05225,   0.13990,   0.09154,  -0.07009,   0.10502,   0.15557,  -0.06249,  -0.09936,   0.02540,  -0.03438,  -0.11989,  -0.04570,  -0.05322,   0.02311,  -0.11245,  -0.07074,  -0.14159,   0.14838,  -0.02392,   0.21413,  -0.09430,  -0.07804,  -0.16584,   0.18381,   0.03548,   0.03283,  -0.17534,   0.10131
