   0.02631,  -0.15619,   0.01830,   0.19565,  -0.05859,  -0.08909,   0.08055,  -0.13127,  -0.03760,  -0.16271,   0.03173,  -0.01934,   0.07612,  -0.14002,   0.06110,   0.03514,   0.15483,  -0.12532,   0.10253,  -0.00459,  -0.08898,   0.01969,   0.04434,  -0.06967,   0.08353,   0.04023,   0.05154,  -0.09004,   0.17008,  -0.01701,   0.18750,  -0.12304,  -0.08136,   0.12323,  -0.01222,  -0.07647,  -0.00814,  -0.04445,  -0.00223,   0.00927,   0.10140,   0.03066,   0.08343,   0.00791,   0.18974,  -0.12452,   0.04707,  -0.21453,  -0.18526,  -0.04280,  -0.00766,  -0.09032,  -0.03782,   0.07306,  -0.06036,   0.06542,   0.04098,  -0.15721,  -0.03364,   0.05313,  -0.00418,  -0.03395,   0.14410,   0.08750,   0.14921,   0.00721,   0.00774,  -0.06679,  -0.08491,   0.01673,   0.19385,   0.02916,   0.07954,  -0.06487,  -0.06643,  -0.12507,  -0.11215,  -0.11523,   0.04432,  -0.05112,   0.25974,  -0.03797,   0.05482,   0.02235,  -0.05507,  -0.11533,   0.00778,  -0.03946,  -0.15351,   0.08374,  -0.01342,   0.06501,  -0.08340,  -0.09790,  -0.04024,  -0.00170,  -0.05612,  -0.17388,  -0.09060,   0.08830,   0.02293,  -0.11760,   0.12553,   0.00066,   0.07390,   0.09381,  -0.11034,   0.10127,   0.10596,  -0.08079,  -0.03723,  -0.00760,   0.04977,   0.00617,  -0.07473,   0.02076,   0.07567,  -0.13450,   0.09652,  -0.08850,   0.07792,  -0.11975,   0.09521,  -0.06574,   0.07919,  -0.02024,   0.06236,  -0.06698
   0.00579,   0.06605,  -0.01823,  -0.21456,  -0.22409,  -0.14019,  -0.00245,  -0.09710,   0.11758,  -0.04627,   0.12253,   0.06832,   0.13971,  -0.00829,   0.10246,  -0.02514,  -0.01754,   0.03727,  -0.02551,  -0.08733,  -0.03039,  -0.00599,   0.17154,   0.11719,  -0.03734,   0.08052,  -0.00018,  -0.05155,   0.13343,   0.17077,  -0.16525,   0.11487,   0.09727,  -0.00316,   0.05202,  -0.03641,  -0.10549,   0.06016,  -0.15495,   0.05596,   0.00940,   0.11314,  -0.13515,   0.07826,  -0.09141,   0.00708,  -0.08392,   0.00779,  -0.01106,   0.07490,  -0.03590,  -0.07346,  -0.22651,   0.00148,  -0.02796,   0.09444,   0.06520,   0.04395,   0.04947,   0.02029,   0.11040,   0.04311,  -0.06699,  -0.14045,   0.03045,   0.02037,  -0.13288,   0.04063,   0.04746,   0.09842,  -0.08847,   0.00168,  -0.05028,  -0.00312,  -0.00240,   0.03695,   0.11353,   0.01351,   0.05508,  -0.17275,   0.02303,   0.18198,  -0.17663,  -0.13114,  -0.00461,   0.09135,   0.10637,   0.21255,  -0.13969,   0.06011,   0.00339,   0.00067,  -0.25129,  -0.00927,   0.05768,   0.11152,   0.08993,  -0.00941,  -0.01278,   0.02853,   0.03588,  -0.01718,  -0.21035,  -0.07455,  -0.15641,   0.11664,   0.03008,  -0.08822,  -0.01810,  -0.08496,  -0.02991,  -0.00736,   0.08699,  -0.03888,  -0.00386,  -0.06408,  -0.07453,   0.06570,   0.02380,  -0.00914,  -0.11542,   0.04873,   0.17766,  -0.10580,   0.13796,  -0.02989,   0.04987,   0.05024
   0.00081,   0.03168,  -0.09269,  -0.11238,  -0.12682,  -0.04434,   0.00318,  -0.16224,  -0.01113,  -0.20298,  -0.01248,  -0.10555,  -0.03142,  -0.15172,   0.15794,   0.06150,   0.09812,   0.06863,   0.01308,   0.07985,   0.02124,  -0.06557,  -0.02206,   0.08415,   0.02104,  -0.13218,  -0.03741,  -0.13863,  -0.05191,   0.10112,   0.08111,  -0.06505,   0.06874,   0.06350,  -0.01913,   0.05204,   0.11244,  -0.15779,   0.06224,  -0.11547,   0.07126,  -0.11827,   0.08223,  -0.04965,   0.09349,  -0.01982,  -0.02743,   0.07351,   0.10414,  -0.00096,   0.06629,  -0.03429,  -0.07181,  -0.11369,   0.19675,   0.05952,  -0.09168,   0.02498,   0.05673,  -0.07808,  -0.06295,  -0.18229,   0.02868,   0.07128,   0.04791,  -0.03135,   0.10391,   0.02443,  -0.11601,  -0.02159,  -0.13443,   0.02608,  -0.07780,  -0.07322,   0.05966,   0.06885,   0.13153,   0.00269,  -0.14320,  -0.16023,   0.15212,   0.05507,   0.06370,   0.08206,   0.11637,   0.08491,  -0.00604,   0.04611,   0.01035,  -0.04653,   0.01673,  -0.13132,   0.21432,  -0.07242,  -0.09959,   0.06042,  -0.01153,   0.03258,  -0.02415,  -0.00328,   0.07909,   0.03776,  -0.01536,   0.04000,  -0.06215,  -0.12636,   0.06733,  -0.14034,   0.22273,   0.00477,  -0.07771,  -0.06551,  -0.06498,   0.05072,   0.09949,  -0.18025,   0.09351,  -0.06112,   0.12257,  -0.10820,   0.11724,   0.02265,  -0.09227,   0.14786,  -0.06257,  -0.03517,   0.04006,   0.08095
  -0.17889,  -0.00779,   0.13648,  -0.07065,  -0.10552,  -0.19866,  -0.21404,  -0.11205,  -0.02906,  -0.22367,   0.21141,  -0.15390,   0.07494,   0.04552,   0.23846,   0.14881,   0.05004,   0.02165,   0.00684,   0.04242,   0.12403,   0.06769,   0.00571,  -0.01474,  -0.26290,   0.03288,  -0.03126,  -0.10210,   0.08271,   0.01835,   0.04263,   0.04680,  -0.08661,  -0.01479,   0.00612,  -0.02294,  -0.14140,  -0.05849,   0.04123,   0.02088,  -0.05266,   0.01445,  -0.01947,   0.03354,  -0.01839,   0.09501,   0.03453,   0.02092,  -0.01402,  -0.03247,  -0.02928,  -0.07552,  -0.08772,   0.02464,  -0.03212,   0.02698,  -0.18663,   0.08039,   0.06436,  -0.03796,   0.01793,   0.11305,  -0.00218,  -0.05902,  -0.06137,   0.16302,  -0.02292,   0.06569,  -0.08089,  -0.04034,  -0.02709,   0.15914,   0.07103,   0.09060,  -0.09565,   0.03252,  -0.16848,   0.02401,   0.14670,  -0.00721,  -0.05710,  -0.05954,   0.15487,  -0.03071,  -0.17400,  -0.04188,   0.05467,   0.03595,  -0.10689,   0.06506,  -0.17735,   0.03101,   0.03850,  -0.02168,   0.02286,   0.11090,   0.10707,   0.05170,   0.11882,  -0.03930,  -0.10272,   0.08081,  -0.12644,  -0.04270,   0.03070,   0.06109,   0.02048,   0.11013,   0.05650,  -0.10500,   0.10082,  -0.06069,   0.16981,   0.17495,  -0.02244,   0.00720,  -0.21658,  -0.10070,  -0.12547,   0.02610,   0.05943,   0.12416,  -0.08653,   0.04892,  -0.00804,   0.07651,  -0.10765,  -0.09584
   0.11327,   0.13631,   0.00092,   0.12645,  -0.30432,  -0.14898,   0.11366,  -0.23132,   0.08141,   0.18809,   0.19517,   0.04422,  -0.00733,   0.18940,  -0.04795,  -0.00542,  -0.17315,   0.14158,   0.10414,   0.01408,  -0.05478,   0.00181,   0.09244,   0.07257,  -0.00793,  -0.06790,  -0.09304,   0.04814,   0.01473,  -0.09459,  -0.15440,  -0.02142,   0.12845,   0.01153,   0.01592,  -0.01322,   0.02167,   0.06351,   0.10214,   0.10376,  -0.04066,   0.02890,  -0.06499,  -0.01604,  -0.20358,   0.07301,  -0.05788,  -0.06479,  -0.12180,  -0.09046,   0.01040,  -0.10526,  -0.03824,   0.04392,  -0.14144,  -0.00807,  -0.09926,  -0.02967,   0.06402,   0.07623,   0.11529,  -0.00557,  -0.13544,  -0.02809,  -0.06763,   0.04908,  -0.00779,   0.04396,  -0.18074,   0.10259,   0.06005,  -0.01414,  -0.16408,   0.12184,  -0.01402,   0.05849,  -0.16634,   0.01029,   0.10634,  -0.05131,  -0.22719,   0.05937,  -0.14649,  -0.04148,   0.04460,   0.08769,  -0.04405,  -0.04344,   0.00430,   0.16434,  -0.05803,   0.01785,  -0.03453,  -0.01989,  -0.12904,   0.07922,   0.02168,  -0.08515,   0.13164,   0.03827,   0.08565,   0.02195,  -0.14086,   0.15680,   0.14615,   0.18122,  -0.02395,   0.01224,   0.06750,   0.01856,   0.00669,   0.01287,  -0.01788,   0.02519,  -0.01086,   0.02032,  -0.10690,  -0.02274,  -0.06206,  -0.10865,   0.04299,   0.02337,   0.01444,   0.04138,  -0.07964,   0.04813,   0.06723,   0.06493
   0.10167,   0.29399,  -0.14958,   0.22310,  -0.24226,  -0.13112,   0.04104,   0.02114,   0.11865,   0.14084,   0.08465,   0.09183,   0.06016,   0.11171,   0.03853,  -0.06515,  -0.08688,  -0.11589,  -0.04467,   0.10540,  -0.10016,   0.03799,  -0.04581,   0.04087,  -0.00041,  -0.09848,   0.12456,  -0.01408,  -0.05328,  -0.10941,   0.03349,   0.05243,   0.01230,  -0.01272,   0.07819,   0.00064,  -0.03989,  -0.01628,  -0.02695,   0.01254,   0.05098,  -0.02810,   0.01055,   0.02770,  -0.06796,  -0.12131,  -0.02583,  -0.08910,  -0.07611,   0.09181,   0.06876,   0.01160,   0.15467,   0.00948,   0.15202,   0.10170,   0.08463,  -0.12310,  -0.04958,   0.07511,   0.00557,   0.03416,   0.02002,  -0.03393,  -0.07616,  -0.10955,   0.15412,   0.10246,   0.07581,  -0.05574,   0.06894,  -0.03383,   0.00329,   0.00028,   0.01367,  -0.07896,   0.04966,  -0.08212,   0.04965,   0.02907,  -0.02427,  -0.18468,   0.13430,   0.06401,  -0.06867,  -0.06139,   0.18705,   0.03289,   0.05557,  -0.01437,   0.06904,   0.07065,  -0.05095,   0.01333,   0.06316,  -0.03560,  -0.00459,   0.04688,  -0.15691,  -0.02143,   0.18965,   0.09364,  -0.08720,  -0.10481,   0.00195,  -0.02060,   0.15799,  -0.09027,  -0.06255,   0.04314,   0.06481,  -0.03397,  -0.08555,  -0.15161,  -0.01426,  -0.04273,   0.01997,  -0.00268,   0.12113,  -0.07535,  -0.11605,   0.08448,   0.09559,  -0.10231,  -0.05484,  -0.03412,  -0.06183,   0.00297
  -0.04829,   0.12148,  -0.01132,   0.18226,  -0.13509,   0.13167,  -0.25441,   0.09833,  -0.14167,   0.00681,   0.06943,  -0.03721,   0.07778,   0.07532,  -0.14688,  -0.12155,  -0.10004,   0.06610,   0.01697,  -0.19186,   0.11943,  -0.09757,   0.14796,  -0.11938,   0.13678,   0.00884,   0.23600,  -0.06379,   0.04272,  -0.05419,  -0.11081,   0.02521,  -0.05838,  -0.10460,  -0.02675,  -0.02894,   0.00662,  -0.04249,   0.06623,  -0.04515,  -0.08658,  -0.00750,  -0.05919,  -0.14381,   0.15758,   0.15888,  -0.10087,   0.00324,   0.14846,   0.06951,   0.08175,  -0.04956,  -0.07285,   0.06651,   0.13264,  -0.11201,  -0.06909,   0.08082,   0.16216,   0.03796,  -0.05366,   0.13705,   0.11150,  -0.13591,   0.14849,   0.02735,   0.00129,  -0.07040,   0.13684,   0.03392,   0.04496,  -0.08976,   0.13911,  -0.03336,   0.13024,   0.01323,   0.06213,   0.10465,  -0.04205,   0.08908,   0.09389,   0.13339,  -0.03085,  -0.04900,  -0.04526,  -0.06344,   0.20210,  -0.14708,  -0.07900,   0.01552,   0.21295,   0.02716,   0.11377,   0.07116,   0.15438,   0.01578,   0.05035,  -0.08484,   0.14064,  -0.00378,   0.03656,  -0.05588,  -0.06838,   0.07399,  -0.06123,   0.03956,  -0.04673,  -0.01052,   0.10878,  -0.01227,   0.10642,  -0.14002,  -0.08688,   0.10160,   0.09485,   0.02425,   0.08218,  -0.05186,   0.03338,   0.03936,   0.05161,   0.00935,   0.15121,  -0.11885,   0.06249,  -0.01836,  -0.10761,   0.11011
  -0.23732,  -0.03478,  -0.21188,   0.04500,  -0.05314,  -0.18332,   0.01194,  -0.06627,   0.09750,  -0.19649,   0.02587,  -0.13207,   0.05733,  -0.16942,   0.13912,  -0.14410,   0.29765,   0.11045,   0.09412,  -0.01565,   0.03032,   0.08234,   0.11927,  -0.07583,   0.00696,   0.04361,   0.00468,   0.07841,   0.19527,  -0.14798,   0.02103,  -0.09268,   0.17169,   0.08370,  -0.06393,   0.02184,  -0.03669,   0.10561,   0.00845,  -0.12089,  -0.00107,  -0.05566,   0.20274,  -0.06189,  -0.07967,   0.11614,  -0.11191,   0.04595,   0.00662,   0.04108,  -0.01344,  -0.05516,  -0.07715,  -0.02330,  -0.06877,  -0.14689,   0.03827,  -0.04940,   0.02823,   0.14461,   0.25612,   0.03133,  -0.14330,   0.03955,  -0.09427,  -0.06050,   0.12180,  -0.03613,  -0.06408,   0.05086,   0.10122,   0.07081,  -0.09024,  -0.08039,   0.12156,   0.04126,   0.05428,  -0.02992,   0.11995,   0.08220,  -0.03444,  -0.06047,  -0.05455,   0.05757,   0.00890,  -0.02794,   0.10628,  -0.08198,  -0.04826,  -0.05246,  -0.05532,   0.04464,  -0.00323,   0.05750,  -0.02822,  -0.07976,  -0.14840,   0.04048,  -0.08093,  -0.14121,  -0.08499,  -0.03957,  -0.15220,  -0.05717,   0.17467,  -0.09561,   0.14860,   0.04306,  -0.05315,   0.05628,   0.14636,  -0.07472,   0.16171,   0.05014,   0.13610,  -0.06640,  -0.03859,  -0.08184,  -0.01962,  -0.03518,   0.03367,  -0.02763,  -0.03212,   0.01321,   0.06154,   0.06052,  -0.07599,   0.01743
  -0.07370,   0.09569,  -0.04319,  -0.18763,  -0.13861,  -0.15357,  -0.05098,  -0.12709,   0.08752,  -0.01527,   0.03430,   0.00103,   0.11566,  -0.03572,   0.07101,  -0.01970,   0.01176,  -0.05709,  -0.01254,  -0.13138,   0.04830,  -0.00417,   0.04434,  -0.02926,   0.03593,   0.00467,  -0.06712,   0.02983,   0.27013,  -0.05086,   0.16642,   0.04157,  -0.06616,  -0.03510,  -0.12097,  -0.08072,  -0.09469,   0.00044,   0.12928,  -0.12422,   0.12209,   0.02432,   0.09635,  -0.05121,  -0.03269,  -0.11220,  -0.11684,  -0.02842,   0.12118,  -0.03355,   0.03473,  -0.10286,   0.10504,  -0.13634,   0.04316,  -0.14174,   0.06019,  -0.00863,   0.11340,  -0.06199,   0.03171,   0.04135,  -0.10924,  -0.13667,   0.13639,  -0.07955,  -0.04017,  -0.04774,  -0.04659,  -0.06457,  -0.07097,  -0.01268,   0.05301,   0.02808,   0.11315,  -0.13723,   0.04291,  -0.07082,  -0.10167,  -0.13905,   0.10871,  -0.19502,  -0.01850,  -0.15197,   0.14295,   0.05057,   0.14776,   0.04026,   0.12838,   0.04412,   0.02870,  -0.09217,   0.23591,  -0.02290,   0.10877,   0.04409,  -0.06266,  -0.06395,   0.09060,  -0.11385,   0.12474,  -0.06596,   0.10359,   0.06068,  -0.03217,  -0.00676,   0.10074,  -0.02013,   0.14157,  -0.04847,   0.09370,   0.08089,  -0.08560,  -0.16257,  -0.07049,   0.07774,  -0.04792,   0.04079,   0.04662,   0.05014,  -0.02392,   0.03545,  -0.10153,  -0.08511,  -0.03379,  -0.15498,  -0.00880,   0.03979
   0.13736,  -0.22807,   0.28663,  -0.05182,   0.00658,   0.03578,  -0.18125,   0.08254,  -0.02448,  -0.01196,   0.08023,   0.10227,   0.04583,  -0.10071,  -0.07864,   0.04762,  -0.10976,   0.05016,   0.06223,  -0.01977,  -0.08030,   0.15761,   0.00218,  -0.07865,   0.00421,  -0.09075,   0.12555,  -0.02856,   0.12452,  -0.13631,  -0.09358,   0.11442,   0.04789,   0.00653,   0.03694,  -0.07065,  -0.12845,   0.05365,   0.03636,  -0.05763,  -0.03677,   0.01030,   0.08765,  -0.02356,  -0.03633,  -0.03646,  -0.10591,   0.09662,   0.15437,   0.04762,   0.00573,  -0.18004,  -0.11067,   0.02374,   0.09148,  -0.12389,   0.01284,  -0.05358,   0.11508,   0.01538,   0.13092,   0.11135,  -0.17128,  -0.19417,   0.01429,  -0.06499,   0.07987,   0.05436,  -0.03987,   0.04235,   0.13334,   0.13980,  -0.04986,  -0.01289,   0.12591,  -0.10623,  -0.11675,  -0.00115,   0.10176,  -0.10679,  -0.22658,  -0.05214,  -0.14268,   0.03279,   0.08496,   0.14574,   0.02364,   0.04745,   0.02554,  -0.03024,   0.03203,   0.04015,  -0.04857,  -0.01971,  -0.12959,   0.08153,   0.08947,  -0.10656,  -0.16084,   0.04950,   0.03400,   0.07036,  -0.24998,  -0.07887,  -0.23898,  -0.08688,  -0.07863,  -0.08690,   0.01141,  -0.01754,  -0.11726,   0.04504,  -0.15190,  -0.10398,  -0.11520,   0.09309,   0.06224,  -0.08368,   0.01958,  -0.04892,   0.04046,  -0.06563,  -0.13990,  -0.09015,   0.07455,   0.01886,   0.00335,  -0.03101
  -0.11421,  -0.08524,   0.17044,   0.15370,  -0.04847,   0.20742,  -0.03264,   0.12305,  -0.07605,   0.04544,   0.01449,   0.05001,   0.03315,  -0.08719,  -0.04218,   0.08722,   0.13921,  -0.00928,  -0.01936,   0.04312,   0.03075,   0.12638,  -0.21738,   0.02403,  -0.11811,   0.10107,  -0.01580,  -0.03967,  -0.14518,   0.04923,  -0.11300,  -0.00472,  -0.19107,   0.01293,   0.10203,   0.09740,   0.01426,  -0.02613,  -0.01116,  -0.00409,  -0.00260,   0.00458,  -0.19351,  -0.01271,   0.03692,  -0.01467,   0.10630,  -0.13510,   0.02760,   0.09262,   0.02816,  -0.08423,   0.15821,  -0.08786,  -0.06344,   0.10434,   0.01391,   0.04275,  -0.00418,   0.01065,  -0.03405,  -0.04712,  -0.19144,  -0.01968,  -0.09848,   0.09830,   0.12006,  -0.05378,   0.08777,   0.14458,  -0.16478,  -0.00737,   0.08655,   0.04481,  -0.01509,   0.11396,  -0.12397,   0.09913,  -0.08056,  -0.04140,   0.08203,   0.06443,  -0.00393,  -0.00472,  -0.15641,   0.01619,  -0.17083,   0.12085,  -0.13740,   0.04663,  -0.25846,  -0.02094,   0.07288,  -0.00682,  -0.05818,   0.02221,  -0.05376,   0.11737,  -0.10346,  -0.06138,  -0.07031,   0.05466,   0.08406,   0.01574,  -0.04655,   0.09155,  -0.10999,   0.01852,   0.16672,   0.01877,  -0.02120,   0.01769,  -0.14912,   0.00027,  -0.05605,  -0.08985,   0.02404,  -0.06336,   0.00512,   0.12718,  -0.10090,   0.08398,   0.12222,  -0.08135,  -0.11630,  -0.06823,   0.00248,   0.05227
  -0.15199,  -0.00629,   0.03868,  -0.00816,   0.07968,  -0.17725,   0.11782,  -0.07359,   0.18742,   0.20253,   0.09656,   0.17791,   0.03445,   0.13155,   0.14445,   0.05478,  -0.01524,  -0.01249,  -0.15720,  -0.03925,  -0.16510,  -0.01373,  -0.03433,  -0.09804,   0.05165,  -0.09408,   0.19579,  -0.10614,   0.03556,   0.08945,   0.07183,  -0.06582,   0.05963,  -0.05796,  -0.11627,   0.03265,  -0.02518,  -0.06002,  -0.09053,   0.05830,  -0.01441,  -0.07300,  -0.05010,  -0.01379,   0.16176,  -0.12652,  -0.07478,   0.00076,   0.09941,   0.09696,   0.13591,  -0.14472,   0.11447,   0.05022,  -0.03719,   0.09998,   0.06801,   0.08581,  -0.00583,  -0.04529,   0.16346,  -0.16240,   0.01977,  -0.06650,   0.05971,  -0.00652,   0.00389,   0.04429,  -0.11358,  -0.08753,   0.17111,  -0.07364,   0.05904,  -0.06181,  -0.03512,  -0.08844,   0.10644,  -0.01941,  -0.13195,  -0.10432,   0.06309,   0.03537,   0.06968,  -0.16394,   0.14083,  -0.03936,   0.01064,  -0.02899,   0.00120,  -0.08839,   0.01505,   0.05071,  -0.04297,   0.08844,   0.04846,   0.00256,  -0.06344,  -0.02750,   0.11352,  -0.12477,  -0.03965,  -0.13948,  -0.01016,  -0.10669,  -0.05226,  -0.03678,  -0.11050,  -0.08147,  -0.08118,  -0.01818,   0.07072,  -0.04843,  -0.14964,   0.06032,   0.14824,   0.13028,   0.13353,  -0.04419,   0.13425,  -0.09492,   0.11673,   0.06317,   0.07223,  -0.10547,  -0.09547,   0.09124,  -0.18757,   0.03768
   0.13896,   0.30975,  -0.05685,   0.31524,  -0.17685,   0.04380,  -0.04192,  -0.16105,  -0.10486,  -0.17999,  -0.12444,  -0.02040,   0.01363,  -0.04661,  -0.02793,   0.06213,   0.12667,   0.00258,   0.02211,   0.04163,  -0.01299,  -0.08858,  -0.07121,   0.08889,   0.01951,   0.02249,   0.01439,   0.02872,   0.08400,  -0.05885,  -0.05641,  -0.05892,  -0.09924,   0.09742,  -0.04155,  -0.06546,  -0.06095,   0.05208,   0.02518,  -0.08463,  -0.07594,   0.01195,   0.00608,   0.04927,  -0.05933,  -0.08039,   0.19026,   0.06237,  -0.17924,   0.05546,  -0.07087,  -0.13579,   0.04464,   0.07921,   0.11969,   0.08066,   0.07396,  -0.07678,   0.13987,  -0.03709,   0.05489,   0.01492,   0.06107,  -0.07632,  -0.13611,   0.02105,   0.09306,   0.15583,   0.15462,  -0.03995,   0.01964,  -0.06874,  -0.10707,   0.01937,  -0.11560,   0.06865,  -0.05004,  -0.13724,   0.02192,   0.05534,  -0.02925,  -0.06557,   0.07092,  -0.04099,  -0.01097,   0.05035,  -0.21828,  -0.10578,  -0.05773,  -0.08247,  -0.11601,   0.14346,  -0.09016,  -0.08425,  -0.15671,   0.13973,   0.11155,   0.02024,   0.15056,  -0.01726,  -0.05980,  -0.15203,   0.19518,  -0.06475,   0.13876,  -0.02017,  -0.04103,   0.04703,  -0.06042,   0.13966,   0.06141,  -0.03393,   0.11245,  -0.01500,  -0.09481,  -0.00906,  -0.02876,   0.02170,  -0.12067,   0.11370,   0.06068,  -0.02101,  -0.10623,   0.08105,  -0.05707,   0.02163,   0.03502,  -0.05388
  -0.01440,  -0.24276,   0.13886,  -0.07780,   0.00206,  -0.05586,   0.22350,   0.08976,   0.20467,   0.14311,   0.11596,   0.14074,   0.06319,   0.17101,   0.03730,   0.04774,   0.00121,   0.08737,  -0.16494,   0.06106,  -0.00246,   0.03589,   0.14814,   0.09198,   0.13451,   0.05497,  -0.01178,  -0.03316,   0.19461,  -0.03262,   0.10521,   0.01497,   0.13547,  -0.08423,   0.17551,  -0.09289,   0.07691,   0.00067,   0.14147,   0.02378,   0.09366,   0.10488,   0.03373,  -0.11434,   0.19494,   0.07796,  -0.05153,  -0.08685,  -0.12821,  -0.07186,  -0.05515,  -0.10297,  -0.07785,  -0.07538,   0.17952,   0.10851,   0.17854,   0.00977,  -0.01239,   0.12788,   0.04877,   0.08940,  -0.06554,  -0.11015,   0.01990,  -0.01939,   0.02841,   0.11526,  -0.02063,  -0.01479,  -0.10693,   0.05551,  -0.01690,  -0.12092,   0.03509,   0.04231,   0.00780,   0.03826,  -0.08319,  -0.12421,   0.02430,   0.02903,   0.00613,  -0.07872,  -0.03186,   0.10418,   0.00779,  -0.03586,   0.05291,   0.12146,   0.01947,  -0.06852,  -0.08617,  -0.14291,  -0.03353,  -0.05852,   0.14796,   0.02087,  -0.04656,  -0.12885,  -0.12948,   0.12116,   0.14735,   0.10223,  -0.05533,   0.04193,  -0.06144,   0.04950,   0.09480,  -0.00866,   0.16413,  -0.11109,   0.06590,  -0.10445,   0.13270,  -0.10196,   0.11260,   0.05706,   0.10536,  -0.00476,  -0.02601,  -0.08745,  -0.02676,  -0.04377,   0.01663,  -0.08366,   0.02414,   0.02162
  -0.00389,  -0.14352,   0.03418,   0.22559,   0.04760,   0.04400,  -0.28649,  -0.22095,  -0.20408,  -0.17427,   0.06451,  -0.37034,  -0.01352,  -0.06281,   0.19401,  -0.01445,   0.04715,  -0.08538,   0.07850,  -0.10451,   0.06912,   0.09394,   0.21106,   0.14877,   0.10550,   0.10549,   0.16948,  -0.02755,  -0.09480,  -0.07229,   0.11182,   0.01379,   0.13685,  -0.11009,  -0.01765,   0.00293,   0.03334,  -0.01496,   0.01789,   0.02096,  -0.08739,   0.02242,   0.17547,  -0.07232,  -0.01349,  -0.00882,  -0.02901,   0.08945,  -0.04804,  -0.15755,   0.03268,   0.08818,  -0.06834,  -0.11861,   0.02286,  -0.00837,  -0.04106,   0.09059,  -0.09836,  -0.12532,  -0.06650,   0.08310,   0.10287,   0.06489,   0.08866,  -0.07943,   0.03676,   0.03571,  -0.14800,   0.02764,   0.15075,  -0.05054,   0.09102,  -0.04967,   0.01463,  -0.04648,   0.17992,   0.00059,  -0.18186,  -0.06870,  -0.06581,  -0.11139,  -0.00243,  -0.11571,   0.05915,  -0.12197,  -0.04980,   0.06355,   0.10539,   0.11339,   0.05509,  -0.11640,   0.10788,   0.00240,  -0.06700,  -0.05922,  -0.05501,   0.10297,  -0.01646,  -0.14190,  -0.03844,   0.01544,   0.11148,   0.03719,   0.02999,  -0.10268,   0.06714,   0.08889,  -0.15057,  -0.12197,  -0.04620,   0.02914,  -0.12896,  -0.20052,   0.02552,   0.02617,   0.12343,  -0.01421,  -0.11324,  -0.02333,  -0.11769,   0.01942,   0.09564,  -0.00098,  -0.04918,  -0.01783,  -0.06765,   0.00422
  -0.10924,  -0.07419,  -0.32970,  -0.32110,  -0.02969,  -0.24123,   0.23935,  -0.01656,   0.07442,   0.03389,   0.06939,  -0.05679,   0.06867,  -0.01998,  -0.01865,   0.00737,  -0.05921,  -0.03179,   0.16941,  -0.05866,   0.00400,   0.12819,   0.05301,   0.05905,   0.05638,   0.12017,   0.14665,   0.13990,   0.11984,  -0.06194,  -0.17833,   0.08432,  -0.01744,  -0.00615,  -0.18631,   0.05610,  -0.04431,  -0.06337,  -0.01479,  -0.02917,  -0.09025,   0.06823,  -0.13992,  -0.06084,  -0.13361,  -0.04501,  -0.18913,   0.01817,  -0.03670,   0.10710,  -0.05784,   0.05352,  -0.11926,   0.06110,  -0.07794,   0.07767,  -0.02947,  -0.04098,  -0.01875,   0.11229,  -0.05606,   0.11037,  -0.06191,   0.10939,   0.03840,  -0.07968,   0.06470,   0.04944,   0.01979,  -0.03712,  -0.09180,  -0.01726,   0.06700,  -0.02800,   0.05272,  -0.03705,  -0.12390,  -0.12372,   0.02201,   0.00966,  -0.00127,   0.06576,   0.07456,  -0.00312,   0.10873,   0.00814,   0.07848,  -0.07597,  -0.02444,  -0.08229,   0.03047,  -0.04201,  -0.01089,  -0.00007,  -0.03493,   0.11834,   0.03316,   0.05963,   0.15902,   0.13680,  -0.00336,   0.11202,  -0.01097,   0.06407,   0.03208,  -0.11107,  -0.06440,   0.05637,   0.09333,   0.13034,   0.10960,   0.00982,  -0.01313,  -0.07495,  -0.18394,   0.08205,   0.13258,   0.02076,  -0.07233,   0.08552,   0.01846,  -0.01041,  -0.01717,  -0.02997,  -0.16422,  -0.09820,  -0.06304,  -0.01576
  -0.14253,   0.07795,  -0.12194,  -0.13879,  -0.14528,  -0.05132,   0.12762,  -0.05625,  -0.01049,   0.08753,  -0.01039,   0.05281,  -0.12080,  -0.00761,   0.00159,   0.03584,   0.06892,  -0.07735,  -0.09989,   0.04587,  -0.11146,   0.06630,  -0.25217,   0.12758,   0.02744,  -0.02198,   0.09599,  -0.01161,  -0.01460,   0.13750,   0.13807,  -0.04579,   0.05456,   0.14950,  -0.29100,   0.13359,   0.05739,  -0.10750,  -0.11973,  -0.04680,   0.09015,  -0.06677,  -0.05623,  -0.08983,   0.06529,  -0.03943,   0.12516,  -0.12909,  -0.16339,  -0.01768,  -0.16881,   0.02208,   0.05458,  -0.01854,  -0.02302,  -0.08242,  -0.11459,   0.04311,  -0.00542,  -0.06489,   0.20435,   0.10605,   0.11687,  -0.07964,   0.02413,  -0.04963,   0.07311,  -0.05909,  -0.05572,  -0.18960,   0.04069,  -0.14088,  -0.04829,  -0.09271,  -0.00471,  -0.02436,   0.07150,   0.04914,  -0.09713,   0.13188,  -0.01501,  -0.05005,   0.17329,  -0.00513,  -0.05148,   0.07525,  -0.12437,  -0.01864,   0.03502,   0.14892,  -0.04136,  -0.04738,   0.08468,  -0.02163,  -0.11993,   0.11105,  -0.20827,  -0.14504,   0.11739,   0.07634,  -0.00513,   0.05227,   0.12330,  -0.02208,   0.02370,  -0.00465,   0.13256,  -0.01872,   0.16332,  -0.07414,  -0.11044,  -0.03850,   0.14656,   0.08023,  -0.18291,   0.12464,  -0.04161,   0.05587,   0.17418,   0.07922,   0.11867,  -0.03496,   0.02849,  -0.02112,  -0.14247,   0.02224,  -0.05642,  -0.02074
   0.07843,   0.13776,   0.02656,   0.13926,   0.10212,   0.17773,  -0.14894,   0.10166,  -0.03189,  -0.11988,  -0.03737,  -0.16053,  -0.04284,   0.08521,   0.05597,  -0.10942,  -0.02453,  -0.10805,  -0.03281,  -0.11552,  -0.04650,  -0.01932,  -0.03506,   0.01645,   0.00804,  -0.06329,   0.13093,   0.09180,  -0.04621,   0.01512,   0.11061,  -0.12531,   0.01483,  -0.01344,  -0.15737,  -0.08390,   0.01689,   0.07952,   0.08407,  -0.00681,   0.00789,   0.09333,  -0.06678,  -0.11790,   0.06099,  -0.02510,   0.14118,  -0.00294,   0.10436,   0.04434,  -0.06593,  -0.06704,   0.10898,   0.13023,   0.12958,  -0.03495,   0.03348,   0.11730,  -0.14755,  -0.13503,   0.13149,   0.01044,   0.01342,  -0.12633,  -0.06276,  -0.04906,   0.06994,  -0.13337,  -0.01320,  -0.08977,   0.01966,   0.00767,  -0.09656,  -0.02284,   0.10987,   0.04386,   0.14186,  -0.07568,  -0.01448,   0.05556,   0.00527,   0.07163,  -0.03765,   0.09098,   0.15757,  -0.00624,  -0.12058,   0.05278,   0.02588,  -0.06346,  -0.09401,  -0.09794,   0.02730,  -0.06316,  -0.10035,  -0.00247,   0.09918,  -0.06531,   0.01895,  -0.03407,  -0.05361,  -0.07184,   0.10101,   0.19351,   0.11899,   0.00582,  -0.05907,  -0.01564,   0.10766,  -0.01096,   0.07992,  -0.07880,  -0.07711,   0.09131,   0.06023,   0.12519,   0.01027,   0.01463,   0.07122,  -0.08667,   0.12768,   0.03826,  -0.04489,  -0.00155,   0.11331,  -0.00268,   0.11103,   0.02506
  -0.08216,   0.24582,  -0.20871,   0.02699,  -0.10096,   0.04905,  -0.16447,   0.01467,  -0.03288,  -0.13984,   0.06802,   0.00191,   0.10827,  -0.10090,   0.08513,  -0.08593,   0.05773,  -0.15318,  -0.10437,   0.09185,   0.03615,   0.11321,  -0.15846,  -0.06230,  -0.06980,  -0.09558,  -0.02512,  -0.04934,  -0.09486,  -0.03066,  -0.15432,  -0.05799,   0.02392,   0.06371,  -0.06681,  -0.14311,   0.02925,   0.10981,  -0.05743,   0.04047,  -0.00534,  -0.01954,  -0.01798,   0.00064,  -0.02051,   0.07569,   0.03437,  -0.02377,   0.17644,  -0.00425,  -0.17979,  -0.04485,  -0.08988,  -0.02172,  -0.10477,  -0.03389,  -0.17608,  -0.07808,   0.18040,  -0.09741,  -0.05127,  -0.03907,  -0.10383,  -0.02093,  -0.07208,  -0.06401,  -0.17102,  -0.12819,   0.11241,  -0.03708,   0.11596,  -0.01086,  -0.15230,  -0.05337,  -0.10867,   0.10770,   0.11166,   0.06797,  -0.06055,   0.15112,   0.11320,   0.00936,   0.14401,   0.05445,  -0.02376,   0.00988,  -0.06077,   0.01166,  -0.01998,  -0.01754,  -0.06809,   0.10503,   0.00284,   0.01487,   0.06285,   0.07400,   0.13627,   0.03143,   0.09722,  -0.04264,  -0.08638,   0.07662,  -0.07658,  -0.01671,  -0.11201,   0.07618,   0.13102,   0.08598,  -0.01005,   0.03840,   0.08760,   0.09890,   0.06857,   0.04059,  -0.05076,  -0.07272,  -0.03595,   0.06841,   0.12177,  -0.07604,  -0.00400,  -0.04439,  -0.07642,   0.03229,   0.09369,   0.07045,   0.03831,   0.05402
  -0.01881,  -0.00349,  -0.03489,   0.10115,   0.06528,   0.04415,  -0.02426,   0.02965,  -0.00419,  -0.01593,   0.12981,   0.20517,   0.02733,   0.09771,   0.06101,  -0.04600,  -0.20436,   0.21477,   0.03727,   0.03763,   0.06446,   0.05102,  -0.11372,   0.10254,   0.00827,  -0.09415,   0.00585,   0.16930,  -0.09764,   0.08311,  -0.05088,  -0.04189,   0.19501,  -0.12828,  -0.01784,   0.08472,  -0.13439,   0.04948,  -0.18575,  -0.07594,   0.21582,   0.15304,  -0.09757,  -0.02093,   0.07047,   0.10365,  -0.00016,   0.08251,   0.14569,   0.11818,  -0.15342,   0.08946,   0.10893,  -0.01202,   0.04891,  -0.03998,  -0.10603,   0.07544,  -0.07361,   0.10008,   0.05987,   0.12043,   0.10914,  -0.13612,  -0.12184,   0.07972,  -0.03189,  -0.01327,  -0.08672,  -0.15221,  -0.12521,  -0.05963,   0.09355,   0.00632,  -0.06000,  -0.01114,   0.03181,   0.01514,   0.07325,   0.00844,   0.09175,  -0.10946,   0.06652,   0.10710,  -0.06048,  -0.09737,   0.16408,  -0.05218,  -0.13027,   0.01264,  -0.10179,   0.07981,   0.01662,  -0.02101,   0.07821,   0.07318,  -0.09246,   0.05451,  -0.13051,   0.10479,   0.14457,  -0.06523,  -0.00043,   0.05637,   0.03165,   0.05148,   0.07699,  -0.06178,   0.11001,  -0.00577,   0.19492,   0.02771,   0.12944,  -0.00596,  -0.02929,  -0.08120,   0.00734,   0.09119,   0.12406,   0.06575,   0.04109,   0.14110,  -0.06193,  -0.04241,   0.00778,  -0.05051,   0.11025,   0.08344
  -0.10729,   0.00671,   0.11773,   0.08649,  -0.06961,   0.06686,  -0.08363,  -0.04345,  -0.10939,   0.05391,   0.05128,  -0.16517,   0.17023,  -0.01297,  -0.02317,   0.10072,  -0.09830,   0.06395,  -0.03708,  -0.01979,   0.17544,  -0.01356,   0.14501,   0.00846,  -0.02359,  -0.00471,   0.06976,  -0.08403,   0.03393,   0.06795,  -0.12599,   0.16110,  -0.01261,   0.00310,  -0.15075,   0.04872,   0.11159,   0.00369,   0.00257,   0.12233,   0.17989,   0.00423,   0.02583,   0.13091,   0.09895,  -0.07214,  -0.01472,  -0.22310,  -0.08562,  -0.01831,  -0.03866,  -0.03768,   0.05292,  -0.12139,  -0.18797,   0.06670,   0.10766,  -0.03867,  -0.07600,  -0.04625,   0.04083,   0.01339,   0.02506,  -0.03059,   0.04173,   0.06036,  -0.22788,   0.05376,  -0.00310,  -0.09421,   0.17385,   0.04801,  -0.05664,  -0.03592,  -0.11868,   0.03954,  -0.02883,   0.14255,   0.05330,   0.02786,   0.22904,   0.08192,  -0.05825,   0.04379,   0.09805,  -0.04758,   0.01266,  -0.02025,   0.05648,   0.16875,  -0.03306,   0.03326,   0.18421,   0.10785,  -0.03695,  -0.15119,  -0.13333,  -0.08232,  -0.20114,  -0.04077,   0.07018,  -0.10432,   0.00740,  -0.03244,  -0.14860,  -0.00948,   0.00135,   0.06095,   0.00991,  -0.00677,  -0.10978,   0.05027,  -0.04873,  -0.07165,   0.02265,  -0.06726,  -0.02117,   0.03088,  -0.01552,   0.06365,   0.17608,  -0.07676,   0.08623,  -0.07579,  -0.17855,   0.04771,  -0.11334,   0.04550
   0.10620,   0.08999,  -0.13127,   0.11099,   0.07643,  -0.13987,   0.07515,   0.10416,   0.14434,  -0.03704,  -0.02068,  -0.01956,   0.06578,   0.11323,   0.05173,   0.02029,  -0.07807,   0.03067,  -0.09615,   0.13578,  -0.20076,  -0.04803,   0.14776,  -0.15968,  -0.00980,   0.01869,   0.03834,   0.05334,  -0.15052,  -0.06472,   0.07454,   0.00767,  -0.12573,  -0.00154,  -0.01671,   0.06284,   0.13842,  -0.02150,  -0.03639,   0.00064,  -0.08579,   0.06810,   0.03018,  -0.09923,  -0.12943,  -0.00249,   0.07457,   0.08926,  -0.13598,   0.02535,  -0.05470,   0.11168,  -0.11957,   0.16697,  -0.13411,   0.00328,  -0.06315,   0.09194,  -0.05923,   0.00970,  -0.05275,   0.07417,   0.11297,   0.16705,   0.02319,   0.06757,  -0.03282,  -0.04708,  -0.06553,  -0.09366,  -0.10541,   0.04600,  -0.05694,  -0.00180,  -0.05972,   0.16399,  -0.20467,  -0.05458,   0.01242,   0.04909,  -0.11421,   0.03183,  -0.14716,   0.03148,   0.03776,  -0.00087,  -0.02694,  -0.09435,  -0.15483,   0.09271,  -0.11985,   0.07912,  -0.16722,   0.07455,   0.06409,  -0.07380,  -0.08213,   0.03607,   0.03935,  -0.01834,  -0.10951,   0.01363,  -0.02416,  -0.03836,  -0.02985,   0.02779,  -0.18026,  -0.08009,   0.08748,   0.01217,  -0.00256,  -0.03340,   0.05845,  -0.06569,   0.01423,  -0.03364,  -0.10706,  -0.02753,   0.06099,  -0.18866,  -0.01161,   0.03532,  -0.02408,  -0.07094,   0.08625,  -0.03447,  -0.03155,   0.07730
   0.11307,   0.03043,  -0.11447,  -0.04849,   0.10267,   0.10914,   0.01283,   0.00036,   0.06468,  -0.02658,  -0.05821,   0.16153,   0.01631,  -0.03625,   0.08539,  -0.03870,  -0.05288,   0.05780,  -0.22583,   0.06915,   0.06319,  -0.13625,  -0.05892,   0.04840,   0.09725,   0.04082,   0.16596,  -0.07341,  -0.02002,   0.05271,  -0.00719,  -0.07477,   0.00349,   0.02400,  -0.13422,  -0.03848,  -0.07978,  -0.05182,  -0.14916,  -0.06923,  -0.01943,   0.01366,   0.10266,  -0.14175,   0.11912,   0.05560,   0.13346,  -0.04134,  -0.00553,  -0.04095,  -0.01598,  -0.04685,   0.11760,  -0.09757,   0.00173,  -0.11078,  -0.01653,  -0.03221,   0.14005,  -0.05489,  -0.10112,   0.05728,   0.11153,  -0.00531,  -0.06867,  -0.12999,   0.00800,   0.11578,   0.13857,  -0.02762,  -0.03891,  -0.02738,   0.09905,  -0.02541,   0.21922,   0.13143,   0.13496,  -0.04765,   0.04549,  -0.13944,   0.09833,  -0.04608,  -0.06383,  -0.02685,   0.08234,  -0.03509,   0.19756,  -0.04688,   0.02778,  -0.07570,   0.16561,  -0.07487,   0.14625,   0.13284,  -0.05784,   0.00194,   0.04280,   0.03274,   0.06681,   0.02258,   0.18611,   0.15253,   0.05284,  -0.03196,   0.08208,   0.06622,   0.00270,  -0.03467,   0.10008,  -0.07106,   0.16976,   0.12524,   0.12612,  -0.14554,   0.12918,   0.05750,   0.17062,  -0.05528,   0.18106,  -0.11485,  -0.13209,  -0.09573,   0.15253,   0.07988,   0.05990,   0.04891,   0.10493,   0.09714
  -0.05708,  -0.04091,   0.24078,   0.00815,   0.13838,   0.06653,  -0.07487,   0.09778,   0.16523,   0.18369,   0.15108,   0.24920,  -0.05042,   0.17817,  -0.08878,   0.15250,  -0.17698,  -0.11849,  -0.17488,  -0.06795,  -0.14634,  -0.08698,   0.12723,   0.00386,   0.06510,  -0.10397,   0.02060,  -0.05965,  -0.19356,  -0.06172,   0.08728,   0.11608,   0.02563,   0.07361,   0.14892,  -0.05920,  -0.12473,   0.06918,  -0.15183,  -0.04125,   0.08205,  -0.03000,   0.12565,   0.07303,   0.04022,  -0.13680,   0.06341,  -0.13983,  -0.05896,  -0.07141,   0.05339,  -0.09311,  -0.08358,  -0.05504,   0.05061,  -0.00125,  -0.16678,   0.11010,  -0.10663,  -0.04891,  -0.08564,   0.09056,   0.04511,  -0.00567,  -0.13448,  -0.17127,  -0.15661,  -0.10635,   0.01936,  -0.15136,  -0.08305,   0.05621,   0.01383,   0.04355,  -0.08802,  -0.06129,  -0.04326,   0.00560,   0.05164,   0.08862,  -0.10874,  -0.03564,   0.01848,   0.04608,  -0.07511,   0.02965,   0.04416,  -0.04440,   0.14861,  -0.01196,  -0.08567,   0.08216,   0.11461,  -0.07705,  -0.13271,   0.04991,  -0.03165,   0.00054,  -0.03374,   0.02023,   0.07157,  -0.05751,  -0.06355,  -0.05474,  -0.02194,   0.01025,  -0.16281,  -0.03376,  -0.17698,  -0.07376,  -0.01382,   0.04600,  -0.11075,   0.03390,  -0.03577,  -0.05121,   0.05441,   0.09217,   0.08193,  -0.02112,   0.12761,   0.03590,  -0.11995,   0.02519,  -0.09677,   0.05641,  -0.04310,   0.06101
   0.06270,   0.10273,   0.14392,   0.09195,  -0.03184,   0.08029,  -0.02901,   0.13712,   0.08328,   0.11532,   0.12890,   0.15147,   0.08876,  -0.00385,  -0.17611,  -0.05883,  -0.11385,   0.00765,  -0.00330,   0.07484,  -0.07938,  -0.01598,  -0.07231,   0.04455,   0.00306,   0.04059,  -0.06780,   0.04327,   0.09688,  -0.10970,   0.05346,  -0.00201,  -0.10016,   0.05912,   0.05674,  -0.08056,   0.07648,  -0.03675,   0.07512,   0.02261,  -0.02399,  -0.13507,  -0.04665,  -0.07721,   0.06289,  -0.04963,   0.06162,  -0.11583,   0.06163,   0.01539,   0.11503,   0.14724,   0.00282,  -0.03389,   0.01298,  -0.03650,   0.13791,  -0.14461,   0.10088,  -0.01656,  -0.09726,   0.01577,   0.10463,  -0.06115,  -0.08538,   0.08080,   0.12454,  -0.04404,   0.07856,  -0.07688,   0.07431,  -0.00908,   0.14337,  -0.08425,  -0.00137,  -0.00324,  -0.07970,  -0.09431,  -0.06627,   0.01650,   0.11251,   0.05703,   0.08739,  -0.18922,  -0.04522,  -0.01295,   0.04503,  -0.01778,   0.01070,   0.02514,   0.10319,   0.01550,   0.02158,  -0.16964,  -0.03735,  -0.17691,  -0.03759,  -0.08620,   0.10116,  -0.01152,   0.03824,   0.08895,  -0.02021,   0.06523,  -0.06516,  -0.08618,  -0.08950,   0.02161,   0.05683,  -0.09489,   0.05748,  -0.12789,  -0.06325,  -0.06112,  -0.13998,  -0.10399,   0.19713,  -0.10537,   0.04311,   0.01199,  -0.02722,   0.00183,  -0.09373,  -0.07811,  -0.11003,   0.04682,   0.04839,  -0.10695
   0.02287,   0.02385,  -0.13996,  -0.05061,  -0.03117,  -0.06176,   0.09818,   0.12067,  -0.01797,   0.07198,  -0.13520,   0.05708,  -0.07563,  -0.08094,   0.09553,   0.03629,  -0.15786,  -0.10555,   0.05326,  -0.04776,   0.10735,  -0.19186,   0.11953,  -0.10072,   0.11422,  -0.10551,   0.08519,   0.09214,   0.14340,  -0.05637,   0.12329,   0.06180,  -0.02120,  -0.02485,  -0.20571,   0.12294,   0.01201,   0.06004,  -0.06082,   0.12675,   0.06712,   0.09850,  -0.02365,   0.07197,   0.23376,   0.12773,  -0.07411,  -0.09915,  -0.12503,   0.09141,  -0.12027,   0.10811,   0.12919,   0.06238,   0.05236,  -0.10579,  -0.06641,   0.07304,  -0.03925,  -0.10051,   0.04355,  -0.07147,   0.02870,   0.06597,  -0.04835,  -0.06494,  -0.08901,   0.05719,  -0.16108,  -0.12873,  -0.03101,   0.06389,   0.11003,   0.00558,   0.11560,  -0.04713,   0.03906,   0.08832,  -0.03765,   0.05830,   0.00118,   0.04778,   0.14962,   0.03615,  -0.06159,  -0.10861,   0.10969,  -0.08301,  -0.00408,   0.01665,   0.06955,   0.07717,   0.20962,  -0.07443,   0.07629,   0.00163,   0.08840,   0.02694,   0.00758,  -0.15901,   0.07721,  -0.06332,  -0.03766,  -0.04151,  -0.11255,   0.10715,   0.06794,   0.11712,   0.07795,  -0.11566,   0.15090,  -0.09787,   0.15533,   0.01711,   0.09801,   0.06201,  -0.07562,  -0.02860,   0.04591,  -0.07052,   0.07766,  -0.11679,  -0.12218,   0.00350,   0.02847,   0.04839,   0.13145,  -0.12005
   0.06176,   0.15053,   0.02816,  -0.06085,   0.03270,  -0.01946,  -0.07966,  -0.08562,  -0.06493,  -0.05148,  -0.20189,   0.05271,   0.03033,  -0.06957,  -0.02604,  -0.11611,   0.00986,  -0.03726,   0.10291,   0.10347,  -0.01821,  -0.10787,   0.00131,   0.05351,  -0.00725,  -0.03170,   0.04485,   0.04616,  -0.04301,  -0.06945,   0.10253,   0.02890,  -0.07996,  -0.07431,   0.00240,  -0.05201,   0.09040,  -0.05826,   0.09198,  -0.09389,  -0.22742,   0.12193,  -0.10155,  -0.06781,  -0.08175,   0.07681,  -0.05986,  -0.04769,  -0.09085,  -0.07772,  -0.06147,   0.07138,   0.01202,  -0.07191,  -0.05169,  -0.03703,  -0.07744,   0.12195,  -0.01919,   0.11842,  -0.19814,  -0.05834,   0.05506,   0.17264,  -0.01953,   0.01001,  -0.09487,   0.07914,   0.01476,  -0.00231,  -0.06108,  -0.10608,  -0.13804,   0.15198,  -0.04184,   0.13841,   0.03084,   0.18798,  -0.04959,  -0.05325,  -0.04282,   0.00548,  -0.17221,   0.04304,  -0.13152,  -0.00624,  -0.15524,  -0.10891,  -0.14646,   0.10803,  -0.05721,   0.11012,  -0.06441,   0.11468,   0.02346,   0.13317,  -0.01551,   0.06506,   0.11013,  -0.03690,   0.01969,  -0.10889,   0.00873,  -0.06551,   0.05845,  -0.07360,  -0.11021,   0.12507,  -0.05295,  -0.09829,   0.10063,   0.02871,  -0.08715,  -0.11749,   0.10127,   0.13789,  -0.07168,  -0.08666,  -0.18222,   0.07962,   0.04908,   0.06724,   0.08063,  -0.10174,   0.00700,   0.08558,   0.10284,  -0.05581
   0.20787,   0.21352,  -0.03414,   0.18145,  -0.03724,  -0.04931,   0.08642,   0.06565,  -0.00284,   0.13821,  -0.01180,   0.10168,  -0.13002,   0.12903,  -0.09445,   0.06010,  -0.19291,   0.02783,  -0.04503,  -0.13103,   0.11256,  -0.13746,  -0.05222,   0.08857,   0.13426,   0.03838,  -0.08609,  -0.02160,  -0.13032,  -0.06426,  -0.06201,   0.00056,   0.02991,  -0.03932,   0.03539,   0.08785,   0.04198,  -0.03300,  -0.07132,  -0.06364,  -0.10612,  -0.04580,   0.06967,  -0.02586,   0.17464,   0.00121,  -0.04947,   0.05575,  -0.05806,   0.13544,  -0.08149,   0.07659,   0.12952,  -0.06851,  -0.02269,   0.03945,   0.10509,   0.04480,   0.05838,   0.06051,   0.10604,   0.09145,   0.03934,   0.12666,   0.13625,   0.13829,  -0.07962,  -0.10031,  -0.17031,  -0.02042,   0.08504,  -0.15249,   0.01073,  -0.05725,  -0.12090,  -0.08142,   0.01497,  -0.01600,  -0.17231,   0.06480,  -0.00136,  -0.03312,   0.10694,  -0.03628,  -0.00559,   0.00144,  -0.04955,   0.01864,   0.06260,   0.01345,  -0.07899,  -0.04337,  -0.01789,  -0.10406,   0.11280,  -0.15866,  -0.00059,   0.08036,  -0.13899,   0.04995,  -0.05889,   0.05433,   0.12922,   0.04816,   0.01537,  -0.11474,   0.15867,   0.10574,  -0.02952,   0.08315,   0.03443,   0.02531,  -0.09839,   0.09371,  -0.09552,   0.00073,   0.13577,   0.12175,   0.04182,   0.06599,   0.02889,   0.08601,   0.09003,   0.10977,  -0.03300,   0.00493,   0.09918,   0.05873
  -0.03159,  -0.13068,   0.04673,  -0.02490,   0.05950,   0.01796,  -0.15419,  -0.11107,   0.09257,   0.05280,   0.19895,  -0.17690,   0.12942,   0.16454,   0.19803,  -0.02532,   0.04348,   0.18494,   0.08125,  -0.03149,  -0.09614,  -0.00712,  -0.12047,   0.08231,   0.03389,   0.10661,  -0.04949,  -0.05973,   0.01574,   0.10213,  -0.00125,   0.08399,   0.15356,  -0.09151,  -0.19988,   0.08810,  -0.14629,  -0.00559,  -0.02735,  -0.07192,  -0.11438,   0.01380,  -0.00814,   0.05298,   0.09216,   0.06902,  -0.08234,   0.03330,   0.03717,  -0.02056,  -0.13978,   0.11645,   0.07180,  -0.02273,  -0.14212,  -0.01787,   0.00982,   0.04500,  -0.14918,  -0.02603,  -0.02764,   0.21761,   0.12517,   0.09517,   0.12679,  -0.13005,  -0.00385,  -0.02646,  -0.07437,  -0.00582,   0.03547,   0.01832,  -0.10924,   0.01324,   0.07266,   0.03845,  -0.22301,  -0.08839,   0.18774,  -0.02316,   0.12244,   0.13861,   0.10156,  -0.16428,   0.05378,  -0.09594,   0.01057,   0.04392,  -0.03136,   0.06403,  -0.07323,  -0.00886,  -0.12514,  -0.04595,  -0.07465,  -0.07928,  -0.12327,  -0.07976,   0.06269,   0.02584,   0.01580,  -0.00212,  -0.00487,   0.15637,   0.08237,   0.13453,   0.22983,   0.03785,  -0.02865,  -0.10268,  -0.08786,   0.07094,   0.09665,  -0.05636,  -0.00940,   0.12535,   0.08522,  -0.04499,  -0.09536,  -0.11112,  -0.00947,   0.14064,   0.11090,   0.13487,   0.04360,  -0.01262,  -0.14375,   0.13124
  -0.14516,   0.14808,   0.06037,  -0.08869,  -0.01265,  -0.06653,  -0.10285,  -0.00040,  -0.06323,  -0.04929,  -0.00724,  -0.00682,   0.00461,  -0.09033,   0.01439,   0.02527,  -0.11364,   0.12642,  -0.08694,   0.00778,  -0.01390,   0.02277,  -0.00309,  -0.16553,  -0.08007,  -0.15904,  -0.11099,  -0.13981,   0.01768,  -0.01552,   0.16639,   0.07348,   0.01529,   0.05549,  -0.21218,   0.12968,  -0.07716,  -0.19460,  -0.05240,  -0.12739,   0.18622,   0.06809,   0.04798,   0.08688,   0.14748,  -0.17562,   0.09649,   0.06417,   0.02117,  -0.09614,  -0.05944,   0.00168,   0.04605,   0.00992,  -0.03611,   0.13081,  -0.04575,   0.17643,   0.04823,  -0.08130,   0.09721,   0.00464,   0.08205,   0.06695,   0.01071,  -0.04601,  -0.06815,  -0.12418,  -0.17132,  -0.09854,  -0.11132,   0.01248,  -0.06171,   0.04010,   0.08780,   0.10014,  -0.04726,  -0.13226,   0.09821,  -0.14497,  -0.00814,  -0.06799,  -0.02244,  -0.01702,  -0.08092,  -0.09240,  -0.03795,   0.02795,  -0.05868,  -0.13137,   0.14488,   0.12191,   0.22535,  -0.12005,   0.11806,  -0.13875,   0.11784,   0.09434,   0.00079,   0.03471,   0.16050,  -0.15305,   0.10131,   0.01681,   0.16734,  -0.14746,   0.01033,   0.11300,  -0.01978,  -0.01997,  -0.11103,  -0.06639,   0.17032,   0.00241,   0.07417,   0.03599,   0.07689,  -0.00657,   0.01872,  -0.01081,   0.10380,   0.08523,  -0.10137,   0.00034,  -0.00733,   0.05952,  -0.00625,  -0.01983
   0.13555,   0.14621,   0.00408,   0.08433,   0.08944,   0.03571,  -0.03767,  -0.02391,   0.10534,   0.03205,   0.02106,   0.00351,   0.07013,   0.01403,   0.09769,   0.04240,   0.04169,  -0.05693,  -0.12205,   0.04194,  -0.01589,  -0.11758,  -0.05497,  -0.09199,  -0.01590,   0.02641,  -0.00994,   0.05447,  -0.03058,  -0.02527,   0.20085,   0.06873,  -0.08094,  -0.06511,  -0.04842,   0.06203,   0.09955,  -0.02769,   0.18255,  -0.15384,   0.05579,   0.02413,  -0.09135,   0.06099,  -0.01950,  -0.15998,  -0.00154,   0.01913,   0.15808,  -0.13219,  -0.04597,   0.07266,   0.05499,  -0.09097,  -0.07984,   0.08039,  -0.06068,  -0.07928,   0.01348,  -0.08465,   0.05489,   0.07339,   0.14316,  -0.05304,  -0.00554,  -0.08085,   0.06400,   0.09565,  -0.09038,  -0.08011,   0.00862,  -0.04598,  -0.03093,  -0.03929,  -0.06656,  -0.16108,   0.15296,   0.13807,   0.07450,   0.07510,  -0.03908,  -0.11255,   0.00026,  -0.00207,   0.02231,  -0.03056,   0.08725,  -0.06294,  -0.00531,   0.10587,  -0.05407,   0.01916,  -0.00733,   0.07399,   0.02397,  -0.02893,  -0.03645,  -0.00280,   0.05967,  -0.15773,   0.05903,  -0.10209,   0.13351,  -0.19159,   0.00612,  -0.03338,   0.17057,  -0.12827,   0.10607,   0.07661,  -0.09755,  -0.13841,   0.04605,  -0.18932,  -0.03759,  -0.16379,   0.10946,  -0.00492,  -0.01386,  -0.01668,   0.11419,   0.01374,   0.19309,  -0.03488,  -0.00863,  -0.13919,   0.13559,  -0.04760
   0.10528,   0.04912,   0.05949,   0.11828,  -0.14561,  -0.06018,  -0.09642,  -0.13298,   0.04882,  -0.00030,  -0.08582,   0.09125,  -0.00430,  -0.05320,   0.17065,   0.06833,   0.00114,   0.13134,   0.08212,   0.07047,   0.02079,   0.04340,   0.00041,  -0.04348,   0.15405,  -0.06318,   0.05061,  -0.06408,   0.19267,  -0.09229,   0.14400,   0.01230,   0.02235,  -0.12556,   0.02053,   0.07437,   0.01896,  -0.11082,   0.09236,  -0.09379,   0.14730,  -0.01533,  -0.08205,   0.05349,   0.18410,   0.05552,  -0.09472,  -0.09137,  -0.03159,   0.08813,   0.07165,  -0.05113,   0.10405,  -0.02798,  -0.05026,  -0.09937,  -0.01781,   0.08517,   0.16562,   0.04733,  -0.13745,   0.03171,   0.06505,  -0.07089,  -0.05822,  -0.02023,   0.06468,  -0.06521,   0.03562,  -0.12637,  -0.01038,   0.02136,  -0.03352,  -0.03798,  -0.09305,   0.02373,  -0.09302,   0.02476,  -0.09351,  -0.12059,   0.07751,  -0.17855,   0.04178,  -0.05497,  -0.05837,   0.08270,   0.00047,   0.05018,   0.15001,   0.07782,  -0.05121,   0.03522,   0.04776,  -0.01445,   0.07313,  -0.02006,   0.14376,  -0.03842,   0.03498,   0.10273,  -0.09915,   0.16007,   0.09472,  -0.05318,   0.08460,  -0.01828,   0.03160,  -0.06581,   0.04517,  -0.06244,  -0.09782,   0.10801,  -0.06037,  -0.10756,   0.07513,  -0.03538,  -0.00324,  -0.09898,   0.07302,   0.09716,  -0.04034,   0.05248,  -0.07105,  -0.14479,   0.04922,   0.05752,   0.05597,  -0.01290
   0.10150,   0.20690,   0.04716,   0.09624,   0.07584,  -0.02046,   0.06403,  -0.08361,   0.02830,  -0.04381,   0.09058,   0.09744,   0.02201,   0.03036,  -0.06846,   0.01824,  -0.01121,  -0.05963,  -0.09988,   0.01777,  -0.10508,   0.02124,   0.00220,   0.00422,  -0.02882,  -0.09892,   0.08668,   0.08595,   0.06294,  -0.16913,   0.19842,  -0.13947,  -0.00579,  -0.01710,  -0.01344,   0.06523,   0.08259,  -0.07743,   0.01847,  -0.07441,   0.02120,   0.04748,   0.04413,  -0.03630,   0.18070,   0.04380,  -0.13826,   0.02549,   0.09633,  -0.08922,   0.04848,   0.01183,   0.00136,  -0.16203,   0.09115,   0.02531,   0.08364,  -0.09058,  -0.10330,   0.05543,   0.06462,  -0.04889,  -0.21488,  -0.01348,  -0.10085,   0.00091,   0.10439,  -0.04745,   0.00718,   0.00038,   0.07144,  -0.01106,  -0.00436,   0.12322,   0.02939,  -0.09039,   0.09847,  -0.08310,  -0.01878,  -0.00668,  -0.01923,  -0.07155,   0.10228,  -0.09877,   0.20946,  -0.03008,  -0.02459,  -0.02820,   0.09596,  -0.13678,  -0.00479,  -0.05569,   0.11922,   0.07145,   0.10860,  -0.01141,   0.09940,  -0.08222,  -0.00505,  -0.04581,   0.04026,   0.06790,  -0.07190,  -0.02000,  -0.12182,   0.07342,  -0.04828,  -0.08143,   0.06922,   0.04737,   0.09168,  -0.12266,   0.10816,  -0.04923,   0.01538,  -0.03336,  -0.04629,  -0.13197,  -0.04001,  -0.04734,   0.15007,   0.04610,  -0.05547,  -0.14835,   0.07906,  -0.12046,   0.07618,  -0.11097
   0.03238,   0.09281,  -0.07970,   0.08934,  -0.18157,  -0.17847,   0.00379,   0.08376,  -0.08336,   0.08689,   0.16741,  -0.05538,   0.09192,   0.00455,   0.05794,  -0.04736,  -0.14297,   0.01298,  -0.11874,  -0.01837,   0.01337,   0.01720,  -0.06511,   0.13233,   0.06526,  -0.17101,  -0.15617,   0.04790,  -0.10467,  -0.00900,   0.05067,  -0.04530,  -0.01817,   0.03486,   0.02803,   0.01320,   0.05347,   0.11402,   0.00067,  -0.13520,  -0.00367,  -0.13815,  -0.07743,  -0.01640,   0.01799,   0.07269,  -0.02691,   0.03879,  -0.02181,   0.01992,   0.02766,   0.09070,  -0.08190,  -0.13510,  -0.07559,   0.00464,   0.02300,  -0.00556,  -0.00920,  -0.04791,   0.01856,  -0.00616,   0.09835,   0.09092,  -0.15820,  -0.11831,  -0.09276,   0.06621,   0.06989,  -0.06377,  -0.05508,   0.01920,  -0.09232,  -0.16081,  -0.02144,   0.10814,   0.11286,  -0.08437,   0.15416,  -0.03126,  -0.05940,   0.01535,   0.08351,  -0.02917,  -0.03008,  -0.10690,  -0.21370,   0.08484,  -0.17427,  -0.10745,  -0.17066,  -0.14633,   0.03507,  -0.07475,  -0.16256,  -0.03039,  -0.04374,   0.03409,   0.01159,   0.02109,  -0.11676,   0.02859,  -0.17469,   0.02118,  -0.06351,  -0.03652,   0.08820,   0.13711,  -0.10491,  -0.15442,   0.05641,   0.06180,   0.14176,  -0.01701,   0.12303,   0.12552,  -0.13170,   0.11026,   0.17135,   0.11624,   0.04966,   0.02121,  -0.14113,  -0.02144,   0.02505,   0.02047,  -0.06816,  -0.05605
  -0.05791,   0.12878,  -0.07542,   0.02249,  -0.11799,   0.00702,   0.03609,  -0.09026,  -0.13104,  -0.07636,  -0.04410,   0.07604,  -0.07000,  -0.09761,   0.05298,   0.00461,  -0.06323,  -0.02164,  -0.07708,   0.10451,   0.07307,   0.02631,  -0.07365,  -0.00788,  -0.07679,   0.11210,   0.00849,   0.02155,  -0.16433,   0.11592,  -0.18875,   0.00111,   0.07857,   0.03999,  -0.05302,   0.02451,   0.09316,   0.10864,  -0.19201,   0.10791,  -0.20214,   0.05543,  -0.14338,   0.07203,  -0.19441,  -0.00046,   0.06366,  -0.07484,  -0.04161,   0.03275,  -0.04646,   0.02108,  -0.13537,  -0.07923,   0.05225,   0.04981,  -0.04306,   0.17475,   0.06985,   0.11629,   0.10359,   0.12729,   0.01004,  -0.03948,   0.07499,   0.14885,  -0.09521,   0.07797,  -0.02676,  -0.03815,  -0.14475,   0.01670,  -0.04541,   0.17011,   0.14821,  -0.10085,  -0.02727,  -0.01167,  -0.14584,   0.09396,   0.00324,   0.16584,  -0.08372,  -0.08241,   0.10434,   0.12006,  -0.07872,   0.06420,   0.09120,   0.07275,  -0.03495,   0.12374,   0.07310,  -0.01359,  -0.00000,  -0.03867,   0.06304,   0.00455,   0.11996,   0.12361,  -0.07821,  -0.06751,  -0.09063,   0.06405,  -0.10935,  -0.14142,  -0.14581,  -0.03846,   0.09955,   0.13146,  -0.09861,   0.12119,   0.00986,   0.09523,   0.02977,  -0.03480,   0.10908,   0.04120,  -0.01291,  -0.04884,   0.02656,   0.05761,  -0.11301,  -0.07220,  -0.12144,   0.01478,  -0.05758,   0.04937
  -0.05899,  -0.00911,   0.03334,  -0.01793,  -0.01692,  -0.16778,   0.06760,   0.12749,   0.13807,   0.03292,  -0.13545,   0.16145,  -0.04024,   0.17268,  -0.04571,  -0.06221,  -0.20169,   0.01895,  -0.08872,  -0.01809,   0.01071,   0.08525,  -0.10966,  -0.11416,  -0.03574,  -0.12710,   0.11417,   0.02436,   0.09547,   0.04741,  -0.05411,   0.11141,   0.04732,  -0.04193,   0.09809,   0.04712,  -0.06438,   0.04914,  -0.13208,   0.00295,   0.18249,   0.09231,  -0.00886,   0.05869,   0.07967,  -0.08685,   0.05545,   0.09682,  -0.02947,  -0.03479,  -0.01247,  -0.07760,   0.08220,  -0.19475,  -0.10783,  -0.00859,  -0.09365,  -0.01613,  -0.00675,  -0.10125,   0.16719,  -0.04084,  -0.07306,  -0.06640,   0.12461,   0.05688,  -0.19773,  -0.12689,   0.06050,  -0.13331,   0.09765,  -0.03270,   0.12429,  -0.02836,  -0.13712,  -0.14815,  -0.02658,  -0.03807,  -0.08779,   0.00686,  -0.03748,  -0.03594,   0.13459,   0.10252,  -0.06460,  -0.09613,  -0.06724,   0.03970,   0.16122,   0.05104,  -0.03733,  -0.11775,   0.17382,   0.01686,   0.07684,  -0.10332,  -0.08591,  -0.04114,  -0.05427,  -0.06374,   0.16808,  -0.10385,  -0.11622,   0.02898,  -0.01295,  -0.02451,  -0.07049,  -0.04830,   0.06713,  -0.02733,  -0.00037,  -0.00430,   0.08526,  -0.09744,   0.12039,   0.00050,  -0.04597,  -0.02272,   0.10469,  -0.09661,   0.10603,  -0.05593,   0.11769,  -0.07502,  -0.02228,  -0.01037,   0.00590,   0.02329
   0.09672,  -0.08734,  -0.06761,   0.17929,  -0.09426,   0.08930,  -0.09081,  -0.11538,   0.01656,  -0.00238,  -0.00428,  -0.00266,  -0.09025,  -0.14999,   0.04803,  -0.08149,  -0.07546,  -0.04026,  -0.05015,   0.08442,  -0.07791,  -0.09871,  -0.04266,  -0.17675,  -0.02360,   0.00518,   0.17226,  -0.05230,  -0.02394,   0.06345,  -0.04224,  -0.15779,  -0.03357,  -0.02281,  -0.06763,  -0.02625,   0.00978,  -0.04987,   0.01355,   0.08166,   0.13888,  -0.07878,   0.09233,  -0.00790,  -0.08685,  -0.08164,   0.02318,  -0.09146,  -0.12551,  -0.02803,   0.11057,   0.02302,  -0.05668,  -0.01226,   0.14934,  -0.05881,  -0.14179,  -0.16130,  -0.06326,   0.04312,  -0.07781,   0.00792,   0.10057,  -0.13915,   0.16507,  -0.05088,  -0.12127,   0.00736,   0.17123,   0.01455,  -0.00576,   0.00650,  -0.05109,   0.01938,  -0.09832,   0.12981,   0.03858,  -0.05530,  -0.13193,   0.06279,   0.04069,  -0.11439,   0.08920,   0.02799,  -0.11440,  -0.04847,  -0.01269,  -0.00776,   0.17656,   0.11157,   0.10358,   0.04799,  -0.00853,   0.00829,   0.03370,   0.08709,   0.16505,  -0.07616,  -0.00861,  -0.10494,   0.20333,  -0.03377,  -0.06549,  -0.11448,   0.04309,   0.05539,   0.13058,  -0.00743,  -0.11176,  -0.00386,  -0.08175,   0.07917,  -0.08114,   0.01881,  -0.09675,  -0.01458,   0.01386,   0.00734,   0.02274,  -0.02705,  -0.11307,  -0.06002,   0.08400,  -0.01494,  -0.02375,  -0.01418,   0.09134,  -0.00196
  -0.04217,   0.11008,   0.09041,   0.13005,  -0.00832,   0.13857,  -0.14734,   0.11458,  -0.21205,  -0.06035,  -0.04141,  -0.04739,  -0.13276,   0.05262,   0.11035,  -0.01714,  -0.07968,   0.06374,  -0.05819,   0.02113,   0.06412,   0.07738,  -0.09295,  -0.05728,  -0.03086,   0.01718,   0.07092,  -0.10289,  -0.09293,   0.15479,  -0.03733,   0.10145,  -0.02380,   0.02092,  -0.00640,  -0.00682,  -0.04013,   0.11693,   0.05034,  -0.07816,  -0.16443,   0.04673,   0.13631,  -0.01473,   0.09729,   0.01601,   0.04509,   0.16352,   0.02071,  -0.06729,   0.03026,  -0.00085,  -0.09257,   0.07499,  -0.14760,  -0.05430,  -0.04811,  -0.06796,  -0.07325,  -0.02662,   0.15949,   0.09440,  -0.02863,  -0.08771,  -0.13900,  -0.07577,   0.00420,   0.05594,   0.01316,  -0.07453,   0.04705,  -0.04132,   0.12438,   0.00272,   0.09564,   0.00750,  -0.06091,   0.02335,   0.12195,  -0.03974,  -0.01211,  -0.08593,  -0.01869,   0.11932,  -0.06846,   0.03026,  -0.14058,   0.08358,  -0.16732,  -0.11964,   0.00005,  -0.00131,  -0.07724,  -0.10385,  -0.20458,   0.10875,  -0.06114,  -0.15221,  -0.09518,  -0.07144,  -0.01706,  -0.09560,  -0.03152,   0.08354,  -0.12987,   0.02555,   0.11529,   0.06304,  -0.09023,   0.00750,   0.07948,   0.03618,   0.04609,   0.03163,   0.01933,   0.05023,   0.04581,   0.05011,  -0.07020,  -0.03772,  -0.09572,   0.02226,  -0.04039,   0.07629,   0.04028,  -0.07505,   0.01611,  -0.02130
  -0.09922,   0.08362,   0.11176,   0.14782,  -0.15343,   0.13559,  -0.21884,  -0.00279,   0.06244,  -0.07768,   0.04606,  -0.08915,   0.11558,   0.08872,   0.02779,  -0.06820,  -0.06573,   0.01096,  -0.02944,   0.10622,  -0.12837,  -0.03624,   0.04328,   0.00495,   0.00540,   0.05996,  -0.06282,   0.00371,   0.11021,  -0.10973,  -0.06554,   0.06481,   0.01997,  -0.16212,   0.13318,   0.00493,   0.13868,   0.01088,  -0.05290,  -0.08859,   0.22122,  -0.08569,  -0.05361,  -0.04460,   0.08262,  -0.12538,  -0.06898,  -0.01436,  -0.06200,  -0.15150,   0.09845,  -0.01087,   0.02539,   0.09476,  -0.00068,   0.10186,   0.06217,  -0.05241,  -0.11321,   0.08759,  -0.11188,   0.00608,  -0.02721,  -0.07255,   0.03698,  -0.05591,   0.14356,  -0.06505,  -0.08418,  -0.16756,   0.02786,   0.05386,  -0.05420,  -0.07836,  -0.09242,   0.10378,   0.00611,  -0.13221,   0.06439,   0.04749,   0.11615,  -0.05394,   0.08377,  -0.04409,   0.02662,   0.01740,  -0.02723,   0.06933,   0.03208,   0.06454,  -0.07906,  -0.12893,  -0.00865,   0.00030,   0.18205,   0.07425,  -0.00819,  -0.06824,   0.02796,   0.04116,   0.03188,   0.01359,   0.11018,  -0.17955,   0.03548,  -0.03237,   0.05686,  -0.03714,   0.07139,  -0.17720,  -0.03698,  -0.01029,  -0.09171,  -0.00818,   0.13057,   0.08049,  -0.11288,   0.07923,   0.17467,  -0.06407,  -0.07686,  -0.12645,  -0.12625,   0.08309,   0.08133,  -0.11734,   0.11982,  -0.13898
  -0.19917,  -0.08823,  -0.03997,  -0.06724,  -0.08342,   0.09330,  -0.01970,  -0.04694,  -0.07449,   0.00538,   0.03985,  -0.20521,  -0.02691,  -0.13083,  -0.08388,   0.00687,   0.21638,  -0.09429,  -0.01363,   0.05804,   0.14331,  -0.01476,  -0.08078,  -0.03072,   0.12818,   0.02643,  -0.04667,  -0.04923,  -0.00968,   0.04492,  -0.01522,   0.04591,   0.06022,  -0.18845,  -0.11619,   0.03228,   0.04555,   0.01694,   0.13344,   0.06771,   0.05836,  -0.11603,   0.06347,  -0.01172,  -0.05162,  -0.10167,   0.05435,  -0.03458,  -0.05372,  -0.02968,  -0.05736,  -0.11000,   0.09477,  -0.11252,   0.15291,  -0.07360,   0.12298,   0.01709,   0.14149,  -0.01781,  -0.04259,  -0.09090,  -0.02760,  -0.13103,   0.02152,  -0.12558,   0.03206,  -0.01782,  -0.00300,  -0.06676,  -0.08637,  -0.03603,   0.08535,   0.03094,  -0.03049,   0.05205,   0.13193,  -0.09042,   0.02465,  -0.04031,  -0.08252,   0.08529,  -0.13239,  -0.06878,   0.07930,   0.10761,  -0.03012,  -0.01486,   0.04568,   0.01292,   0.00609,  -0.02352,  -0.03770,   0.03155,  -0.01981,  -0.04404,  -0.02789,  -0.07522,  -0.03357,   0.13402,   0.19390,  -0.03436,   0.02052,   0.14354,  -0.17291,  -0.11532,   0.04699,   0.07616,   0.03708,   0.06591,   0.09202,  -0.04303,   0.05611,  -0.04281,   0.13851,  -0.12569,   0.01341,   0.07433,  -0.00150,   0.09057,  -0.08637,   0.03691,   0.08582,  -0.07247,   0.18843,  -0.02790,  -0.00281,  -0.09404
  -0.05557,  -0.10603,   0.17470,  -0.02564,   0.04686,   0.01483,   0.11818,   0.09558,  -0.10375,   0.12980,  -0.00507,  -0.04199,   0.01321,   0.07408,   0.07179,  -0.09602,  -0.08727,  -0.13219,   0.02672,   0.04488,   0.10206,  -0.01665,  -0.16927,   0.16836,   0.00438,   0.01256,  -0.03595,  -0.05042,  -0.01645,  -0.08768,   0.09390,   0.07598,   0.09027,  -0.00533,   0.03485,   0.03853,   0.00912,  -0.08674,  -0.08365,   0.05062,   0.02075,  -0.04051,  -0.07445,  -0.07641,   0.14524,  -0.11378,  -0.11939,  -0.09400,  -0.02123,  -0.12557,  -0.10036,   0.02769,  -0.01029,   0.13776,  -0.05298,   0.17853,  -0.10581,  -0.09318,   0.10904,   0.09889,   0.02652,  -0.01427,  -0.07401,  -0.04432,  -0.17546,   0.05644,  -0.10148,   0.06834,  -0.08361,  -0.03649,  -0.12204,  -0.04675,   0.05206,   0.05823,   0.05954,  -0.08957,  -0.06879,  -0.09990,  -0.07256,   0.14794,  -0.00793,   0.09484,   0.10425,  -0.00841,  -0.00431,   0.12908,  -0.01813,  -0.06142,   0.05646,  -0.00513,  -0.15405,   0.03219,  -0.14345,  -0.00770,  -0.05958,   0.11875,   0.12977,  -0.04370,   0.08463,   0.10212,  -0.07170,  -0.11541,   0.10036,  -0.17457,   0.13287,  -0.07368,   0.01984,   0.12191,  -0.14789,   0.09167,   0.02714,   0.07767,  -0.14220,  -0.07918,  -0.22048,   0.03032,   0.18435,  -0.03897,  -0.03676,   0.13415,  -0.01674,  -0.02268,   0.09321,  -0.09709,  -0.14344,  -0.06418,  -0.08017,  -0.05924
   0.19336,  -0.07014,  -0.04350,  -0.12040,   0.05836,   0.16560,  -0.01354,   0.12085,  -0.07098,   0.14269,  -0.00412,  -0.10188,  -0.07752,   0.00016,  -0.08091,  -0.09872,  -0.00585,  -0.11257,   0.13290,  -0.03533,   0.07389,  -0.16444,   0.01108,   0.10422,  -0.02780,   0.08433,   0.15903,  -0.03061,  -0.10740,  -0.02792,  -0.07415,   0.02437,   0.03817,  -0.02389,   0.01113,  -0.05404,   0.07197,  -0.11184,   0.01730,  -0.12275,   0.10352,  -0.15408,   0.13016,  -0.05082,  -0.07674,  -0.12151,   0.12010,  -0.16335,  -0.07480,  -0.05139,   0.18113,   0.05890,   0.14199,  -0.07640,   0.06781,  -0.12128,   0.09966,  -0.04668,   0.00844,  -0.12474,  -0.03160,   0.15368,  -0.03180,  -0.01000,  -0.07055,  -0.00454,  -0.03358,   0.05992,   0.04741,  -0.04282,  -0.00174,  -0.15119,   0.04941,   0.00227,  -0.05460,  -0.03500,   0.04415,  -0.10654,  -0.03880,  -0.13380,  -0.11170,  -0.08517,  -0.15054,  -0.16442,  -0.03544,  -0.14470,  -0.01699,  -0.01302,  -0.02443,   0.10309,  -0.12491,  -0.02631,  -0.06534,   0.00381,  -0.03839,   0.07833,  -0.02152,   0.03474,  -0.12010,  -0.00837,  -0.04138,   0.03517,  -0.00037,  -0.13195,   0.07558,   0.06628,   0.08143,   0.07158,   0.05680,  -0.00278,  -0.15191,   0.00925,  -0.04044,  -0.14119,   0.07486,   0.06111,   0.01791,   0.00057,   0.09858,  -0.08487,  -0.11498,   0.01318,  -0.15100,  -0.02055,  -0.05415,   0.05598,  -0.01337,  -0.18587
  -0.08058,  -0.14713,   0.09752,  -0.00393,   0.19450,  -0.00755,  -0.00163,   0.20236,   0.05192,   0.09437,   0.07299,   0.11698,   0.03019,   0.16211,  -0.18158,   0.05906,  -0.10874,   0.07423,   0.03742,   0.03267,  -0.05667,  -0.13114,  -0.02758,   0.07372,  -0.11696,   0.13269,  -0.04922,  -0.06637,   0.01379,   0.02501,  -0.03715,  -0.06440,   0.05583,  -0.12730,  -0.03148,  -0.07464,   0.01884,  -0.04336,  -0.00570,  -0.05204,   0.03896,  -0.00034,   0.02368,  -0.12641,   0.09018,   0.10270,   0.02378,   0.06579,  -0.04688,  -0.04223,   0.03269,  -0.04644,  -0.09370,  -0.16868,   0.13627,   0.03440,  -0.09766,  -0.07157,   0.03565,   0.01916,   0.06932,  -0.05979,   0.10125,  -0.08898,  -0.11355,  -0.01421,   0.07607,  -0.12945,  -0.05037,   0.04471,   0.07087,   0.05299,   0.02020,   0.03169,  -0.03589,  -0.06247,   0.18229,   0.00767,   0.00843,  -0.13412,   0.14839,   0.07042,  -0.12999,  -0.06131,  -0.17332,   0.02697,  -0.05630,  -0.12934,   0.07048,  -0.08253,  -0.05153,   0.09099,   0.12088,  -0.12603,  -0.13750,  -0.05862,  -0.06922,  -0.06502,  -0.13738,  -0.08482,   0.09928,   0.01814,  -0.05534,  -0.08432,   0.05741,  -0.11336,  -0.11437,  -0.01755,  -0.03568,  -0.13730,  -0.03228,  -0.04177,   0.11826,   0.00329,   0.13047,   0.00750,   0.09464,   0.01116,   0.21602,   0.03300,  -0.13410,  -0.09503,  -0.00562,  -0.04895,   0.02216,   0.04657,   0.04039,  -0.01447
   0.19042,   0.03200,  -0.02986,   0.01365,  -0.00281,  -0.08728,   0.08516,  -0.09857,   0.10028,  -0.05332,  -0.05986,   0.00699,   0.01559,  -0.01288,  -0.11449,  -0.08233,  -0.02680,   0.07132,  -0.18422,  -0.00963,   0.13159,   0.06235,  -0.04363,   0.01065,  -0.10218,  -0.01744,  -0.08743,   0.01532,   0.07519,   0.08435,   0.02510,   0.02779,   0.02389,  -0.00956,  -0.03971,   0.17254,  -0.06509,   0.02430,   0.13812,  -0.03659,  -0.14611,   0.05794,   0.00805,  -0.07139,  -0.11408,   0.08171,   0.05315,  -0.09305,   0.11966,  -0.10708,  -0.11747,   0.10723,  -0.00776,  -0.10483,   0.09732,   0.00556,   0.11615,  -0.07601,  -0.00662,  -0.06333,  -0.23573,   0.08102,   0.11339,   0.04788,  -0.24005,   0.03571,   0.10022,   0.08526,  -0.21520,   0.08484,  -0.02664,  -0.03336,  -0.06387,   0.15014,  -0.07475,   0.13831,  -0.01622,  -0.04664,   0.19206,  -0.05788,  -0.04960,   0.00675,  -0.11143,   0.00648,   0.05406,   0.03688,   0.03252,   0.02424,  -0.15695,   0.02533,  -0.16265,  -0.00879,  -0.16183,   0.04138,   0.08107,   0.16865,  -0.03613,  -0.01507,   0.06649,  -0.10423,   0.02893,   0.01454,  -0.09555,   0.03202,  -0.12451,   0.07018,  -0.11656,   0.11814,  -0.03174,  -0.07428,  -0.09281,  -0.13075,   0.01252,  -0.09763,  -0.05119,   0.14489,  -0.05369,  -0.11292,  -0.11425,  -0.06544,   0.00890,  -0.13064,  -0.09820,  -0.05489,  -0.04323,   0.13383,   0.07416,   0.00342
  -0.02471,  -0.02742,   0.04035,  -0.03347,   0.01905,  -0.06277,   0.02382,  -0.05617,   0.02676,   0.07509,   0.18960,  -0.00364,   0.11125,   0.08799,  -0.05799,   0.01952,   0.09286,   0.12299,   0.18152,   0.01724,   0.06657,   0.16786,  -0.03949,  -0.04180,   0.21206,   0.06586,   0.09792,  -0.05158,   0.00630,  -0.05653,  -0.01923,   0.03083,  -0.11791,  -0.12679,  -0.04714,  -0.07580,   0.05637,   0.05331,  -0.08172,   0.08977,  -0.06400,  -0.03457,  -0.04351,  -0.14442,  -0.10470,   0.00379,   0.09745,   0.09312,  -0.10396,   0.03543,   0.02185,  -0.02256,   0.12743,   0.04748,   0.01531,   0.01961,   0.05567,  -0.10241,   0.01362,  -0.06931,   0.02534,  -0.06961,   0.08546,  -0.09517,   0.04624,  -0.15873,  -0.02818,  -0.09902,  -0.12031,   0.07000,  -0.05327,  -0.10952,   0.07565,  -0.06585,   0.13532,  -0.00262,   0.01867,  -0.12007,   0.14841,   0.09671,   0.08060,  -0.01293,  -0.12653,  -0.02891,  -0.01225,   0.00101,  -0.02710,   0.00145,  -0.17021,   0.01293,  -0.07126,  -0.02808,  -0.11030,   0.18779,  -0.07258,  -0.09403,   0.04701,  -0.03050,   0.05951,  -0.00329,  -0.02304,   0.15487,   0.11537,  -0.15966,   0.10357,   0.09163,   0.01222,  -0.08697,   0.02141,  -0.02857,   0.00740,  -0.09062,  -0.09615,   0.04120,  -0.14384,   0.07905,   0.05913,  -0.07957,   0.08370,  -0.04335,   0.07983,   0.12800,   0.13267,  -0.11816,   0.08426,  -0.13244,  -0.10941,  -0.10135
   0.01738,   0.17851,  -0.12297,  -0.00906,   0.13425,   0.10960,   0.05074,   0.16301,  -0.22212,   0.09204,  -0.18949,  -0.06483,  -0.21097,   0.04518,  -0.18347,  -0.03611,  -0.12681,   0.04414,  -0.03693,   0.09904,  -0.04222,  -0.04947,  -0.01535,   0.03236,   0.15204,   0.00748,   0.01148,  -0.02593,  -0.09499,   0.03248,   0.04457,  -0.07201,  -0.04739,  -0.16502,  -0.03147,   0.07299,   0.00814,   0.01562,  -0.00715,   0.05237,   0.02199,  -0.06708,  -0.05004,   0.02071,  -0.00920,  -0.02343,   0.16911,  -0.07686,  -0.16500,   0.00340,  -0.01581,   0.00354,  -0.09499,   0.07113,  -0.07913,   0.02275,   0.04279,  -0.04022,   0.02839,   0.00325,  -0.06170,  -0.14335,   0.09342,   0.07660,   0.01463,  -0.13581,   0.11132,  -0.14484,   0.08826,   0.08636,  -0.02434,   0.16122,  -0.00167,  -0.05577,  -0.03323,   0.07531,  -0.05837,   0.03270,   0.12434,   0.11469,   0.20622,   0.05124,  -0.11632,  -0.00931,  -0.00231,  -0.06714,   0.02482,  -0.02663,   0.05082,  -0.07792,   0.03665,   0.03085,   0.06369,   0.05818,  -0.16227,  -0.13688,   0.03817,   0.05480,  -0.07844,  -0.06359,   0.04836,   0.01366,   0.09660,  -0.04040,  -0.11826,   0.05014,  -0.07259,  -0.11847,   0.00379,  -0.03299,  -0.06519,  -0.06413,  -0.13347,   0.06958,   0.00907,   0.09110,   0.13999,  -0.12049,  -0.06541,   0.05001,   0.00027,   0.01800,   0.07208,   0.01742,  -0.00616,   0.04841,   0.14709,   0.04091
  -0.13956,   0.00153,   0.08131,  -0.04723,  -0.01246,   0.12659,  -0.08499,  -0.06779,  -0.02874,   0.01102,  -0.09197,  -0.04300,   0.00668,  -0.06792,  -0.00196,   0.00653,  -0.01480,  -0.09299,  -0.12107,   0.12888,  -0.17219,   0.00197,   0.05076,  -0.01195,   0.08673,  -0.07352,  -0.13524,  -0.00931,  -0.06978,  -0.04536,  -0.04340,   0.04194,  -0.03141,  -0.09877,  -0.04572,   0.11126,   0.03086,   0.14957,  -0.20260,   0.14557,  -0.02475,  -0.04722,   0.00192,   0.11539,   0.01942,   0.01992,  -0.16447,   0.05435,   0.01752,   0.03751,   0.13234,  -0.01114,  -0.02729,  -0.12365,  -0.08013,   0.15490,  -0.17162,   0.09118,  -0.06623,   0.12114,  -0.05571,   0.01336,  -0.12848,   0.05926,  -0.10575,  -0.17834,   0.01194,   0.08253,  -0.02309,  -0.04866,  -0.07056,   0.00887,   0.04649,   0.05687,   0.10790,  -0.10952,  -0.04550,  -0.08949,  -0.13084,   0.15406,  -0.07583,  -0.03381,   0.08723,  -0.07505,  -0.10695,   0.00925,  -0.04446,   0.09819,  -0.02117,   0.04056,   0.08825,  -0.12588,  -0.01228,   0.11646,  -0.12846,   0.03935,  -0.04513,   0.17718,   0.02824,   0.18856,  -0.09033,   0.11597,  -0.18117,  -0.17111,   0.00476,   0.13464,  -0.06522,   0.03793,  -0.17781,  -0.02487,   0.01007,   0.13537,   0.06862,   0.01210,  -0.01039,   0.00851,  -0.20089,   0.03500,  -0.15815,  -0.05498,  -0.01016,  -0.11954,   0.05424,   0.06538,  -0.06646,  -0.03345,  -0.20659,   0.07388
  -0.13012,   0.04283,  -0.13324,  -0.08967,   0.09584,  -0.13960,   0.09502,   0.06536,   0.01485,   0.01053,   0.09999,   0.11025,   0.12341,   0.07178,  -0.05328,   0.08951,  -0.03200,  -0.07972,  -0.08551,   0.11617,  -0.17217,  -0.00306,   0.01810,   0.06713,  -0.04046,   0.09843,  -0.14363,   0.12589,   0.00020,   0.04311,  -0.06025,  -0.06267,  -0.16728,   0.06380,  -0.04341,   0.03081,  -0.05048,   0.04354,  -0.15117,   0.10711,  -0.07309,   0.04176,  -0.06022,  -0.07937,  -0.15675,  -0.11391,  -0.06210,   0.12228,  -0.08591,  -0.04116,  -0.14085,   0.06488,  -0.10984,  -0.13162,  -0.10346,   0.06765,  -0.03493,  -0.09973,  -0.07983,   0.18807,  -0.02026,  -0.05125,  -0.06514,  -0.02974,  -0.01235,   0.05676,  -0.22225,  -0.05973,  -0.15441,  -0.04575,  -0.16793,   0.08577,  -0.05726,   0.07331,   0.08202,  -0.05307,  -0.17834,  -0.02070,  -0.07718,   0.15926,  -0.15699,   0.04481,  -0.13263,   0.06938,  -0.17580,   0.10098,   0.04986,   0.10299,   0.10279,   0.11030,   0.06276,   0.11102,   0.05524,  -0.00867,  -0.16862,   0.00687,  -0.13201,  -0.08830,   0.00976,   0.04313,  -0.09672,  -0.09787,  -0.09738,  -0.04179,  -0.00466,   0.00198,   0.01418,  -0.08603,  -0.00546,   0.00607,  -0.07199,   0.06030,   0.13797,  -0.02582,  -0.08710,   0.02034,  -0.07060,  -0.03453,  -0.11330,   0.09495,   0.02567,  -0.00947,   0.05795,   0.12747,   0.05377,  -0.09066,  -0.03345,  -0.01793
  -0.02445,   0.01686,  -0.14374,  -0.10129,  -0.18956,  -0.13958,  -0.02545,  -0.07906,  -0.03287,   0.02252,  -0.04230,   0.01798,  -0.07357,   0.00365,   0.00274,   0.04255,   0.11891,   0.03597,   0.10190,  -0.10888,   0.07542,  -0.09595,   0.02533,   0.06403,  -0.08230,   0.02324,  -0.09533,   0.08229,   0.15327,   0.16394,   0.08093,  -0.00641,   0.13264,   0.16937,   0.05538,  -0.06617,  -0.00735,   0.08814,  -0.14253,   0.05846,  -0.04329,   0.19029,  -0.18561,   0.05088,  -0.04426,   0.11670,   0.13777,   0.06318,  -0.07964,   0.01982,  -0.10107,   0.03282,  -0.10130,  -0.13270,  -0.14067,  -0.03102,  -0.06516,   0.06845,  -0.08649,  -0.00630,   0.06399,  -0.04177,   0.14803,  -0.02450,  -0.02091,  -0.04920,  -0.07909,   0.07208,  -0.02670,   0.10209,  -0.10955,   0.11319,  -0.07885,   0.04702,   0.04016,  -0.01027,   0.06946,  -0.03005,   0.09437,   0.06812,   0.12222,   0.04671,  -0.07070,  -0.05753,  -0.01748,   0.09699,  -0.15104,  -0.00546,  -0.10783,   0.15147,   0.09939,  -0.13091,  -0.03365,   0.12171,  -0.09964,   0.10368,   0.03934,   0.12022,  -0.08496,   0.09840,  -0.29093,   0.10853,   0.02739,   0.11341,  -0.00651,   0.03066,  -0.04386,   0.10397,   0.10951,   0.02918,  -0.12274,  -0.05874,   0.09843,  -0.03304,  -0.06915,   0.05887,  -0.06163,   0.13730,   0.00583,   0.19201,  -0.06193,   0.02597,   0.08770,   0.05957,  -0.18030,   0.13508,  -0.11456,   0.02728
   0.14702,  -0.10847,   0.16341,   0.13598,   0.00160,   0.07518,  -0.22706,  -0.15916,  -0.15634,   0.01343,  -0.04178,  -0.07853,  -0.01175,  -0.10335,  -0.16794,  -0.12533,   0.00598,   0.00468,   0.06527,   0.03128,  -0.05560,   0.05555,   0.02107,   0.02382,   0.00901,  -0.12461,   0.15827,   0.03563,  -0.04011,   0.12695,   0.07821,   0.04964,  -0.12354,  -0.00679,  -0.02967,   0.01976,  -0.08217,  -0.04273,   0.02390,   0.15920,  -0.03572,  -0.00252,  -0.13070,   0.12649,  -0.21053,   0.00702,  -0.10421,  -0.09057,  -0.06754,   0.01670,  -0.13389,   0.02016,  -0.02513,  -0.01199,   0.02441,  -0.00360,  -0.19314,  -0.09678,   0.12737,   0.02957,   0.02197,   0.07946,   0.03538,  -0.00084,  -0.06299,  -0.02507,  -0.11834,   0.09297,  -0.00463,   0.06639,  -0.06915,   0.04387,  -0.08538,  -0.07278,  -0.05702,   0.11714,  -0.09724,  -0.06688,  -0.13579,  -0.08038,   0.09942,   0.02174,   0.09786,  -0.07104,  -0.03696,  -0.00026,  -0.06012,  -0.00323,  -0.21489,   0.09904,   0.04706,  -0.06731,  -0.04566,  -0.07990,   0.04473,  -0.02470,   0.10695,  -0.03792,   0.12773,  -0.00330,  -0.10764,  -0.05196,  -0.02723,  -0.06537,  -0.14294,  -0.08616,  -0.16418,   0.00548,   0.05324,  -0.04222,   0.09216,   0.23972,  -0.18704,   0.16707,   0.13140,  -0.09105,  -0.14881,   0.06666,   0.02122,  -0.03631,  -0.14437,  -0.01952,  -0.03128,  -0.03187,   0.13700,  -0.08029,  -0.18166,  -0.12342
   0.08552,   0.13578,  -0.05679,  -0.02210,   0.09325,   0.09657,   0.13260,   0.25113,  -0.00118,   0.03811,  -0.17526,  -0.15016,  -0.17817,  -0.17674,  -0.05191,   0.00649,   0.09777,  -0.22819,   0.09293,   0.01532,  -0.05868,   0.07546,   0.15824,  -0.14834,  -0.10440,  -0.13331,   0.15475,  -0.05448,   0.08357,   0.03614,  -0.14505,   0.01058,  -0.02785,  -0.08283,  -0.00364,   0.02866,  -0.09955,   0.05616,   0.01506,   0.16729,  -0.16829,   0.16227,   0.05037,  -0.05071,   0.13849,  -0.01607,  -0.06552,  -0.06816,  -0.13060,   0.06035,   0.03687,   0.19985,  -0.09095,   0.11346,   0.13597,   0.03411,  -0.11704,  -0.05611,   0.06681,  -0.14235,   0.08101,   0.06688,   0.16931,   0.01989,   0.14868,   0.03612,   0.13470,   0.07465,   0.03186,   0.12967,   0.05155,  -0.01410,   0.02766,   0.01331,  -0.08876,  -0.03578,   0.04677,   0.07760,  -0.02217,   0.12848,   0.11857,  -0.07478,  -0.17886,  -0.00933,  -0.06777,   0.05365,   0.03490,   0.14975,  -0.11326,  -0.10035,  -0.17258,  -0.08900,  -0.02550,   0.03427,  -0.20125,   0.03405,   0.08477,   0.07684,  -0.11696,   0.08126,   0.00711,  -0.01451,  -0.05957,  -0.02897,   0.06588,   0.08755,  -0.03860,  -0.01831,  -0.13625,   0.05694,  -0.07078,   0.09365,   0.14058,   0.07534,  -0.11951,   0.05204,  -0.20025,  -0.20518,   0.09812,   0.06981,   0.14511,  -0.18676,  -0.00850,  -0.07747,  -0.03786,   0.09560,   0.11624,   0.04670
  -0.00639,  -0.23229,   0.26376,   0.25512,  -0.14715,   0.16101,   0.05756,  -0.19059,  -0.02239,   0.01195,  -0.04610,  -0.05793,  -0.15518,  -0.06411,   0.05593,   0.10478,   0.10501,   0.09467,  -0.02596,  -0.03313,   0.11796,   0.00827,   0.02567,  -0.07056,   0.17235,  -0.09544,   0.01771,   0.12521,   0.07885,  -0.17972,   0.14302,   0.03148,   0.11645,   0.00437,   0.02307,   0.11052,  -0.18872,   0.06768,   0.19528,   0.07379,  -0.10868,   0.00021,  -0.09693,  -0.10648,  -0.01111,  -0.00494,   0.10719,   0.00143,  -0.06462,   0.11924,  -0.10234,  -0.03654,   0.15810,   0.14910,   0.01686,   0.06474,   0.08135,  -0.00790,  -0.10948,   0.01832,   0.06646,  -0.03896,   0.07829,  -0.03453,  -0.01573,   0.11421,   0.09335,   0.07772,  -0.04482,  -0.04713,  -0.08076,   0.07517,  -0.06338,  -0.00927,  -0.21084,  -0.05229,   0.07023,   0.03286,   0.00288,   0.08280,  -0.10871,  -0.04983,  -0.13270,  -0.00779,   0.20792,   0.02178,  -0.03035,   0.06453,  -0.14700,  -0.04400,  -0.21124,  -0.02599,   0.01784,  -0.04104,  -0.18409,  -0.10135,  -0.02872,  -0.16525,  -0.02781,  -0.14062,  -0.09897,   0.10796,   0.02870,   0.08146,   0.20476,   0.02154,  -0.03009,  -0.01813,  -0.08259,   0.13175,   0.08743,   0.06114,  -0.02735,   0.08206,   0.05698,   0.10582,  -0.03236,  -0.11120,  -0.17404,   0.10037,   0.02808,  -0.05781,  -0.08605,  -0.01250,  -0.08799,  -0.00017,  -0.09139,   0.15940
   0.00096,   0.09887,   0.03259,  -0.04773,   0.05146,  -0.00135,  -0.04608,   0.10753,   0.01870,  -0.04631,  -0.02340,  -0.07245,  -0.02220,   0.00204,   0.02867,  -0.09790,   0.02394,  -0.00254,   0.03491,   0.09556,   0.01654,  -0.10237,   0.00995,   0.11936,  -0.12635,  -0.02962,  -0.07217,  -0.06967,   0.08495,  -0.04632,  -0.14427,   0.02730,  -0.11181,   0.00950,   0.09014,   0.09259,  -0.16946,   0.15544,  -0.04420,   0.06381,  -0.04725,  -0.09382,  -0.11946,   0.09570,   0.00275,   0.06441,  -0.01367,   0.11070,  -0.10448,   0.10576,  -0.10183,   0.10597,  -0.12873,   0.14269,  -0.21127,   0.06166,   0.06370,   0.08545,  -0.01590,   0.10601,   0.02419,  -0.00633,   0.14192,  -0.04811,   0.08039,   0.17186,  -0.17523,   0.17298,  -0.05861,   0.05596,   0.02958,   0.07607,  -0.11451,  -0.00430,   0.16724,   0.08789,   0.11127,  -0.03249,   0.16161,  -0.08068,  -0.18151,   0.12256,   0.05932,  -0.00142,  -0.06620,   0.06991,   0.01520,   0.05275,   0.04298,   0.19322,  -0.02657,  -0.05434,  -0.07763,   0.06376,  -0.04600,   0.16421,  -0.03885,   0.05622,   0.04735,   0.01670,  -0.17437,   0.09546,  -0.01489,   0.00502,  -0.13443,   0.05221,   0.06086,  -0.03871,  -0.18307,  -0.14047,  -0.07323,  -0.09402,  -0.15740,  -0.02419,  -0.05690,  -0.00716,  -0.25660,  -0.07505,  -0.15861,  -0.10966,  -0.00112,   0.17086,  -0.03571,   0.19730,  -0.00229,  -0.07430,  -0.02722,  -0.00321
  -0.04816,   0.12503,  -0.03699,  -0.03664,  -0.09212,  -0.15699,  -0.13317,  -0.05418,   0.00438,  -0.23012,  -0.05641,  -0.11026,   0.12098,  -0.19451,  -0.07214,   0.03855,   0.14067,   0.14636,  -0.01776,  -0.09181,   0.00436,   0.04528,   0.02790,   0.07602,   0.08652,   0.06074,  -0.12020,  -0.05084,   0.11575,  -0.09689,   0.03864,  -0.03766,  -0.08826,   0.01084,   0.04608,   0.09557,  -0.11371,   0.13597,   0.09092,   0.08586,  -0.05390,  -0.01272,  -0.01243,   0.06425,  -0.08346,   0.02340,  -0.16322,   0.09174,  -0.05516,   0.04573,  -0.09289,   0.07068,  -0.10983,   0.01628,  -0.01926,  -0.09386,  -0.07107,   0.02182,   0.00278,   0.13555,  -0.13982,  -0.03468,   0.04852,  -0.04345,   0.11279,   0.04123,  -0.06275,   0.10783,  -0.06460,   0.12904,  -0.16836,   0.01217,  -0.08635,   0.09395,   0.04929,   0.15875,  -0.12684,   0.01570,   0.01756,  -0.00967,  -0.04850,   0.10861,   0.14406,   0.08862,  -0.10831,  -0.07413,  -0.12145,  -0.02493,  -0.05294,  -0.08208,  -0.09601,   0.11978,  -0.19411,   0.03139,  -0.13071,   0.06058,  -0.05281,   0.08439,   0.05783,  -0.12835,  -0.01777,  -0.00230,  -0.09269,   0.00157,  -0.08492,   0.12276,   0.03942,   0.01121,  -0.03262,   0.14442,  -0.12641,  -0.07102,  -0.15826,   0.10025,  -0.08062,  -0.06858,   0.04524,  -0.01331,  -0.01062,  -0.00257,   0.01383,   0.08156,  -0.15957,   0.03981,  -0.10363,  -0.05178,  -0.08603,   0.06874
   0.11239,  -0.12255,   0.01304,  -0.19621,   0.14500,  -0.09105,  -0.07755,   0.12877,   0.13983,  -0.01887,  -0.02716,  -0.05275,   0.11883,  -0.11831,   0.11482,   0.00128,   0.07696,  -0.05409,  -0.05006,   0.03996,   0.01766,   0.09319,   0.00133,  -0.07106,  -0.02615,  -0.07472,   0.02728,  -0.12851,  -0.00910,  -0.08501,   0.07289,  -0.08559,  -0.07192,  -0.02221,   0.15549,   0.06943,   0.02179,   0.03925,   0.06720,  -0.02812,   0.15828,  -0.13016,   0.17170,  -0.06933,  -0.01400,  -0.10573,  -0.12981,   0.01363,  -0.03242,   0.09540,   0.12000,  -0.15931,  -0.02454,  -0.07954,  -0.00213,  -0.11764,  -0.00934,  -0.05004,   0.10352,   0.15336,  -0.06375,  -0.02792,  -0.14532,  -0.15841,  -0.08655,  -0.02676,  -0.04388,  -0.02676,   0.07764,   0.07387,  -0.01127,  -0.09669,   0.09614,  -0.13165,   0.17069,   0.14687,  -0.12501,  -0.15118,   0.06200,   0.07466,  -0.13631,   0.07846,   0.09156,  -0.04340,   0.16500,  -0.14143,   0.04826,  -0.06804,   0.06025,  -0.08827,   0.14987,   0.13096,   0.01628,  -0.01536,   0.21021,   0.07336,   0.05214,   0.04068,   0.13855,  -0.00068,   0.03358,   0.10051,  -0.17462,   0.04206,   0.13036,  -0.01759,  -0.06285,  -0.06714,   0.01962,   0.18396,  -0.12202,   0.08493,  -0.02273,   0.11831,   0.00970,  -0.10745,   0.10647,   0.02413,   0.09619,  -0.09479,   0.02866,  -0.07080,   0.12727,  -0.08300,   0.00444,  -0.16654,   0.01040,  -0.14272
   0.17811,   0.20822,  -0.07091,   0.20568,  -0.10866,   0.04415,  -0.07325,  -0.02997,  -0.19610,  -0.03989,  -0.09121,  -0.13328,   0.06911,   0.02979,   0.06228,  -0.16690,   0.09781,   0.03048,   0.00544,  -0.08360,   0.00780,  -0.11616,   0.13844,   0.05912,  -0.03351,  -0.04971,   0.10606,   0.03120,   0.03180,  -0.05174,   0.09238,   0.01952,   0.13172,  -0.03086,   0.09387,  -0.11339,   0.00750,   0.01171,  -0.00195,  -0.20562,  -0.03365,  -0.05167,  -0.03773,   0.02149,  -0.02926,  -0.10197,  -0.05084,  -0.08706,   0.07579,   0.00943,  -0.09206,   0.05224,   0.12861,  -0.00442,   0.17685,   0.05509,   0.15553,   0.12092,   0.11060,  -0.17855,  -0.00542,   0.04553,  -0.02943,  -0.04034,  -0.09792,   0.00851,   0.07877,  -0.12603,   0.02621,  -0.04755,  -0.13833,   0.05995,  -0.04197,   0.10873,  -0.06791,   0.05241,  -0.03563,   0.09082,   0.06339,  -0.12407,   0.04918,   0.02638,   0.05388,   0.18342,  -0.04610,   0.06702,   0.08412,   0.11452,   0.05334,   0.03473,  -0.08988,   0.01332,   0.20061,   0.00532,   0.11337,  -0.13140,   0.15377,   0.07858,   0.10441,  -0.05746,   0.00330,  -0.08600,   0.07112,  -0.01420,  -0.00654,  -0.03493,   0.01519,   0.08987,  -0.03756,   0.07159,  -0.00084,  -0.02260,   0.06096,  -0.01228,   0.05983,   0.06302,  -0.04295,   0.11835,   0.08118,   0.09279,  -0.07367,   0.04142,  -0.10169,  -0.02319,   0.01938,  -0.08304,  -0.11657,  -0.09290
  -0.12179,  -0.17302,   0.10922,  -0.22257,  -0.08427,  -0.15077,  -0.00693,  -0.16847,   0.11593,   0.06746,   0.08388,  -0.05100,   0.11920,   0.06813,   0.12520,  -0.02181,   0.13133,   0.00596,   0.18785,   0.09412,   0.08577,   0.00740,   0.10807,   0.08887,  -0.14184,   0.00175,   0.18814,   0.05808,   0.00494,  -0.11341,  -0.09090,   0.14832,  -0.06353,   0.06515,   0.05564,   0.04981,  -0.12850,  -0.10929,   0.20773,  -0.10877,  -0.13597,   0.07851,  -0.11083,   0.17752,  -0.07761,  -0.03578,   0.03672,  -0.05485,   0.12308,   0.13551,   0.02482,  -0.10052,   0.00773,  -0.04355,   0.05163,   0.00117,  -0.02285,   0.12822,   0.04444,  -0.07057,  -0.15864,   0.05090,  -0.04062,  -0.04000,   0.10345,  -0.03461,  -0.14850,  -0.10185,  -0.08599,   0.07991,   0.01556,  -0.07077,  -0.19024,   0.09999,  -0.08915,   0.08691,   0.12044,  -0.02156,   0.08563,  -0.01981,   0.10437,  -0.03218,  -0.04690,   0.05673,  -0.03818,   0.08685,   0.08589,   0.10524,   0.04127,   0.09697,  -0.14031,  -0.08692,   0.06491,   0.12725,  -0.06443,  -0.00108,   0.12203,  -0.04441,  -0.13017,  -0.02660,  -0.08333,   0.17544,  -0.01088,   0.13813,  -0.16604,  -0.09109,  -0.12883,  -0.07755,   0.06212,   0.01099,  -0.11272,  -0.05408,   0.04763,   0.04426,  -0.16775,  -0.02892,  -0.05668,  -0.03199,   0.02943,  -0.05221,  -0.03380,   0.13993,  -0.00045,   0.04072,   0.03179,   0.05040,  -0.02325,   0.04211
   0.13935,   0.16361,  -0.05622,   0.06225,  -0.05239,   0.03758,   0.19376,   0.06964,   0.15119,   0.13065,   0.00704,   0.15325,   0.06520,   0.09257,  -0.13526,   0.06503,   0.05642,  -0.11636,  -0.18351,   0.09672,   0.04316,  -0.00894,  -0.03905,  -0.04105,  -0.15448,  -0.03430,  -0.04896,   0.03925,   0.05127,   0.09138,   0.07926,   0.01300,  -0.15509,  -0.05332,   0.04292,  -0.07751,  -0.18499,   0.11579,   0.19439,  -0.07152,  -0.01281,   0.11477,  -0.18638,  -0.11810,  -0.18479,  -0.06542,   0.08785,   0.14935,   0.05789,   0.10564,  -0.07331,  -0.08707,   0.10354,   0.17166,  -0.04569,  -0.02120,   0.06721,   0.07841,   0.09651,  -0.03908,  -0.03710,  -0.03281,  -0.12582,   0.01763,  -0.12727,   0.12920,   0.06688,   0.16143,   0.14172,   0.02276,  -0.16212,  -0.01786,   0.00415,   0.07979,  -0.03163,   0.16169,  -0.14584,   0.07468,   0.10181,  -0.19624,  -0.02856,   0.12876,  -0.15124,   0.14650,   0.09424,  -0.04555,  -0.11613,  -0.08285,   0.10934,  -0.00389,  -0.15477,  -0.10258,  -0.02428,  -0.00661,   0.12335,  -0.10962,  -0.05517,  -0.06749,  -0.21157,  -0.01340,   0.02806,   0.09338,  -0.14041,  -0.09550,   0.11787,  -0.14012,  -0.00358,   0.19340,   0.01191,   0.15048,  -0.01872,  -0.04895,   0.07908,  -0.02195,  -0.06371,   0.06154,  -0.01223,   0.02486,  -0.08520,  -0.02621,  -0.03988,   0.05426,   0.08262,  -0.04834,  -0.02448,   0.01181,  -0.05403,  -0.06155
  -0.05316,   0.25054,  -0.05315,  -0.11008,   0.10859,  -0.12229,   0.31038,   0.07529,  -0.03142,   0.08519,   0.08289,   0.15593,  -0.08524,  -0.01414,  -0.25957,   0.06288,  -0.07692,  -0.14738,   0.04270,  -0.08618,   0.01566,  -0.09542,  -0.12168,   0.01570,  -0.12789,   0.08680,  -0.13280,  -0.09669,  -0.02569,  -0.20328,  -0.10801,  -0.10891,   0.03478,   0.05695,  -0.02692,  -0.13303,   0.01194,  -0.10172,  -0.00269,  -0.01672,   0.04927,   0.02377,  -0.07746,  -0.01281,  -0.16129,   0.04350,   0.01390,   0.01761,  -0.08362,  -0.06880,   0.11411,   0.03911,   0.12767,  -0.13752,   0.23954,  -0.04578,   0.09128,   0.07483,  -0.13267,   0.04718,  -0.20975,   0.06828,   0.05944,  -0.00286,  -0.07134,   0.03678,  -0.07487,   0.11045,   0.01410,   0.09693,   0.07931,   0.01993,  -0.08925,  -0.00538,  -0.14653,   0.04136,  -0.09752,   0.10919,   0.05438,  -0.09633,  -0.10790,   0.09190,   0.13017,   0.10876,   0.12886,   0.06399,   0.10654,  -0.10553,  -0.20264,   0.07364,   0.05931,   0.00381,  -0.10002,  -0.12255,   0.00443,  -0.08024,   0.10253,   0.04279,  -0.08569,   0.08485,  -0.03069,   0.15033,  -0.06721,  -0.01215,   0.18957,  -0.01950,  -0.25309,   0.00402,  -0.01589,   0.02861,   0.07440,  -0.02676,   0.09173,   0.11073,   0.15617,  -0.12198,  -0.13481,   0.02392,  -0.01634,   0.09371,  -0.10951,   0.06230,  -0.13335,   0.03684,  -0.07520,  -0.10943,   0.08651,  -0.06904
   0.16698,   0.15005,   0.10591,   0.23065,   0.08078,   0.15932,  -0.08102,   0.11540,   0.02463,   0.10833,   0.10599,   0.06727,  -0.08333,  -0.07931,  -0.16675,   0.10101,  -0.02102,  -0.00648,  -0.11106,  -0.02527,   0.00338,   0.03748,  -0.08803,  -0.09516,  -0.16102,   0.03140,   0.07476,  -0.09483,   0.04417,  -0.07330,  -0.11848,   0.00320,  -0.05731,  -0.03555,  -0.00187,  -0.06691,   0.07905,  -0.01024,  -0.07594,   0.00750,   0.17832,  -0.06435,  -0.03215,  -0.08266,   0.14387,   0.04909,  -0.03995,  -0.02279,   0.12693,  -0.09733,  -0.06447,  -0.03021,  -0.15928,   0.04345,   0.17760,   0.00604,  -0.04550,   0.02145,  -0.11673,   0.01711,  -0.00301,   0.00336,  -0.02064,  -0.04045,  -0.03997,  -0.02938,  -0.12065,  -0.00063,   0.08241,   0.01500,   0.03831,  -0.13565,  -0.11924,   0.05058,   0.02729,  -0.00961,  -0.00242,   0.03623,  -0.06265,  -0.05945,  -0.05884,   0.04041,  -0.02131,  -0.08228,   0.08481,  -0.04865,   0.08562,  -0.03879,  -0.06812,   0.11791,  -0.10677,  -0.08337,  -0.12565,   0.08455,   0.04602,   0.03060,   0.15707,   0.03093,  -0.14076,  -0.14929,   0.09098,   0.07790,  -0.03160,   0.04972,  -0.00609,  -0.17882,  -0.21828,  -0.04879,  -0.15972,  -0.03514,  -0.08954,  -0.05899,   0.08562,  -0.06322,  -0.03413,  -0.00370,  -0.03246,  -0.09738,   0.03922,   0.04398,   0.00961,  -0.04378,  -0.01105,   0.07929,   0.14339,  -0.01104,   0.13618,   0.06569
   0.00524,   0.11857,  -0.25765,   0.03430,  -0.14046,  -0.06999,  -0.08276,  -0.16637,   0.20150,  -0.07709,   0.11114,  -0.00491,  -0.11112,   0.15714,   0.00026,   0.03513,  -0.15586,   0.05918,  -0.22084,   0.16257,  -0.06538,  -0.05254,   0.03403,   0.02392,   0.13712,  -0.05247,  -0.12367,   0.05266,  -0.05626,  -0.01292,  -0.11824,   0.03288,  -0.11427,   0.10632,  -0.12867,   0.09833,   0.04179,   0.05206,   0.06029,   0.06287,  -0.04097,   0.04789,   0.16969,  -0.06728,   0.16539,   0.10197,  -0.01331,  -0.00237,  -0.00992,   0.03114,  -0.11721,  -0.01229,   0.01921,   0.04018,   0.04270,   0.00923,   0.12219,  -0.06757,   0.10038,   0.01005,   0.08953,   0.03420,  -0.02481,   0.09071,   0.02485,   0.08094,   0.02676,   0.09084,   0.03963,  -0.00596,   0.02307,  -0.07091,   0.14030,   0.07133,   0.08322,  -0.00574,  -0.01886,   0.02691,  -0.15282,  -0.02680,   0.19431,  -0.11753,   0.03334,  -0.05425,  -0.17770,  -0.00280,   0.02750,  -0.02724,  -0.11402,  -0.03917,   0.19696,  -0.03805,   0.21588,  -0.03403,   0.07864,  -0.04291,   0.12468,  -0.13655,  -0.04020,  -0.06457,   0.09506,   0.12515,   0.07336,   0.02906,  -0.01588,   0.14037,   0.11345,   0.08479,  -0.02152,   0.02552,   0.10018,  -0.03679,   0.00115,   0.03238,  -0.08128,   0.11270,   0.15717,  -0.10144,   0.00090,  -0.08467,  -0.15807,   0.03384,   0.14968,  -0.01435,   0.13723,  -0.07398,   0.03269,  -0.01881
   0.03422,  -0.13433,  -0.00267,   0.06341,   0.15131,   0.13884,   0.19875,   0.05817,   0.12353,  -0.02797,   0.02476,   0.13623,  -0.13062,  -0.00252,  -0.13613,   0.16539,  -0.14636,   0.05185,   0.16978,   0.05041,   0.07912,  -0.09090,  -0.07181,   0.14169,  -0.03956,   0.01086,   0.06179,   0.08932,  -0.03181,   0.09843,  -0.11448,   0.01925,  -0.14854,   0.11838,   0.04767,   0.04251,  -0.07905,   0.06296,  -0.08873,   0.09013,  -0.10767,  -0.11201,   0.01963,  -0.02235,  -0.16135,  -0.02852,   0.04290,  -0.04116,  -0.06259,   0.02789,  -0.14375,   0.01399,   0.04015,   0.15972,  -0.11046,   0.12699,  -0.04694,  -0.04994,  -0.08552,  -0.07700,   0.06248,   0.12808,  -0.09790,  -0.02428,   0.07036,  -0.00570,  -0.06808,  -0.08323,  -0.11626,  -0.07107,   0.00625,  -0.06725,  -0.14737,  -0.07768,  -0.06022,   0.11017,  -0.16764,   0.08258,  -0.00601,  -0.03376,  -0.05528,  -0.03277,  -0.13181,   0.06365,  -0.04573,  -0.02924,   0.02247,  -0.03996,   0.08439,  -0.06621,   0.00342,   0.04829,   0.07135,  -0.01939,  -0.02289,  -0.07060,  -0.06039,  -0.05333,   0.15088,  -0.03527,   0.01064,  -0.10092,  -0.00603,  -0.01351,  -0.07261,   0.06076,  -0.11078,   0.06113,  -0.13332,   0.09333,  -0.14990,   0.11357,   0.11046,   0.02697,  -0.11735,   0.03353,  -0.06915,   0.14840,   0.00572,   0.14091,   0.02870,  -0.11375,  -0.03971,  -0.02797,   0.10526,  -0.00662,  -0.14656,   0.09686
  -0.04572,  -0.00210,   0.03612,  -0.03458,   0.01493,  -0.07467,  -0.02684,  -0.07179,   0.07308,  -0.05375,  -0.05037,  -0.00398,   0.12003,  -0.24019,   0.20282,   0.03654,   0.00560,  -0.01846,  -0.10568,  -0.09206,   0.17788,  -0.09649,   0.06931,   0.01751,  -0.03612,   0.00161,  -0.01987,  -0.03278,   0.19554,  -0.07319,  -0.06689,  -0.04100,   0.07041,   0.18667,   0.13390,  -0.04731,   0.09903,  -0.16692,  -0.06745,   0.01325,   0.17998,  -0.01383,   0.00837,  -0.03350,   0.04642,  -0.15254,   0.06044,  -0.02621,   0.13267,   0.05724,   0.11339,   0.02849,  -0.02947,   0.12107,   0.01877,   0.03135,   0.19980,   0.02112,   0.09001,  -0.04446,  -0.04908,   0.05007,  -0.04568,  -0.15621,  -0.08173,   0.10930,   0.00050,   0.20382,   0.06854,  -0.10144,  -0.02808,   0.03125,   0.11262,  -0.13757,  -0.11660,   0.05409,   0.00667,  -0.00243,  -0.07574,  -0.04552,   0.05830,   0.03568,  -0.03196,  -0.13427,  -0.11894,  -0.01244,   0.12274,  -0.03630,   0.09262,   0.10320,  -0.05296,  -0.07215,  -0.05990,   0.09890,  -0.02376,  -0.00917,   0.08475,   0.09432,   0.11270,  -0.12764,   0.09789,   0.07682,   0.20538,   0.02345,  -0.13160,  -0.09743,  -0.16251,  -0.03848,   0.11311,   0.05892,   0.06525,   0.03352,  -0.09589,  -0.02402,   0.13469,  -0.08045,   0.04410,  -0.08578,   0.01587,   0.08678,   0.01374,  -0.12659,   0.11544,   0.01069,   0.16941,  -0.00452,   0.03605,  -0.00991
   0.05772,   0.03128,  -0.12512,   0.02650,  -0.08567,   0.05716,   0.05050,   0.04420,   0.20470,  -0.01746,   0.10992,   0.16976,   0.15292,   0.03847,  -0.08711,   0.08792,  -0.12069,   0.08484,   0.14861,   0.00443,   0.04628,  -0.12068,  -0.17125,  -0.16451,  -0.12138,   0.00657,   0.15350,  -0.09087,   0.10165,  -0.03776,  -0.18954,   0.00014,  -0.19039,   0.07450,   0.09900,   0.09130,  -0.17438,  -0.04369,  -0.07623,  -0.02996,  -0.09818,  -0.05174,  -0.10326,  -0.03228,   0.07569,   0.03020,  -0.13581,  -0.01071,  -0.02632,   0.00167,   0.04094,   0.05929,  -0.05337,   0.07039,  -0.19175,  -0.13126,   0.02316,  -0.07387,  -0.05964,   0.05385,   0.05935,   0.13478,  -0.10229,  -0.02462,   0.02135,   0.16662,  -0.09942,   0.03758,   0.10803,  -0.11705,  -0.14626,   0.10173,  -0.21398,  -0.04966,  -0.10312,  -0.04140,  -0.16279,   0.13117,   0.05634,   0.19687,  -0.16700,   0.08220,   0.13180,  -0.13355,   0.12269,  -0.01548,  -0.05982,  -0.02706,   0.00463,  -0.01098,  -0.17716,  -0.06914,   0.03493,   0.05844,   0.15617,  -0.08497,   0.04303,   0.12393,  -0.09057,   0.01658,  -0.21734,   0.00866,   0.01849,   0.13241,   0.08554,   0.08347,  -0.16352,   0.02660,   0.16350,   0.12850,  -0.09615,   0.05771,   0.08090,  -0.03653,  -0.05559,  -0.10178,   0.11077,  -0.07056,  -0.11847,   0.00426,  -0.04004,  -0.11618,   0.02107,   0.09964,   0.09754,   0.14869,   0.02208,   0.01151
  -0.10568,   0.00371,  -0.32782,  -0.25857,  -0.01206,  -0.15999,   0.09853,   0.00119,  -0.08725,   0.06896,   0.00540,  -0.19633,  -0.00020,  -0.04626,  -0.01020,  -0.11156,   0.03460,  -0.12541,   0.17837,  -0.01744,   0.16404,   0.03174,   0.15470,  -0.04535,   0.10147,   0.01340,   0.16065,   0.01971,   0.12341,  -0.00566,  -0.07230,  -0.02721,   0.11501,  -0.08773,  -0.14697,  -0.15233,   0.13817,   0.01619,  -0.08196,  -0.19078,  -0.17777,  -0.04944,   0.08943,  -0.12531,  -0.04200,   0.18509,   0.07179,  -0.00793,  -0.00501,  -0.16826,  -0.02936,  -0.10781,   0.16377,  -0.17767,   0.02737,  -0.02672,  -0.07652,  -0.02730,  -0.17029,   0.08760,   0.00106,   0.09302,   0.07591,   0.01457,   0.10829,  -0.02434,  -0.03631,  -0.12626,  -0.07872,   0.14280,   0.07927,  -0.01763,  -0.00457,  -0.09492,   0.04402,  -0.04715,   0.16653,   0.06664,   0.04898,   0.02587,   0.07351,   0.16010,   0.03697,   0.05800,   0.11699,  -0.02595,   0.01586,  -0.04482,  -0.00644,  -0.01360,   0.03092,  -0.00199,   0.09202,   0.04444,   0.01349,   0.06458,  -0.06673,   0.07230,   0.11059,  -0.04323,  -0.03276,   0.06869,  -0.15213,  -0.04987,  -0.03494,   0.05787,   0.01890,  -0.09450,  -0.04285,   0.11193,   0.15944,  -0.10678,   0.03176,   0.03077,  -0.04515,  -0.05000,  -0.14797,   0.12341,   0.06137,   0.06011,   0.04955,  -0.02754,   0.00062,  -0.04108,  -0.10095,   0.15380,  -0.08152,   0.11973
  -0.01383,  -0.24404,   0.08186,   0.09802,   0.25184,   0.10524,  -0.18177,   0.00535,  -0.06653,   0.18532,  -0.16729,   0.04196,  -0.07243,  -0.01643,  -0.03143,  -0.05263,   0.10703,  -0.05188,   0.16974,   0.06145,   0.16245,  -0.08913,   0.10256,   0.18221,   0.19691,  -0.00951,   0.09508,  -0.11324,   0.06065,  -0.10429,   0.14619,   0.14581,   0.12077,  -0.08796,   0.01747,  -0.00030,  -0.00811,  -0.08942,  -0.14418,   0.07091,  -0.15067,   0.10736,   0.09191,   0.01250,   0.11614,   0.05952,  -0.04082,  -0.16226,  -0.12539,   0.11233,   0.12779,   0.09423,  -0.16044,  -0.01726,  -0.04496,  -0.00540,   0.10878,   0.01871,  -0.02726,  -0.02691,   0.10864,   0.08808,  -0.04036,   0.03050,   0.04508,   0.08567,   0.06033,  -0.13858,   0.07092,  -0.01892,  -0.08877,   0.08517,   0.04580,   0.00632,   0.07965,  -0.16956,   0.11882,   0.05245,   0.06707,  -0.01848,  -0.02716,   0.05144,  -0.01349,  -0.09823,   0.05068,   0.12068,   0.09937,   0.02018,   0.13248,  -0.03388,  -0.07035,   0.07086,  -0.02633,   0.10840,   0.09364,   0.14962,  -0.03151,   0.13728,   0.08514,   0.02218,   0.16966,  -0.13211,  -0.04379,  -0.03504,  -0.07269,  -0.01828,   0.03316,   0.03126,  -0.13357,  -0.01777,   0.11164,  -0.11034,  -0.15932,   0.04875,  -0.11595,  -0.07235,   0.08112,  -0.12021,   0.16577,  -0.13223,   0.07291,   0.07962,   0.00895,  -0.15518,  -0.20709,  -0.09176,  -0.14136,   0.03548
  -0.11118,   0.14714,   0.04602,  -0.11288,  -0.12659,   0.08856,  -0.16481,   0.10381,  -0.15866,  -0.03787,  -0.07235,  -0.08633,   0.04498,  -0.12615,  -0.05895,   0.01895,   0.03465,  -0.00094,   0.13845,  -0.14627,  -0.01859,   0.04104,   0.13824,   0.10533,   0.19673,   0.03466,  -0.00115,   0.07179,   0.08504,   0.11362,  -0.08511,  -0.07615,   0.10380,  -0.08182,  -0.14464,  -0.00339,  -0.06613,   0.06180,   0.04055,   0.03160,   0.06069,   0.18170,  -0.28010,  -0.06426,  -0.03649,   0.10339,  -0.08993,   0.16694,  -0.00987,   0.10234,   0.13013,  -0.17405,  -0.05746,  -0.06013,  -0.01455,   0.07032,   0.13515,   0.01267,   0.17609,  -0.05098,   0.08615,   0.11344,   0.01445,   0.02362,   0.12466,  -0.09757,  -0.01989,   0.02652,  -0.14849,   0.00898,  -0.08118,  -0.10106,   0.09488,  -0.02117,  -0.02411,   0.02838,   0.22001,   0.06509,  -0.15792,  -0.06526,  -0.03886,  -0.09596,  -0.04402,   0.03736,   0.03332,   0.05952,  -0.11221,  -0.00370,  -0.15216,  -0.02121,   0.21470,  -0.10065,  -0.11013,  -0.02633,   0.03494,   0.16399,   0.06826,  -0.10141,   0.00069,   0.08140,  -0.06306,  -0.10843,   0.14909,   0.03082,  -0.09437,  -0.07898,   0.13945,   0.09323,  -0.29266,  -0.06825,   0.22867,  -0.04303,  -0.01424,  -0.03796,   0.05696,   0.01854,   0.00400,   0.03664,  -0.05634,  -0.03176,   0.08919,   0.07109,   0.02132,  -0.10461,  -0.16822,   0.03199,  -0.09915,   0.22381
   0.03155,   0.07283,   0.11083,  -0.18734,   0.23779,  -0.06112,   0.21675,   0.14273,  -0.00293,   0.05581,   0.05768,   0.12111,  -0.14698,   0.31891,  -0.27272,   0.07656,  -0.23635,   0.04670,  -0.00015,   0.21366,   0.09309,  -0.15065,  -0.12486,  -0.08777,   0.04025,  -0.08984,  -0.12217,  -0.02326,  -0.15096,   0.08060,   0.02539,   0.12171,   0.06922,   0.01760,  -0.01319,   0.13440,   0.01467,  -0.03088,  -0.10232,   0.06364,  -0.11270,  -0.02712,  -0.12733,  -0.02369,   0.09335,  -0.10569,   0.09630,   0.16012,   0.03963,  -0.07628,  -0.10074,  -0.07642,  -0.04146,  -0.01062,  -0.02129,   0.02529,  -0.08250,  -0.01193,  -0.01704,  -0.12017,   0.06634,   0.01608,  -0.02374,   0.09287,   0.04073,  -0.08772,  -0.13989,  -0.09398,   0.00841,   0.02313,   0.14486,   0.00126,  -0.14943,  -0.15625,   0.02906,   0.00724,  -0.07798,  -0.06421,   0.06159,  -0.03785,   0.03684,  -0.06226,   0.04102,  -0.11992,   0.03417,  -0.01275,   0.07698,   0.08132,  -0.00042,  -0.01022,  -0.11875,   0.06001,   0.04389,  -0.17440,   0.03997,   0.04330,  -0.07163,  -0.04668,  -0.05942,  -0.05444,  -0.14044,  -0.04933,   0.00002,  -0.03759,  -0.14063,  -0.06782,  -0.02086,   0.02068,  -0.11041,   0.06032,   0.12853,  -0.13105,  -0.15179,   0.09358,   0.10753,   0.12137,  -0.03426,  -0.10860,   0.07703,  -0.01297,  -0.20152,  -0.08107,   0.15806,  -0.09737,  -0.03599,   0.04755,  -0.14707,   0.08340
   0.08755,   0.27903,  -0.05439,   0.22201,   0.09040,   0.07394,  -0.22971,   0.08863,  -0.20437,  -0.14815,  -0.14437,  -0.02247,  -0.03459,  -0.13536,  -0.19775,  -0.09773,  -0.00204,  -0.04075,   0.13786,   0.09120,  -0.07629,  -0.01007,  -0.10137,  -0.03470,   0.06531,   0.05064,  -0.11053,   0.12731,  -0.01680,  -0.00263,   0.01117,   0.02339,  -0.16380,  -0.13639,   0.08409,  -0.11992,  -0.00285,  -0.00861,   0.11841,   0.08821,  -0.02374,  -0.02466,  -0.19615,   0.11381,   0.07209,   0.03999,   0.10084,  -0.00210,  -0.05521,  -0.02990,   0.02546,   0.01570,  -0.10644,  -0.13424,  -0.02576,  -0.00452,  -0.13526,  -0.01578,   0.14803,  -0.04636,   0.02575,  -0.03072,   0.10125,  -0.01500,  -0.00483,  -0.00655,  -0.06452,   0.04780,   0.16859,  -0.12282,  -0.16541,  -0.00033,  -0.03691,  -0.09408,   0.02503,  -0.07808,  -0.01986,   0.06650,  -0.04085,   0.00061,  -0.09573,  -0.01182,   0.09372,   0.05810,  -0.03693,   0.08367,  -0.07443,   0.02617,  -0.01247,  -0.15252,  -0.00680,   0.11167,   0.06872,  -0.00889,  -0.08158,  -0.04524,  -0.06418,  -0.12246,  -0.01334,   0.22373,   0.16864,   0.14766,  -0.03324,   0.02913,  -0.04906,   0.00438,  -0.04429,   0.02508,   0.09968,   0.05434,  -0.12996,  -0.08536,  -0.12490,  -0.05516,  -0.04409,   0.00215,   0.10511,  -0.01114,   0.07963,  -0.05715,   0.07671,   0.07957,   0.07245,  -0.05644,   0.16372,   0.01594,  -0.06971,  -0.00577
  -0.06062,   0.07345,  -0.19473,   0.02937,  -0.27795,  -0.00758,  -0.27128,  -0.19424,  -0.12793,  -0.00831,  -0.03765,  -0.09472,   0.07184,  -0.04334,  -0.02099,   0.08672,   0.11471,  -0.01245,   0.09623,  -0.08629,  -0.09184,  -0.08446,   0.14609,   0.17660,  -0.08364,   0.05058,   0.09682,   0.02193,   0.00314,  -0.04903,  -0.12710,   0.08945,  -0.04698,  -0.07863,  -0.10556,   0.03339,  -0.15058,   0.03944,  -0.05631,  -0.00432,  -0.00819,  -0.01179,   0.13406,  -0.02227,  -0.03863,   0.00508,   0.04389,   0.02262,   0.01336,  -0.06336,  -0.04416,   0.05566,  -0.03609,   0.06445,   0.00246,  -0.10025,  -0.10356,  -0.08378,   0.06157,   0.04339,   0.10439,  -0.05063,  -0.02646,  -0.10734,   0.11910,   0.02270,  -0.07397,  -0.04588,  -0.01977,   0.17455,   0.17676,  -0.16647,   0.06378,  -0.11615,   0.00096,   0.00403,  -0.05587,  -0.13911,  -0.01215,   0.04268,   0.04190,  -0.12228,   0.04564,  -0.11747,  -0.10208,  -0.08553,   0.06504,   0.11761,   0.06292,   0.04113,   0.03864,  -0.05539,   0.05925,   0.03374,   0.03490,  -0.08408,  -0.19820,  -0.02456,  -0.09704,   0.00738,   0.17303,  -0.01082,  -0.00734,  -0.07757,  -0.02474,  -0.03132,   0.11407,   0.05304,  -0.01996,  -0.14000,   0.18169,   0.14941,  -0.02871,   0.13394,  -0.05044,   0.07576,   0.19025,   0.01550,   0.00228,   0.12291,  -0.16565,  -0.04691,  -0.16115,  -0.07372,  -0.01575,   0.12342,  -0.16400,  -0.07367
  -0.06563,  -0.03754,  -0.03834,   0.13186,  -0.21544,  -0.18800,  -0.08524,  -0.11629,   0.15152,  -0.04613,  -0.08281,  -0.11649,   0.11417,  -0.09498,   0.09218,   0.05226,  -0.04431,   0.12412,   0.06823,   0.08860,   0.13907,  -0.07309,  -0.23182,  -0.01667,  -0.07319,   0.06248,   0.05397,   0.03194,   0.06059,  -0.01532,  -0.08835,   0.02040,   0.06034,   0.03087,  -0.08121,  -0.00406,  -0.10751,  -0.08091,  -0.10066,   0.11856,  -0.11766,   0.01791,  -0.05040,  -0.10904,  -0.10456,   0.19399,   0.03622,   0.11885,   0.01627,   0.13277,   0.10010,   0.08082,   0.16313,  -0.01741,   0.00660,  -0.01314,  -0.17165,   0.02729,  -0.03549,   0.04524,   0.00982,   0.00064,   0.11264,   0.02617,  -0.22829,  -0.03010,   0.00994,   0.13268,  -0.08521,  -0.06280,  -0.07203,   0.08647,  -0.11572,   0.13363,  -0.03757,  -0.05476,   0.07889,   0.12202,  -0.10075,  -0.13053,   0.01603,   0.06986,   0.00411,   0.03842,   0.02749,   0.06598,  -0.03058,   0.09014,  -0.06022,  -0.15919,  -0.12405,  -0.09800,   0.01830,  -0.06355,  -0.02156,   0.08140,   0.06365,   0.07917,  -0.14701,   0.09696,   0.08826,  -0.14546,  -0.11681,  -0.05037,   0.09349,   0.17465,  -0.03800,  -0.00393,  -0.10288,   0.09184,   0.01823,   0.08480,   0.08795,   0.06488,  -0.13638,  -0.04031,  -0.04008,   0.06069,  -0.04896,  -0.08807,   0.02311,   0.04075,  -0.14619,   0.14237,   0.06491,   0.15961,   0.04579,   0.16469
