  -0.05191,  -0.02270,  -0.10048,  -0.00120,  -0.03192,   0.09768,   0.01425,  -0.09194,  -0.04862,   0.05802,  -0.08364,   0.07116,  -0.09061,  -0.00047,   0.04844,  -0.05154,  -0.12870,  -0.12011,   0.04690,  -0.07848,  -0.07320,   0.00624,   0.15084,  -0.04318,   0.08914,   0.03007,  -0.13396,   0.07987,   0.13814,   0.05090,   0.17634,   0.09512,  -0.01061,   0.04177,   0.14936,   0.08669,  -0.06544,  -0.01003,   0.10227,   0.04619,   0.18141,  -0.02523,   0.13848,  -0.05034,   0.12984,  -0.00667,  -0.15112,   0.15302,  -0.10986,   0.12987,  -0.12280,   0.09790,   0.09820,   0.02977,  -0.07917,  -0.03316,  -0.04913,   0.08662,  -0.13369,   0.06948,  -0.08896,  -0.03294,   0.00279,  -0.04350,   0.06166,   0.09173,   0.03743,   0.03594,   0.11562,   0.07146,  -0.18288,   0.07709,   0.04196,  -0.02263,   0.09113,  -0.00768,   0.00954,  -0.05251,   0.03398,   0.08088,  -0.00831,   0.02201,  -0.07733,   0.00706,   0.02702,  -0.05294,  -0.05940,   0.06550,   0.00258,  -0.03195,   0.13502,   0.10847,  -0.13263,  -0.01251,   0.04800,   0.09476,   0.12574,  -0.01118,   0.02081,  -0.04841,  -0.04505,   0.00854,   0.05890,  -0.06292,  -0.14439,  -0.05368,   0.08073,  -0.03233,   0.07621,  -0.08215,  -0.05137,   0.06106,  -0.01195,   0.04814,   0.05865,   0.07674,   0.11993,   0.03739,  -0.17490,  -0.05786,   0.08770,  -0.02599,  -0.11208,  -0.04536,  -0.01743,   0.06898,   0.08825,   0.01109
   0.05891,  -0.03541,   0.01760,   0.03423,   0.02971,  -0.09848,   0.12238,  -0.02689,  -0.08856,  -0.05514,   0.06254,   0.04966,  -0.09147,  -0.06858,  -0.06888,   0.09082,   0.11209,  -0.04241,  -0.07716,  -0.12966,   0.03882,  -0.11210,  -0.02942,  -0.11459,   0.08608,   0.02575,  -0.10904,   0.01686,  -0.15230,  -0.05378,   0.06562,  -0.02005,   0.14175,   0.05581,  -0.11776,   0.07066,   0.06872,  -0.07422,  -0.07923,   0.06332,   0.03909,   0.00638,  -0.09138,  -0.02355,  -0.01460,   0.09402,  -0.12297,  -0.03623,  -0.07863,   0.05612,   0.04183,   0.10002,  -0.13710,  -0.00130,   0.12178,   0.03752,   0.13084,   0.10825,  -0.05495,  -0.04997,   0.11401,   0.07134,  -0.01416,   0.04640,   0.07212,   0.00027,   0.11845,  -0.05962,   0.12117,  -0.10012,  -0.03752,  -0.10704,  -0.01555,  -0.03882,  -0.09792,   0.05666,  -0.05688,   0.10702,   0.04091,   0.12394,  -0.06957,  -0.08093,   0.12286,  -0.05505,   0.14314,   0.06865,  -0.14398,  -0.08762,  -0.00164,   0.13346,  -0.04894,  -0.01343,  -0.14029,  -0.02823,   0.00742,  -0.07675,   0.12219,  -0.02427,  -0.04054,   0.00278,   0.12979,  -0.01389,  -0.10812,   0.01789,   0.03695,  -0.12320,   0.11792,   0.08247,   0.08198,  -0.07567,  -0.00670,  -0.06193,  -0.04828,   0.11877,   0.05713,   0.06818,  -0.13533,   0.03147,  -0.04846,   0.10131,  -0.02319,   0.01783,  -0.04752,   0.03601,   0.09034,   0.01435,   0.02286,  -0.07740
   0.12707,  -0.08177,  -0.14461,  -0.08277,  -0.00274,   0.05351,  -0.04168,  -0.06395,   0.02846,  -0.04287,  -0.00943,   0.01955,   0.10130,   0.08983,  -0.02899,   0.05225,   0.07302,  -0.10465,   0.00423,  -0.01032,   0.15227,   0.03390,  -0.14295,   0.01587,  -0.08766,  -0.00007,  -0.11197,   0.07649,  -0.07797,   0.05858,   0.09182,  -0.04340,   0.09956,  -0.09696,   0.05251,   0.10736,  -0.09707,   0.09060,   0.00732,   0.12313,   0.06020,  -0.07205,  -0.08726,  -0.11724,   0.01501,  -0.00707,  -0.07467,  -0.01534,  -0.08962,   0.06933,   0.07244,   0.00509,   0.12974,   0.07545,   0.06809,  -0.02701,   0.07700,   0.05667,   0.03919,   0.12810,  -0.00560,  -0.09920,   0.08976,   0.07439,  -0.00363,  -0.05732,   0.02650,  -0.03152,   0.01220,   0.06612,  -0.01191,   0.00008,   0.13725,   0.04730,  -0.03286,  -0.07244,  -0.00803,   0.10071,  -0.09292,  -0.00061,  -0.00227,  -0.07416,  -0.03471,   0.08865,  -0.11670,  -0.00821,  -0.04694,   0.01448,  -0.13795,  -0.10072,   0.09970,   0.00630,   0.16621,  -0.00441,  -0.02997,  -0.00296,  -0.12074,  -0.03691,  -0.07041,  -0.11249,   0.00540,  -0.06565,  -0.04721,   0.02638,  -0.12692,  -0.00912,   0.11510,  -0.03986,   0.16631,  -0.05378,   0.06207,   0.07175,  -0.11890,  -0.07334,   0.04973,   0.00833,  -0.05452,   0.03061,  -0.11368,  -0.11877,  -0.13413,  -0.03208,  -0.01748,   0.09550,   0.17380,  -0.01723,   0.16118,   0.01987
  -0.06970,  -0.01221,  -0.03905,   0.00369,  -0.05675,  -0.07050,  -0.06999,  -0.05503,  -0.03757,   0.07499,  -0.04796,  -0.02008,   0.01010,   0.10557,   0.06095,   0.00939,   0.04649,  -0.04077,   0.07218,  -0.02178,   0.08029,   0.03923,  -0.05538,   0.05305,  -0.14570,  -0.06915,  -0.07557,  -0.09468,  -0.11578,   0.01617,   0.17227,  -0.04265,  -0.05531,  -0.00474,  -0.16295,   0.01520,  -0.03226,  -0.04728,  -0.12465,   0.04247,   0.01231,  -0.02072,   0.13277,  -0.05076,   0.11846,   0.10135,   0.14431,   0.06227,   0.12797,   0.08285,  -0.08488,   0.07990,   0.14784,  -0.08772,  -0.03640,   0.11712,  -0.09772,   0.02039,   0.09683,  -0.05542,  -0.12035,  -0.05292,   0.07135,   0.03341,  -0.16404,   0.07799,  -0.13984,   0.06283,  -0.05297,  -0.05295,   0.13535,  -0.06612,  -0.01282,   0.04971,  -0.07070,  -0.08738,   0.08546,  -0.08190,  -0.17925,  -0.06364,   0.15062,  -0.03916,  -0.10369,  -0.00786,   0.04811,  -0.00858,  -0.04819,  -0.10564,   0.05988,  -0.03337,  -0.15513,   0.04657,   0.02106,   0.06652,  -0.14353,   0.02465,   0.01372,   0.00750,  -0.10859,  -0.01596,  -0.11723,  -0.03152,   0.09828,  -0.06522,   0.11443,   0.00621,   0.04484,  -0.05895,   0.01397,  -0.12567,   0.09977,   0.05960,   0.00786,  -0.02816,   0.08168,   0.05470,   0.09356,  -0.06595,  -0.05255,   0.03583,   0.07654,   0.05112,   0.07363,   0.04872,   0.09464,   0.04475,  -0.03573,  -0.03560
  -0.05888,   0.01346,   0.01359,   0.04563,   0.05695,   0.06067,   0.03174,   0.04548,  -0.04892,   0.03790,  -0.02398,  -0.09269,   0.12746,   0.05809,  -0.10878,   0.05566,  -0.09000,  -0.03097,   0.09715,  -0.04538,   0.00043,  -0.05171,  -0.19097,  -0.08376,   0.01554,   0.08729,  -0.10210,  -0.08363,   0.14766,  -0.01151,  -0.04850,  -0.06728,  -0.02952,  -0.06160,  -0.06272,   0.06300,  -0.17249,   0.08503,   0.11721,   0.07179,   0.05595,  -0.00767,   0.11123,   0.10192,  -0.03024,  -0.03391,  -0.06891,  -0.03162,   0.13744,  -0.04470,  -0.06637,   0.02463,  -0.11150,  -0.04235,  -0.12359,   0.03112,   0.11800,   0.00088,   0.06275,   0.05389,  -0.09960,   0.01797,   0.12571,   0.11933,  -0.03097,  -0.08962,  -0.15595,  -0.01146,  -0.05432,   0.06551,   0.15765,   0.03473,  -0.11390,   0.08282,   0.09724,   0.01728,  -0.07473,   0.01638,  -0.16359,  -0.01110,  -0.04008,  -0.07063,  -0.09459,  -0.08410,   0.05513,  -0.09013,   0.18499,   0.03963,   0.10308,   0.12234,  -0.00668,  -0.11797,  -0.10439,  -0.10218,   0.12583,  -0.03015,  -0.10717,  -0.11213,   0.11500,  -0.07350,   0.14317,  -0.02570,  -0.05442,   0.00363,   0.05990,   0.09243,   0.06880,   0.07444,   0.07883,   0.08189,  -0.07440,  -0.06060,   0.01986,  -0.03918,  -0.15318,   0.04519,   0.02086,   0.03798,   0.04798,  -0.09215,   0.00928,   0.08158,   0.06135,   0.08971,  -0.07689,   0.01815,   0.04353,  -0.07979
  -0.04591,   0.09790,   0.03530,   0.10493,   0.06093,   0.06755,   0.13564,   0.08830,   0.07276,  -0.01165,  -0.02132,  -0.09642,  -0.05496,  -0.04772,  -0.09105,  -0.08650,  -0.06041,   0.11481,  -0.11954,  -0.09394,  -0.04688,  -0.05895,   0.08474,  -0.06890,   0.08615,   0.04852,   0.03686,  -0.07378,   0.01083,  -0.11161,  -0.09053,   0.01066,   0.08145,  -0.11711,   0.01125,  -0.10679,  -0.07985,   0.11350,  -0.06844,  -0.05550,   0.11378,   0.08569,  -0.11445,   0.11690,  -0.10674,  -0.06508,  -0.09717,   0.00205,  -0.00477,  -0.03944,  -0.03099,  -0.07914,   0.07079,  -0.10681,  -0.01680,   0.08204,  -0.10986,  -0.08958,  -0.08196,  -0.12454,  -0.02395,   0.01566,   0.10305,  -0.11223,   0.14387,   0.01487,  -0.01895,   0.01912,  -0.00690,   0.01723,   0.10112,  -0.05290,   0.11011,   0.01693,  -0.11828,   0.06105,  -0.04732,  -0.08906,   0.00568,  -0.07836,  -0.09857,   0.07340,   0.03522,  -0.03016,  -0.03686,   0.13117,  -0.06021,   0.08429,  -0.13310,  -0.05960,   0.02114,   0.09956,  -0.04303,   0.11219,  -0.07574,  -0.07643,   0.10195,   0.07130,   0.06636,   0.08130,   0.06468,   0.04927,   0.05418,  -0.03342,   0.03707,   0.10728,   0.00015,   0.00113,   0.08868,  -0.00278,  -0.16510,  -0.05194,  -0.14048,   0.11699,  -0.11416,  -0.03031,   0.04626,  -0.08849,  -0.13532,   0.01111,  -0.05527,  -0.08014,   0.14053,   0.09617,  -0.05377,  -0.06151,   0.12072,   0.08742
   0.04947,   0.00680,   0.02200,   0.02330,   0.11751,  -0.06339,   0.00586,  -0.13212,  -0.06735,   0.03088,  -0.05247,   0.08531,  -0.05580,  -0.06015,  -0.13167,  -0.00108,   0.09705,  -0.01026,  -0.02943,  -0.09081,   0.04858,  -0.01339,  -0.00078,  -0.11019,  -0.07405,   0.03195,   0.11230,  -0.01332,   0.05507,   0.04462,  -0.08739,  -0.00789,  -0.00417,  -0.08936,   0.16168,   0.01819,  -0.07141,  -0.06542,   0.09101,   0.04712,  -0.05294,  -0.06239,   0.02050,   0.05114,  -0.01433,   0.00237,  -0.02569,  -0.07816,  -0.12941,  -0.04540,  -0.08635,   0.01532,   0.04880,   0.09495,   0.09238,   0.01841,  -0.14558,   0.03523,  -0.05204,   0.10232,  -0.13160,   0.02308,  -0.13815,  -0.12393,  -0.09219,  -0.10547,   0.02515,  -0.12148,   0.07299,  -0.14950,   0.02563,   0.04702,   0.02066,   0.08464,   0.09487,   0.01013,  -0.01399,   0.04172,   0.06032,   0.05319,   0.09615,   0.03770,  -0.03123,  -0.09817,  -0.15728,   0.04166,  -0.12835,  -0.11979,  -0.08810,   0.04386,   0.12405,  -0.05897,  -0.11575,   0.01139,  -0.11195,  -0.01922,   0.08201,  -0.04053,   0.00818,  -0.07664,   0.02729,  -0.13365,  -0.17886,   0.04073,   0.12095,  -0.04730,  -0.13739,   0.02847,   0.12766,  -0.01948,   0.17228,  -0.03532,   0.00857,   0.09797,  -0.07294,  -0.05243,   0.10023,  -0.01642,  -0.00634,   0.05103,  -0.10193,  -0.04271,   0.09988,  -0.03268,  -0.12242,  -0.04181,  -0.12078,  -0.12830
  -0.07705,   0.04985,   0.02644,  -0.06034,  -0.08414,   0.06534,  -0.02269,  -0.05709,   0.02736,   0.08945,  -0.13314,   0.05432,  -0.00481,   0.02764,   0.03656,   0.04681,  -0.04446,   0.01452,   0.15727,  -0.11459,   0.10585,  -0.09287,   0.11126,   0.00915,   0.03076,  -0.06608,  -0.05420,   0.08895,   0.01398,  -0.03706,  -0.06901,  -0.07644,  -0.14376,  -0.03081,  -0.08276,   0.00229,  -0.10258,  -0.04454,   0.06431,   0.12842,   0.18522,   0.02262,  -0.01753,  -0.02145,  -0.11025,  -0.10459,  -0.11048,   0.00332,  -0.11652,   0.04935,   0.06278,   0.08856,   0.04085,  -0.06663,  -0.08465,  -0.00963,  -0.06929,   0.08295,   0.02207,  -0.08990,   0.11853,  -0.07636,   0.05219,   0.02702,  -0.07302,  -0.10163,   0.08692,  -0.04279,  -0.14599,   0.07762,   0.04235,   0.01901,  -0.02121,  -0.03933,  -0.09099,  -0.04475,   0.09543,  -0.05623,   0.17480,   0.04103,   0.06930,   0.00405,   0.01258,   0.03973,   0.09121,  -0.05219,  -0.02048,   0.06860,  -0.02942,  -0.05471,   0.02321,  -0.08523,   0.10040,   0.07423,   0.04839,   0.00468,  -0.02859,  -0.01083,  -0.07486,   0.00719,  -0.17031,  -0.01657,   0.00443,   0.05331,   0.09829,   0.03976,  -0.11672,  -0.03983,  -0.11897,  -0.07252,   0.00883,  -0.08200,   0.00865,   0.01724,  -0.03993,  -0.06180,   0.16317,   0.08839,  -0.07407,   0.05403,  -0.12093,  -0.09968,   0.06679,  -0.15613,  -0.10144,   0.03620,  -0.02396,   0.07726
   0.01278,  -0.05131,  -0.03646,   0.11380,   0.12678,  -0.06401,   0.01270,  -0.05834,   0.09679,  -0.03661,  -0.04488,   0.10641,   0.02273,   0.00550,   0.07138,   0.03774,   0.05527,   0.06225,  -0.02520,  -0.04675,   0.04557,  -0.00136,  -0.19086,   0.00476,   0.01548,  -0.03688,   0.14010,  -0.00769,   0.06919,   0.05285,  -0.06617,  -0.06689,  -0.10844,  -0.10201,  -0.13148,   0.04241,   0.12224,   0.07064,  -0.12470,  -0.04951,   0.07093,  -0.05074,   0.08647,   0.06632,   0.06080,  -0.02773,   0.07442,  -0.09599,  -0.04405,   0.09550,   0.11784,   0.03803,  -0.16345,  -0.07786,   0.11378,   0.08717,  -0.05404,   0.07614,  -0.06835,   0.02436,  -0.13225,   0.08123,  -0.08473,   0.03040,   0.08265,   0.03717,  -0.00587,   0.07289,  -0.14333,   0.06190,  -0.18766,  -0.04540,   0.14733,   0.06058,  -0.03698,   0.03366,   0.08913,   0.03211,  -0.02004,  -0.05986,   0.10100,  -0.03405,  -0.07864,  -0.03635,   0.17845,  -0.10536,   0.08341,   0.07113,   0.13654,  -0.04605,   0.11536,   0.02357,   0.10013,  -0.06023,  -0.08772,   0.04547,   0.10730,   0.07261,  -0.15250,  -0.01812,  -0.13264,  -0.08644,   0.03572,  -0.11726,  -0.05855,  -0.03773,  -0.07519,   0.08731,  -0.05123,   0.02778,   0.13904,   0.09979,   0.13073,  -0.09496,   0.10767,   0.03260,   0.17321,  -0.00501,  -0.09834,  -0.00165,   0.04037,   0.12351,   0.09009,   0.10045,  -0.05684,   0.08287,   0.10186,  -0.03780
  -0.03099,   0.08149,  -0.04979,  -0.00356,   0.08817,   0.08319,  -0.10127,   0.06034,   0.01236,  -0.02631,   0.00140,   0.05885,   0.03644,  -0.11567,  -0.04276,  -0.02828,  -0.07576,  -0.07071,   0.05404,   0.10297,   0.07842,   0.08273,   0.00242,  -0.10483,   0.04105,   0.11386,  -0.08578,  -0.01559,  -0.10474,   0.10975,   0.01972,  -0.04645,  -0.07437,  -0.06949,   0.01346,   0.02252,   0.04100,  -0.07518,  -0.11252,   0.06561,   0.09627,  -0.09591,  -0.14418,   0.07986,  -0.04165,   0.12145,   0.04448,  -0.06613,   0.07025,  -0.04325,  -0.14306,   0.03144,  -0.12600,  -0.07177,   0.13335,   0.13208,  -0.14651,  -0.06282,   0.06572,   0.05287,   0.05421,   0.11872,   0.12564,  -0.11456,   0.09438,   0.04947,  -0.06305,  -0.03258,  -0.01900,  -0.06502,  -0.04007,   0.06823,  -0.02088,   0.00643,   0.13774,  -0.02893,   0.11841,   0.03839,  -0.02901,  -0.00767,   0.04857,   0.03280,   0.08558,  -0.08604,  -0.08467,  -0.00430,  -0.12459,   0.00052,   0.04185,   0.03519,  -0.14589,   0.04437,  -0.00466,  -0.12600,   0.15570,   0.08003,   0.08501,   0.08424,   0.11173,   0.01266,  -0.11573,   0.00829,   0.11911,  -0.05826,  -0.04478,  -0.05055,   0.06361,   0.02812,  -0.07501,   0.09675,   0.10486,   0.11920,   0.09283,   0.12574,  -0.10749,   0.03836,  -0.11191,   0.04024,   0.01291,  -0.04515,  -0.10228,   0.03996,   0.03314,   0.09037,  -0.00396,  -0.05532,   0.06780,  -0.11933
   0.00133,  -0.07422,  -0.03957,   0.10277,   0.09926,  -0.02003,  -0.03892,  -0.03073,  -0.11611,   0.11553,  -0.05272,  -0.03262,   0.05828,   0.05013,  -0.05270,  -0.03846,  -0.00656,   0.00835,  -0.04473,   0.06282,   0.01562,  -0.05743,   0.08981,   0.03874,  -0.08020,   0.06301,  -0.00137,   0.05143,   0.08967,   0.06585,   0.00408,   0.00721,   0.08589,   0.01465,   0.07087,   0.04455,   0.15687,  -0.05180,  -0.14654,  -0.06448,  -0.02762,  -0.01816,  -0.08247,   0.11047,  -0.15575,   0.07268,  -0.02789,   0.04306,  -0.13531,  -0.05660,   0.04232,  -0.11475,   0.02030,  -0.01376,   0.06038,  -0.06802,  -0.08721,  -0.06017,  -0.07857,  -0.06482,  -0.08766,  -0.09746,  -0.05962,  -0.12042,  -0.05762,  -0.05815,   0.14317,  -0.01056,  -0.15453,   0.03091,   0.05372,   0.00774,   0.03424,  -0.04035,   0.06332,   0.01887,   0.01133,   0.05834,  -0.01387,  -0.09520,  -0.07791,   0.05083,   0.04332,   0.08913,  -0.09167,   0.04293,   0.05887,  -0.00501,   0.00264,  -0.02321,   0.12837,  -0.08607,  -0.03069,  -0.01919,   0.09286,  -0.05112,  -0.00564,  -0.04365,  -0.10805,   0.06400,   0.10231,  -0.03477,  -0.12629,   0.03678,   0.03779,   0.13671,   0.13205,   0.02265,   0.07850,   0.01794,   0.08304,   0.10148,  -0.17836,  -0.03912,   0.00319,   0.02074,  -0.06168,  -0.09927,  -0.02600,  -0.06083,  -0.02498,  -0.04406,  -0.00595,   0.06323,   0.10719,   0.02842,   0.05006,  -0.01857
   0.02063,   0.02802,  -0.03437,  -0.05274,  -0.02129,   0.09876,  -0.03381,   0.04948,  -0.04685,   0.06963,  -0.06563,  -0.00012,  -0.06878,   0.06259,   0.01244,   0.00232,   0.11493,   0.03808,  -0.03455,   0.06120,  -0.11619,   0.11925,  -0.07947,   0.04430,   0.02701,   0.04519,   0.04345,   0.00173,  -0.14376,   0.00767,  -0.12961,  -0.02556,  -0.05839,   0.06758,   0.16962,   0.02395,  -0.14029,   0.08678,  -0.16702,  -0.06111,  -0.03986,  -0.01221,  -0.06079,   0.01168,  -0.02097,  -0.11445,   0.17811,   0.02387,   0.00511,   0.03547,   0.05594,   0.10839,   0.10968,  -0.00170,   0.05596,   0.00342,   0.02658,   0.01636,   0.07281,  -0.09461,   0.12844,  -0.07357,  -0.03015,  -0.03660,  -0.00442,   0.05140,   0.03763,  -0.05005,  -0.10691,  -0.01172,  -0.19470,  -0.04074,   0.09874,  -0.01816,  -0.02953,  -0.03649,  -0.16004,  -0.03134,   0.02011,   0.09542,   0.05940,   0.02281,   0.00864,   0.12254,  -0.01513,   0.06044,  -0.04312,  -0.03363,   0.09058,   0.04610,   0.16243,  -0.08404,  -0.11455,   0.07842,  -0.15497,   0.05858,   0.10506,   0.00003,   0.14197,  -0.07894,   0.10273,  -0.01086,   0.11445,  -0.05023,   0.05268,  -0.00128,  -0.07210,  -0.04808,  -0.10015,   0.04499,  -0.02737,  -0.00144,   0.00760,  -0.00224,  -0.03304,  -0.06877,  -0.06754,   0.00853,   0.03816,   0.04864,   0.00176,   0.01421,   0.10649,   0.09540,  -0.12551,   0.04275,   0.10539,  -0.09384
   0.06409,  -0.07079,   0.00645,   0.03307,   0.00644,  -0.08524,  -0.05051,  -0.03328,  -0.03632,   0.02116,   0.02855,   0.01896,   0.05634,   0.06914,  -0.09108,  -0.02412,  -0.03986,   0.01909,   0.02127,  -0.03638,   0.00412,   0.03268,   0.01574,  -0.02511,   0.08713,   0.10854,   0.07504,   0.00619,  -0.03562,   0.04886,   0.04446,  -0.04006,  -0.01359,   0.02338,   0.07081,   0.00532,   0.12803,  -0.03480,   0.11198,   0.10170,  -0.08679,  -0.04716,   0.09246,   0.07220,   0.06663,  -0.03979,   0.03829,   0.08404,  -0.00926,  -0.08803,  -0.22037,  -0.12807,  -0.13002,   0.06408,   0.04044,   0.04532,   0.10347,  -0.09598,   0.09289,  -0.01970,   0.05234,   0.02210,  -0.09308,   0.00193,  -0.03809,  -0.06786,   0.05036,  -0.06824,  -0.09893,  -0.02548,  -0.10393,   0.07736,  -0.05075,   0.01401,  -0.10879,  -0.00210,   0.13571,   0.07691,  -0.07350,  -0.11729,  -0.00256,   0.10253,  -0.05052,  -0.06671,   0.10446,  -0.03720,   0.03031,  -0.06057,   0.08540,  -0.03189,   0.04801,  -0.09810,  -0.04385,  -0.08767,  -0.04337,   0.00780,  -0.16232,  -0.02591,  -0.13739,   0.00166,   0.12937,   0.03157,   0.12884,  -0.00050,   0.09154,   0.06787,  -0.16471,  -0.01669,   0.08480,   0.05362,  -0.01869,   0.02251,   0.04439,   0.07968,  -0.08016,   0.03622,  -0.02105,  -0.04295,   0.09857,  -0.12654,   0.06232,   0.03154,  -0.09712,   0.08892,  -0.12378,   0.04876,   0.03132,   0.04297
   0.05982,  -0.04107,   0.00709,  -0.10105,  -0.01727,  -0.07554,  -0.01788,  -0.07585,  -0.04292,  -0.06318,  -0.03028,   0.11029,  -0.04904,  -0.00581,   0.06594,  -0.05165,  -0.03293,   0.09471,   0.01599,  -0.04362,  -0.05660,  -0.06735,  -0.05412,   0.07666,  -0.11495,   0.07983,  -0.00680,   0.06626,   0.06215,  -0.04720,   0.00374,  -0.03207,  -0.12345,   0.05377,   0.08391,   0.01668,  -0.06577,  -0.03724,  -0.12706,  -0.00762,  -0.04507,   0.02001,   0.12429,  -0.03783,   0.02354,   0.08734,  -0.04890,  -0.01008,   0.00956,  -0.05781,   0.05921,  -0.10983,   0.12587,   0.05692,  -0.08267,  -0.04595,   0.04117,  -0.09784,   0.04943,   0.07406,   0.02476,  -0.00237,  -0.15582,  -0.06721,   0.05543,   0.10079,   0.02940,  -0.05538,   0.05752,   0.04415,   0.13220,   0.06921,  -0.11122,  -0.06483,  -0.00175,   0.04905,   0.13580,  -0.02483,  -0.07240,   0.06900,  -0.00955,  -0.04146,  -0.02163,  -0.11553,   0.15220,   0.00455,  -0.07792,   0.01888,   0.08949,  -0.03680,   0.07353,   0.09202,  -0.15734,  -0.01225,   0.11794,  -0.05448,  -0.02732,   0.08300,   0.10365,  -0.02246,  -0.02876,   0.07273,   0.04309,  -0.10497,   0.09301,  -0.12165,  -0.13592,  -0.04523,  -0.06241,  -0.07433,  -0.09423,   0.07570,   0.08152,  -0.04807,   0.02442,   0.03504,   0.10067,  -0.00311,   0.11109,   0.01869,  -0.05452,  -0.06621,  -0.15018,  -0.01685,  -0.06374,  -0.02131,  -0.10905,   0.07473
   0.03314,   0.12070,   0.09390,  -0.02163,   0.12022,   0.05821,   0.09975,  -0.03769,  -0.03359,  -0.10635,  -0.03419,  -0.02525,  -0.07014,   0.03161,   0.00413,  -0.00384,  -0.11882,   0.04286,  -0.07777,   0.02121,   0.02715,  -0.03462,  -0.08118,   0.02222,  -0.01012,  -0.04245,   0.09388,   0.00475,  -0.12551,  -0.01318,  -0.09888,  -0.01792,   0.16417,  -0.09630,  -0.12129,  -0.02948,  -0.03032,   0.09428,   0.01154,   0.04073,   0.17062,   0.05000,   0.14043,   0.06808,   0.08357,   0.04376,  -0.05911,  -0.08140,   0.08827,   0.04430,  -0.09641,   0.06063,   0.08900,   0.06593,  -0.12702,  -0.09435,  -0.02817,   0.07603,  -0.03935,   0.09875,   0.01101,   0.03835,   0.08719,  -0.06047,  -0.11423,  -0.01401,  -0.14159,   0.04857,  -0.09860,  -0.03195,   0.00537,  -0.11510,   0.14299,   0.03929,   0.08380,   0.04573,  -0.09439,  -0.13009,   0.03653,   0.00935,   0.07730,  -0.03000,  -0.03962,  -0.00095,  -0.12462,   0.03220,   0.17635,   0.00064,   0.05916,  -0.03458,  -0.04526,   0.08089,  -0.14233,   0.11432,   0.05865,  -0.07422,  -0.07432,  -0.01693,  -0.16053,   0.02881,   0.08401,  -0.03887,  -0.06681,   0.02456,   0.04165,   0.03720,   0.04164,   0.05431,  -0.04235,   0.01474,   0.02472,   0.01522,   0.01202,   0.08682,   0.12079,  -0.03863,   0.05848,   0.02269,  -0.06403,   0.03083,   0.04117,   0.05618,  -0.07675,  -0.06492,   0.05200,   0.03152,   0.04916,  -0.09289
  -0.07028,  -0.03262,  -0.00521,   0.05840,   0.02276,  -0.02821,  -0.02859,  -0.11501,  -0.09080,   0.07060,  -0.07227,   0.09258,  -0.00594,   0.01116,  -0.00668,  -0.03833,  -0.08858,  -0.05470,   0.03990,  -0.07917,  -0.03409,  -0.06214,   0.01079,  -0.14055,  -0.04007,  -0.05167,   0.01751,  -0.06471,   0.01776,   0.10901,  -0.06869,   0.03267,  -0.14555,  -0.10515,  -0.06314,   0.05527,   0.06466,   0.03610,   0.00929,  -0.02949,   0.00897,  -0.00731,   0.09697,   0.04960,   0.12443,   0.07561,   0.08571,   0.08796,  -0.01529,   0.04020,   0.14766,   0.03440,   0.09163,   0.02503,  -0.05588,   0.01482,  -0.05719,   0.09514,  -0.08825,   0.01698,  -0.13946,   0.02336,   0.16172,   0.04571,  -0.06403,   0.03469,  -0.04237,   0.06795,   0.06366,   0.03944,   0.07899,   0.06738,  -0.15045,  -0.04013,   0.06589,  -0.06031,  -0.05337,   0.03158,  -0.05093,  -0.06328,  -0.09194,  -0.03290,   0.15192,  -0.06153,   0.16046,  -0.08802,  -0.00143,  -0.07574,  -0.07281,   0.04964,   0.00472,  -0.01856,   0.10257,  -0.02927,  -0.11977,   0.00158,   0.06477,   0.04250,  -0.03029,   0.01206,  -0.08944,  -0.03633,  -0.15970,   0.03597,   0.15419,  -0.07586,  -0.09142,  -0.05247,   0.00127,   0.04750,  -0.12027,  -0.00590,   0.02970,  -0.01163,   0.06242,  -0.05553,   0.01063,  -0.01318,   0.08962,  -0.10868,  -0.13629,   0.04183,   0.06440,   0.00604,  -0.00596,  -0.06368,   0.13163,   0.01914
  -0.05503,   0.00831,   0.00880,   0.05783,  -0.01574,   0.01496,  -0.11803,   0.11019,  -0.02846,   0.10687,  -0.06782,  -0.10400,   0.12984,  -0.04016,  -0.00267,  -0.06914,   0.10101,  -0.04419,  -0.03954,   0.01967,  -0.04382,   0.05743,   0.09107,  -0.02034,   0.07217,   0.10666,   0.00479,  -0.11884,   0.16004,   0.02606,  -0.03229,   0.03781,   0.03961,   0.03832,   0.10770,  -0.03109,   0.02092,  -0.03761,  -0.03937,  -0.02328,   0.10622,  -0.09806,   0.12476,   0.05966,   0.10134,   0.05275,  -0.14797,   0.02110,  -0.12875,   0.00551,   0.06869,  -0.08872,   0.05508,   0.10729,   0.02895,   0.04306,   0.09046,   0.07956,   0.12354,   0.01592,  -0.02938,   0.12194,  -0.04683,   0.08359,   0.13548,   0.07322,  -0.07394,   0.02410,   0.08211,   0.03612,  -0.09683,  -0.07570,  -0.02956,   0.02593,   0.10144,   0.00670,  -0.11555,   0.00671,   0.06845,  -0.03752,  -0.12586,  -0.02403,  -0.07682,  -0.07922,  -0.01371,   0.07597,  -0.00327,   0.04785,  -0.04302,   0.00660,   0.04972,   0.08777,   0.12417,   0.08823,   0.05032,  -0.07466,  -0.03423,  -0.03162,  -0.09251,   0.01819,  -0.10109,   0.01878,  -0.15836,  -0.06731,  -0.03162,  -0.06664,   0.04844,  -0.04372,   0.10271,  -0.05126,  -0.13869,   0.04746,  -0.08530,  -0.10122,  -0.12725,   0.05141,  -0.12227,  -0.03213,  -0.11659,  -0.08808,   0.13447,  -0.00690,   0.00726,  -0.08060,  -0.11006,  -0.03346,  -0.11141,   0.03468
   0.03330,  -0.12864,   0.08915,   0.09497,  -0.08855,   0.12286,   0.12937,  -0.11270,   0.08855,  -0.12917,   0.04399,  -0.10288,  -0.07366,  -0.14388,  -0.06360,   0.02521,   0.07612,  -0.01187,  -0.07553,  -0.00150,   0.10399,  -0.11846,   0.01457,  -0.03352,   0.12469,   0.01533,  -0.07263,  -0.01365,   0.16474,   0.02250,  -0.01618,  -0.07930,   0.06836,   0.05985,  -0.15476,   0.10361,   0.13679,   0.06969,  -0.13316,   0.00676,   0.04670,  -0.10858,  -0.12720,  -0.01018,   0.00484,   0.01089,  -0.09805,   0.04249,   0.12128,  -0.05839,  -0.14871,   0.10156,  -0.03215,  -0.10591,   0.00030,   0.00845,   0.07651,  -0.01782,  -0.13217,  -0.09262,   0.01149,   0.04522,   0.05536,  -0.09605,   0.12735,  -0.00006,  -0.09602,   0.08681,  -0.11647,   0.04416,   0.08274,  -0.05144,   0.02601,   0.05168,  -0.11769,  -0.05815,   0.04516,  -0.05956,  -0.06613,  -0.01548,   0.12382,  -0.07860,   0.10183,   0.02069,   0.06086,  -0.10028,   0.00047,  -0.07229,  -0.02506,   0.02220,   0.04830,  -0.02912,   0.15383,  -0.06009,  -0.10137,   0.01369,  -0.09732,   0.08998,   0.13820,   0.04933,  -0.13380,  -0.04449,  -0.03736,  -0.03816,  -0.09661,  -0.08292,  -0.14444,   0.05718,  -0.09775,   0.02327,  -0.10502,   0.03357,  -0.14987,  -0.01874,   0.12001,  -0.03416,  -0.07199,   0.08331,   0.03953,   0.07377,   0.07178,  -0.11646,   0.01524,  -0.04507,   0.07595,  -0.13244,  -0.01895,   0.11136
  -0.02016,   0.04808,  -0.12429,  -0.01840,  -0.08969,   0.02713,   0.04674,   0.08940,   0.00358,   0.06367,   0.06212,  -0.01929,   0.08801,   0.00944,   0.06410,   0.02687,  -0.09126,   0.03286,   0.09326,  -0.08976,  -0.11867,   0.07769,  -0.14001,   0.07005,   0.04324,   0.05021,   0.11047,   0.03616,   0.07593,  -0.07963,  -0.02526,  -0.11796,   0.07165,   0.03188,   0.15777,  -0.07856,  -0.12919,  -0.01062,  -0.10728,  -0.00782,   0.10462,  -0.02601,  -0.05886,   0.02871,  -0.13232,   0.02436,  -0.14402,  -0.07877,  -0.08342,   0.15907,   0.02800,   0.10391,   0.03903,  -0.03628,  -0.14992,   0.03599,   0.10924,  -0.12189,  -0.04789,   0.09984,   0.09466,  -0.10254,  -0.09790,  -0.10315,  -0.06804,  -0.11812,  -0.03682,   0.01648,   0.06993,  -0.13526,  -0.14764,  -0.02872,   0.10959,   0.06024,  -0.13420,  -0.08347,   0.12568,   0.14861,   0.05520,  -0.04330,  -0.05024,  -0.09565,  -0.03122,  -0.01688,   0.01995,  -0.06855,   0.09838,   0.10404,  -0.14419,   0.05543,  -0.05350,  -0.10777,   0.13440,  -0.07448,   0.06022,  -0.03841,   0.11624,   0.12782,  -0.15692,  -0.08009,  -0.02093,   0.06472,   0.11802,   0.08767,  -0.04610,   0.03550,   0.05830,  -0.07186,   0.15279,  -0.02144,   0.03400,   0.09758,   0.07720,   0.12044,  -0.04361,  -0.05060,  -0.02298,   0.03488,   0.15663,  -0.05588,  -0.10410,   0.08552,   0.10579,   0.14136,   0.11912,  -0.03609,   0.03044,   0.09437
   0.07278,   0.07775,  -0.01493,  -0.10739,   0.05986,  -0.07931,   0.00537,   0.06249,   0.00263,   0.01375,   0.04936,   0.13586,  -0.01201,   0.03291,   0.13125,  -0.02841,  -0.13806,  -0.07170,   0.06715,   0.08421,   0.05202,   0.02231,  -0.00898,  -0.09776,  -0.01117,   0.08427,  -0.16797,   0.13471,   0.04872,  -0.04175,   0.12213,   0.08470,  -0.01659,  -0.07882,   0.15325,   0.09017,   0.08541,   0.14293,   0.02480,  -0.04575,  -0.06376,   0.07857,   0.16952,  -0.03105,  -0.10673,   0.05553,   0.16643,   0.00771,   0.14365,  -0.08436,  -0.02944,   0.06281,  -0.14109,   0.00218,  -0.12855,   0.01977,  -0.13456,   0.01051,  -0.05717,   0.09955,  -0.08580,  -0.05740,   0.12634,  -0.05712,   0.08303,   0.10504,   0.10882,  -0.00802,   0.10071,   0.01526,  -0.15230,   0.06437,   0.00651,   0.07006,  -0.11555,   0.04165,  -0.15273,  -0.07239,  -0.08461,  -0.05537,  -0.14062,   0.05414,   0.05142,  -0.05100,   0.13576,  -0.05827,   0.07423,   0.02943,  -0.03730,   0.04292,   0.02923,  -0.01221,   0.05610,  -0.05038,   0.14218,   0.07515,  -0.11043,   0.05692,   0.08417,   0.07767,   0.11380,  -0.12630,   0.02263,  -0.12149,   0.10099,  -0.03985,  -0.06492,   0.13794,  -0.13950,  -0.00776,  -0.08288,   0.07244,  -0.13121,  -0.08127,   0.09837,  -0.07767,  -0.16526,  -0.04584,  -0.10645,   0.03058,   0.08148,  -0.08059,   0.11167,  -0.04462,  -0.03081,   0.01201,   0.06651,  -0.00199
   0.06990,  -0.05137,   0.02897,   0.03259,  -0.02144,  -0.06888,  -0.09864,  -0.10116,   0.05708,  -0.01000,  -0.02305,  -0.02914,   0.03663,  -0.10752,  -0.13289,  -0.09407,  -0.01500,   0.01030,   0.08547,   0.08631,  -0.09191,  -0.00990,   0.16428,   0.01978,   0.01725,  -0.01868,  -0.09541,  -0.04702,   0.06301,   0.03605,  -0.11174,   0.01312,  -0.17160,   0.00412,   0.03835,  -0.00178,   0.10141,  -0.03978,  -0.12461,   0.01699,   0.10980,  -0.07751,   0.09419,   0.03091,   0.00398,  -0.10491,   0.00040,  -0.01883,  -0.01925,   0.08001,  -0.12558,  -0.02546,   0.08222,  -0.08101,   0.02266,  -0.08073,  -0.12733,   0.00083,   0.09057,   0.02853,  -0.10720,  -0.12634,   0.10224,   0.06937,  -0.09491,  -0.02488,   0.06106,  -0.01969,  -0.05182,   0.11439,  -0.01385,   0.05265,   0.07654,  -0.11184,   0.07993,   0.08842,   0.14377,  -0.04770,   0.07901,   0.10254,  -0.16247,  -0.06323,  -0.09976,  -0.06261,  -0.01467,  -0.04778,  -0.07330,  -0.04112,   0.03991,   0.00954,  -0.06860,   0.01383,   0.14411,   0.05012,  -0.09521,  -0.04632,  -0.09174,   0.09565,   0.08305,   0.03743,   0.09903,   0.04710,   0.10233,   0.05828,  -0.09589,  -0.07639,   0.04892,  -0.07307,   0.02602,  -0.12361,  -0.06687,  -0.04290,   0.11542,   0.05111,   0.13274,   0.09553,  -0.02369,  -0.11265,  -0.05019,   0.04260,   0.01432,  -0.00033,   0.04395,   0.10608,   0.02595,   0.00010,  -0.13477,   0.10934
   0.10396,  -0.07704,  -0.04888,  -0.04979,  -0.05474,   0.10245,   0.08602,   0.12007,  -0.04209,  -0.07909,   0.10476,  -0.10801,  -0.01625,  -0.06659,   0.15307,  -0.00412,   0.05552,   0.08968,   0.00453,  -0.07539,  -0.06423,  -0.00799,   0.12656,   0.05886,   0.01625,   0.05491,   0.15845,  -0.12696,  -0.03833,   0.02545,  -0.07353,  -0.03549,  -0.12989,   0.01688,  -0.11132,   0.02876,   0.16813,   0.01881,   0.09117,  -0.13101,  -0.06849,   0.01998,  -0.02231,   0.01346,  -0.05088,  -0.00409,  -0.04914,  -0.12516,  -0.03202,  -0.03027,  -0.02623,   0.10296,   0.11666,   0.04406,  -0.10895,   0.00514,  -0.12169,  -0.08976,   0.12729,  -0.07444,  -0.03333,   0.00640,   0.01703,  -0.01012,  -0.03462,  -0.03311,  -0.11793,  -0.02694,  -0.13392,  -0.06642,  -0.09778,  -0.08400,   0.12604,  -0.12717,   0.03209,  -0.01570,  -0.02127,  -0.05666,  -0.13188,  -0.02364,  -0.11589,   0.05799,  -0.10495,  -0.09037,  -0.10902,   0.01791,  -0.10962,   0.01901,   0.17993,   0.07345,   0.09442,  -0.08903,  -0.07796,   0.06237,  -0.14829,  -0.04320,   0.05638,   0.00734,   0.00877,   0.02119,  -0.04312,  -0.13326,  -0.08992,   0.07801,   0.15456,   0.04727,   0.07152,   0.08921,   0.00605,  -0.02976,  -0.08559,   0.00296,  -0.14157,   0.04935,   0.06687,   0.08050,   0.03396,  -0.06448,   0.05957,  -0.09490,   0.02662,  -0.07635,   0.12041,   0.05658,  -0.04191,   0.09904,   0.05324,   0.08310
   0.00180,  -0.07307,   0.04571,  -0.01801,   0.00527,  -0.05705,  -0.03730,  -0.03726,  -0.08007,  -0.10244,  -0.06792,  -0.06686,  -0.09290,  -0.08371,   0.07118,   0.09964,  -0.02818,  -0.00902,   0.12517,  -0.07418,  -0.12917,  -0.06560,   0.06755,  -0.04425,   0.02440,   0.10495,   0.03561,  -0.06968,  -0.11095,  -0.08267,   0.00647,   0.07965,  -0.01607,  -0.07806,  -0.04157,   0.10621,  -0.07406,   0.07396,   0.14439,   0.06224,   0.04925,   0.05957,   0.04709,  -0.06481,  -0.06744,  -0.08903,   0.07449,  -0.06765,   0.12238,  -0.01291,  -0.07919,   0.10747,   0.08310,  -0.11178,   0.02371,   0.05912,  -0.02524,  -0.03163,  -0.10325,  -0.10852,   0.03168,   0.03992,  -0.00620,  -0.00151,  -0.11398,   0.07469,  -0.15007,   0.01676,   0.00184,   0.03853,  -0.08023,  -0.10437,   0.02596,   0.04027,   0.08772,  -0.02560,  -0.15108,  -0.11327,  -0.02523,  -0.08647,   0.05258,   0.03366,  -0.12187,  -0.04889,   0.04572,   0.02440,   0.09115,   0.12490,   0.12970,   0.07668,   0.01318,  -0.10005,   0.07345,   0.03648,  -0.07384,  -0.06248,  -0.00674,   0.06900,   0.01627,  -0.06482,  -0.01250,  -0.05300,   0.11677,   0.04060,  -0.02087,  -0.00798,  -0.17169,   0.12556,   0.07067,   0.13310,   0.02022,  -0.06098,   0.13029,   0.00611,  -0.06564,   0.10330,  -0.12074,   0.14654,  -0.01069,   0.10580,  -0.09548,  -0.07485,   0.07255,  -0.05791,   0.13517,  -0.08740,   0.02494,  -0.05702
   0.07495,   0.05893,  -0.06603,  -0.04308,   0.09357,   0.00531,  -0.02253,  -0.00861,   0.10116,   0.06778,  -0.04367,   0.05606,   0.03509,  -0.04873,  -0.02416,   0.06746,   0.06060,   0.09130,  -0.02598,  -0.04500,  -0.06198,  -0.00853,   0.07820,   0.08347,   0.02923,   0.07028,  -0.02473,   0.07421,   0.14891,  -0.08965,   0.04582,  -0.08217,  -0.09546,   0.13466,   0.18937,   0.03851,   0.09457,   0.11131,   0.06567,  -0.01666,   0.03648,   0.11545,  -0.12489,   0.05388,  -0.11965,   0.02936,  -0.01753,  -0.06286,  -0.08679,   0.00394,   0.05557,  -0.02955,  -0.08009,  -0.01706,   0.09477,   0.02771,   0.14901,   0.06078,   0.05449,  -0.06079,   0.11508,   0.02860,   0.12386,  -0.03863,  -0.09362,   0.09467,   0.10551,   0.03182,  -0.11033,   0.00234,   0.20006,   0.08863,   0.13224,   0.12399,   0.11981,   0.01464,   0.06498,   0.01581,   0.09814,   0.12574,   0.00900,   0.06298,  -0.13926,  -0.03582,   0.04067,   0.04860,  -0.09309,   0.13892,  -0.00515,   0.08772,  -0.15137,  -0.05267,  -0.02087,  -0.04349,   0.14147,   0.06692,   0.13690,  -0.11061,   0.00583,   0.07147,  -0.04343,   0.09198,   0.12334,   0.02320,   0.10289,   0.00520,  -0.03307,  -0.09622,  -0.13272,  -0.01041,   0.06354,   0.09468,   0.03724,   0.00115,   0.11383,   0.04618,   0.13260,  -0.07302,  -0.15463,   0.07027,  -0.15422,   0.01654,   0.06524,   0.06027,  -0.06841,  -0.08460,   0.03672,  -0.03119
   0.06095,  -0.03276,   0.04656,   0.04332,  -0.03457,  -0.07103,  -0.08349,   0.00097,   0.05786,  -0.04070,  -0.00775,  -0.04629,  -0.07279,  -0.05172,  -0.06088,   0.06914,   0.03051,  -0.00551,  -0.12998,   0.06457,   0.06833,  -0.04681,  -0.10649,  -0.09762,  -0.03969,  -0.06580,   0.13608,   0.11297,   0.02660,   0.09712,   0.10163,  -0.10023,  -0.07529,  -0.00162,  -0.06847,   0.00761,   0.07118,   0.03346,   0.05629,   0.05892,   0.09746,   0.11018,  -0.00032,   0.07696,  -0.13268,  -0.09633,   0.00262,   0.04785,   0.13930,   0.06321,   0.07491,  -0.02788,  -0.01244,  -0.00944,  -0.03910,   0.05128,  -0.02899,  -0.00519,  -0.07732,  -0.02440,  -0.02015,   0.05242,   0.14340,   0.02335,   0.05999,  -0.12357,  -0.06829,   0.11367,   0.02831,   0.05074,   0.12832,  -0.03983,   0.07517,  -0.06418,   0.12679,   0.05234,  -0.04445,  -0.05793,   0.09403,  -0.01042,   0.03807,   0.06701,   0.03272,  -0.04824,  -0.08021,   0.05774,  -0.14332,  -0.08242,   0.19067,   0.10105,   0.00550,   0.12073,   0.03916,  -0.01021,  -0.05047,  -0.09577,   0.16893,   0.01520,  -0.08091,   0.05160,   0.03019,  -0.06621,  -0.08403,  -0.04669,  -0.09595,   0.08644,   0.04060,   0.01790,  -0.15121,   0.03131,   0.10847,  -0.06198,  -0.07664,   0.02002,  -0.16093,  -0.03466,   0.10939,   0.00186,   0.09361,  -0.09030,   0.08962,   0.06597,   0.05976,   0.09820,   0.10209,   0.07682,  -0.06149,   0.07298
  -0.10583,   0.08019,  -0.06138,   0.11878,  -0.06940,  -0.02894,  -0.07001,   0.10634,   0.07228,  -0.09811,   0.06489,   0.07804,  -0.01646,  -0.03377,   0.10955,  -0.05886,  -0.08406,  -0.11554,   0.10798,   0.06058,   0.14422,   0.06555,  -0.00007,  -0.03654,   0.10446,   0.02279,  -0.04001,   0.04707,  -0.06561,  -0.03203,   0.13956,   0.08296,  -0.02758,   0.02253,  -0.00870,   0.00408,   0.12382,   0.02736,  -0.13051,   0.00728,   0.06015,  -0.13090,  -0.00221,   0.09114,   0.13466,   0.01494,   0.04465,  -0.04944,   0.04672,  -0.00338,  -0.16486,   0.12647,   0.01997,   0.08586,  -0.04712,  -0.10374,  -0.06156,   0.07428,  -0.12537,   0.10700,  -0.14251,  -0.04042,   0.16563,  -0.00653,  -0.05357,  -0.06347,   0.06486,   0.04174,   0.08920,  -0.10492,  -0.11155,   0.09956,  -0.05413,   0.00423,  -0.11034,   0.02229,  -0.10286,   0.12301,   0.09443,   0.07021,   0.02836,  -0.13445,   0.08277,   0.09150,   0.14479,  -0.05356,   0.15533,  -0.02516,  -0.01644,  -0.08879,   0.04834,  -0.07580,  -0.00257,   0.14035,  -0.12778,   0.02997,  -0.12638,   0.09826,   0.05274,  -0.01724,   0.04085,   0.00584,  -0.14896,   0.09360,   0.01019,  -0.06821,  -0.06420,   0.05157,  -0.14470,   0.08159,   0.04892,   0.07472,   0.02149,   0.04866,   0.13807,  -0.02347,   0.08451,   0.14342,  -0.01274,   0.04195,  -0.03605,  -0.01041,   0.10534,   0.13462,   0.09487,  -0.13311,   0.02620,   0.12984
   0.06690,  -0.09631,   0.03934,   0.01940,  -0.05131,   0.02609,   0.00313,  -0.09901,   0.04785,   0.05645,  -0.06117,   0.05216,   0.02062,  -0.06661,   0.00815,   0.08913,  -0.03109,   0.01297,   0.09068,   0.13281,   0.08511,   0.08711,   0.03229,   0.14760,  -0.08916,  -0.07470,  -0.11391,   0.12266,  -0.12983,  -0.04380,  -0.04462,   0.02901,   0.14554,   0.00260,   0.07734,  -0.02233,   0.14472,   0.11117,   0.14853,  -0.13052,   0.08281,  -0.01055,  -0.06587,  -0.09261,  -0.16181,   0.03682,  -0.16029,  -0.06480,  -0.02279,   0.12689,  -0.11200,   0.05884,   0.08856,  -0.03486,   0.10792,   0.06700,   0.17132,   0.02588,   0.13522,  -0.06006,   0.06757,   0.00178,  -0.00457,  -0.02339,   0.03362,   0.09992,   0.06181,  -0.03672,  -0.16082,  -0.04880,  -0.03207,   0.05468,   0.08005,  -0.10558,   0.00348,   0.03772,  -0.06600,  -0.03127,   0.13357,  -0.08036,  -0.08817,   0.10601,  -0.12970,   0.08916,  -0.12348,   0.10179,  -0.01322,  -0.06502,  -0.03501,  -0.10621,   0.07196,   0.06375,  -0.03188,  -0.09828,  -0.00515,  -0.04481,   0.09407,   0.03235,   0.10429,  -0.03133,   0.11821,   0.13858,   0.09295,  -0.08215,  -0.08885,  -0.05059,  -0.14576,  -0.05756,   0.09814,  -0.07047,   0.04205,   0.13243,  -0.02176,   0.00921,   0.11030,  -0.07868,   0.02890,  -0.02026,   0.13186,   0.10560,  -0.02249,   0.13728,  -0.06497,  -0.04217,   0.12240,   0.00016,  -0.10480,   0.11159
  -0.07182,  -0.06099,   0.12547,   0.00773,  -0.08360,   0.09838,   0.07037,   0.02291,   0.03480,  -0.14088,   0.03770,   0.04898,  -0.11302,  -0.05904,   0.01340,  -0.05527,  -0.05637,  -0.02845,   0.12547,  -0.01157,   0.09352,  -0.06157,   0.05943,   0.03133,  -0.01705,   0.05622,   0.04446,   0.00791,  -0.12251,   0.10088,   0.09808,   0.12315,  -0.08517,  -0.05504,  -0.00275,   0.00045,   0.11752,  -0.06891,   0.07036,  -0.10706,   0.05236,  -0.00460,   0.16688,  -0.09144,  -0.15885,   0.04377,  -0.15117,  -0.03105,  -0.07868,  -0.04603,  -0.03155,   0.04223,  -0.14007,   0.00649,  -0.17157,  -0.07496,  -0.04758,  -0.05659,   0.06123,  -0.02294,   0.14732,   0.02985,  -0.14001,  -0.08423,  -0.15144,   0.08712,   0.03786,   0.06733,  -0.10258,   0.01962,   0.10035,  -0.05470,  -0.05804,   0.09308,   0.04451,  -0.04288,  -0.11292,  -0.08236,   0.06020,   0.02141,   0.08339,  -0.00464,  -0.12861,  -0.00051,  -0.04750,  -0.10374,   0.15489,  -0.05977,  -0.11243,  -0.12029,   0.04926,   0.09436,  -0.14971,  -0.03484,  -0.15564,  -0.09457,   0.13556,  -0.05446,  -0.01885,   0.00960,  -0.04861,  -0.06666,  -0.12004,   0.01034,  -0.07728,   0.07189,  -0.08248,   0.11723,  -0.06336,  -0.01143,   0.10403,  -0.05851,   0.12119,   0.02573,  -0.08887,  -0.02023,   0.09632,   0.02679,   0.03911,   0.06832,  -0.04800,  -0.04225,   0.06694,  -0.09459,   0.12347,   0.03393,   0.07546,   0.03900
   0.03432,   0.00783,   0.02313,  -0.00500,   0.02410,  -0.05834,  -0.11179,   0.04291,  -0.03143,   0.00741,   0.01255,   0.02133,   0.06862,   0.03681,   0.08660,   0.06701,   0.06698,  -0.05729,   0.04345,   0.13423,   0.10673,   0.01452,  -0.09387,  -0.11043,  -0.04336,   0.00815,  -0.11071,  -0.03326,   0.03553,   0.09946,  -0.03648,   0.11720,   0.10263,   0.01387,  -0.11642,  -0.02974,   0.11619,  -0.06434,  -0.10516,   0.02768,   0.09057,  -0.08942,   0.06034,   0.03619,   0.05855,   0.11041,  -0.05231,   0.09211,  -0.07257,  -0.03140,  -0.05364,   0.06015,   0.07228,   0.03109,   0.04771,  -0.04249,   0.04724,  -0.01147,  -0.00353,  -0.02118,  -0.01010,   0.10474,  -0.06045,   0.01472,  -0.04013,   0.08587,   0.12190,   0.01579,   0.06097,   0.09414,   0.04661,  -0.08102,   0.12311,   0.10563,   0.11474,   0.09736,   0.08833,  -0.03921,  -0.08364,   0.02993,   0.06056,   0.03455,   0.06503,   0.06888,   0.07736,   0.07831,   0.14225,  -0.06687,  -0.01956,  -0.01792,  -0.14064,   0.10700,  -0.06213,   0.06629,   0.13283,  -0.06670,  -0.11885,  -0.04042,   0.10041,   0.12732,  -0.12117,  -0.05823,   0.05688,  -0.02696,  -0.00479,  -0.09599,  -0.17730,  -0.04142,  -0.02264,  -0.03648,  -0.02103,  -0.02431,  -0.07805,  -0.11284,  -0.09048,   0.06624,   0.08523,   0.05210,  -0.09473,  -0.00960,  -0.02092,  -0.04318,  -0.11898,  -0.11679,   0.10539,  -0.10000,  -0.00788,  -0.06557
   0.11475,  -0.08128,  -0.02445,  -0.09111,  -0.00314,   0.04634,  -0.03365,  -0.07155,   0.01907,   0.00549,  -0.03411,   0.09540,  -0.02086,  -0.02689,  -0.05096,   0.00446,  -0.06539,  -0.02336,  -0.07157,   0.07456,   0.12380,  -0.07550,  -0.08677,  -0.08897,   0.00600,   0.07661,  -0.09260,  -0.01000,   0.16131,  -0.08414,  -0.17788,  -0.10185,  -0.06348,  -0.07276,   0.09092,  -0.00681,  -0.13745,  -0.04892,   0.07792,   0.05889,  -0.01770,  -0.04517,  -0.16146,   0.01568,   0.15854,   0.02950,  -0.04989,   0.04380,  -0.15844,  -0.10436,   0.03690,  -0.05740,  -0.02602,  -0.03656,  -0.10982,   0.13424,  -0.05496,  -0.03489,  -0.11573,  -0.05740,  -0.11420,  -0.02147,  -0.11198,  -0.03309,  -0.09467,   0.03839,  -0.07121,   0.07909,  -0.05322,  -0.06655,   0.11924,   0.08586,  -0.04748,   0.09967,   0.13194,  -0.08247,  -0.09574,  -0.02264,  -0.10782,   0.06246,  -0.01005,   0.02186,  -0.17428,  -0.12092,  -0.11809,   0.08209,   0.14098,  -0.05737,   0.13331,   0.08169,  -0.00686,   0.09010,  -0.03662,  -0.01972,  -0.03214,  -0.00810,   0.00093,  -0.06259,   0.08905,  -0.05418,  -0.00448,   0.05858,   0.08921,   0.07746,   0.14117,  -0.02051,   0.09261,   0.11653,   0.11897,  -0.12571,  -0.02644,   0.02407,   0.07469,  -0.11059,  -0.05706,  -0.04033,   0.12357,  -0.02150,  -0.02040,   0.07570,   0.03174,  -0.00996,   0.10626,  -0.13444,   0.05522,   0.03984,   0.12481,  -0.11723
   0.06192,  -0.09683,  -0.00093,   0.05649,   0.04627,   0.07752,   0.06957,   0.03073,   0.01798,   0.07563,  -0.00315,  -0.06115,  -0.00043,  -0.05695,  -0.08553,  -0.04672,  -0.02848,   0.04854,   0.08884,  -0.11987,  -0.06194,  -0.07705,   0.10101,   0.00889,  -0.10028,  -0.02743,  -0.02213,   0.04336,   0.07911,   0.03524,   0.05549,  -0.14071,  -0.09791,   0.01102,  -0.05880,   0.02174,   0.01883,   0.08784,  -0.04616,  -0.08486,   0.10228,   0.05188,   0.03685,   0.02511,   0.03564,  -0.07274,  -0.04501,  -0.06631,  -0.05970,  -0.13481,   0.02720,   0.05248,   0.01549,   0.00330,  -0.01358,   0.03330,   0.14028,   0.03684,  -0.09749,   0.00053,   0.05162,   0.04236,  -0.04260,  -0.05533,  -0.13348,   0.04241,  -0.09114,   0.08867,  -0.12310,   0.02342,  -0.02419,   0.02718,  -0.04357,   0.04787,  -0.15264,   0.10829,   0.07390,  -0.06152,   0.11590,  -0.04923,   0.13275,   0.03830,   0.06844,  -0.12172,  -0.09123,   0.09062,  -0.14099,  -0.00474,  -0.05354,   0.14981,  -0.08010,  -0.01549,  -0.03517,  -0.04696,   0.01016,  -0.00033,  -0.10674,  -0.10198,   0.15391,  -0.07406,   0.09315,  -0.08342,  -0.00802,   0.04680,  -0.05747,  -0.00818,   0.04841,   0.06263,  -0.11506,  -0.05480,  -0.02461,   0.08929,  -0.17083,  -0.01141,   0.16429,  -0.06797,   0.04082,  -0.00217,   0.13334,   0.12695,  -0.00347,   0.02552,   0.14812,  -0.09252,   0.11768,   0.07601,  -0.15284,  -0.08205
   0.09578,  -0.10718,  -0.00753,  -0.10460,  -0.03860,   0.02684,  -0.05085,  -0.05129,  -0.04449,   0.03934,  -0.07738,  -0.05027,  -0.01985,   0.06422,  -0.10318,  -0.01407,   0.00959,  -0.00584,   0.07030,  -0.04080,   0.06673,   0.08207,   0.07090,   0.09389,   0.05330,   0.07435,  -0.09046,  -0.07438,  -0.06216,  -0.08282,   0.01440,  -0.02813,   0.04522,  -0.03314,   0.05368,  -0.05697,   0.06001,  -0.03510,   0.17776,   0.11955,  -0.15477,  -0.10257,   0.04304,   0.04506,   0.06127,   0.02134,  -0.09917,   0.08035,   0.05562,  -0.00565,  -0.09822,  -0.03278,  -0.05808,  -0.02193,   0.06244,  -0.02134,  -0.13687,  -0.08374,   0.04380,   0.07442,  -0.02571,  -0.07284,  -0.07150,   0.01962,   0.00029,  -0.00493,  -0.12645,   0.05740,  -0.04257,   0.00992,   0.00853,   0.01752,   0.12168,   0.11024,   0.01403,   0.04048,   0.06911,  -0.02352,   0.03450,   0.03571,  -0.09711,  -0.08965,  -0.05806,   0.02400,   0.13730,  -0.10475,  -0.04213,   0.10897,   0.04096,   0.10149,   0.10992,   0.00070,  -0.04855,   0.03922,   0.05229,  -0.09979,   0.04702,   0.02555,   0.01970,   0.02491,  -0.12404,  -0.03038,   0.07582,   0.03515,   0.07462,  -0.01364,   0.10268,   0.00123,   0.00335,  -0.08125,   0.07710,  -0.08918,  -0.13567,   0.07265,  -0.03649,  -0.04097,  -0.15080,  -0.04889,  -0.07412,   0.09203,   0.16365,  -0.05335,  -0.01699,   0.03256,  -0.12368,  -0.07667,  -0.01904,  -0.08741
  -0.09312,  -0.06075,   0.04681,  -0.00935,  -0.10741,   0.11431,  -0.03353,   0.12926,  -0.03914,   0.10968,  -0.03474,   0.00938,   0.13335,   0.04946,  -0.16041,  -0.02872,  -0.10559,  -0.11045,  -0.09412,   0.01564,   0.00261,  -0.02779,  -0.03384,   0.03065,   0.09149,  -0.01873,  -0.03607,  -0.05372,   0.05561,   0.03941,   0.13745,  -0.09075,   0.10153,   0.08806,  -0.09650,   0.05671,  -0.10828,  -0.05659,  -0.08474,   0.08913,   0.14303,  -0.07409,   0.14485,  -0.10164,   0.10621,  -0.08093,  -0.08129,  -0.05232,  -0.00284,  -0.07618,   0.14095,   0.02791,   0.13892,   0.01131,  -0.02698,   0.10645,  -0.13813,  -0.05703,  -0.01961,   0.01952,  -0.02346,   0.02378,  -0.09672,  -0.13179,   0.08375,   0.09260,   0.00273,  -0.05129,   0.06650,   0.02308,   0.03056,  -0.05737,   0.02686,  -0.00544,   0.07773,  -0.06726,  -0.00854,  -0.03529,  -0.02670,   0.00585,  -0.02852,   0.07716,  -0.10352,   0.01429,   0.07982,   0.02617,   0.05943,   0.04901,   0.09737,  -0.07863,  -0.06773,  -0.04747,   0.03798,  -0.07797,  -0.12407,  -0.07014,  -0.02930,   0.10587,  -0.02289,  -0.04987,  -0.11527,  -0.03962,  -0.03854,  -0.00149,  -0.12825,  -0.05942,  -0.17841,   0.08368,   0.08044,   0.06669,  -0.12753,   0.08934,  -0.03990,   0.10967,   0.14279,   0.00531,  -0.04392,   0.06750,  -0.08137,  -0.09254,   0.13436,  -0.02873,  -0.08712,   0.06087,  -0.13462,   0.02417,  -0.11355,  -0.02235
  -0.10969,   0.02954,   0.04612,   0.07940,  -0.01918,  -0.03446,   0.03401,   0.02787,   0.00210,   0.07298,  -0.07681,   0.00779,   0.06419,  -0.08676,   0.05992,   0.09045,  -0.05335,  -0.04811,  -0.08522,   0.13054,  -0.10207,  -0.09031,  -0.11688,  -0.00660,  -0.00787,   0.03767,  -0.14722,   0.07131,   0.06377,  -0.01879,  -0.13284,  -0.00465,  -0.14818,  -0.05586,   0.13277,  -0.00869,   0.07291,  -0.08343,   0.01934,   0.08296,   0.07467,  -0.01027,  -0.14140,   0.05917,   0.08462,  -0.04779,   0.08596,   0.05426,   0.07036,   0.10225,   0.18707,  -0.05333,   0.01424,  -0.03213,   0.02774,   0.00253,   0.15996,  -0.02225,   0.03149,   0.05635,  -0.14609,  -0.09496,   0.07286,  -0.04766,   0.00011,   0.09461,  -0.01322,  -0.01980,  -0.01184,   0.02391,  -0.09083,   0.00517,   0.14867,   0.03418,  -0.08984,   0.03534,  -0.06272,   0.00409,   0.12463,   0.09596,  -0.06766,   0.03376,   0.07696,   0.13195,   0.06801,  -0.05727,  -0.13043,  -0.04716,  -0.03094,   0.07253,  -0.01586,  -0.08386,   0.00450,   0.04838,  -0.00616,   0.01612,   0.08429,   0.01896,   0.02163,  -0.01569,  -0.08322,  -0.10858,  -0.14722,   0.04110,  -0.02961,  -0.03716,   0.08237,   0.09041,  -0.02380,   0.00491,  -0.12732,  -0.07681,  -0.00700,   0.02039,  -0.01345,   0.07236,   0.17216,   0.06167,   0.14544,  -0.08758,  -0.11179,   0.03008,   0.07787,   0.04265,   0.07116,  -0.07066,   0.11938,   0.05765
  -0.05853,  -0.11533,   0.02440,   0.03834,   0.05552,  -0.02539,  -0.00811,   0.15494,  -0.02324,  -0.10512,   0.01932,   0.05571,  -0.07728,   0.08788,  -0.05039,  -0.09579,   0.05230,  -0.02747,  -0.01555,   0.06060,  -0.10984,  -0.01121,  -0.10651,  -0.05409,   0.08510,  -0.08352,  -0.02250,  -0.08035,  -0.12803,   0.02749,   0.16673,  -0.08744,   0.02034,  -0.09425,   0.13594,   0.08668,   0.06105,   0.05173,  -0.01714,   0.06327,  -0.13559,  -0.10939,   0.01421,  -0.06575,   0.10658,  -0.08994,  -0.06484,  -0.04555,  -0.11192,  -0.10902,   0.02223,   0.02298,  -0.11021,   0.01603,  -0.09982,   0.06316,   0.06314,   0.01081,  -0.01010,  -0.14595,   0.11336,   0.10411,   0.15852,  -0.06455,  -0.17180,   0.06284,   0.13590,   0.12165,  -0.02881,  -0.03845,  -0.17722,  -0.07885,  -0.06802,   0.02876,  -0.06402,   0.02090,   0.13084,  -0.05505,  -0.01419,   0.12588,  -0.13809,  -0.05641,  -0.13914,   0.05280,   0.04637,  -0.05899,   0.00103,   0.01132,  -0.03153,   0.10427,   0.17066,  -0.08339,  -0.01432,   0.13331,   0.09642,  -0.11250,   0.12558,   0.06064,  -0.09263,  -0.05761,  -0.13390,   0.01104,   0.04665,  -0.12278,  -0.13732,   0.06955,   0.06861,  -0.01919,   0.05872,   0.01146,   0.04136,  -0.09740,  -0.05888,   0.07120,   0.09264,   0.01685,   0.04250,   0.06468,   0.05387,  -0.07022,  -0.12594,  -0.05705,  -0.16659,  -0.05586,   0.08069,   0.01553,   0.00419,   0.03024
  -0.07424,  -0.02650,  -0.01413,  -0.00181,  -0.01994,  -0.13586,  -0.06223,   0.02578,   0.00505,   0.09868,  -0.14134,   0.05937,  -0.09070,  -0.08633,  -0.04348,  -0.03597,  -0.02925,  -0.01880,  -0.10398,  -0.08089,  -0.09064,  -0.04128,   0.11008,  -0.10149,   0.07434,   0.00555,  -0.06990,  -0.00360,  -0.09408,   0.01929,  -0.04791,   0.11266,  -0.05143,  -0.07193,   0.04938,  -0.08329,   0.13465,   0.06994,  -0.07748,  -0.06223,   0.01412,  -0.01003,   0.00109,   0.11784,   0.02297,  -0.10044,  -0.04147,  -0.07241,   0.14970,  -0.02630,   0.08787,  -0.05885,   0.21410,   0.06917,  -0.11812,  -0.03922,  -0.02735,  -0.03088,  -0.11110,   0.00585,   0.02638,   0.04521,   0.16908,   0.09170,   0.07207,   0.00799,  -0.06178,   0.12169,  -0.04329,  -0.00261,  -0.12908,  -0.10895,  -0.14245,   0.08099,   0.12133,   0.02711,   0.13761,   0.00964,   0.04244,   0.02362,   0.07333,   0.05377,   0.08128,  -0.07312,  -0.09703,  -0.00343,  -0.11123,   0.11028,   0.13056,   0.08685,  -0.03555,  -0.08073,   0.14922,  -0.09641,   0.06205,   0.08755,  -0.11219,  -0.04118,  -0.06910,  -0.06408,   0.02010,   0.02048,  -0.06223,  -0.10021,   0.13073,  -0.00563,  -0.11743,  -0.00869,   0.06749,   0.00653,  -0.04475,  -0.04628,  -0.03665,  -0.03209,  -0.01912,   0.02590,   0.00003,  -0.00422,  -0.11666,   0.03615,   0.08911,   0.03390,  -0.05525,   0.10393,   0.03128,  -0.00645,  -0.12314,  -0.05039
  -0.06332,  -0.07161,   0.05964,   0.04574,  -0.08860,  -0.03454,  -0.05319,   0.09199,   0.05512,  -0.05163,  -0.11480,  -0.01963,   0.00822,   0.11405,  -0.12129,  -0.07619,   0.10141,  -0.02758,  -0.12288,  -0.03007,   0.11239,   0.07619,   0.02746,  -0.04122,   0.09306,  -0.05548,   0.11444,   0.05516,  -0.17713,   0.02182,  -0.09971,  -0.05990,  -0.04123,   0.07359,  -0.00353,  -0.08020,  -0.03933,  -0.07122,   0.15576,  -0.00531,   0.12920,   0.02613,   0.11760,  -0.01652,  -0.07560,   0.11313,  -0.17312,  -0.05192,  -0.00787,   0.00201,  -0.11995,  -0.00862,  -0.02439,   0.06239,   0.10668,   0.09724,   0.06504,  -0.07506,  -0.03052,   0.00061,  -0.05567,   0.01708,   0.10541,  -0.08468,  -0.02179,  -0.05225,  -0.15920,  -0.04240,  -0.01711,   0.01290,  -0.03864,  -0.06414,   0.14590,   0.01987,  -0.05167,   0.04126,   0.03503,  -0.05559,  -0.05052,   0.14368,  -0.07882,  -0.00080,  -0.14836,   0.00480,  -0.08335,  -0.04521,   0.12729,   0.01262,  -0.14441,  -0.11229,  -0.10123,  -0.10160,   0.06043,  -0.12345,   0.04327,  -0.04589,  -0.16938,   0.02647,   0.08677,   0.03565,   0.11266,   0.09564,   0.07491,  -0.02440,   0.13083,  -0.06662,  -0.15912,  -0.10402,  -0.10039,   0.06997,   0.09076,   0.02289,  -0.13786,   0.07314,  -0.00988,  -0.05512,  -0.03604,  -0.01670,   0.03191,   0.00022,   0.05345,  -0.03262,  -0.08511,   0.05829,  -0.09238,  -0.04043,   0.13722,   0.01519
   0.03624,   0.00280,  -0.02868,  -0.00355,   0.07200,  -0.10047,  -0.09814,  -0.03291,  -0.04238,   0.05621,  -0.03627,  -0.03193,  -0.01927,  -0.03674,  -0.04756,  -0.02147,  -0.14065,   0.03265,  -0.07339,  -0.07265,  -0.05388,   0.07319,   0.09472,   0.00075,   0.11232,   0.09549,   0.10401,  -0.09928,  -0.02556,  -0.01556,   0.00666,  -0.05016,   0.10402,   0.01989,   0.09174,   0.04341,  -0.01189,   0.08782,  -0.04895,   0.06638,  -0.03816,  -0.01829,   0.04597,  -0.02267,  -0.13228,  -0.01749,   0.02674,  -0.10020,   0.14841,  -0.01760,  -0.07381,   0.09222,   0.10095,  -0.02561,  -0.11647,  -0.09006,  -0.11566,   0.01185,   0.00133,  -0.09321,  -0.08588,   0.07400,  -0.03615,   0.06040,  -0.04210,   0.02443,  -0.03173,   0.02330,  -0.10220,  -0.08082,   0.03235,   0.06815,   0.13959,   0.04759,  -0.00902,  -0.02381,   0.02611,  -0.00423,   0.15397,  -0.11077,  -0.07953,  -0.05052,  -0.09107,  -0.09318,   0.07686,   0.03227,   0.09053,   0.08108,  -0.16539,  -0.01890,  -0.00249,   0.02790,   0.05709,  -0.06464,  -0.00785,   0.04113,  -0.14557,  -0.06723,  -0.05938,   0.06483,   0.07353,  -0.00140,   0.11286,   0.05316,  -0.02134,  -0.00278,  -0.13646,   0.03143,  -0.08895,  -0.08595,  -0.07267,   0.06698,   0.04525,  -0.03698,   0.06245,  -0.04730,   0.04073,   0.04752,   0.04295,   0.04188,  -0.00627,  -0.00524,   0.02248,  -0.00097,   0.18917,   0.01775,  -0.09376,  -0.02540
   0.06924,   0.10075,   0.07206,  -0.03347,   0.05460,   0.11907,   0.03144,  -0.07013,  -0.04336,   0.05807,   0.12649,   0.06457,   0.10288,   0.03728,   0.04213,   0.09073,   0.13166,  -0.08863,   0.02712,  -0.01635,   0.03733,   0.05493,   0.01357,   0.01373,   0.09602,  -0.07855,  -0.05291,  -0.01604,   0.05104,   0.02951,   0.05396,  -0.08734,  -0.12394,   0.01543,   0.05610,   0.05181,  -0.03797,   0.12153,  -0.15894,   0.10937,   0.16109,  -0.09388,  -0.13368,   0.09102,   0.06786,  -0.06989,   0.03365,   0.14129,  -0.03117,   0.11158,   0.06309,   0.01513,  -0.07658,  -0.02724,   0.01244,   0.03698,  -0.03895,   0.07156,   0.03652,  -0.09532,   0.12275,   0.08032,   0.15283,  -0.07056,   0.10470,  -0.09835,   0.07234,   0.09333,   0.04121,  -0.08317,  -0.09875,   0.10896,  -0.01352,   0.14082,   0.01816,  -0.02013,  -0.12711,   0.00594,  -0.08275,   0.01322,   0.03461,   0.01882,   0.12593,  -0.07833,  -0.13641,   0.00643,   0.15065,  -0.08537,  -0.03389,   0.04651,  -0.09738,   0.06817,   0.07157,   0.06360,  -0.00221,   0.00232,  -0.05801,  -0.02885,   0.12675,   0.06699,  -0.09596,  -0.01559,   0.18156,   0.11164,  -0.13798,   0.03562,  -0.06599,   0.06209,   0.10601,  -0.07622,   0.06743,  -0.10233,  -0.10692,  -0.07938,  -0.13151,   0.07943,   0.02833,  -0.02781,  -0.01413,   0.12653,   0.03978,   0.04260,  -0.03698,  -0.05294,   0.07010,   0.07124,  -0.15888,  -0.01951
   0.04601,  -0.04595,  -0.01123,   0.11986,  -0.06858,  -0.03059,   0.13012,  -0.00200,   0.07877,   0.04159,   0.08197,  -0.08670,   0.04702,  -0.03225,   0.04030,   0.04608,  -0.01991,  -0.01083,   0.10688,   0.09582,  -0.06525,   0.09351,   0.11258,  -0.04573,   0.02604,  -0.05595,   0.10154,  -0.00063,   0.10351,   0.10037,   0.01065,   0.05335,   0.01180,   0.08640,  -0.00749,   0.08923,   0.12958,  -0.11420,  -0.02261,   0.04174,   0.13431,  -0.04280,   0.12448,  -0.03851,  -0.07429,   0.02255,   0.04551,   0.02526,  -0.11078,   0.09972,   0.04583,   0.04881,  -0.07960,   0.07173,  -0.16439,   0.05358,   0.10268,   0.06107,   0.08387,  -0.09607,  -0.13387,  -0.02945,   0.00170,   0.04252,   0.06150,  -0.01580,  -0.08789,   0.03313,   0.07604,  -0.03581,   0.10282,   0.09081,  -0.11089,   0.03962,   0.11481,   0.00284,   0.08485,  -0.06386,  -0.00058,   0.06016,  -0.11964,   0.05259,   0.10937,   0.06483,  -0.07347,  -0.00457,   0.13614,  -0.05472,   0.06209,   0.02226,  -0.02414,  -0.14134,  -0.04732,   0.07441,   0.11795,   0.07159,  -0.11074,  -0.05498,   0.08351,   0.08253,  -0.14406,  -0.01872,   0.07874,   0.08978,  -0.13755,   0.08900,  -0.10902,  -0.02439,  -0.13495,  -0.08708,  -0.01650,   0.00520,  -0.04021,  -0.12136,   0.12186,  -0.06856,  -0.06811,  -0.07670,  -0.07211,   0.08548,   0.08211,   0.03871,  -0.08264,   0.07224,  -0.07044,   0.06649,   0.04417,   0.07100
   0.02210,   0.05845,  -0.01535,  -0.08746,  -0.02707,   0.00890,  -0.02355,  -0.04670,   0.02093,   0.12496,  -0.05669,   0.07944,  -0.03006,  -0.09351,  -0.04332,   0.06756,   0.09925,  -0.05846,  -0.09048,  -0.05421,   0.03074,  -0.05716,   0.01693,   0.09460,   0.09090,  -0.10196,  -0.01910,  -0.03238,   0.07810,  -0.04583,  -0.13050,   0.11672,  -0.10979,  -0.11861,  -0.12060,   0.10694,  -0.05056,  -0.05455,  -0.18539,  -0.12802,  -0.09038,  -0.03423,   0.12052,   0.01859,  -0.02639,   0.07623,   0.14061,  -0.06237,  -0.03068,  -0.06654,   0.09699,   0.00179,   0.05541,   0.12859,  -0.14936,  -0.07336,   0.02537,   0.00583,   0.14232,   0.01139,   0.05967,  -0.01370,   0.13098,   0.11954,   0.06305,  -0.01060,   0.11318,   0.03880,   0.14566,  -0.08590,   0.05030,  -0.08063,  -0.12769,   0.06687,   0.03892,  -0.01451,  -0.08123,   0.04994,  -0.05559,   0.05830,  -0.08282,   0.08639,  -0.11886,   0.05568,   0.14609,   0.00196,  -0.09795,   0.11118,   0.04384,   0.13559,   0.10623,   0.06524,  -0.08098,  -0.00642,  -0.01584,   0.11903,   0.06547,   0.01091,   0.13005,  -0.06232,   0.06192,  -0.05858,   0.04652,  -0.08090,   0.09321,   0.01683,  -0.04583,   0.07170,  -0.04146,   0.09026,  -0.05474,  -0.02120,  -0.13275,   0.07786,   0.05313,  -0.01381,  -0.07447,   0.03144,   0.01260,  -0.08064,   0.07668,   0.09077,   0.03383,   0.11014,   0.15006,  -0.00568,   0.09602,   0.01753
   0.03580,   0.06939,  -0.02444,  -0.05240,  -0.04639,   0.06365,   0.00388,  -0.02800,   0.10703,  -0.04753,   0.05965,   0.05943,  -0.10884,  -0.00208,  -0.02988,   0.06710,   0.08817,  -0.05279,   0.03461,   0.07945,  -0.01784,   0.05977,   0.04533,   0.01824,  -0.14925,   0.01434,  -0.12423,   0.01713,  -0.05238,  -0.08146,   0.13553,   0.07728,  -0.11456,   0.06510,  -0.09071,   0.08053,   0.01312,  -0.11379,   0.04381,   0.00576,   0.05426,   0.05863,  -0.12529,   0.04508,   0.17536,  -0.01512,   0.06095,   0.03176,  -0.07618,   0.06490,   0.18439,   0.05973,  -0.01860,   0.10293,   0.19600,   0.02373,  -0.08643,  -0.06925,  -0.01999,   0.06584,   0.08403,   0.03499,   0.04086,  -0.03116,   0.08052,   0.08112,  -0.08972,  -0.06459,  -0.02599,  -0.04410,   0.05033,   0.06574,  -0.07636,  -0.11046,  -0.11108,  -0.07403,   0.17825,   0.01358,  -0.02217,   0.09519,   0.12239,  -0.03777,  -0.05581,   0.08808,   0.12355,  -0.06889,   0.08879,   0.00593,   0.04940,   0.03358,   0.14643,   0.04117,  -0.14308,  -0.12469,  -0.04727,  -0.05881,  -0.09756,   0.00429,   0.12067,  -0.09839,  -0.00924,  -0.05819,   0.01189,  -0.01093,  -0.03662,   0.00801,   0.08839,   0.00662,  -0.14786,   0.01719,  -0.06586,   0.03121,  -0.11719,  -0.01061,  -0.12091,  -0.09471,   0.09918,  -0.03717,  -0.10191,  -0.06619,  -0.03397,  -0.07590,   0.04939,  -0.02707,   0.02934,  -0.08357,  -0.12437,  -0.07112
  -0.01385,  -0.07270,   0.01324,  -0.02787,   0.06483,  -0.00490,  -0.06210,  -0.12256,  -0.04089,  -0.08802,  -0.06682,  -0.04395,  -0.03548,   0.02086,   0.10252,   0.10895,  -0.07729,  -0.06180,  -0.10661,   0.06525,  -0.04382,  -0.07304,  -0.09087,   0.01612,  -0.15014,   0.07967,  -0.07525,  -0.01764,  -0.07001,   0.02629,   0.00962,   0.12683,   0.08648,   0.05929,   0.15847,   0.12737,   0.09903,   0.09367,  -0.05821,  -0.06733,  -0.09779,   0.03159,  -0.12579,  -0.10221,   0.01772,   0.02958,   0.02046,  -0.04754,   0.10583,  -0.09462,  -0.12140,   0.08653,  -0.13686,  -0.12120,  -0.11573,   0.03026,  -0.05575,   0.10542,   0.08495,   0.09123,   0.13032,  -0.03693,   0.08534,   0.02646,  -0.10036,  -0.03208,  -0.12086,  -0.04127,   0.03586,  -0.07824,   0.01119,  -0.07400,  -0.10133,  -0.10479,   0.12551,  -0.15647,   0.02660,  -0.06996,   0.06488,  -0.14085,  -0.08049,  -0.06864,  -0.04762,   0.06706,  -0.02659,  -0.09619,   0.05550,  -0.10422,  -0.14675,  -0.08913,  -0.04209,   0.04924,   0.02966,   0.03838,  -0.13602,  -0.09764,   0.07406,  -0.01400,   0.05675,  -0.13197,  -0.08094,  -0.15563,   0.07394,  -0.00394,   0.10911,  -0.04610,  -0.04806,   0.00003,  -0.04771,   0.05723,   0.00656,   0.02375,   0.13382,   0.01803,   0.14422,  -0.07394,   0.00903,  -0.07840,  -0.14673,   0.02540,  -0.09274,  -0.01513,   0.14035,   0.05333,  -0.12202,   0.04950,   0.16734,  -0.10245
   0.01732,  -0.00017,   0.01275,   0.04707,   0.00448,  -0.10501,  -0.04237,  -0.06886,   0.13965,   0.06893,   0.02736,  -0.08068,   0.01642,  -0.01208,  -0.07369,  -0.00386,   0.05057,   0.06149,  -0.06831,   0.10404,   0.11978,  -0.10092,   0.07934,   0.10930,   0.09510,   0.08915,   0.01645,   0.05020,  -0.12037,   0.02686,   0.05521,   0.09271,  -0.05996,  -0.00484,   0.14950,   0.04112,  -0.13922,  -0.02493,   0.08411,   0.02084,  -0.05315,  -0.02701,  -0.06345,  -0.08525,   0.06142,  -0.05620,  -0.02342,   0.06202,   0.01118,  -0.05255,   0.19308,   0.06825,   0.08038,   0.01028,  -0.01234,   0.04291,  -0.12077,   0.09837,  -0.08484,   0.01809,   0.15302,  -0.03311,  -0.01688,  -0.03316,   0.09868,   0.06687,   0.08362,  -0.06749,   0.15667,   0.01794,  -0.01173,   0.04312,  -0.02185,  -0.07764,   0.13032,  -0.09349,  -0.14748,   0.10482,  -0.03948,  -0.06012,  -0.07871,  -0.01923,   0.07962,   0.13486,  -0.11319,   0.10287,  -0.15307,  -0.01171,   0.11753,   0.00333,  -0.01658,   0.08882,  -0.04539,   0.06316,  -0.09662,  -0.05053,  -0.00475,   0.04356,   0.03695,  -0.03437,   0.06610,   0.02937,   0.01933,  -0.02348,  -0.05078,   0.05953,   0.03198,  -0.04096,   0.03775,  -0.03586,   0.13902,   0.07799,   0.05943,   0.00124,   0.02272,   0.05274,   0.16759,   0.05040,   0.08006,  -0.04255,   0.01633,   0.04511,  -0.13197,  -0.05134,  -0.02421,   0.06756,  -0.03324,   0.05362
  -0.06086,  -0.03346,   0.00999,   0.04864,   0.10702,  -0.05411,  -0.08306,   0.04793,   0.02483,  -0.03961,  -0.11343,  -0.11619,   0.11235,   0.06996,   0.05376,  -0.13147,  -0.10334,  -0.02650,  -0.08618,  -0.06628,   0.04062,   0.09394,  -0.06251,  -0.03647,   0.16001,  -0.10054,   0.15266,  -0.06167,   0.09980,  -0.11710,   0.09628,   0.08983,  -0.10575,   0.02176,  -0.10202,  -0.08549,  -0.11944,  -0.05357,  -0.05693,  -0.04860,   0.02039,  -0.02135,  -0.13922,   0.01590,   0.06216,   0.09257,  -0.05051,  -0.11657,  -0.11915,   0.03045,  -0.02340,   0.04821,   0.01903,   0.09912,  -0.12354,  -0.09686,   0.08921,  -0.03282,   0.10623,  -0.03790,  -0.01539,  -0.02330,  -0.03316,  -0.09390,   0.10820,  -0.06196,  -0.11475,  -0.03680,  -0.03347,   0.09342,   0.15352,   0.06701,  -0.12068,  -0.05566,  -0.01253,   0.05400,  -0.08377,  -0.02026,  -0.03615,  -0.03422,   0.13258,   0.00514,  -0.11523,  -0.05674,  -0.06021,   0.03973,  -0.07932,   0.03647,  -0.07233,  -0.06559,  -0.08042,  -0.02616,  -0.14317,  -0.12000,   0.17544,   0.02298,   0.13116,  -0.00227,  -0.03812,  -0.01173,   0.11133,   0.11566,  -0.01221,   0.00031,   0.08924,  -0.10306,   0.11839,  -0.10664,   0.04999,   0.06807,  -0.03281,   0.00659,   0.08004,  -0.03554,  -0.14597,   0.03215,  -0.12348,  -0.09452,   0.03166,   0.07406,  -0.14309,   0.06373,   0.08631,   0.07023,  -0.05198,  -0.01360,   0.03324,   0.00759
   0.04653,   0.07033,  -0.04426,  -0.07092,  -0.05346,   0.15747,   0.05998,  -0.05392,  -0.01870,   0.00135,  -0.01185,  -0.01635,   0.08402,   0.00829,  -0.13811,   0.01535,  -0.12538,  -0.05803,  -0.01473,  -0.03184,   0.08333,  -0.14127,   0.15806,   0.09335,   0.08049,  -0.01044,   0.12201,  -0.05695,   0.08725,   0.00645,  -0.08952,  -0.11053,  -0.10396,  -0.10859,  -0.03383,  -0.06607,  -0.09484,  -0.09758,  -0.00389,  -0.05575,   0.07399,   0.11336,   0.05508,   0.07001,   0.15565,   0.08323,   0.01798,   0.06591,   0.11403,  -0.07700,   0.05445,  -0.01253,  -0.16777,   0.02448,   0.12838,  -0.00418,  -0.07931,   0.08929,  -0.11853,   0.07581,   0.07432,  -0.03973,   0.02487,   0.01093,   0.05718,  -0.08126,  -0.08360,  -0.08021,   0.02846,   0.10110,   0.12110,  -0.02309,  -0.04580,  -0.09776,  -0.00641,   0.10499,   0.10584,   0.05975,   0.13392,  -0.06779,  -0.03781,   0.12061,   0.10539,   0.08261,   0.18392,   0.07706,  -0.10847,  -0.10873,  -0.01994,   0.09365,   0.02454,   0.05020,  -0.08226,  -0.01412,   0.00326,   0.05716,   0.09664,   0.10633,  -0.06516,   0.01342,  -0.07821,  -0.00148,  -0.07674,   0.00531,  -0.07576,  -0.12009,  -0.02995,   0.06991,   0.10651,   0.07636,   0.01584,  -0.04873,   0.04135,   0.08881,  -0.16990,   0.12430,   0.00673,   0.04032,  -0.08155,   0.08332,   0.04735,  -0.00108,  -0.06395,   0.04516,  -0.11757,  -0.01506,  -0.05235,   0.09365
   0.03195,  -0.01658,   0.04566,   0.06866,  -0.03913,   0.06224,  -0.00428,   0.02476,   0.08668,  -0.05980,   0.07599,  -0.06053,  -0.04010,   0.10835,  -0.03852,   0.04866,  -0.04264,  -0.06919,  -0.12946,   0.07960,   0.12555,   0.00014,   0.17575,  -0.03865,   0.05393,  -0.04398,  -0.04699,   0.11124,   0.01262,   0.05779,   0.06330,   0.00484,  -0.10721,  -0.05648,  -0.15713,   0.05391,  -0.10519,   0.12852,  -0.04453,   0.10221,   0.02260,  -0.00499,   0.04002,  -0.05016,  -0.08807,   0.07245,  -0.11760,  -0.02068,  -0.10068,   0.01700,   0.03234,  -0.04805,   0.15175,  -0.07568,  -0.00386,   0.06251,  -0.05576,   0.02525,   0.01141,   0.08144,  -0.00269,  -0.01348,  -0.07578,  -0.02067,  -0.07983,   0.03706,  -0.11352,   0.00096,  -0.08886,  -0.07578,  -0.14503,   0.01711,   0.04280,   0.04913,   0.15981,  -0.10038,   0.04925,  -0.08387,   0.13629,  -0.04396,  -0.15375,  -0.04794,   0.08075,   0.00853,   0.02043,  -0.00836,  -0.01568,  -0.09620,   0.04549,  -0.05545,  -0.10028,  -0.05652,   0.12824,   0.04272,  -0.04070,  -0.07218,  -0.07471,  -0.01830,   0.06608,   0.12154,  -0.06832,  -0.03045,  -0.02231,  -0.00565,   0.00140,  -0.03029,   0.00498,   0.06677,   0.04762,  -0.09183,   0.06284,   0.07018,   0.12087,   0.06217,  -0.13174,  -0.03509,   0.00407,   0.01780,   0.14937,  -0.11202,   0.03094,   0.01417,   0.07380,   0.06296,   0.16233,  -0.02683,  -0.04251,  -0.05664
  -0.02926,  -0.09811,  -0.08206,   0.00875,  -0.00252,  -0.03956,   0.02865,  -0.03928,  -0.06440,   0.12293,  -0.09399,  -0.00399,   0.07385,   0.02687,   0.08879,  -0.03358,   0.05828,  -0.01630,  -0.13528,  -0.11552,  -0.10481,   0.03611,  -0.04192,   0.01225,   0.01493,  -0.03989,  -0.09463,  -0.00260,  -0.05847,  -0.04190,   0.08464,   0.08843,  -0.06183,   0.04332,   0.08978,   0.01128,   0.12148,   0.19009,   0.07942,  -0.07584,   0.00511,   0.03617,   0.02697,  -0.07663,   0.08845,  -0.07231,  -0.15196,  -0.01807,   0.11815,  -0.06493,   0.05669,   0.07885,  -0.09588,   0.04701,   0.06688,  -0.05372,  -0.06535,  -0.11290,   0.00285,  -0.09537,  -0.10557,   0.07365,   0.04187,   0.06265,   0.10142,  -0.06831,   0.11960,   0.08123,   0.11679,  -0.00809,  -0.13327,  -0.07852,   0.02680,   0.10225,   0.17215,  -0.06657,  -0.13988,  -0.11497,   0.00787,  -0.07635,  -0.07547,  -0.04406,  -0.19618,  -0.07534,   0.11909,   0.02807,   0.04027,   0.07931,   0.14516,   0.10298,  -0.10784,   0.04015,  -0.09675,   0.06161,  -0.04251,   0.03039,   0.12150,   0.03635,   0.07112,  -0.11655,  -0.04160,   0.02490,  -0.02911,  -0.00793,  -0.07435,  -0.08582,  -0.14881,   0.01094,  -0.04764,  -0.08558,   0.14881,   0.07562,  -0.04072,  -0.03398,  -0.14399,   0.07659,   0.04253,   0.01287,   0.01440,  -0.02386,   0.12677,   0.08181,  -0.07376,  -0.03790,   0.10961,   0.08247,  -0.14842,  -0.03282
   0.04905,  -0.10656,   0.03918,   0.03139,  -0.02514,  -0.06662,  -0.00275,   0.00869,   0.07244,  -0.05721,   0.03748,  -0.06258,   0.07096,  -0.03155,  -0.08986,   0.01681,  -0.10599,   0.09451,  -0.12937,  -0.10256,  -0.18154,  -0.08725,  -0.13002,   0.08643,   0.13799,  -0.05553,   0.12580,   0.13676,   0.04297,   0.12496,   0.09659,   0.05025,   0.00543,  -0.03299,   0.08383,   0.01885,   0.02715,  -0.02264,   0.11602,   0.08906,  -0.04607,   0.09332,  -0.07045,   0.08714,  -0.04464,  -0.03528,  -0.00916,   0.02864,   0.00143,  -0.02027,   0.04757,   0.11731,  -0.01764,   0.03833,   0.12034,   0.03923,  -0.15581,   0.04470,  -0.00463,  -0.09999,   0.17630,   0.11746,  -0.02028,  -0.10642,   0.07815,  -0.06987,  -0.09076,  -0.01032,  -0.09460,  -0.07165,  -0.09336,   0.07358,   0.13661,   0.10724,   0.09133,  -0.08807,   0.08098,   0.03008,  -0.02937,   0.12665,  -0.07867,  -0.02652,   0.15305,   0.11706,   0.10093,  -0.02247,   0.06260,  -0.12660,  -0.03751,   0.10683,  -0.10764,  -0.03834,  -0.14943,   0.13813,  -0.00810,   0.04946,   0.06821,  -0.11637,   0.04787,  -0.00988,  -0.02150,  -0.03082,  -0.08297,   0.08224,   0.01991,  -0.02334,   0.07527,  -0.03213,  -0.01388,   0.03856,  -0.04407,   0.09398,   0.09540,  -0.05482,   0.09905,  -0.08657,  -0.02850,  -0.11407,   0.05049,  -0.07212,   0.06946,  -0.08013,  -0.05740,   0.07976,   0.05059,  -0.09555,   0.09585,   0.04512
   0.01076,   0.06620,   0.01385,  -0.02204,  -0.00336,   0.10331,   0.09895,  -0.10455,  -0.06972,  -0.02558,   0.10083,   0.05572,  -0.02081,   0.08585,  -0.05836,  -0.05983,   0.10783,  -0.00062,  -0.06830,   0.06834,  -0.02923,  -0.03398,   0.13650,  -0.05262,   0.02367,   0.08225,  -0.09309,  -0.00233,  -0.08359,  -0.09552,  -0.10388,  -0.12653,  -0.13422,   0.08986,   0.13209,   0.08844,  -0.08994,  -0.01973,   0.11328,   0.07118,  -0.00561,  -0.05664,  -0.02974,  -0.09324,   0.03319,  -0.02460,  -0.00139,   0.09536,  -0.00413,  -0.02190,   0.07624,  -0.00784,   0.02062,  -0.09776,  -0.04353,  -0.02222,   0.02893,  -0.00536,  -0.10758,   0.06626,  -0.11559,  -0.04206,   0.07036,  -0.01940,  -0.13607,  -0.07656,   0.14123,   0.00334,   0.00486,   0.13317,   0.02611,  -0.08839,   0.03938,  -0.03862,  -0.04859,   0.03651,  -0.01687,   0.05062,   0.04852,   0.01623,  -0.11161,   0.13253,  -0.02952,   0.00981,   0.02666,   0.02965,  -0.14865,   0.14151,   0.12675,  -0.03462,  -0.02609,   0.03859,   0.02389,  -0.12833,  -0.14481,  -0.06310,  -0.09676,  -0.07250,  -0.09237,  -0.08509,   0.16475,  -0.05367,   0.07693,  -0.01957,   0.02293,   0.09117,   0.13824,   0.02890,   0.07889,  -0.06067,   0.00758,  -0.15354,   0.01455,  -0.10589,  -0.13078,   0.04681,  -0.14642,  -0.00752,   0.02951,  -0.04749,  -0.06097,  -0.02245,   0.11149,  -0.07447,  -0.03156,   0.07039,   0.11652,   0.03303
   0.06235,  -0.09626,  -0.08761,   0.02378,   0.10051,  -0.06046,   0.04946,   0.05693,  -0.06116,  -0.09703,   0.01869,   0.07959,   0.09335,   0.04736,   0.13805,  -0.04915,   0.02898,   0.12439,   0.11123,   0.06859,   0.12486,  -0.07092,  -0.00482,   0.03349,   0.13856,  -0.00033,  -0.04024,  -0.07398,  -0.13645,  -0.00817,   0.08297,  -0.00780,  -0.12283,  -0.10851,   0.02880,   0.03929,   0.06496,   0.14643,  -0.04155,   0.12068,   0.13279,   0.10047,   0.08833,   0.12068,   0.15215,   0.04711,  -0.11870,  -0.10577,   0.09243,   0.11538,  -0.10033,  -0.02200,   0.01753,  -0.07403,  -0.06476,   0.05165,  -0.13907,   0.06802,  -0.02985,   0.12612,   0.13648,  -0.08462,   0.15828,   0.11261,   0.09444,   0.10641,  -0.08372,  -0.08033,   0.12904,  -0.08632,   0.03947,   0.08323,  -0.09640,  -0.00845,  -0.09211,  -0.13010,   0.02440,  -0.00704,  -0.03668,  -0.06713,  -0.09383,   0.01261,  -0.01678,   0.12439,  -0.06697,  -0.11444,  -0.01767,  -0.02437,  -0.04322,  -0.00731,   0.12026,   0.07204,   0.13164,  -0.06474,   0.09419,  -0.02340,   0.06130,  -0.00925,   0.07170,  -0.02874,   0.12099,  -0.07847,   0.07289,   0.13162,   0.13416,   0.03297,   0.11718,   0.08604,  -0.09974,   0.03669,   0.07467,   0.02093,  -0.16721,  -0.02114,  -0.13383,   0.04623,  -0.09356,   0.08738,  -0.04665,  -0.04927,   0.01589,   0.03481,  -0.05376,   0.02298,  -0.13243,  -0.09129,   0.05717,   0.05893
  -0.02704,  -0.01535,  -0.00035,  -0.08230,   0.05980,  -0.04409,  -0.08593,   0.08269,   0.03820,   0.05080,  -0.04252,   0.10033,   0.17094,   0.05535,   0.01080,  -0.10016,  -0.03896,   0.00069,   0.01418,  -0.13457,   0.12040,   0.03417,  -0.00555,  -0.08766,  -0.01639,  -0.07671,  -0.08791,   0.01672,   0.10927,  -0.00597,   0.12471,  -0.05822,  -0.07384,  -0.06541,  -0.11863,  -0.01324,   0.01574,  -0.00014,   0.04449,   0.09733,   0.03123,  -0.11558,  -0.09616,  -0.11557,  -0.11982,   0.06954,   0.04182,   0.14958,  -0.09281,   0.00935,   0.09214,  -0.06139,  -0.08224,  -0.05348,  -0.06700,   0.03609,  -0.14904,   0.09885,   0.03137,   0.10394,  -0.00272,   0.01007,   0.05918,   0.07280,   0.11228,   0.07558,   0.13427,  -0.07162,  -0.08391,  -0.07215,  -0.17404,   0.03365,   0.02716,   0.03542,   0.05737,   0.09027,   0.03400,  -0.01036,  -0.08540,   0.04881,   0.00062,  -0.09601,  -0.06887,   0.02284,   0.18033,  -0.03023,  -0.17504,  -0.02483,   0.08755,  -0.06699,   0.04263,   0.01014,   0.04552,   0.04172,   0.06626,   0.07263,   0.08879,  -0.08148,  -0.01257,   0.04838,   0.06273,  -0.05987,  -0.00419,  -0.08102,   0.10884,   0.11642,  -0.11384,  -0.05194,   0.04482,  -0.05000,   0.05933,  -0.04706,  -0.06133,   0.02871,   0.00584,  -0.11587,  -0.13205,  -0.06687,  -0.09787,   0.04654,  -0.12026,  -0.06876,   0.00693,  -0.03828,   0.01060,  -0.04423,   0.05276,   0.03169
  -0.02633,  -0.05059,   0.02360,   0.00659,   0.04819,  -0.00062,   0.08477,   0.10411,  -0.13167,  -0.02687,   0.15031,  -0.02817,   0.13793,   0.10045,   0.00705,  -0.01625,  -0.07755,  -0.17020,   0.06718,   0.04662,   0.08638,  -0.02236,  -0.08059,   0.04838,  -0.01861,   0.04770,   0.02302,   0.04365,   0.06781,  -0.00851,  -0.02495,  -0.07613,   0.04171,  -0.08430,   0.06922,   0.02756,   0.16887,   0.04405,  -0.01839,  -0.04870,   0.02531,   0.06996,   0.05559,  -0.03181,   0.10178,   0.07818,   0.04465,   0.04226,  -0.03244,  -0.00923,   0.08679,   0.07277,  -0.03963,  -0.00661,  -0.07165,   0.09680,  -0.03808,  -0.09822,   0.09150,   0.06538,  -0.06706,  -0.08580,  -0.11247,  -0.06327,   0.09221,  -0.02485,   0.09653,  -0.08299,  -0.06381,  -0.00507,   0.07570,   0.11354,  -0.08404,  -0.08411,  -0.13445,   0.05298,   0.00016,  -0.09320,   0.04972,   0.05705,   0.02990,   0.12995,  -0.07169,   0.00183,   0.18387,   0.09812,  -0.11515,  -0.07867,  -0.01442,   0.05099,   0.13714,  -0.05371,  -0.07300,  -0.08549,  -0.01233,   0.01171,  -0.06419,   0.07382,   0.01041,  -0.01250,  -0.05621,   0.09464,   0.01709,   0.01057,  -0.05076,  -0.09278,  -0.07013,   0.01709,  -0.06415,   0.04549,  -0.11876,  -0.09294,   0.03432,  -0.11527,   0.04676,   0.05497,   0.08398,  -0.05297,  -0.11154,   0.08330,  -0.13112,   0.08372,  -0.06102,  -0.04798,   0.08307,   0.08455,  -0.05027,   0.08089
  -0.03978,   0.08939,   0.10973,  -0.09884,   0.10797,   0.04024,  -0.08349,  -0.12174,  -0.02591,  -0.11347,  -0.04122,   0.06388,   0.01441,  -0.07859,   0.06575,  -0.00161,  -0.09140,   0.03267,   0.04775,  -0.11228,  -0.11212,   0.03552,   0.12682,   0.08314,  -0.03127,  -0.10036,  -0.14114,   0.02326,   0.06681,   0.04941,   0.04669,   0.02164,  -0.13752,   0.04422,  -0.11178,   0.00993,  -0.12016,  -0.07863,  -0.15294,  -0.12054,  -0.09886,   0.02159,  -0.02053,  -0.00489,  -0.14713,   0.07600,  -0.12346,  -0.02960,   0.10673,  -0.05205,   0.11413,   0.08699,   0.01416,   0.06015,  -0.09718,   0.13552,   0.13486,  -0.15766,  -0.00831,  -0.01939,  -0.01721,  -0.09985,   0.05260,  -0.04769,  -0.05455,  -0.09942,   0.04206,  -0.08480,   0.01936,   0.08071,  -0.09032,  -0.04996,   0.04269,   0.12270,  -0.06101,   0.10257,   0.09300,   0.08770,   0.04816,  -0.09395,  -0.03317,  -0.03013,   0.02181,   0.03060,   0.03828,  -0.01064,   0.10295,  -0.06353,   0.00084,  -0.02245,  -0.12533,  -0.08304,   0.11178,  -0.03537,  -0.01735,   0.06528,   0.14470,  -0.12537,  -0.09068,  -0.04426,  -0.02497,  -0.09041,   0.12627,   0.04225,   0.16700,   0.05168,  -0.10478,  -0.03623,  -0.04291,   0.02776,   0.00607,   0.02427,  -0.05826,   0.10825,   0.07292,  -0.00751,   0.07427,   0.06988,   0.05231,   0.07660,   0.17152,  -0.06459,  -0.06306,  -0.06558,  -0.10025,   0.05334,  -0.12355,   0.01100
  -0.05246,  -0.06065,   0.08913,   0.04558,  -0.06647,   0.07172,  -0.06701,  -0.02788,   0.00373,  -0.06578,  -0.13614,   0.02740,   0.12089,  -0.07389,   0.00781,   0.06072,  -0.13268,   0.09962,   0.08741,  -0.04854,  -0.05777,  -0.00441,  -0.02313,  -0.04537,   0.09444,  -0.11841,   0.09484,   0.10713,  -0.00941,   0.10352,   0.16706,   0.01070,  -0.10229,   0.01510,  -0.04772,  -0.04307,   0.09294,  -0.02250,  -0.02722,   0.06508,  -0.07878,   0.01154,  -0.11740,  -0.01372,  -0.02919,  -0.02122,   0.05656,  -0.01153,  -0.00097,   0.05872,  -0.04243,  -0.04744,  -0.00485,   0.12016,   0.07880,  -0.00898,   0.20298,   0.01130,  -0.12781,   0.01813,  -0.13046,   0.02821,   0.05629,  -0.00564,   0.12850,   0.06529,  -0.12734,   0.07536,   0.02791,   0.07283,   0.11037,   0.09893,  -0.05141,  -0.01597,   0.05136,  -0.08703,   0.02002,  -0.08535,  -0.11450,  -0.11718,   0.02072,  -0.04024,  -0.12489,   0.06474,   0.17033,   0.11289,  -0.05769,  -0.10479,  -0.04920,   0.12359,  -0.04327,   0.00765,  -0.12077,   0.13384,   0.13911,   0.01129,  -0.13396,  -0.10820,  -0.11289,  -0.02823,   0.15557,  -0.10880,  -0.02900,  -0.03970,  -0.12499,  -0.08362,  -0.06896,   0.11685,   0.02319,  -0.05465,  -0.10068,  -0.04566,   0.11342,   0.08278,   0.13512,   0.05372,   0.09906,  -0.08118,   0.11393,  -0.01401,  -0.10788,   0.07045,   0.12627,   0.02112,  -0.11263,   0.06739,  -0.00267,  -0.08000
   0.06025,  -0.07886,   0.04909,  -0.07749,   0.01929,   0.07686,   0.02971,   0.12601,   0.09637,   0.03567,  -0.05740,  -0.04331,   0.11657,   0.07310,  -0.10038,   0.10704,  -0.02939,   0.05069,  -0.09210,  -0.09251,   0.04404,  -0.05765,  -0.02547,   0.00546,   0.12468,  -0.01905,  -0.09674,  -0.05188,  -0.07173,   0.06946,   0.09526,  -0.09747,  -0.00192,   0.08101,   0.03874,   0.06790,   0.03521,  -0.04945,  -0.12130,   0.14257,  -0.02400,  -0.04711,  -0.06492,  -0.03570,   0.09806,   0.03224,   0.03418,  -0.08548,  -0.11805,  -0.07035,   0.16212,   0.02533,   0.02092,  -0.00523,  -0.00981,   0.06359,   0.05829,   0.09059,   0.00311,   0.11463,   0.05902,  -0.10331,   0.11865,   0.00048,   0.09437,   0.06528,   0.17989,   0.11942,  -0.01495,   0.08702,  -0.05005,  -0.00819,  -0.01109,   0.15510,   0.10820,   0.05641,   0.05571,  -0.08985,   0.01963,   0.00007,  -0.17342,   0.07985,   0.05721,   0.09483,  -0.00104,   0.04336,  -0.02132,  -0.01468,  -0.17391,   0.08628,   0.12095,   0.03833,  -0.08416,   0.05047,  -0.08516,  -0.11520,  -0.09645,  -0.06593,   0.02243,  -0.07187,  -0.04782,   0.07040,   0.10948,   0.00331,   0.03809,  -0.08937,  -0.15390,  -0.06509,   0.04190,   0.03718,  -0.12097,  -0.08563,  -0.10393,  -0.07660,   0.13817,   0.02467,   0.08018,   0.02045,  -0.11678,  -0.06749,  -0.05141,  -0.02131,   0.02712,  -0.08763,   0.10622,   0.12833,   0.05668,  -0.00289
  -0.10552,  -0.04966,   0.04201,  -0.01731,  -0.08832,  -0.09113,   0.02358,   0.06713,   0.03068,  -0.09745,   0.09912,  -0.07557,  -0.08793,   0.02434,  -0.02280,   0.05976,   0.08426,  -0.05056,   0.00549,  -0.07884,   0.00065,  -0.08039,  -0.00558,   0.09673,   0.02847,   0.07372,   0.00477,   0.09318,   0.09561,  -0.07393,  -0.07709,   0.03202,  -0.03301,  -0.06670,  -0.00849,  -0.11710,   0.06051,  -0.15193,   0.14774,  -0.03916,  -0.11213,   0.07753,  -0.07407,   0.05779,  -0.05357,   0.05236,   0.02230,   0.04424,  -0.15034,  -0.10164,  -0.17347,   0.06237,   0.11342,  -0.00055,  -0.06858,   0.02236,  -0.01244,  -0.13353,   0.06118,  -0.12311,  -0.05393,   0.12285,   0.02603,  -0.00896,  -0.08905,  -0.13066,   0.00803,  -0.03178,   0.02636,   0.08980,  -0.07791,   0.02041,   0.06699,  -0.00184,  -0.13773,   0.12032,  -0.08077,   0.04867,  -0.07958,   0.10999,  -0.07000,  -0.07348,  -0.10066,   0.02236,  -0.04995,   0.00057,   0.01292,  -0.14535,  -0.08973,   0.00742,   0.09756,  -0.03148,   0.08051,  -0.04354,  -0.10854,   0.05337,   0.04629,  -0.09097,   0.07156,  -0.10152,  -0.14587,   0.03124,   0.09181,  -0.07868,   0.01504,  -0.07215,  -0.09155,  -0.11838,  -0.11961,  -0.05152,   0.13137,   0.04753,   0.07997,  -0.13480,   0.11680,   0.01726,  -0.03076,  -0.09255,  -0.08874,  -0.06547,   0.04215,  -0.01759,  -0.10997,  -0.10274,   0.05655,  -0.06529,  -0.01258,   0.07075
  -0.06340,  -0.06232,  -0.07916,   0.02981,   0.13092,  -0.12174,  -0.05178,   0.05013,   0.01349,  -0.04678,   0.03755,   0.11659,   0.09258,  -0.04573,  -0.06209,  -0.03796,   0.05587,  -0.03118,   0.03885,  -0.08898,   0.14777,  -0.06219,  -0.07970,  -0.06463,   0.08307,   0.01080,   0.04567,   0.02013,   0.00685,  -0.02123,  -0.13855,  -0.07537,  -0.15111,  -0.16117,   0.04562,   0.01876,  -0.01990,   0.10000,   0.02287,   0.09762,  -0.10615,   0.06359,  -0.01552,   0.06718,   0.12726,   0.02540,   0.17110,  -0.07701,  -0.10720,  -0.12646,  -0.08235,   0.07198,   0.02028,  -0.09087,  -0.03858,  -0.02417,   0.06270,  -0.05561,   0.14778,   0.04122,   0.16682,  -0.06639,  -0.09616,   0.07171,  -0.01976,  -0.11101,  -0.04971,   0.06718,  -0.11787,  -0.08597,   0.08497,  -0.01922,   0.05196,   0.02961,  -0.10932,   0.10182,  -0.00487,  -0.03227,  -0.08659,  -0.12954,   0.12557,  -0.04023,  -0.14330,   0.10173,   0.11110,   0.01328,  -0.00281,   0.08316,   0.10654,  -0.09380,  -0.09162,  -0.11911,  -0.01709,  -0.09844,   0.02304,  -0.00300,  -0.10597,  -0.09386,   0.07837,  -0.01609,  -0.03354,  -0.06732,  -0.03944,   0.03053,   0.00683,   0.04480,  -0.10760,  -0.00852,  -0.15347,  -0.08434,  -0.10770,   0.08079,   0.13918,   0.01690,  -0.02653,   0.11955,   0.13513,   0.06194,  -0.04587,  -0.03558,   0.09370,   0.03468,   0.07144,  -0.06601,  -0.10254,   0.05615,  -0.06550,   0.08891
   0.05884,   0.07469,   0.07778,  -0.05798,   0.07258,   0.02275,  -0.06770,   0.02243,   0.13456,   0.10296,  -0.05792,  -0.07139,   0.09320,  -0.06295,  -0.07469,   0.05948,   0.11540,   0.00114,   0.08569,   0.01542,   0.06703,   0.00650,  -0.03890,   0.12102,  -0.05975,  -0.06065,  -0.04090,   0.04953,  -0.18240,  -0.02432,  -0.04587,  -0.08886,   0.00070,   0.03606,  -0.13608,   0.08057,   0.05546,   0.00509,   0.01868,  -0.07190,   0.07936,  -0.10860,   0.01582,   0.02000,   0.12791,   0.00573,   0.07301,   0.03477,   0.04688,  -0.01795,   0.02804,  -0.11405,  -0.09276,  -0.00202,   0.14338,  -0.04282,   0.01063,  -0.04972,  -0.00875,   0.05161,   0.10972,  -0.00111,  -0.02019,   0.05558,  -0.16185,   0.03943,  -0.02757,   0.03353,  -0.10276,  -0.04521,   0.11739,  -0.05570,  -0.03743,   0.05189,  -0.02698,  -0.00973,   0.03496,   0.06148,  -0.05914,  -0.08520,  -0.17126,  -0.07113,  -0.10394,  -0.06537,  -0.04214,   0.12749,   0.10830,   0.02073,  -0.09866,  -0.03942,  -0.14727,   0.05750,   0.04708,  -0.02537,   0.09135,   0.11574,   0.14701,   0.00305,  -0.15419,   0.08447,   0.01727,  -0.06505,  -0.03270,  -0.05553,   0.12974,   0.14775,   0.05893,  -0.06531,  -0.03127,   0.09176,   0.08896,   0.13781,   0.07985,   0.13874,  -0.04672,   0.02999,   0.09879,  -0.07276,   0.05421,   0.02175,   0.01859,   0.07756,   0.12700,  -0.10211,   0.09571,  -0.04906,  -0.07768,  -0.06278
  -0.01977,  -0.09589,  -0.09678,   0.00661,  -0.07753,   0.00945,   0.04119,  -0.08343,   0.01042,  -0.03737,   0.10425,  -0.10415,   0.03242,   0.03990,  -0.09762,  -0.09345,  -0.07019,  -0.04078,   0.01857,   0.04636,   0.02510,  -0.02505,   0.07169,  -0.03391,   0.06035,  -0.08451,   0.07124,   0.08222,  -0.09790,  -0.00894,  -0.11650,  -0.02230,  -0.06247,  -0.06034,  -0.04647,  -0.09190,   0.12012,  -0.03122,   0.03990,   0.04477,  -0.07650,   0.01534,   0.08223,   0.02628,   0.02522,  -0.03932,   0.10631,   0.07128,  -0.16716,   0.06336,   0.14062,   0.06102,  -0.06237,   0.00912,  -0.09511,  -0.08215,   0.01859,  -0.06871,  -0.14856,  -0.03942,  -0.12819,   0.02326,   0.03385,  -0.08124,  -0.12850,  -0.05377,  -0.07552,  -0.04821,   0.08592,  -0.07184,   0.02900,  -0.06653,   0.09106,  -0.13562,  -0.07434,  -0.03897,  -0.01302,   0.00142,  -0.10453,   0.02629,   0.14205,   0.01373,   0.11958,  -0.12747,   0.10392,   0.00360,  -0.07415,  -0.08332,   0.11368,  -0.04469,  -0.12627,  -0.00552,  -0.11141,  -0.04282,  -0.09565,   0.05557,   0.03608,  -0.05553,  -0.07410,  -0.04404,  -0.00364,   0.09304,  -0.14500,   0.08783,   0.05422,  -0.03078,  -0.16503,   0.07815,   0.14347,  -0.03215,  -0.04363,   0.10245,  -0.04105,  -0.05510,   0.13351,   0.07553,   0.03873,   0.00258,   0.08104,   0.03238,   0.11111,  -0.02918,  -0.12799,  -0.03501,  -0.05483,   0.06226,   0.13489,  -0.00218
  -0.07578,   0.01339,  -0.08437,   0.08875,   0.02558,   0.01439,  -0.00427,  -0.04642,   0.08769,  -0.00195,  -0.11772,   0.08976,  -0.00619,   0.11212,   0.09290,   0.06305,   0.04438,  -0.04229,  -0.01439,   0.00870,  -0.10854,  -0.03413,   0.05729,  -0.01712,   0.13057,  -0.03861,   0.13974,   0.04276,   0.07548,  -0.06853,  -0.14789,   0.10378,  -0.10059,   0.07205,  -0.12492,  -0.04415,  -0.07755,  -0.00391,  -0.02230,   0.01789,   0.04007,  -0.08524,  -0.10895,  -0.04976,   0.13631,  -0.08798,  -0.11374,  -0.12397,  -0.12677,  -0.02282,  -0.00673,   0.08449,   0.00893,   0.05873,  -0.07924,  -0.03361,  -0.14141,  -0.03497,  -0.12380,  -0.01110,  -0.06579,   0.10425,   0.10848,  -0.06715,  -0.08783,   0.08932,  -0.12843,   0.06624,   0.12874,  -0.12002,  -0.12292,  -0.03004,  -0.05409,   0.04532,   0.08860,  -0.04458,   0.08245,   0.06027,   0.02695,  -0.00013,   0.05195,   0.00295,   0.07113,  -0.06516,  -0.03347,  -0.00246,   0.00093,  -0.14242,   0.01881,  -0.05176,   0.11328,  -0.08207,  -0.04178,   0.12437,   0.14182,  -0.01813,   0.03373,  -0.04468,  -0.01975,   0.03672,   0.00516,  -0.05190,  -0.10761,   0.03006,   0.07748,  -0.07399,   0.13255,  -0.05596,   0.11315,   0.09434,  -0.13582,   0.01176,   0.13241,   0.01256,  -0.06087,   0.01521,  -0.02527,  -0.01170,   0.04877,   0.07612,   0.05425,  -0.13730,  -0.09100,   0.02909,  -0.16183,  -0.04289,   0.04045,   0.06942
  -0.03171,  -0.07788,  -0.08960,   0.06071,   0.05404,  -0.11385,   0.03118,  -0.06764,  -0.07263,   0.02522,   0.01389,   0.02902,  -0.05731,  -0.06765,   0.08396,   0.06411,   0.03135,  -0.09256,  -0.06536,  -0.12550,  -0.09424,  -0.01465,  -0.10972,  -0.06746,  -0.11923,   0.01108,   0.01307,   0.12063,   0.15117,  -0.00497,  -0.13247,  -0.01593,   0.00991,   0.06080,  -0.07222,  -0.02238,  -0.07542,  -0.16199,   0.08671,  -0.13987,   0.10301,  -0.05951,  -0.03371,   0.04357,  -0.10591,   0.10710,   0.08781,   0.06154,   0.11279,  -0.02452,  -0.09661,  -0.05871,  -0.08447,  -0.06071,  -0.04998,   0.09605,   0.06495,  -0.15466,  -0.00184,  -0.08448,  -0.01971,  -0.02151,   0.04537,   0.08689,   0.06981,  -0.16027,  -0.08863,   0.02350,  -0.01695,  -0.01853,  -0.06404,  -0.01041,  -0.18386,  -0.07999,   0.08924,  -0.01255,  -0.09325,  -0.12864,  -0.09281,  -0.05042,  -0.06056,  -0.03396,  -0.08341,  -0.12007,  -0.00809,   0.00270,  -0.00784,  -0.01936,  -0.12654,   0.00200,  -0.14978,  -0.03426,  -0.03872,   0.00377,   0.13269,   0.00284,  -0.12563,   0.02467,   0.15231,   0.02300,   0.17512,  -0.06056,  -0.10171,   0.02381,   0.09824,  -0.09346,  -0.09367,  -0.05492,   0.01353,   0.00938,  -0.08417,   0.01382,   0.16105,  -0.01933,  -0.05744,  -0.01346,  -0.11726,  -0.08684,   0.01174,   0.08195,  -0.00941,  -0.09736,  -0.04076,  -0.14001,   0.07536,   0.07582,  -0.05945,   0.09623
  -0.04044,   0.01923,  -0.08237,   0.06649,  -0.08992,  -0.08623,   0.01133,  -0.06602,   0.01624,   0.01128,   0.02304,   0.09478,  -0.15131,  -0.00375,   0.02670,   0.09912,  -0.11486,   0.00670,  -0.04812,   0.05338,   0.13592,   0.00086,  -0.13381,  -0.08974,  -0.10695,  -0.02591,   0.03841,  -0.01387,   0.11154,  -0.02205,  -0.06355,  -0.11422,  -0.07443,   0.07268,  -0.02336,   0.06407,  -0.08097,   0.11982,   0.06850,   0.04133,   0.06416,   0.00183,   0.08010,  -0.00287,   0.04082,   0.00622,  -0.08717,  -0.05726,   0.08095,   0.03722,   0.10626,  -0.02423,  -0.06903,  -0.09425,   0.05771,  -0.08665,   0.06544,   0.01269,   0.00449,  -0.04250,  -0.01601,   0.12634,  -0.08856,   0.08121,   0.03473,  -0.05764,   0.15476,  -0.01498,   0.11866,  -0.09081,   0.00613,  -0.05287,  -0.09114,   0.02477,   0.01840,   0.10027,  -0.00281,   0.06296,   0.12029,  -0.06013,  -0.06814,  -0.06224,   0.07474,   0.03899,  -0.16386,   0.06069,   0.06590,   0.11897,  -0.03747,  -0.07705,   0.11868,  -0.09594,  -0.11100,   0.04120,  -0.02315,  -0.06060,  -0.06593,  -0.05677,   0.13443,   0.06557,   0.08788,  -0.01453,  -0.02157,  -0.07332,   0.15677,   0.04631,   0.08956,  -0.00092,  -0.10296,   0.03726,   0.13008,   0.06918,  -0.04434,   0.05579,  -0.02415,   0.12662,   0.09327,  -0.06128,   0.12907,  -0.04103,  -0.00528,  -0.05567,   0.06537,   0.08166,  -0.13099,   0.02521,  -0.01872,   0.09905
  -0.06548,  -0.05609,  -0.10287,  -0.04533,  -0.03033,  -0.08573,   0.07962,  -0.10668,  -0.01509,  -0.08217,   0.03899,  -0.04970,  -0.13579,  -0.10909,  -0.03738,   0.10969,   0.08602,  -0.04300,  -0.04357,  -0.04649,  -0.05124,   0.07762,  -0.04930,  -0.02200,   0.05343,  -0.05727,   0.04582,  -0.12353,  -0.11138,   0.06083,  -0.02849,   0.11421,  -0.09110,   0.10276,   0.12620,   0.04207,  -0.11310,  -0.06247,   0.04118,   0.03992,   0.10502,   0.13603,   0.14997,   0.10810,  -0.09445,   0.02568,  -0.02960,   0.10775,  -0.05980,  -0.03209,  -0.12805,   0.02467,  -0.05452,  -0.05408,   0.08404,   0.01800,   0.07844,  -0.09189,   0.14136,  -0.08239,  -0.11156,   0.01895,  -0.10563,   0.02543,   0.14856,  -0.12156,   0.09175,  -0.02938,   0.09668,   0.02170,   0.03715,  -0.00512,   0.08627,  -0.02930,   0.14138,   0.09718,   0.12895,   0.01260,   0.06086,   0.09231,  -0.10982,   0.08947,  -0.10911,   0.05596,   0.08316,  -0.08035,  -0.01151,   0.03044,   0.15661,   0.06154,  -0.06992,  -0.07629,   0.01743,   0.03866,   0.08683,  -0.10627,   0.01263,  -0.08954,  -0.06909,   0.07001,   0.06757,   0.12987,  -0.08053,   0.00011,  -0.02779,   0.00262,   0.04182,  -0.04258,  -0.04311,   0.05249,  -0.05987,   0.09509,  -0.15250,  -0.12523,   0.03453,   0.08729,  -0.08243,   0.11827,   0.04207,  -0.01474,  -0.14371,  -0.04953,   0.00121,  -0.09819,   0.02635,   0.05590,   0.09104,  -0.04908
   0.12199,  -0.03856,  -0.04195,  -0.00865,   0.09975,   0.04888,   0.00801,   0.00772,   0.07131,   0.05565,  -0.09549,  -0.06954,   0.05776,  -0.03498,   0.08468,   0.02838,  -0.00072,  -0.01127,   0.09133,   0.09089,   0.07777,  -0.07105,   0.09269,  -0.08722,  -0.10597,  -0.05681,   0.01712,  -0.05898,  -0.05238,  -0.05629,   0.12662,   0.06667,  -0.09703,   0.00495,   0.07924,  -0.03367,  -0.00143,   0.05002,   0.10673,  -0.07448,  -0.05652,  -0.17783,  -0.15228,  -0.05541,  -0.13524,   0.02955,  -0.06613,   0.03158,   0.04932,   0.01717,  -0.10251,  -0.04023,  -0.09493,   0.05624,   0.03771,  -0.10456,  -0.13022,   0.04578,  -0.13657,  -0.01125,   0.03243,  -0.10831,   0.10777,   0.09219,  -0.12893,  -0.05670,   0.16240,  -0.04595,   0.04517,  -0.11374,  -0.03958,  -0.11540,  -0.03776,   0.07447,  -0.07327,   0.06208,  -0.04250,  -0.05807,  -0.08962,  -0.07929,   0.02330,  -0.06423,   0.03863,  -0.07433,   0.13386,   0.10055,   0.10704,   0.05277,  -0.14028,   0.08785,  -0.07049,  -0.09302,  -0.04097,  -0.10054,  -0.03239,   0.02243,   0.01470,  -0.10945,  -0.14978,   0.09930,   0.06768,  -0.12044,  -0.05928,   0.09570,   0.08089,   0.09534,  -0.06909,  -0.12564,  -0.04493,  -0.05368,   0.01558,   0.06074,   0.10297,  -0.07911,  -0.00137,  -0.12788,  -0.06207,  -0.02593,  -0.12641,   0.01817,   0.10136,   0.00134,  -0.11151,  -0.01956,  -0.00723,  -0.09807,  -0.08434,  -0.12635
   0.03735,  -0.08846,  -0.01528,   0.02573,  -0.10457,   0.07670,   0.02692,   0.05552,   0.06602,  -0.02263,  -0.06444,   0.04280,   0.06454,   0.12879,  -0.09196,   0.08165,   0.00431,  -0.05573,  -0.05403,  -0.01009,   0.07154,   0.00743,   0.02098,  -0.08981,   0.09507,   0.01585,  -0.14224,  -0.09014,   0.00533,  -0.09852,   0.03751,  -0.01689,  -0.16158,   0.09465,  -0.03140,   0.06318,   0.03602,   0.04944,   0.14801,   0.00448,   0.07783,   0.04386,   0.06507,   0.06121,   0.10824,   0.08649,  -0.00779,  -0.07737,   0.08993,   0.12718,   0.13544,  -0.01453,   0.01083,  -0.05939,   0.03706,  -0.02174,  -0.09506,  -0.09822,   0.03451,   0.06932,   0.04822,   0.11839,  -0.11105,   0.04966,   0.07601,   0.07255,  -0.00480,  -0.07092,   0.00467,   0.01706,   0.05415,  -0.00112,  -0.14767,   0.03592,  -0.15105,   0.05155,  -0.14673,   0.05520,   0.00433,  -0.09351,   0.09554,   0.05512,  -0.01388,  -0.00434,  -0.00969,  -0.02524,  -0.05031,  -0.05492,  -0.10565,   0.04930,  -0.01753,   0.06291,   0.03939,   0.00193,   0.08473,  -0.07216,   0.05245,   0.01201,  -0.03901,   0.03880,  -0.09780,   0.04901,   0.03720,   0.00781,   0.09299,   0.00817,   0.04660,  -0.08225,  -0.00560,   0.08603,  -0.15507,   0.03524,  -0.01071,  -0.06240,   0.06931,  -0.00707,   0.10439,  -0.02546,   0.04611,   0.03504,   0.06389,  -0.06391,  -0.01427,  -0.05713,   0.01000,   0.03129,   0.05190,   0.05221
   0.10752,  -0.02671,  -0.09365,  -0.08944,   0.07290,   0.03652,  -0.06004,   0.08097,   0.07615,   0.05476,   0.03114,  -0.01012,  -0.04064,   0.11901,   0.04649,  -0.03379,  -0.07407,  -0.03975,   0.16000,   0.05692,   0.14168,   0.06297,  -0.00737,   0.00480,  -0.14175,  -0.03085,  -0.12025,  -0.07323,   0.10368,   0.03685,  -0.08496,   0.07989,  -0.00164,   0.00838,   0.12941,   0.01335,  -0.09732,  -0.07479,   0.03634,   0.10961,   0.15405,  -0.13236,  -0.11810,   0.08312,  -0.11422,  -0.07924,  -0.03070,   0.05770,   0.13947,  -0.09067,  -0.12891,  -0.05932,  -0.10800,   0.06753,  -0.07633,  -0.00841,  -0.12503,  -0.04548,  -0.12511,  -0.08529,  -0.15181,  -0.03518,  -0.06245,  -0.09067,   0.13516,  -0.01100,   0.04009,  -0.03179,  -0.13342,  -0.08578,  -0.04423,  -0.02323,   0.14947,   0.06054,   0.08628,   0.02217,   0.09215,   0.06331,  -0.07707,   0.03200,  -0.03818,  -0.11443,   0.07528,  -0.12249,  -0.06776,   0.04296,   0.07313,  -0.04820,   0.11290,   0.04647,   0.06699,  -0.10234,  -0.12373,  -0.10703,   0.12595,  -0.11565,   0.07781,   0.01179,  -0.12099,  -0.07033,   0.17225,   0.07023,   0.01776,  -0.04978,   0.16320,  -0.04976,  -0.07335,  -0.04134,  -0.12894,   0.01784,  -0.10099,   0.01839,  -0.06940,   0.06226,  -0.07417,   0.02629,  -0.07159,   0.08713,   0.04501,  -0.04865,  -0.09757,   0.02563,   0.03473,  -0.08556,  -0.10502,  -0.06115,   0.00016,   0.08116
   0.00418,  -0.06145,   0.11710,   0.08642,  -0.08552,  -0.02675,  -0.03709,  -0.05824,   0.02826,  -0.09676,   0.12072,   0.01624,   0.09855,   0.06677,   0.13741,  -0.05640,  -0.02350,  -0.08712,   0.11050,   0.00720,   0.08272,  -0.00569,   0.13768,   0.01181,  -0.07966,   0.04486,   0.06027,   0.03218,   0.00593,   0.11487,  -0.11407,  -0.05480,   0.04067,  -0.01571,  -0.00945,  -0.14458,  -0.09289,  -0.14854,  -0.07317,   0.13104,  -0.00777,   0.10624,   0.07641,  -0.00656,  -0.06006,  -0.06931,  -0.09139,   0.08912,  -0.08911,  -0.14024,   0.06623,   0.03926,  -0.06780,   0.03301,  -0.00122,  -0.04763,   0.04161,   0.08232,   0.03606,  -0.10107,   0.03644,  -0.14308,   0.11073,   0.00712,   0.04838,  -0.03733,  -0.07497,   0.05635,  -0.11975,   0.05759,  -0.04223,  -0.13389,  -0.09011,   0.00697,  -0.01083,   0.08597,  -0.05539,   0.11181,   0.05357,  -0.03278,   0.13467,   0.04546,  -0.14302,   0.02364,  -0.03814,  -0.00803,   0.06715,   0.07683,   0.06631,   0.10237,   0.08832,  -0.03965,  -0.00404,   0.05204,  -0.08770,   0.00783,   0.01673,   0.09189,   0.03503,  -0.00612,  -0.11460,   0.09097,  -0.15182,   0.06003,  -0.01707,   0.07706,   0.04529,   0.04618,  -0.02611,  -0.14427,   0.18641,  -0.02465,   0.02803,  -0.09003,   0.05261,   0.09498,  -0.10835,   0.08767,  -0.08850,  -0.05246,   0.09186,   0.02685,   0.02462,  -0.11095,  -0.04779,   0.14308,  -0.06528,   0.12280
   0.11485,  -0.09085,  -0.06039,   0.11141,   0.10759,  -0.03209,   0.10294,  -0.06281,  -0.04105,  -0.00502,   0.09570,  -0.11685,   0.02433,  -0.08467,  -0.09329,  -0.03683,   0.03715,  -0.00831,  -0.09425,  -0.10507,  -0.11924,  -0.01429,   0.15653,   0.04090,  -0.04791,   0.01135,  -0.14168,  -0.11473,  -0.13931,  -0.10081,  -0.04035,  -0.06875,  -0.07132,   0.01525,   0.02970,  -0.05746,   0.00203,   0.05394,   0.05654,  -0.11780,   0.03241,  -0.05097,   0.04192,  -0.04266,   0.10608,   0.01062,  -0.01993,  -0.00666,   0.11966,   0.05572,  -0.07269,   0.08292,   0.11682,   0.04997,   0.14238,   0.06988,  -0.14994,  -0.01284,   0.01572,  -0.01930,  -0.13715,  -0.03664,  -0.13350,  -0.09381,  -0.04000,  -0.05515,  -0.02171,  -0.04438,  -0.04580,  -0.01577,   0.05847,   0.06297,   0.14570,   0.13958,   0.12628,   0.11809,   0.14205,   0.06991,  -0.13780,  -0.01464,  -0.00345,   0.09790,   0.06337,   0.06860,   0.12068,   0.00949,   0.11997,   0.14169,   0.06754,  -0.06695,  -0.17057,  -0.01359,   0.03170,   0.09966,  -0.01957,  -0.08190,   0.16195,   0.04346,  -0.13437,   0.10325,  -0.10998,   0.11899,   0.03437,   0.10789,   0.03604,  -0.01112,   0.10408,  -0.01962,  -0.14331,   0.08849,   0.00417,  -0.02807,  -0.06063,   0.08306,   0.13867,  -0.04231,  -0.00783,   0.01258,   0.09271,  -0.11433,  -0.11969,  -0.02812,  -0.08606,  -0.01862,   0.02303,   0.03155,   0.03053,  -0.10062
  -0.03788,   0.08486,   0.09160,   0.08714,   0.06375,  -0.03452,   0.05783,   0.10263,   0.06839,  -0.02510,  -0.02921,  -0.03897,   0.13676,   0.01122,  -0.02042,   0.06668,   0.08615,  -0.05591,  -0.01208,  -0.03903,   0.12230,   0.06380,   0.02350,  -0.09305,  -0.03255,  -0.14190,  -0.02978,  -0.03297,  -0.02393,  -0.07667,  -0.11853,   0.08062,  -0.09080,   0.10522,   0.04250,  -0.06330,  -0.09543,  -0.09776,   0.16574,  -0.06473,  -0.10574,   0.10713,   0.02634,  -0.10358,   0.05965,   0.10126,   0.10967,  -0.02306,   0.13583,   0.09081,   0.10273,  -0.01739,  -0.00742,   0.10075,   0.07976,   0.05594,   0.09449,   0.04118,  -0.10058,  -0.00231,   0.04447,   0.03689,   0.02499,   0.06055,  -0.06365,  -0.11362,  -0.13539,  -0.02858,   0.06940,   0.07781,  -0.02789,  -0.11124,  -0.06765,   0.13968,  -0.07144,   0.00432,   0.17083,   0.04607,  -0.11848,  -0.07501,  -0.12252,   0.12722,  -0.01809,   0.11422,  -0.05224,   0.07286,  -0.14253,   0.02634,  -0.02216,   0.07819,   0.08707,   0.03316,   0.02261,   0.03978,  -0.11288,  -0.02262,  -0.02854,  -0.02862,  -0.11277,   0.00917,   0.03091,   0.03467,   0.13154,   0.05466,   0.08217,   0.02684,  -0.06522,  -0.12414,  -0.08634,  -0.01101,  -0.08610,  -0.12090,  -0.02737,   0.08236,  -0.03346,   0.08260,   0.00612,  -0.07777,  -0.13652,  -0.03196,  -0.04601,   0.05406,   0.10927,   0.04579,   0.10718,  -0.01002,   0.12103,  -0.09510
   0.11911,  -0.09070,  -0.01891,   0.02095,  -0.05055,   0.01759,  -0.00067,  -0.04799,   0.07982,  -0.07756,   0.09869,  -0.02249,   0.01732,  -0.11057,   0.00658,  -0.10163,   0.03680,   0.04246,  -0.05508,   0.06456,  -0.00006,  -0.06579,   0.05115,  -0.11484,   0.06068,  -0.05223,  -0.00588,   0.05691,   0.06260,  -0.04376,   0.07013,  -0.05045,  -0.16547,  -0.07559,   0.07514,   0.10456,   0.05584,  -0.03930,  -0.10195,  -0.10886,   0.05742,  -0.05304,  -0.03498,  -0.02271,  -0.12161,   0.12155,   0.14656,  -0.07932,   0.08668,   0.02934,  -0.11746,   0.01247,  -0.01126,  -0.05873,   0.12346,  -0.07952,  -0.01155,  -0.09297,  -0.04944,   0.06118,  -0.00074,   0.09092,   0.13131,  -0.03995,   0.12345,   0.12967,  -0.07100,  -0.02888,   0.00941,  -0.09082,  -0.01358,  -0.07881,  -0.12448,   0.08043,   0.06891,  -0.04874,   0.11677,  -0.05297,   0.03190,   0.11330,   0.06717,   0.06295,   0.08424,  -0.03174,   0.04879,   0.04052,  -0.10463,  -0.06089,   0.11851,  -0.00007,  -0.13710,   0.06767,   0.02192,   0.01000,  -0.12427,  -0.00791,   0.03136,   0.03051,   0.08407,   0.06510,  -0.10586,   0.12807,  -0.07816,   0.09192,  -0.13426,  -0.03213,   0.10327,   0.02168,   0.05908,   0.08883,  -0.05571,  -0.01521,  -0.09602,  -0.05873,  -0.00391,   0.05890,   0.00317,   0.06304,  -0.07337,  -0.03457,  -0.06831,   0.08933,   0.05874,   0.09651,   0.03805,  -0.12045,   0.10141,  -0.03430
